{"learner":{"attributes":{"scikit_learn":"{\"_estimator_type\": \"regressor\"}"},"feature_names":[],"feature_types":[],"gradient_booster":{"model":{"gbtree_model_param":{"num_parallel_tree":"1","num_trees":"200"},"iteration_indptr":[0,2,4,6,8,10,12,14,16,18,20,22,24,26,28,30,32,34,36,38,40,42,44,46,48,50,52,54,56,58,60,62,64,66,68,70,72,74,76,78,80,82,84,86,88,90,92,94,96,98,100,102,104,106,108,110,112,114,116,118,120,122,124,126,128,130,132,134,136,138,140,142,144,146,148,150,152,154,156,158,160,162,164,166,168,170,172,174,176,178,180,182,184,186,188,190,192,194,196,198,200],"tree_info":[0,1,0,1,0,1,0,1,0,1,0,1,0,1,0,1,0,1,0,1,0,1,0,1,0,1,0,1,0,1,0,1,0,1,0,1,0,1,0,1,0,1,0,1,0,1,0,1,0,1,0,1,0,1,0,1,0,1,0,1,0,1,0,1,0,1,0,1,0,1,0,1,0,1,0,1,0,1,0,1,0,1,0,1,0,1,0,1,0,1,0,1,0,1,0,1,0,1,0,1,0,1,0,1,0,1,0,1,0,1,0,1,0,1,0,1,0,1,0,1,0,1,0,1,0,1,0,1,0,1,0,1,0,1,0,1,0,1,0,1,0,1,0,1,0,1,0,1,0,1,0,1,0,1,0,1,0,1,0,1,0,1,0,1,0,1,0,1,0,1,0,1,0,1,0,1,0,1,0,1,0,1,0,1,0,1,0,1,0,1,0,1,0,1,0,1,0,1,0,1],"trees":[{"base_weights":[1.0275916E0,9.570219E-1,1.3165758E0,9.472159E-1,1.0860536E0,1.2087338E0,4.2883387E-1,9.7434664E-1,8.599273E-1,3.8973662E-1,2.9762363E-1,4.0409258E-1,3.4781393E-1,9.54319E-1,1.3369834E0,7.755572E-1,9.44924E-1,9.662842E-1,7.460549E-1,1.1851809E-1,4.0472627E-1,2.117567E-1,8.1647E-1,1.148003E0,2.6001984E-1,2.8574678E-1,3.6675248E-1,2.0254137E-1,2.635705E-1,2.8977853E-1,2.2838531E-1,2.1753816E-1,3.5433885E-1],"categories":[],"categories_nodes":[],"categories_segments":[],"categories_sizes":[],"default_left":[0,0,0,0,0,0,0,0,0,0,0,0,0,0,0,0,0,0,0,0,0,0,0,0,0,0,0,0,0,0,0,0,0],"id":0,"left_children":[1,3,5,7,9,11,-1,13,15,-1,-1,-1,-1,17,19,21,23,25,27,-1,-1,-1,29,31,-1,-1,-1,-1,-1,-1,-1,-1,-1],"loss_changes":[8.588135E1,3.321289E0,8.448242E0,6.7475586E0,3.4366455E0,1.3994751E0,0E0,1.641626E1,4.774597E0,0E0,0E0,0E0,0E0,5.040283E0,8.921356E-1,5.3868103E-1,5.007263E0,6.5516357E0,6.285095E-1,0E0,0E0,0E0,1.2441711E0,5.7237244E-1,0E0,0E0,0E0,0E0,0E0,0E0,0E0,0E0,0E0],"parents":[2147483647,0,0,1,1,2,2,3,3,4,4,5,5,7,7,8,8,13,13,14,14,15,15,16,16,17,17,18,18,22,22,23,23],"right_children":[2,4,6,8,10,12,-1,14,16,-1,-1,-1,-1,18,20,22,24,26,28,-1,-1,-1,30,32,-1,-1,-1,-1,-1,-1,-1,-1,-1],"split_conditions":[2.8773498E-5,3.8125516E-5,5.4155953E-5,2.5983113E-7,6.216682E-6,2.0354964E-6,4.2883387E-1,5.2707223E-6,2.032759E-5,3.8973662E-1,2.9762363E-1,4.0409258E-1,3.4781393E-1,2.4042043E-7,5.1478005E-6,1.5924048E-5,2.5222203E-6,1.6465542E-6,5.096447E-6,1.1851809E-1,4.0472627E-1,2.117567E-1,1.3173083E-6,1.7875702E-5,2.6001984E-1,2.8574678E-1,3.6675248E-1,2.0254137E-1,2.635705E-1,2.8977853E-1,2.2838531E-1,2.1753816E-1,3.5433885E-1],"split_indices":[57,603,37,1,4,1,0,101,369,0,0,0,0,2,145,400,3,35,115,0,0,0,3,348,0,0,0,0,0,0,0,0,0],"split_type":[0,0,0,0,0,0,0,0,0,0,0,0,0,0,0,0,0,0,0,0,0,0,0,0,0,0,0,0,0,0,0,0,0],"sum_hessian":[4.272E3,3.437E3,8.35E2,3.202E3,2.35E2,4.33E2,4.02E2,2.435E3,7.67E2,6.8E1,1.67E2,1.07E2,3.26E2,2.311E3,1.24E2,3.9E2,3.77E2,2.182E3,1.29E2,2E0,1.22E2,1.51E2,2.39E2,1.01E2,2.76E2,2.075E3,1.07E2,8.8E1,4.1E1,6E1,1.79E2,9E0,9.2E1],"tree_param":{"num_deleted":"0","num_feature":"1382","num_nodes":"33","size_leaf_vector":"1"}},{"base_weights":[-1.0275915E0,1.14727296E-1,-2.3198078E0,4.7194555E-1,-7.457724E-1,-1.8872478E0,-2.7640417E0,5.17903E-1,-8.076972E-1,1.1693147E-1,-8.687936E-1,-1.5909053E0,-2.0761752E0,-2.557699E0,-2.9111307E0,5.6533664E-1,6.506591E-2,1.3188332E-1,-1.4665529E0,4.2602435E-1,-4.5363653E-1,2.6177624E-1,-8.970709E-1,-1.8842149E0,-1.2382616E0,-2.3244138E0,-1.6928992E0,-8.274917E-1,-2.38572E0,-8.878084E-1,-2.6058433E0,5.91706E-1,3.108578E-2,4.717505E-1,-3.8263077E-1,6.7614925E-1,-3.8066086E-1,-7.6436245E-1,-2.2582238E0,7.1712804E-1,-1.19263485E-1,-2.4525733E-1,-5.240361E-1,2.8440437E-1,-1.7614435E-1,-1.7215217E0,-8.5601795E-1,-1.3826001E0,-2.1670368E0,-3.1379643E-1,-1.3627276E0,-2.185777E0,-2.7616572E0,-1.5348171E0,-5.7646E-1,-6.292882E-1,-7.497103E-1,-5.725522E-1,-8.728749E-1,1.8480793E-1,7.914389E-2,-2.5309232E-1,7.7187344E-2,7.940956E-2,2.700338E-1,-7.116772E-3,-2.7048326E-1,2.5003132E-1,4.5963913E-2,-6.215522E-2,-3.693574E-1,-8.594945E-2,-5.2559566E-1,-9.3573965E-3,-7.245209E-1,-1.05595656E-1,2.70276E-1,1.5440436E-1,-1.0946714E-1,-2.1663733E-2,-1.2023517E-1,4.5028176E-2,-1.2559566E-1,-6.743418E-1,-1.4330204E-1,-6.150048E-2,-2.6452988E-1,-4.9209097E-1,-3.6220104E-1,-7.4806523E-1,-5.2317965E-1,-5.4023516E-1,-3.8539484E-1,-7.290183E-1,-5.470588E-1,-8.416573E-1,-4.4697183E-1,-3.2946715E-1,-4.714249E-1],"categories":[],"categories_nodes":[],"categories_segments":[],"categories_sizes":[],"default_left":[0,0,0,0,0,0,0,0,0,0,0,0,0,0,0,0,0,0,0,0,0,0,0,0,0,0,0,0,0,0,0,0,0,0,0,0,0,0,0,0,0,0,0,0,0,0,0,0,0,0,0,0,0,0,0,0,0,0,0,0,0,0,0,0,0,0,0,0,0,0,0,0,0,0,0,0,0,0,0,0,0,0,0,0,0,0,0,0,0,0,0,0,0,0,0,0,0,0,0],"id":1,"left_children":[1,3,5,7,9,11,13,15,17,19,21,23,25,27,29,31,33,35,37,39,41,43,45,47,49,51,53,-1,55,-1,57,59,61,63,65,67,69,71,73,75,77,79,-1,-1,81,83,85,87,89,-1,91,93,95,97,-1,-1,-1,-1,-1,-1,-1,-1,-1,-1,-1,-1,-1,-1,-1,-1,-1,-1,-1,-1,-1,-1,-1,-1,-1,-1,-1,-1,-1,-1,-1,-1,-1,-1,-1,-1,-1,-1,-1,-1,-1,-1,-1,-1,-1],"loss_changes":[6.3077393E3,6.978113E2,3.8006055E2,9.474811E1,7.078473E1,5.3747803E1,2.2510254E1,3.323529E1,3.4860096E1,1.5007374E1,1.8872986E1,3.91438E1,5.495923E1,7.875E0,6.665039E-1,1.9732758E1,2.7127064E1,6.952432E0,1.6618713E1,8.815969E0,7.6555576E0,4.674755E0,1.778479E1,2.7789062E1,3.0019531E0,1.6574097E1,5.9781494E0,0E0,2.36438E0,0E0,1.2662598E1,1.0491394E1,1.3474208E1,6.6798134E0,1.3203509E1,8.5932827E-1,1.6630317E0,8.465107E0,5.164177E0,7.390913E0,3.3020804E0,6.9771147E-1,0E0,0E0,8.539904E-1,1.594635E1,8.938049E0,1.6780396E0,1.4577942E1,0E0,1.4147186E0,2.1054077E1,6.1779785E-1,6.8704224E-1,0E0,0E0,0E0,0E0,0E0,0E0,0E0,0E0,0E0,0E0,0E0,0E0,0E0,0E0,0E0,0E0,0E0,0E0,0E0,0E0,0E0,0E0,0E0,0E0,0E0,0E0,0E0,0E0,0E0,0E0,0E0,0E0,0E0,0E0,0E0,0E0,0E0,0E0,0E0,0E0,0E0,0E0,0E0,0E0,0E0],"parents":[2147483647,0,0,1,1,2,2,3,3,4,4,5,5,6,6,7,7,8,8,9,9,10,10,11,11,12,12,13,13,14,14,15,15,16,16,17,17,18,18,19,19,20,20,21,21,22,22,23,23,24,24,25,25,26,26,28,28,30,30,31,31,32,32,33,33,34,34,35,35,36,36,37,37,38,38,39,39,40,40,41,41,44,44,45,45,46,46,47,47,48,48,50,50,51,51,52,52,53,53],"right_children":[2,4,6,8,10,12,14,16,18,20,22,24,26,28,30,32,34,36,38,40,42,44,46,48,50,52,54,-1,56,-1,58,60,62,64,66,68,70,72,74,76,78,80,-1,-1,82,84,86,88,90,-1,92,94,96,98,-1,-1,-1,-1,-1,-1,-1,-1,-1,-1,-1,-1,-1,-1,-1,-1,-1,-1,-1,-1,-1,-1,-1,-1,-1,-1,-1,-1,-1,-1,-1,-1,-1,-1,-1,-1,-1,-1,-1,-1,-1,-1,-1,-1,-1],"split_conditions":[2.770143E-7,1.5040987E-7,1.7501208E-6,1.1959901E-7,1.0009121E-7,9.755222E-7,4.683121E-6,3.3612204E-7,3.4188747E-7,2.8150745E-7,2.2430008E-7,1.2177254E-5,2.3507197E-5,4.8428996E-5,2.4944558E-5,7.753775E-8,2.0482005E-7,9.913829E-7,6.6750954E-6,2.4872961E-5,1.790967E-5,1.9870544E-5,2.0921009E-6,1.7766098E-6,3.0645037E-7,9.197731E-6,2.630144E-6,-8.274917E-1,1.0428118E-5,-8.878084E-1,1.485056E-4,3.7688352E-8,3.0523108E-5,3.8800394E-5,3.2876604E-5,5.9983796E-7,3.3573642E-7,1.9234996E-5,2.8350255E-8,3.8188686E-5,3.3316726E-5,6.538242E-6,-5.240361E-1,2.8440437E-1,2.578772E-7,3.133808E-5,6.746537E-8,3.4599256E-5,4.9319383E-6,-3.1379643E-1,1.2133274E-5,1.9671746E-5,3.8158512E-5,5.1032845E-7,-5.7646E-1,-6.292882E-1,-7.497103E-1,-5.725522E-1,-8.728749E-1,1.8480793E-1,7.914389E-2,-2.5309232E-1,7.7187344E-2,7.940956E-2,2.700338E-1,-7.116772E-3,-2.7048326E-1,2.5003132E-1,4.5963913E-2,-6.215522E-2,-3.693574E-1,-8.594945E-2,-5.2559566E-1,-9.3573965E-3,-7.245209E-1,-1.05595656E-1,2.70276E-1,1.5440436E-1,-1.0946714E-1,-2.1663733E-2,-1.2023517E-1,4.5028176E-2,-1.2559566E-1,-6.743418E-1,-1.4330204E-1,-6.150048E-2,-2.6452988E-1,-4.9209097E-1,-3.6220104E-1,-7.4806523E-1,-5.2317965E-1,-5.4023516E-1,-3.8539484E-1,-7.290183E-1,-5.470588E-1,-8.416573E-1,-4.4697183E-1,-3.2946715E-1,-4.714249E-1],"split_indices":[2,4,1,3,3,2,2,9,10,8,7,274,238,822,4,2,6,30,207,736,504,594,73,17,1,13,2,0,4,0,640,1,1039,1174,986,18,10,588,1,1341,1107,196,0,0,8,910,2,1091,88,0,276,373,630,1,0,0,0,0,0,0,0,0,0,0,0,0,0,0,0,0,0,0,0,0,0,0,0,0,0,0,0,0,0,0,0,0,0,0,0,0,0,0,0,0,0,0,0,0,0],"split_type":[0,0,0,0,0,0,0,0,0,0,0,0,0,0,0,0,0,0,0,0,0,0,0,0,0,0,0,0,0,0,0,0,0,0,0,0,0,0,0,0,0,0,0,0,0,0,0,0,0,0,0,0,0,0,0,0,0,0,0,0,0,0,0,0,0,0,0,0,0,0,0,0,0,0,0,0,0,0,0,0,0,0,0,0,0,0,0,0,0,0,0,0,0,0,0,0,0,0,0],"sum_hessian":[4.272E3,2.268E3,2.004E3,1.603E3,6.65E2,1.018E3,9.86E2,1.548E3,5.5E1,8.3E1,5.82E2,4E2,6.18E2,4.18E2,5.68E2,1.401E3,1.47E2,2.3E1,3.2E1,5.4E1,2.9E1,1.4E1,5.68E2,2.16E2,1.84E2,3.72E2,2.46E2,1.86E2,2.32E2,4.83E2,8.5E1,1.335E3,6.6E1,7.7E1,7E1,1.1E1,1.2E1,1.8E1,1.4E1,3.5E1,1.9E1,2.6E1,3E0,5E0,9E0,2.5E1,5.43E2,8E1,1.36E2,7.6E1,1.08E2,2.87E2,8.5E1,1.5E2,9.6E1,7.1E1,1.61E2,2.8E1,5.7E1,1.242E3,9.3E1,1.3E1,5.3E1,5.3E1,2.4E1,4.2E1,2.8E1,8E0,3E0,1.1E1,1E0,1.3E1,5E0,1E0,1.3E1,5E0,3E1,5E0,1.4E1,1.3E1,1.3E1,4E0,5E0,1.7E1,8E0,2.1E1,5.22E2,2.9E1,5.1E1,7.4E1,6.2E1,1.3E1,9.5E1,1.68E2,1.19E2,8.1E1,4E0,1.4E1,1.36E2],"tree_param":{"num_deleted":"0","num_feature":"1382","num_nodes":"99","size_leaf_vector":"1"}},{"base_weights":[7.20501E-1,6.7484385E-1,9.448689E-1,6.6265476E-1,7.687676E-1,8.8220465E-1,3.0845952E-1,6.82329E-1,5.905059E-1,2.9428992E-1,7.194971E-1,2.8477517E-1,2.4929628E-1,6.6825235E-1,9.501953E-1,4.9721703E-1,6.380168E-1,2.375397E-1,6.9474614E-1,6.821372E-1,5.591656E-1,5.8506463E-2,2.86459E-1,1.275155E-1,5.234672E-1,8.384524E-1,5.9878474E-1,1.9099386E-1,2.1923535E-1,1.9981046E-1,2.9189354E-1,1.5402535E-1,2.0156232E-1,1.8257402E-1,1.4621417E-1,1.1344703E-1,2.580866E-1,1.6544765E-1,1.8924546E-1],"categories":[],"categories_nodes":[],"categories_segments":[],"categories_sizes":[],"default_left":[0,0,0,0,0,0,0,0,0,0,0,0,0,0,0,0,0,0,0,0,0,0,0,0,0,0,0,0,0,0,0,0,0,0,0,0,0,0,0],"id":2,"left_children":[1,3,5,7,9,11,-1,13,15,-1,17,-1,-1,19,21,23,25,-1,27,29,31,-1,-1,-1,33,35,37,-1,-1,-1,-1,-1,-1,-1,-1,-1,-1,-1,-1],"loss_changes":[4.313501E1,3.5593262E0,2.852539E0,4.072632E0,3.4971619E0,6.465759E-1,0E0,8.682373E0,2.7099915E0,0E0,4.043579E-2,0E0,0E0,3.1794434E0,2.403183E-1,2.226677E-1,3.028656E0,0E0,6.6581726E-2,9.097778E0,1.0523682E0,0E0,0E0,0E0,2.1939087E-1,3.8830566E-1,2.2627258E-1,0E0,0E0,0E0,0E0,0E0,0E0,0E0,0E0,0E0,0E0,0E0,0E0],"parents":[2147483647,0,0,1,1,2,2,3,3,4,4,5,5,7,7,8,8,10,10,13,13,14,14,15,15,16,16,18,18,19,19,20,20,24,24,25,25,26,26],"right_children":[2,4,6,8,10,12,-1,14,16,-1,18,-1,-1,20,22,24,26,-1,28,30,32,-1,-1,-1,34,36,38,-1,-1,-1,-1,-1,-1,-1,-1,-1,-1,-1,-1],"split_conditions":[2.4275249E-5,1.7049451E-5,5.110629E-5,5.426615E-7,1.3023807E-6,2.4917044E-6,3.0845952E-1,3.9120437E-6,1.7380979E-5,2.9428992E-1,8.425104E-6,2.8477517E-1,2.4929628E-1,7.5925726E-8,1.8001859E-6,1.1510388E-5,6.048249E-7,2.375397E-1,3.8634153E-5,1.0742463E-6,5.438553E-6,5.8506463E-2,2.86459E-1,1.275155E-1,3.3885665E-6,1.0193012E-5,2.0808657E-5,1.9099386E-1,2.1923535E-1,1.9981046E-1,2.9189354E-1,1.5402535E-1,2.0156232E-1,1.8257402E-1,1.4621417E-1,1.1344703E-1,2.580866E-1,1.6544765E-1,1.8924546E-1],"split_indices":[21,55,21,2,1,1,0,59,367,0,4,0,0,1,31,276,1,0,280,25,119,0,0,0,13,224,306,0,0,0,0,0,0,0,0,0,0,0,0],"split_type":[0,0,0,0,0,0,0,0,0,0,0,0,0,0,0,0,0,0,0,0,0,0,0,0,0,0,0,0,0,0,0,0,0,0,0,0,0,0,0],"sum_hessian":[4.272E3,3.553E3,7.19E2,3.152E3,4.01E2,4.17E2,3.02E2,2.47E3,6.82E2,7.2E1,3.29E2,1.73E2,2.44E2,2.35E3,1.2E2,2.34E2,4.48E2,7.6E1,2.53E2,2.08E3,2.7E2,1E0,1.19E2,6.7E1,1.67E2,7E1,3.78E2,1.04E2,1.49E2,1.974E3,1.06E2,1.96E2,7.4E1,4.5E1,1.22E2,4E0,6.6E1,1.6E2,2.18E2],"tree_param":{"num_deleted":"0","num_feature":"1382","num_nodes":"39","size_leaf_vector":"1"}},{"base_weights":[-7.227224E-1,9.9162415E-2,-1.6098464E0,3.377064E-1,-4.9904996E-1,-1.322656E0,-1.9627142E0,3.908892E-1,-1.7064753E-1,5.22152E-2,-6.1637306E-1,-1.0673661E0,-1.4692326E0,-1.8443843E0,-2.087058E0,4.2229402E-1,7.1901634E-2,1.3710742E-1,-6.664806E-1,4.2754373E-1,-2.1585535E-1,-1.0851582E0,-5.554362E-1,-1.2438034E0,-8.294688E-1,-1.6684746E0,-1.2098559E0,-2.0015113E0,-1.7317466E0,-6.421382E-1,-1.834615E0,5.0722015E-1,3.3447927E-1,2.773394E-1,-4.1456443E-1,3.6412632E-1,-2.9356772E-1,-1.2687442E0,-2.040373E-1,5.811961E-1,-1.2815465E-1,-4.8417675E-1,1.655872E-1,-1.7266357E0,-7.119227E-1,-1.4504919E0,-5.243667E-1,-9.3284637E-1,-1.6222324E0,-7.0839435E-1,-9.388952E-1,-1.5350428E0,-1.9643166E0,-1.0040184E0,-1.3464817E0,-3.3909154E-1,-2.028079E0,-1.5246054E0,-5.8330536E-1,-1.313715E0,-6.214817E-1,8.515354E-2,1.7193268E-1,1.0364475E-1,-2.6903307E-1,2.2789513E-1,3.1667892E-2,-5.1675733E-2,-3.047098E-1,-1.807088E-2,1.5025285E-1,-4.3005392E-1,-3.953683E-2,-1.6251367E-1,-5.694542E-1,-3.6514014E-1,-2.002E-2,3.9403483E-2,2.2288291E-1,-1.2641661E-1,5.5931553E-2,-3.518584E-1,-8.906254E-2,1.7063206E-1,-3.8626596E-2,-7.159194E-1,-2.2867726E-1,-4.3508062E-1,-1.423797E-1,-7.0022416E-1,-1.8062718E-1,-9.545106E-3,-1.7091563E-1,-3.6618212E-1,-2.5545472E-1,-5.614279E-1,-3.544574E-1,-2.1376278E-1,-5.088045E-2,-3.4381694E-1,-2.546777E-1,-5.32871E-1,-3.5778576E-1,-6.0035795E-1,-3.217815E-1,-2.7997586E-1,-3.4886152E-1,-3.9454943E-1,-5.3078276E-1,-3.4872273E-1,-6.1364233E-1,-4.2482048E-1,-5.0740117E-1,-1.1618615E-1,-3.9989102E-1],"categories":[],"categories_nodes":[],"categories_segments":[],"categories_sizes":[],"default_left":[0,0,0,0,0,0,0,0,0,0,0,0,0,0,0,0,0,0,0,0,0,0,0,0,0,0,0,0,0,0,0,0,0,0,0,0,0,0,0,0,0,0,0,0,0,0,0,0,0,0,0,0,0,0,0,0,0,0,0,0,0,0,0,0,0,0,0,0,0,0,0,0,0,0,0,0,0,0,0,0,0,0,0,0,0,0,0,0,0,0,0,0,0,0,0,0,0,0,0,0,0,0,0,0,0,0,0,0,0,0,0,0,0,0,0],"id":3,"left_children":[1,3,5,7,9,11,13,15,17,19,21,23,25,27,29,31,33,35,37,39,41,43,45,47,49,51,53,55,57,-1,59,61,63,65,67,69,71,73,75,77,79,81,83,85,87,89,91,93,95,97,99,101,103,105,107,-1,109,111,-1,113,-1,-1,-1,-1,-1,-1,-1,-1,-1,-1,-1,-1,-1,-1,-1,-1,-1,-1,-1,-1,-1,-1,-1,-1,-1,-1,-1,-1,-1,-1,-1,-1,-1,-1,-1,-1,-1,-1,-1,-1,-1,-1,-1,-1,-1,-1,-1,-1,-1,-1,-1,-1,-1,-1,-1],"loss_changes":[3.1156626E3,3.168197E2,2.056582E2,4.2972366E1,4.0972183E1,4.0940308E1,9.687256E0,1.4365128E1,2.3133236E1,1.1361114E1,1.4308853E1,1.6513397E1,3.5138428E1,5.029175E0,2.0183105E0,9.585098E0,1.310698E1,9.297408E0,1.5894871E1,4.087549E0,6.835222E0,1.2896675E1,1.2142761E1,2.6493408E1,1.7329025E0,1.2932495E1,7.5348816E0,2.197998E0,9.674866E0,0E0,7.6481934E0,9.595306E0,9.061691E0,7.542129E0,5.5058684E0,3.6272469E0,5.896885E0,1.0412243E1,4.6482496E0,2.594614E0,1.0933068E0,4.6824837E0,3.3961291E0,1.1542419E1,6.1455593E0,9.839241E0,1.0034042E1,2.0733337E0,9.429962E0,8.030319E-2,7.417984E-1,2.125476E1,1.8652344E0,3.7612915E-1,1.491394E-1,0E0,4.3823242E-1,3.194275E-1,0E0,1.0719299E-3,0E0,0E0,0E0,0E0,0E0,0E0,0E0,0E0,0E0,0E0,0E0,0E0,0E0,0E0,0E0,0E0,0E0,0E0,0E0,0E0,0E0,0E0,0E0,0E0,0E0,0E0,0E0,0E0,0E0,0E0,0E0,0E0,0E0,0E0,0E0,0E0,0E0,0E0,0E0,0E0,0E0,0E0,0E0,0E0,0E0,0E0,0E0,0E0,0E0,0E0,0E0,0E0,0E0,0E0,0E0],"parents":[2147483647,0,0,1,1,2,2,3,3,4,4,5,5,6,6,7,7,8,8,9,9,10,10,11,11,12,12,13,13,14,14,15,15,16,16,17,17,18,18,19,19,20,20,21,21,22,22,23,23,24,24,25,25,26,26,27,27,28,28,30,30,31,31,32,32,33,33,34,34,35,35,36,36,37,37,38,38,39,39,40,40,41,41,42,42,43,43,44,44,45,45,46,46,47,47,48,48,49,49,50,50,51,51,52,52,53,53,54,54,56,56,57,57,59,59],"right_children":[2,4,6,8,10,12,14,16,18,20,22,24,26,28,30,32,34,36,38,40,42,44,46,48,50,52,54,56,58,-1,60,62,64,66,68,70,72,74,76,78,80,82,84,86,88,90,92,94,96,98,100,102,104,106,108,-1,110,112,-1,114,-1,-1,-1,-1,-1,-1,-1,-1,-1,-1,-1,-1,-1,-1,-1,-1,-1,-1,-1,-1,-1,-1,-1,-1,-1,-1,-1,-1,-1,-1,-1,-1,-1,-1,-1,-1,-1,-1,-1,-1,-1,-1,-1,-1,-1,-1,-1,-1,-1,-1,-1,-1,-1,-1,-1],"split_conditions":[1.28212E-7,1.1143875E-7,1.8730344E-6,1.5040987E-7,3.1742627E-7,1.3866858E-6,7.878965E-6,1.8684179E-7,5.1874446E-7,1.9715992E-7,3.822152E-6,6.608239E-6,2.3507197E-5,3.9737082E-5,6.957285E-6,2.578772E-7,2.1101053E-7,2.7939043E-7,2.185569E-5,1.97778E-5,2.9543398E-5,6.4867895E-6,6.883876E-6,1.7810602E-6,3.3513078E-7,7.922545E-6,1.2172712E-6,9.426579E-6,2.6686928E-6,-6.421382E-1,1.4288304E-4,1.4101423E-5,4.7327096E-5,2.5363632E-5,2.8604087E-5,3.420497E-5,1.8363353E-5,2.2788234E-5,1.9610647E-5,3.7102294E-5,4.1532426E-6,2.8171049E-5,1.8683157E-5,3.5007073E-5,1.708687E-5,1.3495122E-6,5.7362826E-7,8.422417E-6,4.1689395E-6,4.1190706E-5,1.2279478E-5,1.6645907E-5,2.446624E-5,4.8246453E-5,1.2132746E-4,-3.3909154E-1,3.7714412E-6,6.367765E-5,-5.8330536E-1,2.4944558E-5,-6.214817E-1,8.515354E-2,1.7193268E-1,1.0364475E-1,-2.6903307E-1,2.2789513E-1,3.1667892E-2,-5.1675733E-2,-3.047098E-1,-1.807088E-2,1.5025285E-1,-4.3005392E-1,-3.953683E-2,-1.6251367E-1,-5.694542E-1,-3.6514014E-1,-2.002E-2,3.9403483E-2,2.2288291E-1,-1.2641661E-1,5.5931553E-2,-3.518584E-1,-8.906254E-2,1.7063206E-1,-3.8626596E-2,-7.159194E-1,-2.2867726E-1,-4.3508062E-1,-1.423797E-1,-7.0022416E-1,-1.8062718E-1,-9.545106E-3,-1.7091563E-1,-3.6618212E-1,-2.5545472E-1,-5.614279E-1,-3.544574E-1,-2.1376278E-1,-5.088045E-2,-3.4381694E-1,-2.546777E-1,-5.32871E-1,-3.5778576E-1,-6.0035795E-1,-3.217815E-1,-2.7997586E-1,-3.4886152E-1,-3.9454943E-1,-5.3078276E-1,-3.4872273E-1,-6.1364233E-1,-4.2482048E-1,-5.0740117E-1,-1.1618615E-1,-3.9989102E-1],"split_indices":[1,3,1,4,9,3,3,5,15,6,126,123,238,341,2,8,6,8,691,572,898,206,253,15,1,14,1,11,1,0,839,473,1173,849,841,1118,652,735,733,1182,126,971,603,1110,582,41,18,254,69,810,271,275,200,270,426,0,3,89,0,4,0,0,0,0,0,0,0,0,0,0,0,0,0,0,0,0,0,0,0,0,0,0,0,0,0,0,0,0,0,0,0,0,0,0,0,0,0,0,0,0,0,0,0,0,0,0,0,0,0,0,0,0,0,0,0],"split_type":[0,0,0,0,0,0,0,0,0,0,0,0,0,0,0,0,0,0,0,0,0,0,0,0,0,0,0,0,0,0,0,0,0,0,0,0,0,0,0,0,0,0,0,0,0,0,0,0,0,0,0,0,0,0,0,0,0,0,0,0,0,0,0,0,0,0,0,0,0,0,0,0,0,0,0,0,0,0,0,0,0,0,0,0,0,0,0,0,0,0,0,0,0,0,0,0,0,0,0,0,0,0,0,0,0,0,0,0,0,0,0,0,0,0,0],"sum_hessian":[4.272E3,2.218E3,2.054E3,1.586E3,6.32E2,1.135E3,9.19E2,1.436E3,1.5E2,1.11E2,5.21E2,4.17E2,7.18E2,4.79E2,4.4E2,1.307E3,1.29E2,9.3E1,5.7E1,4.6E1,6.5E1,5.8E1,4.63E2,2.37E2,1.8E2,4.03E2,3.15E2,1.93E2,2.86E2,3.57E2,8.3E1,6.62E2,6.45E2,9.1E1,3.8E1,6.1E1,3.2E1,2.4E1,3.3E1,3.6E1,1E1,3.8E1,2.7E1,2E1,3.8E1,1.4E1,4.49E2,1.32E2,1.05E2,8.9E1,9.1E1,2.82E2,1.21E2,1.29E2,1.86E2,7E0,1.86E2,1.49E2,1.37E2,2.8E1,5.5E1,1.52E2,5.1E2,6.4E2,5E0,2.3E1,6.8E1,2.8E1,1E1,1.5E1,4.6E1,3E0,2.9E1,1.2E1,1.2E1,3E0,3E1,1E1,2.6E1,5E0,5E0,7E0,3.1E1,1.1E1,1.6E1,1.1E1,9E0,8E0,3E1,6E0,8E0,3.8E1,4.11E2,2.6E1,1.06E2,6.5E1,4E1,8.8E1,1E0,2.4E1,6.7E1,1.63E2,1.19E2,1.15E2,6E0,9.4E1,3.5E1,1.77E2,9E0,5E0,1.81E2,9.6E1,5.3E1,1E0,2.7E1],"tree_param":{"num_deleted":"0","num_feature":"1382","num_nodes":"115","size_leaf_vector":"1"}},{"base_weights":[5.0532407E-1,4.7382092E-1,6.6907436E-1,4.6305898E-1,5.343488E-1,6.309196E-1,2.2179465E-1,4.8018426E-1,4.0523595E-1,2.1118128E-1,4.9707344E-1,2.114788E-1,6.053453E-1,4.6711627E-1,6.756865E-1,3.3054605E-1,4.4031736E-1,1.308208E-1,5.181986E-1,1.6547373E-1,1.8901353E-1,3.4978834E-1,4.7423494E-1,4.1701935E-2,6.822204E-1,2.6009154E-1,3.6055982E-1,5.5299306E-1,3.9455262E-1,1.684731E-1,1.4832638E-1,1.5473798E-1,8.4217444E-2,1.4444976E-1,1.0906502E-1,4.7203947E-2,2.0656486E-1,3.8853146E-2,7.976047E-2,1.2766016E-1,9.49313E-2,1.3576707E-1,1.8750256E-1,1.0392014E-1,1.24767095E-1],"categories":[],"categories_nodes":[],"categories_segments":[],"categories_sizes":[],"default_left":[0,0,0,0,0,0,0,0,0,0,0,0,0,0,0,0,0,0,0,0,0,0,0,0,0,0,0,0,0,0,0,0,0,0,0,0,0,0,0,0,0,0,0,0,0],"id":4,"left_children":[1,3,5,7,9,11,-1,13,15,-1,17,-1,19,21,23,25,27,-1,29,-1,-1,31,33,-1,35,37,39,41,43,-1,-1,-1,-1,-1,-1,-1,-1,-1,-1,-1,-1,-1,-1,-1,-1],"loss_changes":[2.1725952E1,2.0891113E0,1.3747253E0,2.8286743E0,3.0320892E0,4.288025E-1,0E0,5.6881714E0,1.699089E0,0E0,3.4363556E-1,0E0,1.0798645E-1,1.6766052E0,4.1362762E-1,3.904667E-1,2.236351E0,0E0,5.5503845E-2,0E0,0E0,1.3456402E0,1.4949341E0,0E0,3.6669922E-1,1.9878864E-2,3.1829834E-1,6.935997E-1,2.0732117E-1,0E0,0E0,0E0,0E0,0E0,0E0,0E0,0E0,0E0,0E0,0E0,0E0,0E0,0E0,0E0,0E0],"parents":[2147483647,0,0,1,1,2,2,3,3,4,4,5,5,7,7,8,8,10,10,12,12,13,13,14,14,15,15,16,16,18,18,21,21,22,22,24,24,25,25,26,26,27,27,28,28],"right_children":[2,4,6,8,10,12,-1,14,16,-1,18,-1,20,22,24,26,28,-1,30,-1,-1,32,34,-1,36,38,40,42,44,-1,-1,-1,-1,-1,-1,-1,-1,-1,-1,-1,-1,-1,-1,-1,-1],"split_conditions":[2.4220753E-5,2.9123052E-5,3.3581353E-5,2.1732563E-7,1.1154893E-6,1.8730344E-6,2.2179465E-1,4.0230325E-6,1.3169325E-5,2.1118128E-1,3.0411164E-5,2.114788E-1,4.516206E-5,2.6390808E-5,1.8693478E-5,5.6953168E-6,1.0698409E-6,1.308208E-1,9.45906E-6,1.6547373E-1,1.8901353E-1,3.4326375E-5,1.5540576E-7,4.1701935E-2,1.9419556E-5,8.125665E-6,2.313329E-6,7.4457694E-6,1.9369956E-5,1.684731E-1,1.4832638E-1,1.5473798E-1,8.4217444E-2,1.4444976E-1,1.0906502E-1,4.7203947E-2,2.0656486E-1,3.8853146E-2,7.976047E-2,1.2766016E-1,9.49313E-2,1.3576707E-1,1.8750256E-1,1.0392014E-1,1.24767095E-1],"split_indices":[20,451,10,1,1,1,0,87,279,0,278,0,48,959,697,123,2,0,4,0,0,1154,2,0,670,257,10,84,380,0,0,0,0,0,0,0,0,0,0,0,0,0,0,0,0],"split_type":[0,0,0,0,0,0,0,0,0,0,0,0,0,0,0,0,0,0,0,0,0,0,0,0,0,0,0,0,0,0,0,0,0,0,0,0,0,0,0,0,0,0,0,0,0],"sum_hessian":[4.272E3,3.586E3,6.86E2,3.052E3,5.34E2,4.51E2,2.35E2,2.349E3,7.03E2,9.3E1,4.41E2,1.09E2,3.42E2,2.205E3,1.44E2,2.28E2,4.75E2,1.19E2,3.22E2,1.15E2,2.27E2,1.29E2,2.076E3,2E0,1.42E2,7.1E1,1.57E2,1.34E2,3.41E2,1.06E2,2.16E2,3.6E1,9.3E1,1.945E3,1.31E2,2E0,1.4E2,4E0,6.7E1,6E1,9.7E1,5.9E1,7.5E1,1.1E2,2.31E2],"tree_param":{"num_deleted":"0","num_feature":"1382","num_nodes":"45","size_leaf_vector":"1"}},{"base_weights":[-5.093048E-1,7.2436966E-2,-1.1284592E0,2.4156722E-1,-3.4584168E-1,-9.078563E-1,-1.3617808E0,2.72277E-1,-2.9815382E-1,4.7619745E-2,-4.433343E-1,-7.420506E-1,-1.0194877E0,-1.2578472E0,-1.4628004E0,3.012898E-1,9.918634E-3,-4.943656E-1,-1.7478324E-1,-1.0038869E0,9.894286E-2,-1.0978721E0,-4.043916E-1,-9.987496E-1,-6.038573E-1,-1.2212622E0,-8.6196214E-1,-1.4174058E0,-1.1665878E0,-1.4979994E0,-1.3078698E0,3.8479388E-1,2.3590508E-1,1.0773683E-1,-6.650342E-1,-8.7874115E-1,-9.642453E-3,-1.2973991E-1,-3.544442E-1,2.670169E-1,-2.1605399E-1,-1.6990682E0,-3.7531412E-1,-7.935372E-1,-3.429111E-1,-7.388399E-1,-1.3871046E0,-1.1828942E0,-5.8060557E-1,-1.0088499E0,-1.414603E0,-6.211659E-1,-9.626956E-1,-1.446975E0,-2.3278388E-1,-1.0469637E0,-1.2879246E0,-1.3466493E0,-1.5516233E0,-7.245403E-1,-1.4256455E0,1.22043125E-1,-5.943638E-2,1.731415E-1,6.1658483E-2,-3.5523474E-1,4.4179663E-2,-8.866998E-2,-4.2488584E-1,-4.0889788E-1,-8.539405E-2,1.4894296E-1,-4.7493577E-2,-1.709945E-2,1.6414383E-1,-1.8945195E-1,-1.0458754E-2,-5.6949747E-1,-8.077993E-2,-2.8682044E-1,1.606703E-2,-4.3054107E-1,-1.5518501E-1,1.2158658E-1,-1.0643727E-1,-2.434934E-1,-1.2491957E-1,-4.7360379E-1,-2.4628179E-1,-4.3322608E-1,-1.2902506E-1,-2.758286E-1,-1.6725655E-1,-4.1105133E-1,-1.9612907E-1,-4.54732E-1,-3.1860083E-1,-5.580313E-2,-1.8826838E-1,-3.7097123E-1,-2.6663494E-1,-2.0088653E-1,-4.3997753E-1,-2.8884283E-1,-3.753163E-1,-3.6895052E-1,-4.6363336E-1,-1.8764658E-1,-4.0818933E-1,-4.6633446E-1,-1.098654E-1,-7.708653E-2,-2.3884585E-1,-3.8002405E-1,-4.7937283E-1],"categories":[],"categories_nodes":[],"categories_segments":[],"categories_sizes":[],"default_left":[0,0,0,0,0,0,0,0,0,0,0,0,0,0,0,0,0,0,0,0,0,0,0,0,0,0,0,0,0,0,0,0,0,0,0,0,0,0,0,0,0,0,0,0,0,0,0,0,0,0,0,0,0,0,0,0,0,0,0,0,0,0,0,0,0,0,0,0,0,0,0,0,0,0,0,0,0,0,0,0,0,0,0,0,0,0,0,0,0,0,0,0,0,0,0,0,0,0,0,0,0,0,0,0,0,0,0,0,0,0,0,0,0,0,0],"id":5,"left_children":[1,3,5,7,9,11,13,15,17,19,21,23,25,27,29,31,33,-1,35,37,39,41,43,45,47,49,51,53,55,57,59,61,63,65,67,69,71,-1,-1,73,75,77,79,81,83,85,87,89,91,93,95,97,99,101,-1,103,105,107,109,111,113,-1,-1,-1,-1,-1,-1,-1,-1,-1,-1,-1,-1,-1,-1,-1,-1,-1,-1,-1,-1,-1,-1,-1,-1,-1,-1,-1,-1,-1,-1,-1,-1,-1,-1,-1,-1,-1,-1,-1,-1,-1,-1,-1,-1,-1,-1,-1,-1,-1,-1,-1,-1,-1,-1],"loss_changes":[1.539165E3,1.5600238E2,1.0530957E2,2.6103485E1,2.4379456E1,1.8992737E1,8.701294E0,1.1308067E1,1.3865935E1,6.953086E0,1.2530174E1,1.4757202E1,1.9130615E1,5.656189E0,7.838135E-1,7.2145615E0,9.909026E0,0E0,9.175448E0,9.793377E-2,6.51671E0,1.1525486E1,1.1259674E1,1.4115723E1,3.1368713E0,9.907623E0,8.134247E0,2.2534485E0,3.3688965E0,1.1812134E0,5.90596E0,7.6011887E0,7.686661E0,6.8639274E0,4.855095E0,3.9273958E0,4.9694867E0,0E0,0E0,7.292473E0,3.2148712E0,3.7623138E0,3.5381627E0,1.0778511E1,3.8591766E0,1.8217545E0,5.1033096E0,1.3452082E0,1.6382599E0,1.6424774E1,3.45578E0,1.8660736E-1,4.002136E0,1.5950317E0,0E0,1.6980591E0,4.4796753E-1,2.8833008E-1,4.0515137E-1,4.3163872E-1,2.4777222E-1,0E0,0E0,0E0,0E0,0E0,0E0,0E0,0E0,0E0,0E0,0E0,0E0,0E0,0E0,0E0,0E0,0E0,0E0,0E0,0E0,0E0,0E0,0E0,0E0,0E0,0E0,0E0,0E0,0E0,0E0,0E0,0E0,0E0,0E0,0E0,0E0,0E0,0E0,0E0,0E0,0E0,0E0,0E0,0E0,0E0,0E0,0E0,0E0,0E0,0E0,0E0,0E0,0E0,0E0],"parents":[2147483647,0,0,1,1,2,2,3,3,4,4,5,5,6,6,7,7,8,8,9,9,10,10,11,11,12,12,13,13,14,14,15,15,16,16,18,18,19,19,20,20,21,21,22,22,23,23,24,24,25,25,26,26,27,27,28,28,29,29,30,30,31,31,32,32,33,33,34,34,35,35,36,36,39,39,40,40,41,41,42,42,43,43,44,44,45,45,46,46,47,47,48,48,49,49,50,50,51,51,52,52,53,53,55,55,56,56,57,57,58,58,59,59,60,60],"right_children":[2,4,6,8,10,12,14,16,18,20,22,24,26,28,30,32,34,-1,36,38,40,42,44,46,48,50,52,54,56,58,60,62,64,66,68,70,72,-1,-1,74,76,78,80,82,84,86,88,90,92,94,96,98,100,102,-1,104,106,108,110,112,114,-1,-1,-1,-1,-1,-1,-1,-1,-1,-1,-1,-1,-1,-1,-1,-1,-1,-1,-1,-1,-1,-1,-1,-1,-1,-1,-1,-1,-1,-1,-1,-1,-1,-1,-1,-1,-1,-1,-1,-1,-1,-1,-1,-1,-1,-1,-1,-1,-1,-1,-1,-1,-1,-1],"split_conditions":[2.34523E-7,1.8684179E-7,1.7050521E-6,3.1240998E-7,3.4960486E-8,9.369507E-7,4.8776838E-6,3.344031E-7,1.7849954E-5,2.4667243E-6,2.5459535E-6,1.1920225E-5,2.187675E-5,6.113609E-5,2.339635E-5,6.0292416E-7,3.6785931E-7,-4.943656E-1,3.4382883E-6,6.251728E-8,3.816424E-7,4.1498886E-5,2.516338E-6,1.858605E-6,1.652854E-5,4.9315063E-6,1.8129035E-6,6.3451516E-5,4.3245022E-6,1.2491182E-5,1.3286357E-4,2.8505598E-5,2.2047729E-5,1.7539503E-5,4.85143E-6,1.0009291E-5,2.2026248E-7,-1.2973991E-1,-3.544442E-1,5.5427013E-6,1.0252453E-5,6.0791405E-7,1.8769219E-5,2.1893884E-5,8.91578E-8,5.2210826E-6,4.8919505E-6,1.6203752E-5,5.2003606E-6,9.698576E-6,4.268592E-5,2.9831574E-5,2.647926E-5,9.24052E-6,-2.3278388E-1,2.4043186E-6,1.2073135E-4,1.1816788E-5,1.6256295E-4,5.473759E-5,1.770446E-4,1.22043125E-1,-5.943638E-2,1.731415E-1,6.1658483E-2,-3.5523474E-1,4.4179663E-2,-8.866998E-2,-4.2488584E-1,-4.0889788E-1,-8.539405E-2,1.4894296E-1,-4.7493577E-2,-1.709945E-2,1.6414383E-1,-1.8945195E-1,-1.0458754E-2,-5.6949747E-1,-8.077993E-2,-2.8682044E-1,1.606703E-2,-4.3054107E-1,-1.5518501E-1,1.2158658E-1,-1.0643727E-1,-2.434934E-1,-1.2491957E-1,-4.7360379E-1,-2.4628179E-1,-4.3322608E-1,-1.2902506E-1,-2.758286E-1,-1.6725655E-1,-4.1105133E-1,-1.9612907E-1,-4.54732E-1,-3.1860083E-1,-5.580313E-2,-1.8826838E-1,-3.7097123E-1,-2.6663494E-1,-2.0088653E-1,-4.3997753E-1,-2.8884283E-1,-3.753163E-1,-3.6895052E-1,-4.6363336E-1,-1.8764658E-1,-4.0818933E-1,-4.6633446E-1,-1.098654E-1,-7.708653E-2,-2.3884585E-1,-3.8002405E-1,-4.7937283E-1],"split_indices":[2,5,1,8,1,2,2,9,633,93,89,313,369,1284,5,19,10,0,118,2,11,1256,80,18,571,15,2,1100,2,4,632,752,782,669,141,315,7,0,0,173,340,13,618,724,3,115,87,404,127,152,1030,806,450,11,0,1,1245,6,991,15,591,0,0,0,0,0,0,0,0,0,0,0,0,0,0,0,0,0,0,0,0,0,0,0,0,0,0,0,0,0,0,0,0,0,0,0,0,0,0,0,0,0,0,0,0,0,0,0,0,0,0,0,0,0,0],"split_type":[0,0,0,0,0,0,0,0,0,0,0,0,0,0,0,0,0,0,0,0,0,0,0,0,0,0,0,0,0,0,0,0,0,0,0,0,0,0,0,0,0,0,0,0,0,0,0,0,0,0,0,0,0,0,0,0,0,0,0,0,0,0,0,0,0,0,0,0,0,0,0,0,0,0,0,0,0,0,0,0,0,0,0,0,0,0,0,0,0,0,0,0,0,0,0,0,0,0,0,0,0,0,0,0,0,0,0,0,0,0,0,0,0,0,0],"sum_hessian":[4.272E3,2.203E3,2.069E3,1.569E3,6.34E2,1.066E3,1.003E3,1.485E3,8.4E1,1.26E2,5.08E2,4.32E2,6.34E2,5.01E2,5.02E2,1.337E3,1.48E2,6E0,7.8E1,5E0,1.21E2,2.7E1,4.81E2,1.49E2,2.83E2,2.75E2,3.59E2,1.77E2,3.24E2,4.02E2,1E2,5.85E2,7.52E2,1.3E2,1.8E1,1.4E1,6.4E1,2E0,3E0,7.9E1,4.2E1,1.4E1,1.3E1,6.4E1,4.17E2,9.1E1,5.8E1,9E0,2.74E2,1.34E2,1.41E2,1.08E2,2.51E2,1.68E2,9E0,1.68E2,1.56E2,1.12E2,2.9E2,1.8E1,8.2E1,5.64E2,2.1E1,6E1,6.92E2,3E0,1.27E2,1.3E1,5E0,7E0,7E0,1.4E1,5E1,3.7E1,4.2E1,1.2E1,3E1,1.2E1,2E0,5E0,8E0,1.8E1,4.6E1,6E0,4.11E2,7.3E1,1.8E1,4.2E1,1.6E1,6E0,3E0,1.5E1,2.59E2,6.5E1,6.9E1,1.07E2,3.4E1,2E0,1.06E2,5E1,2.01E2,5E0,1.63E2,1.23E2,4.5E1,1.32E2,2.4E1,3E0,1.09E2,2.89E2,1E0,3E0,1.5E1,4.7E1,3.5E1],"tree_param":{"num_deleted":"0","num_feature":"1382","num_nodes":"115","size_leaf_vector":"1"}},{"base_weights":[3.544588E-1,3.309762E-1,4.6379197E-1,2.945888E-1,3.4401858E-1,4.4395036E-1,1.6516332E-1,3.1412512E-1,1.8313837E-1,3.671951E-1,3.2084483E-1,1.399743E-1,4.0560082E-1,2.9538456E-1,4.060161E-1,1.3064054E-1,4.2360258E-1,3.3977234E-1,4.8469302E-1,2.5939426E-1,3.5336572E-1,1.1246736E-1,1.301681E-1,2.753744E-1,4.0293688E-1,4.438443E-1,1.8493162E-1,7.4744515E-2,2.6105842E-1,5.5552557E-2,4.91062E-1,3.5309613E-1,2.3199642E-1,1.387862E-1,4.9906656E-1,3.5813275E-1,2.4792443E-1,4.9512506E-1,3.2630402E-1,6.0130797E-2,9.131141E-2,5.3778682E-2,1.3659167E-1,1.3989495E-1,2.8024964E-2,1.8098073E-2,1.1396203E-1,8.102013E-2,8.51072E-3,1.08709E-1,3.05483E-2,-5.665096E-3,2.3664758E-2,5.974851E-2,1.6440871E-1,9.946108E-2,1.4166889E-1,2.2489335E-2,8.266805E-2,6.702319E-2,-2.2335702E-3,1.692156E-1,1.23404756E-1,6.579962E-2,1.2412252E-1,5.8646988E-2,8.1718445E-2,1.1815759E-1,1.6207707E-1,8.741635E-2,1.0844508E-1],"categories":[],"categories_nodes":[],"categories_segments":[],"categories_sizes":[],"default_left":[0,0,0,0,0,0,0,0,0,0,0,0,0,0,0,0,0,0,0,0,0,0,0,0,0,0,0,0,0,0,0,0,0,0,0,0,0,0,0,0,0,0,0,0,0,0,0,0,0,0,0,0,0,0,0,0,0,0,0,0,0,0,0,0,0,0,0,0,0,0,0],"id":6,"left_children":[1,3,5,7,9,11,-1,13,15,17,19,-1,21,23,25,27,29,31,33,35,37,-1,-1,39,41,43,45,47,49,51,53,55,57,59,61,63,65,67,69,-1,-1,-1,-1,-1,-1,-1,-1,-1,-1,-1,-1,-1,-1,-1,-1,-1,-1,-1,-1,-1,-1,-1,-1,-1,-1,-1,-1,-1,-1,-1,-1],"loss_changes":[1.0817139E1,1.5696411E0,1.0517273E0,1.9804535E0,1.2711182E0,3.470993E-1,0E0,1.2491302E0,1.737247E0,3.9789581E0,2.5082855E0,0E0,4.3254852E-2,1.3180656E0,1.0218639E0,8.406887E-1,5.93431E-1,1.4201202E0,1.1289597E0,4.2537308E-1,3.0915756E0,0E0,0E0,1.1623878E0,1.1131611E0,8.384228E-1,4.871874E-1,7.53225E-1,5.2768135E-1,1.017256E-2,2.4005651E-1,2.2294922E0,7.865691E-1,1.3778561E-1,1.0847588E0,2.5658798E-1,4.7281647E-1,3.9963913E-1,7.7293396E-1,0E0,0E0,0E0,0E0,0E0,0E0,0E0,0E0,0E0,0E0,0E0,0E0,0E0,0E0,0E0,0E0,0E0,0E0,0E0,0E0,0E0,0E0,0E0,0E0,0E0,0E0,0E0,0E0,0E0,0E0,0E0,0E0],"parents":[2147483647,0,0,1,1,2,2,3,3,4,4,5,5,7,7,8,8,9,9,10,10,12,12,13,13,14,14,15,15,16,16,17,17,18,18,19,19,20,20,23,23,24,24,25,25,26,26,27,27,28,28,29,29,30,30,31,31,32,32,33,33,34,34,35,35,36,36,37,37,38,38],"right_children":[2,4,6,8,10,12,-1,14,16,18,20,-1,22,24,26,28,30,32,34,36,38,-1,-1,40,42,44,46,48,50,52,54,56,58,60,62,64,66,68,70,-1,-1,-1,-1,-1,-1,-1,-1,-1,-1,-1,-1,-1,-1,-1,-1,-1,-1,-1,-1,-1,-1,-1,-1,-1,-1,-1,-1,-1,-1,-1,-1],"split_conditions":[3.059022E-5,3.606507E-6,1.9078894E-5,3.4340985E-7,1.28212E-7,2.6686928E-6,1.6516332E-1,1.4648303E-5,2.088452E-6,2.608518E-6,1.8044178E-5,1.399743E-1,6.684954E-5,1.5045753E-5,2.2313796E-5,3.2913715E-6,8.56303E-6,8.773803E-8,7.651878E-6,1.0646488E-6,5.8230296E-7,1.1246736E-1,1.301681E-1,2.442064E-5,2.1302665E-5,2.1068388E-5,1.4745235E-5,9.7468444E-8,2.9513234E-5,4.924818E-8,1.5518452E-5,9.719732E-7,1.3881694E-6,4.7252975E-6,7.243411E-8,1.8388937E-6,5.9347553E-6,4.884957E-6,2.735074E-5,6.0130797E-2,9.131141E-2,5.3778682E-2,1.3659167E-1,1.3989495E-1,2.8024964E-2,1.8098073E-2,1.1396203E-1,8.102013E-2,8.51072E-3,1.08709E-1,3.05483E-2,-5.665096E-3,2.3664758E-2,5.974851E-2,1.6440871E-1,9.946108E-2,1.4166889E-1,2.2489335E-2,8.266805E-2,6.702319E-2,-2.2335702E-3,1.692156E-1,1.23404756E-1,6.579962E-2,1.2412252E-1,5.8646988E-2,8.1718445E-2,1.1815759E-1,1.6207707E-1,8.741635E-2,1.0844508E-1],"split_indices":[45,113,4,9,1,1,0,414,55,69,384,0,476,423,633,94,295,2,267,10,1,0,0,806,730,561,444,3,904,1,524,27,42,137,1,37,126,20,253,0,0,0,0,0,0,0,0,0,0,0,0,0,0,0,0,0,0,0,0,0,0,0,0,0,0,0,0,0,0,0,0],"split_type":[0,0,0,0,0,0,0,0,0,0,0,0,0,0,0,0,0,0,0,0,0,0,0,0,0,0,0,0,0,0,0,0,0,0,0,0,0,0,0,0,0,0,0,0,0,0,0,0,0,0,0,0,0,0,0,0,0,0,0,0,0,0,0,0,0,0,0,0,0,0,0],"sum_hessian":[4.272E3,3.52E3,7.52E2,9.35E2,2.585E3,6.17E2,1.35E2,7.94E2,1.41E2,1.285E3,1.3E3,3.81E2,2.36E2,6.63E2,1.31E2,1.17E2,2.4E1,1.045E3,2.4E2,4.53E2,8.47E2,1.2E2,1.16E2,5.62E2,1.01E2,1.11E2,2E1,8.3E1,3.4E1,4E0,2E1,9.28E2,1.17E2,1E1,2.3E2,4.4E1,4.09E2,1.33E2,7.14E2,1.59E2,4.03E2,2E1,8.1E1,1.04E2,7E0,1.3E1,7E0,1.5E1,6.8E1,2E1,1.4E1,1E0,3E0,4E0,1.6E1,7.89E2,1.39E2,2.6E1,9.1E1,6E0,4E0,1.29E2,1.01E2,1.4E1,3E1,1.33E2,2.76E2,4.4E1,8.9E1,3.63E2,3.51E2],"tree_param":{"num_deleted":"0","num_feature":"1382","num_nodes":"71","size_leaf_vector":"1"}},{"base_weights":[-3.594426E-1,7.414761E-2,-7.7226865E-1,1.8211731E-1,-2.0433027E-1,-5.860178E-1,-9.388055E-1,2.0741135E-1,-2.080707E-1,1.03084005E-1,-2.9277825E-1,-4.3780583E-1,-6.733594E-1,-8.3494425E-1,-1.0081917E0,2.7655336E-1,9.147762E-2,8.374727E-2,-5.017092E-1,-9.088221E-1,1.5045188E-1,-4.821879E-1,-1.4775084E-1,-5.5140424E-1,-3.1588048E-1,-9.0983385E-1,-5.766049E-1,-1.0691991E0,-7.573668E-1,-6.539437E-1,-1.0200288E0,3.7330663E-1,2.0011468E-1,1.497247E-1,-2.103036E-1,-5.46856E-1,2.0777424E-1,-8.189273E-1,-1.1842923E-1,2.0225493E-2,-3.3526617E-1,3.5779184E-1,-4.346007E-2,-1.3322327E0,-4.2444345E-1,-6.5951926E-1,-1.11189626E-1,-4.7258618E-1,-9.633026E-1,-2.789038E-1,-3.009822E-1,-9.923627E-1,-6.012851E-1,-4.6069202E-1,-6.7745167E-1,-1.0911012E0,-1.4793344E-1,-6.975958E-1,-1.0514079E0,-2.7804118E-1,-1.5569946E-1,-1.2557536E0,-1.0008324E0,1.5011868E-1,7.978346E-2,8.3113074E-2,1.0596517E-2,-1.4358008E-1,5.3219143E-2,-1.1118466E-1,4.6120234E-2,-3.1859654E-1,-9.64659E-2,1.379673E-1,-5.822178E-3,-3.8404787E-1,-1.2782857E-1,3.2648284E-2,-5.7501335E-2,1.2879027E-1,-7.6553375E-2,-1.2593496E-1,3.5280634E-2,-5.194611E-1,-3.0222032E-2,7.7584304E-2,-1.4327206E-1,-3.9077118E-1,-8.49101E-2,-3.4168875E-1,-2.9363753E-2,-1.6038229E-1,-9.8026276E-2,-3.1923187E-1,-1.0978092E-1,-1.7181724E-1,-8.755891E-2,-2.507467E-1,-3.5083342E-1,-3.2282615E-1,-1.4267382E-1,-1.9248028E-1,-1.1699157E-1,-2.875513E-1,-1.5693492E-1,-9.276705E-2,-3.3084774E-1,-2.7397037E-1,-1.9990948E-1,-2.2692242E-1,-3.4957436E-1,-2.0124003E-1,-3.8864765E-1,-2.5443962E-1,-3.1216845E-1],"categories":[],"categories_nodes":[],"categories_segments":[],"categories_sizes":[],"default_left":[0,0,0,0,0,0,0,0,0,0,0,0,0,0,0,0,0,0,0,0,0,0,0,0,0,0,0,0,0,0,0,0,0,0,0,0,0,0,0,0,0,0,0,0,0,0,0,0,0,0,0,0,0,0,0,0,0,0,0,0,0,0,0,0,0,0,0,0,0,0,0,0,0,0,0,0,0,0,0,0,0,0,0,0,0,0,0,0,0,0,0,0,0,0,0,0,0,0,0,0,0,0,0,0,0,0,0,0,0,0,0,0,0,0,0],"id":7,"left_children":[1,3,5,7,9,11,13,15,17,19,21,23,25,27,29,31,33,35,37,39,41,43,45,47,49,51,53,55,57,59,61,63,65,67,69,71,73,75,77,-1,-1,79,81,83,85,87,89,91,93,-1,95,97,99,101,103,105,-1,107,109,-1,-1,111,113,-1,-1,-1,-1,-1,-1,-1,-1,-1,-1,-1,-1,-1,-1,-1,-1,-1,-1,-1,-1,-1,-1,-1,-1,-1,-1,-1,-1,-1,-1,-1,-1,-1,-1,-1,-1,-1,-1,-1,-1,-1,-1,-1,-1,-1,-1,-1,-1,-1,-1,-1,-1],"loss_changes":[7.649127E2,6.2727264E1,6.7347534E1,1.4876915E1,1.5882053E1,1.3116272E1,7.4746094E0,1.1293133E1,7.9254045E0,6.415806E0,1.2372482E1,5.1859665E0,1.4347382E1,7.69516E0,2.213745E0,6.463089E0,9.330184E0,3.7895775E0,5.4958487E0,1.2979779E0,5.0814676E0,9.055275E0,4.754074E0,6.0053024E0,1.4484978E0,4.1651154E0,5.111801E0,9.003601E-1,5.505707E0,4.3952274E-1,1.7432861E0,5.174633E0,6.2781754E0,7.8048506E0,5.0759E0,5.8700156E-1,2.2999759E0,3.9842014E0,3.8704288E-1,0E0,0E0,2.7833538E0,4.049721E0,5.726446E0,6.837322E0,3.7470217E0,3.1991084E0,1.3538704E0,1.4773216E0,0E0,2.937641E-1,3.0697327E0,1.9950199E0,2.5516586E0,1.0169174E1,6.582031E-1,0E0,1.3983612E0,1.066391E0,0E0,0E0,2.0024872E-1,2.8666382E0,0E0,0E0,0E0,0E0,0E0,0E0,0E0,0E0,0E0,0E0,0E0,0E0,0E0,0E0,0E0,0E0,0E0,0E0,0E0,0E0,0E0,0E0,0E0,0E0,0E0,0E0,0E0,0E0,0E0,0E0,0E0,0E0,0E0,0E0,0E0,0E0,0E0,0E0,0E0,0E0,0E0,0E0,0E0,0E0,0E0,0E0,0E0,0E0,0E0,0E0,0E0,0E0],"parents":[2147483647,0,0,1,1,2,2,3,3,4,4,5,5,6,6,7,7,8,8,9,9,10,10,11,11,12,12,13,13,14,14,15,15,16,16,17,17,18,18,19,19,20,20,21,21,22,22,23,23,24,24,25,25,26,26,27,27,28,28,29,29,30,30,31,31,32,32,33,33,34,34,35,35,36,36,37,37,38,38,41,41,42,42,43,43,44,44,45,45,46,46,47,47,48,48,50,50,51,51,52,52,53,53,54,54,55,55,57,57,58,58,61,61,62,62],"right_children":[2,4,6,8,10,12,14,16,18,20,22,24,26,28,30,32,34,36,38,40,42,44,46,48,50,52,54,56,58,60,62,64,66,68,70,72,74,76,78,-1,-1,80,82,84,86,88,90,92,94,-1,96,98,100,102,104,106,-1,108,110,-1,-1,112,114,-1,-1,-1,-1,-1,-1,-1,-1,-1,-1,-1,-1,-1,-1,-1,-1,-1,-1,-1,-1,-1,-1,-1,-1,-1,-1,-1,-1,-1,-1,-1,-1,-1,-1,-1,-1,-1,-1,-1,-1,-1,-1,-1,-1,-1,-1,-1,-1,-1,-1,-1,-1],"split_conditions":[7.5925726E-8,1.0897741E-7,2.5052402E-6,4.5909155E-7,6.746537E-8,5.426615E-7,2.2573417E-6,2.0239503E-7,6.856023E-8,4.11487E-6,3.110251E-6,5.6402428E-6,2.805229E-5,2.3822638E-5,9.239605E-6,3.165609E-7,3.6342787E-8,2.62893E-5,2.808088E-6,1.1826735E-7,1.9660078E-7,1.865785E-5,2.1188616E-6,1.7225663E-6,1.4295123E-5,4.5623947E-5,1.4767173E-6,6.244981E-5,2.3691086E-5,3.609182E-5,3.7107642E-5,2.1537042E-5,2.0695152E-5,2.722093E-5,2.6369195E-5,1.306788E-7,9.074897E-7,2.52038E-5,2.488597E-7,2.0225493E-2,-3.3526617E-1,2.0992627E-5,3.647321E-5,1.5032664E-6,3.0949582E-8,6.944955E-6,1.04627325E-5,1.29981345E-5,5.2086643E-6,-2.789038E-1,6.865704E-6,4.0223604E-6,3.2157444E-5,2.0170097E-5,2.2801805E-5,2.8650886E-5,-1.4793344E-1,5.0107115E-5,1.0982651E-4,-2.7804118E-1,-1.5569946E-1,3.741832E-5,7.0660512E-6,1.5011868E-1,7.978346E-2,8.3113074E-2,1.0596517E-2,-1.4358008E-1,5.3219143E-2,-1.1118466E-1,4.6120234E-2,-3.1859654E-1,-9.64659E-2,1.379673E-1,-5.822178E-3,-3.8404787E-1,-1.2782857E-1,3.2648284E-2,-5.7501335E-2,1.2879027E-1,-7.6553375E-2,-1.2593496E-1,3.5280634E-2,-5.194611E-1,-3.0222032E-2,7.7584304E-2,-1.4327206E-1,-3.9077118E-1,-8.49101E-2,-3.4168875E-1,-2.9363753E-2,-1.6038229E-1,-9.8026276E-2,-3.1923187E-1,-1.0978092E-1,-1.7181724E-1,-8.755891E-2,-2.507467E-1,-3.5083342E-1,-3.2282615E-1,-1.4267382E-1,-1.9248028E-1,-1.1699157E-1,-2.875513E-1,-1.5693492E-1,-9.276705E-2,-3.3084774E-1,-2.7397037E-1,-1.9990948E-1,-2.2692242E-1,-3.4957436E-1,-2.0124003E-1,-3.8864765E-1,-2.5443962E-1,-3.1216845E-1],"split_indices":[1,3,2,12,2,2,1,6,2,153,93,129,756,206,4,10,1,929,87,4,6,687,74,11,533,1224,2,1248,6,664,390,678,613,1021,783,4,28,787,7,0,0,572,1179,40,1,223,398,362,99,0,206,11,983,489,387,805,0,1151,1044,0,0,829,3,0,0,0,0,0,0,0,0,0,0,0,0,0,0,0,0,0,0,0,0,0,0,0,0,0,0,0,0,0,0,0,0,0,0,0,0,0,0,0,0,0,0,0,0,0,0,0,0,0,0,0,0],"split_type":[0,0,0,0,0,0,0,0,0,0,0,0,0,0,0,0,0,0,0,0,0,0,0,0,0,0,0,0,0,0,0,0,0,0,0,0,0,0,0,0,0,0,0,0,0,0,0,0,0,0,0,0,0,0,0,0,0,0,0,0,0,0,0,0,0,0,0,0,0,0,0,0,0,0,0,0,0,0,0,0,0,0,0,0,0,0,0,0,0,0,0,0,0,0,0,0,0,0,0,0,0,0,0,0,0,0,0,0,0,0,0,0,0,0,0],"sum_hessian":[4.272E3,2.084E3,2.188E3,1.502E3,5.82E2,1.035E3,1.153E3,1.411E3,9.1E1,1.3E2,4.52E2,3.86E2,6.49E2,4.67E2,6.86E2,8.83E2,5.28E2,4.6E1,4.5E1,5E0,1.25E2,1.95E2,2.57E2,1.98E2,1.88E2,1.86E2,4.63E2,1.13E2,3.54E2,2.4E1,6.62E2,3.88E2,4.95E2,4.43E2,8.5E1,7E0,3.9E1,2.4E1,2.1E1,1E0,4E0,6E1,6.5E1,1.1E1,1.84E2,1.6E1,2.41E2,1.68E2,3E1,3E0,1.85E2,1.45E2,4.1E1,2.18E2,2.45E2,1.08E2,5E0,2.97E2,5.7E1,6E0,1.8E1,4.5E1,6.17E2,1.76E2,2.12E2,3.37E2,1.58E2,1.8E1,4.25E2,5.9E1,2.6E1,1E0,6E0,1.8E1,2.1E1,1E1,1.4E1,5E0,1.6E1,5.4E1,6E0,1.9E1,4.6E1,8E0,3E0,1.3E1,1.71E2,5E0,1.1E1,2E0,2.39E2,1.16E2,5.2E1,2.5E1,5E0,4E0,1.81E2,8E1,6.5E1,7E0,3.4E1,5.9E1,1.59E2,8.5E1,1.6E2,2E0,1.06E2,3.4E1,2.63E2,1.8E1,3.9E1,4E0,4.1E1,1.32E2,4.85E2],"tree_param":{"num_deleted":"0","num_feature":"1382","num_nodes":"115","size_leaf_vector":"1"}},{"base_weights":[2.4886318E-1,2.3042561E-1,3.189862E-1,1.6731136E-1,2.3652738E-1,3.0678403E-1,1.1854752E-1,2.9108614E-1,1.410022E-1,1.859219E-1,2.4358645E-1,1.0984451E-1,2.9502425E-1,3.4504265E-1,-4.8805058E-2,1.0440875E-1,2.6371655E-1,1.1928092E-1,2.376808E-1,3.4108558E-1,2.3813188E-1,2.626556E-1,9.57012E-2,1.0309811E-1,4.401108E-1,-3.1028546E-2,3.1675484E-2,1.7493483E-1,4.4771083E-2,4.5242128E-1,1.8555008E-1,-2.512366E-6,1.6659999E-1,-1.1662395E-2,2.5788864E-1,2.0380911E-1,4.2650878E-1,-5.6009635E-2,2.3942067E-1,6.0256537E-2,2.673864E-1,9.216629E-2,-2.781941E-3,1.553948E-1,6.509835E-2,1.1234781E-2,2.153121E-3,4.440113E-2,1.4078087E-1,5.148718E-2,-2.0642965E-3,4.7812145E-2,1.5233645E-1,1.9548137E-2,6.785011E-2,-1.6099857E-2,4.581983E-2,3.7875563E-2,1.17140085E-1,-3.5084926E-2,6.0256813E-2,5.590873E-2,1.035536E-1,4.122865E-2,1.4862467E-1,1.5566641E-1,7.6321095E-2,-3.8628697E-2,3.65059E-2,5.9195075E-2,7.436263E-2,2.328918E-2,8.034681E-2],"categories":[],"categories_nodes":[],"categories_segments":[],"categories_sizes":[],"default_left":[0,0,0,0,0,0,0,0,0,0,0,0,0,0,0,0,0,0,0,0,0,0,0,0,0,0,0,0,0,0,0,0,0,0,0,0,0,0,0,0,0,0,0,0,0,0,0,0,0,0,0,0,0,0,0,0,0,0,0,0,0,0,0,0,0,0,0,0,0,0,0,0,0],"id":8,"left_children":[1,3,5,7,9,11,-1,13,15,17,19,-1,21,23,25,27,29,31,33,35,37,39,-1,41,43,-1,45,47,49,51,53,55,57,59,61,63,65,67,69,-1,71,-1,-1,-1,-1,-1,-1,-1,-1,-1,-1,-1,-1,-1,-1,-1,-1,-1,-1,-1,-1,-1,-1,-1,-1,-1,-1,-1,-1,-1,-1,-1,-1],"loss_changes":[5.45105E0,1.2647858E0,7.032013E-1,9.4239235E-1,1.0571289E0,4.28833E-1,0E0,9.7048616E-1,1.0995917E0,1.2892675E0,1.3573303E0,0E0,4.1840363E-1,9.896798E-1,3.8445126E-2,8.1234026E-1,7.56825E-1,9.539008E-1,1.0812874E0,1.5665245E0,9.8576355E-1,2.8450012E-2,0E0,3.239745E-1,4.4358444E-1,0E0,2.9701786E-4,6.360264E-1,7.022676E-1,1.786735E-1,1.9063699E-1,4.09817E-1,1.0436487E0,4.0387362E-1,1.1718903E0,1.0159032E0,1.235302E0,1.708029E-1,8.6026E-1,0E0,5.6648254E-4,0E0,0E0,0E0,0E0,0E0,0E0,0E0,0E0,0E0,0E0,0E0,0E0,0E0,0E0,0E0,0E0,0E0,0E0,0E0,0E0,0E0,0E0,0E0,0E0,0E0,0E0,0E0,0E0,0E0,0E0,0E0,0E0],"parents":[2147483647,0,0,1,1,2,2,3,3,4,4,5,5,7,7,8,8,9,9,10,10,12,12,13,13,14,14,15,15,16,16,17,17,18,18,19,19,20,20,21,21,23,23,24,24,26,26,27,27,28,28,29,29,30,30,31,31,32,32,33,33,34,34,35,35,36,36,37,37,38,38,40,40],"right_children":[2,4,6,8,10,12,-1,14,16,18,20,-1,22,24,26,28,30,32,34,36,38,40,-1,42,44,-1,46,48,50,52,54,56,58,60,62,64,66,68,70,-1,72,-1,-1,-1,-1,-1,-1,-1,-1,-1,-1,-1,-1,-1,-1,-1,-1,-1,-1,-1,-1,-1,-1,-1,-1,-1,-1,-1,-1,-1,-1,-1,-1],"split_conditions":[6.8305664E-5,2.8796348E-5,2.9700395E-5,3.8422604E-5,1.4127874E-6,1.5652325E-6,1.1854752E-1,1.1131206E-5,2.4511464E-6,1.5325335E-5,2.7536067E-5,1.0984451E-1,5.2000105E-5,2.0975738E-5,6.2693505E-7,3.3118304E-5,3.5349444E-6,9.649757E-6,3.3196593E-5,1.9239156E-5,3.4979346E-6,3.34958E-5,9.57012E-2,3.1219437E-7,1.8372466E-5,-3.1028546E-2,2.9942046E-6,2.2115839E-5,3.518066E-5,5.498566E-6,1.5650956E-5,4.3323607E-6,2.0821355E-5,2.1317082E-5,1.0004089E-5,4.410538E-5,6.4207957E-6,2.5222887E-6,4.6062155E-6,6.0256537E-2,3.8402868E-5,9.216629E-2,-2.781941E-3,1.553948E-1,6.509835E-2,1.1234781E-2,2.153121E-3,4.440113E-2,1.4078087E-1,5.148718E-2,-2.0642965E-3,4.7812145E-2,1.5233645E-1,1.9548137E-2,6.785011E-2,-1.6099857E-2,4.581983E-2,3.7875563E-2,1.17140085E-1,-3.5084926E-2,6.0256813E-2,5.590873E-2,1.035536E-1,4.122865E-2,1.4862467E-1,1.5566641E-1,7.6321095E-2,-3.8628697E-2,3.65059E-2,5.9195075E-2,7.436263E-2,2.328918E-2,8.034681E-2],"split_indices":[1369,1001,6,1326,47,1,0,304,66,485,987,0,68,712,17,1020,104,320,1201,613,140,188,0,10,541,0,71,583,1158,187,491,133,579,654,304,1247,181,70,148,0,698,0,0,0,0,0,0,0,0,0,0,0,0,0,0,0,0,0,0,0,0,0,0,0,0,0,0,0,0,0,0,0,0],"split_type":[0,0,0,0,0,0,0,0,0,0,0,0,0,0,0,0,0,0,0,0,0,0,0,0,0,0,0,0,0,0,0,0,0,0,0,0,0,0,0,0,0,0,0,0,0,0,0,0,0,0,0,0,0,0,0,0,0,0,0,0,0,0,0,0,0,0,0,0,0,0,0,0,0],"sum_hessian":[4.272E3,3.386E3,8.86E2,3.01E2,3.085E3,7.68E2,1.18E2,5.1E1,2.5E2,3.81E2,2.704E3,1.22E2,6.46E2,4.4E1,7E0,1.94E2,5.6E1,1.68E2,2.13E2,1.4E2,2.564E3,2.8E2,3.66E2,1.3E1,3.1E1,4E0,3E0,8.8E1,1.06E2,1.5E1,4.1E1,4.8E1,1.2E2,1.6E1,1.97E2,5.5E1,8.5E1,1.1E1,2.553E3,2.3E1,2.57E2,4E0,9E0,2.2E1,9E0,2E0,1E0,8.2E1,6E0,3E1,7.6E1,3E0,1.2E1,1.1E1,3E1,3.6E1,1.2E1,1.03E2,1.7E1,1.1E1,5E0,1.1E2,8.7E1,4.6E1,9E0,5.4E1,3.1E1,8E0,3E0,4.31E2,2.122E3,1E0,2.56E2],"tree_param":{"num_deleted":"0","num_feature":"1382","num_nodes":"73","size_leaf_vector":"1"}},{"base_weights":[-2.5365195E-1,2.6100546E-2,-5.701131E-1,1.4058824E-1,-1.5919626E-1,-4.7390163E-1,-6.908466E-1,1.507993E-1,-4.786327E-1,1.3747977E-1,-2.2145411E-1,-4.133295E-1,-5.319331E-1,-6.329024E-1,-7.4496335E-1,2.0161973E-1,5.4985106E-2,-3.194893E-1,-1.5555234E-1,-1.0906404E-1,2.798649E-1,-6.8679976E-1,-2.0154631E-1,-5.364838E-1,-2.864194E-1,-6.7466676E-1,-4.3209302E-1,-7.479176E-1,-5.389483E-1,-7.937596E-1,-6.228755E-1,3.4189758E-1,1.4849435E-1,1.1596517E-1,-2.2975716E-1,2.958116E-1,-2.82468E-1,-1.069307E0,-1.4635599E-2,-3.647135E-2,4.242067E-1,-3.248056E-1,-1.0514503E0,1.2961079E-1,-2.2654654E-1,-4.6894675E-1,-8.8653517E-1,-4.782553E-1,-2.445932E-1,-1.0094965E0,-6.3298935E-1,-3.5697716E-1,-4.9486148E-1,-5.86087E-1,-8.414805E-1,-4.8986676E-1,-7.497974E-1,-6.5604126E-1,-8.339668E-1,-1.6818234E-1,-7.01171E-1,2.0428916E-2,1.2027246E-1,1.05429865E-1,3.154844E-2,4.365146E-2,-9.846717E-2,-2.6131198E-1,-3.3722628E-2,2.322869E-2,1.0283884E-1,-1.1314762E-1,-1.6659321E-2,-4.8553742E-2,-3.7671328E-1,4.6748385E-2,-8.85506E-2,1.1839288E-1,-6.107476E-2,1.7166351E-1,8.39182E-3,-1.9038786E-1,-3.788544E-2,-1.0991796E-1,-3.8665015E-1,-2.3407077E-2,1.3037457E-1,-1.18569024E-1,-4.717339E-2,-1.8454908E-1,-1.0928694E-1,-2.9311407E-1,-4.5136087E-2,-8.499815E-2,-2.3621853E-1,-1.9828148E-1,-7.024839E-2,-3.2800552E-1,-9.5064625E-2,-1.4277688E-1,-2.3982976E-1,-6.0802072E-2,-1.1050481E-1,-2.3660325E-1,-1.3965228E-1,-2.1957709E-1,-1.2080138E-1,-8.56561E-2,-2.5745708E-1,-1.7267743E-1,-1.3178392E-1,-8.793674E-2,-2.4024887E-1,-2.91866E-1,-1.765479E-1,-2.519707E-1,-8.035818E-2,9.028855E-2,-7.0021816E-2,-1.3391608E-1,-2.242287E-1],"categories":[],"categories_nodes":[],"categories_segments":[],"categories_sizes":[],"default_left":[0,0,0,0,0,0,0,0,0,0,0,0,0,0,0,0,0,0,0,0,0,0,0,0,0,0,0,0,0,0,0,0,0,0,0,0,0,0,0,0,0,0,0,0,0,0,0,0,0,0,0,0,0,0,0,0,0,0,0,0,0,0,0,0,0,0,0,0,0,0,0,0,0,0,0,0,0,0,0,0,0,0,0,0,0,0,0,0,0,0,0,0,0,0,0,0,0,0,0,0,0,0,0,0,0,0,0,0,0,0,0,0,0,0,0,0,0,0,0,0,0],"id":9,"left_children":[1,3,5,7,9,11,13,15,17,19,21,23,25,27,29,31,33,-1,35,37,39,41,43,45,47,49,51,53,55,57,59,61,63,65,67,69,71,73,75,77,79,81,83,85,87,89,91,93,95,97,99,101,103,105,107,109,111,113,115,117,119,-1,-1,-1,-1,-1,-1,-1,-1,-1,-1,-1,-1,-1,-1,-1,-1,-1,-1,-1,-1,-1,-1,-1,-1,-1,-1,-1,-1,-1,-1,-1,-1,-1,-1,-1,-1,-1,-1,-1,-1,-1,-1,-1,-1,-1,-1,-1,-1,-1,-1,-1,-1,-1,-1,-1,-1,-1,-1,-1,-1],"loss_changes":[3.7830704E2,4.8157406E1,2.2962585E1,8.94322E0,1.6044294E1,3.7135162E0,2.3099365E0,6.713442E0,4.1912827E0,5.331254E0,6.5038757E0,8.473846E0,7.80278E0,4.297592E0,2.2043E0,6.671219E0,8.361174E0,0E0,1.0001196E0,5.062108E0,4.3988833E0,3.4865217E0,5.7336025E0,6.1802216E0,2.0815334E0,2.598526E0,1.4122658E0,2.4291E0,2.1474533E0,1.2248077E0,4.6525307E0,3.9635258E0,5.731848E0,5.243755E0,6.2986345E0,1.4500052E-2,2.584107E-1,6.425395E-1,2.5326698E0,2.3137069E0,3.854537E0,9.039494E-1,1.8044777E0,3.136709E0,7.431198E0,3.3873177E0,2.7844505E0,2.6693926E0,8.3115864E-1,1.0474415E0,5.0833435E0,2.0084381E-1,1.193924E0,1.6846809E0,8.697586E-1,6.144676E-1,7.9068184E-1,1.0754433E0,5.9490967E-1,7.1283174E-1,1.0099411E0,0E0,0E0,0E0,0E0,0E0,0E0,0E0,0E0,0E0,0E0,0E0,0E0,0E0,0E0,0E0,0E0,0E0,0E0,0E0,0E0,0E0,0E0,0E0,0E0,0E0,0E0,0E0,0E0,0E0,0E0,0E0,0E0,0E0,0E0,0E0,0E0,0E0,0E0,0E0,0E0,0E0,0E0,0E0,0E0,0E0,0E0,0E0,0E0,0E0,0E0,0E0,0E0,0E0,0E0,0E0,0E0,0E0,0E0,0E0,0E0],"parents":[2147483647,0,0,1,1,2,2,3,3,4,4,5,5,6,6,7,7,8,8,9,9,10,10,11,11,12,12,13,13,14,14,15,15,16,16,18,18,19,19,20,20,21,21,22,22,23,23,24,24,25,25,26,26,27,27,28,28,29,29,30,30,31,31,32,32,33,33,34,34,35,35,36,36,37,37,38,38,39,39,40,40,41,41,42,42,43,43,44,44,45,45,46,46,47,47,48,48,49,49,50,50,51,51,52,52,53,53,54,54,55,55,56,56,57,57,58,58,59,59,60,60],"right_children":[2,4,6,8,10,12,14,16,18,20,22,24,26,28,30,32,34,-1,36,38,40,42,44,46,48,50,52,54,56,58,60,62,64,66,68,70,72,74,76,78,80,82,84,86,88,90,92,94,96,98,100,102,104,106,108,110,112,114,116,118,120,-1,-1,-1,-1,-1,-1,-1,-1,-1,-1,-1,-1,-1,-1,-1,-1,-1,-1,-1,-1,-1,-1,-1,-1,-1,-1,-1,-1,-1,-1,-1,-1,-1,-1,-1,-1,-1,-1,-1,-1,-1,-1,-1,-1,-1,-1,-1,-1,-1,-1,-1,-1,-1,-1,-1,-1,-1,-1,-1,-1],"split_conditions":[4.36319E-7,1.4314726E-7,1.9492809E-6,4.879922E-7,3.2523056E-7,2.1316066E-6,1.5404034E-5,7.4146305E-7,3.7395013E-5,3.5872104E-5,2.589142E-6,9.726087E-6,2.6991323E-5,5.2946405E-5,1.9078894E-5,3.5309256E-6,7.2270375E-8,-3.194893E-1,4.7698713E-6,2.1315072E-5,3.89244E-5,3.8833914E-5,6.251728E-8,1.3866858E-6,2.6355849E-5,1.9680478E-5,4.19048E-6,1.1533292E-5,3.3011715E-6,7.7357345E-6,1.2403727E-4,2.358228E-5,1.866606E-5,5.1028674E-5,3.3503722E-5,3.066921E-8,4.063169E-6,6.672985E-8,2.4162702E-5,4.0369978E-5,1.0479595E-6,1.6854808E-6,1.6304728E-6,3.2405605E-5,1.4462993E-6,3.1152424E-5,4.800805E-5,4.0693712E-6,1.8292756E-5,1.7720735E-5,7.508307E-6,2.7674241E-5,2.3507197E-5,4.0726365E-5,7.947053E-6,5.614979E-5,5.5445256E-5,5.3110787E-5,1.5598614E-4,8.420134E-5,1.3640172E-4,2.0428916E-2,1.2027246E-1,1.05429865E-1,3.154844E-2,4.365146E-2,-9.846717E-2,-2.6131198E-1,-3.3722628E-2,2.322869E-2,1.0283884E-1,-1.1314762E-1,-1.6659321E-2,-4.8553742E-2,-3.7671328E-1,4.6748385E-2,-8.85506E-2,1.1839288E-1,-6.107476E-2,1.7166351E-1,8.39182E-3,-1.9038786E-1,-3.788544E-2,-1.0991796E-1,-3.8665015E-1,-2.3407077E-2,1.3037457E-1,-1.18569024E-1,-4.717339E-2,-1.8454908E-1,-1.0928694E-1,-2.9311407E-1,-4.5136087E-2,-8.499815E-2,-2.3621853E-1,-1.9828148E-1,-7.024839E-2,-3.2800552E-1,-9.5064625E-2,-1.4277688E-1,-2.3982976E-1,-6.0802072E-2,-1.1050481E-1,-2.3660325E-1,-1.3965228E-1,-2.1957709E-1,-1.2080138E-1,-8.56561E-2,-2.5745708E-1,-1.7267743E-1,-1.3178392E-1,-8.793674E-2,-2.4024887E-1,-2.91866E-1,-1.765479E-1,-2.519707E-1,-8.035818E-2,9.028855E-2,-7.0021816E-2,-1.3391608E-1,-2.242287E-1],"split_indices":[3,4,1,12,10,3,5,22,1222,1144,93,175,414,911,4,117,2,0,172,777,1294,1242,2,3,747,473,3,7,1,3,530,817,640,1376,1146,1,121,2,739,1374,31,52,51,987,42,937,1220,9,554,304,9,555,238,758,4,755,894,535,1042,57,563,0,0,0,0,0,0,0,0,0,0,0,0,0,0,0,0,0,0,0,0,0,0,0,0,0,0,0,0,0,0,0,0,0,0,0,0,0,0,0,0,0,0,0,0,0,0,0,0,0,0,0,0,0,0,0,0,0,0,0,0],"split_type":[0,0,0,0,0,0,0,0,0,0,0,0,0,0,0,0,0,0,0,0,0,0,0,0,0,0,0,0,0,0,0,0,0,0,0,0,0,0,0,0,0,0,0,0,0,0,0,0,0,0,0,0,0,0,0,0,0,0,0,0,0,0,0,0,0,0,0,0,0,0,0,0,0,0,0,0,0,0,0,0,0,0,0,0,0,0,0,0,0,0,0,0,0,0,0,0,0,0,0,0,0,0,0,0,0,0,0,0,0,0,0,0,0,0,0,0,0,0,0,0,0],"sum_hessian":[4.272E3,2.268E3,2.004E3,1.402E3,8.66E2,1.118E3,8.86E2,1.38E3,2.2E1,1.5E2,7.16E2,5.51E2,5.67E2,4.34E2,4.52E2,9.01E2,4.79E2,7E0,1.5E1,5.5E1,9.5E1,2.8E1,6.88E2,2.78E2,2.73E2,2.31E2,3.36E2,1.92E2,2.42E2,3.19E2,1.33E2,2.46E2,6.55E2,3.95E2,8.4E1,3E0,1.2E1,4E0,5.1E1,3E1,6.5E1,1.5E1,1.3E1,4.8E1,6.4E2,2.35E2,4.3E1,4.7E1,2.26E2,2.3E1,2.08E2,1.56E2,1.8E2,7.3E1,1.19E2,1.99E2,4.3E1,7.6E1,2.43E2,2E1,1.13E2,4.4E1,2.02E2,1.14E2,5.41E2,3.71E2,2.4E1,1.2E1,7.2E1,1E0,2E0,8E0,4E0,1E0,3E0,3.2E1,1.9E1,8E0,2.2E1,4.7E1,1.8E1,5E0,1E1,4E0,9E0,2.9E1,1.9E1,1.85E2,4.55E2,9.6E1,1.39E2,3.8E1,5E0,3E1,1.7E1,4E0,2.22E2,2E1,3E0,1.09E2,9.9E1,1.2E1,1.44E2,1.4E1,1.66E2,3.9E1,3.4E1,4E0,1.15E2,7E1,1.29E2,5E0,3.8E1,1.1E1,6.5E1,2.4E2,3E0,2E0,1.8E1,1.9E1,9.4E1],"tree_param":{"num_deleted":"0","num_feature":"1382","num_nodes":"121","size_leaf_vector":"1"}},{"base_weights":[1.7472492E-1,1.6179882E-1,2.2509937E-1,1.2941618E-1,1.7091677E-1,2.1548101E-1,2.754258E-1,2.478036E-1,1.1253823E-1,2.4068049E-1,1.6304168E-1,2.3968516E-1,1.9685918E-1,7.2740234E-2,8.736047E-2,3.1500015E-1,6.252787E-2,7.834842E-2,1.8197483E-1,2.6483792E-1,3.32906E-2,3.507018E-2,1.6615728E-1,8.294454E-2,2.2723939E-1,1.632956E-1,6.300236E-2,4.0689427E-1,1.4066646E-1,-6.2677294E-2,1.9255437E-1,2.8842816E-1,6.133148E-2,1.3803947E-1,2.8485093E-1,1.2745644E-1,3.03299E-1,-1.1256997E-1,2.2147053E-1,-5.043125E-2,1.582985E-1,1.804411E-1,1.3564624E-1,2.0551074E-2,2.282811E-1,2.8448211E-2,4.998295E-2,1.3182454E-1,-8.450318E-3,2.5323927E-3,9.245569E-2,1.2501685E-2,-3.758386E-2,2.3986025E-2,7.0114665E-2,2.7646696E-2,1.1885866E-1,-1.4617441E-3,3.0759798E-2,3.1281848E-4,5.8914084E-2,1.2449215E-1,4.7349453E-2,7.886016E-2,-5.307042E-3,5.042224E-2,1.0395886E-1,-4.757227E-2,2.2976223E-2,9.186332E-2,2.1471428E-2,-2.8999848E-2,2.8163087E-2,1.2502098E-1,2.05065E-2,5.0120175E-2,8.180424E-2,2.9793484E-2,4.743E-2,6.285541E-2,7.208172E-2],"categories":[],"categories_nodes":[],"categories_segments":[],"categories_sizes":[],"default_left":[0,0,0,0,0,0,0,0,0,0,0,0,0,0,0,0,0,0,0,0,0,0,0,0,0,0,0,0,0,0,0,0,0,0,0,0,0,0,0,0,0,0,0,0,0,0,0,0,0,0,0,0,0,0,0,0,0,0,0,0,0,0,0,0,0,0,0,0,0,0,0,0,0,0,0,0,0,0,0,0,0],"id":10,"left_children":[1,3,5,7,9,11,13,15,17,19,21,23,25,-1,-1,27,29,31,33,35,37,39,41,-1,43,45,-1,47,49,51,53,55,57,59,61,63,65,67,69,71,73,75,77,-1,79,-1,-1,-1,-1,-1,-1,-1,-1,-1,-1,-1,-1,-1,-1,-1,-1,-1,-1,-1,-1,-1,-1,-1,-1,-1,-1,-1,-1,-1,-1,-1,-1,-1,-1,-1,-1],"loss_changes":[2.7459106E0,9.8296356E-1,3.6178207E-1,1.4747114E0,1.4183044E0,2.8409958E-1,1.04904175E-4,1.1381435E0,1.552598E0,1.3288536E0,9.458809E-1,8.143234E-2,1.515007E-1,0E0,0E0,1.0321398E0,4.353485E-1,1.5695724E0,9.414973E-1,1.2241802E0,8.209239E-1,6.1908275E-1,9.909744E-1,0E0,2.4212837E-2,1.2111902E-2,0E0,6.349144E-1,5.511546E-1,9.6675925E-2,4.1565895E-2,6.614969E-1,1.1243042E0,1.2306404E0,9.923048E-1,1.0659883E0,1.0290833E0,1.6007957E-1,1.4321691E-1,2.425974E-1,5.2938986E-1,1.9084625E0,5.9373856E-1,0E0,3.4332275E-3,0E0,0E0,0E0,0E0,0E0,0E0,0E0,0E0,0E0,0E0,0E0,0E0,0E0,0E0,0E0,0E0,0E0,0E0,0E0,0E0,0E0,0E0,0E0,0E0,0E0,0E0,0E0,0E0,0E0,0E0,0E0,0E0,0E0,0E0,0E0,0E0],"parents":[2147483647,0,0,1,1,2,2,3,3,4,4,5,5,6,6,7,7,8,8,9,9,10,10,11,11,12,12,15,15,16,16,17,17,18,18,19,19,20,20,21,21,22,22,24,24,25,25,27,27,28,28,29,29,30,30,31,31,32,32,33,33,34,34,35,35,36,36,37,37,38,38,39,39,40,40,41,41,42,42,44,44],"right_children":[2,4,6,8,10,12,14,16,18,20,22,24,26,-1,-1,28,30,32,34,36,38,40,42,-1,44,46,-1,48,50,52,54,56,58,60,62,64,66,68,70,72,74,76,78,-1,80,-1,-1,-1,-1,-1,-1,-1,-1,-1,-1,-1,-1,-1,-1,-1,-1,-1,-1,-1,-1,-1,-1,-1,-1,-1,-1,-1,-1,-1,-1,-1,-1,-1,-1,-1,-1],"split_conditions":[5.2597192E-5,2.5889325E-5,4.2688327E-5,2.8705905E-5,2.2921555E-5,2.3007362E-6,3.0051342E-6,3.0144379E-6,2.1988157E-5,4.0732197E-5,2.9587864E-5,2.630144E-6,5.6774352E-5,7.2740234E-2,8.736047E-2,1.4349778E-5,8.800316E-6,5.619485E-8,3.51133E-5,3.388081E-5,3.9285944E-5,3.4885714E-5,5.1032845E-7,8.294454E-2,2.0861722E-5,4.0200663E-5,6.300236E-2,1.3886162E-5,3.1611E-5,1.7238182E-5,2.592315E-5,1.3903114E-5,7.17786E-6,1.18834305E-5,5.955528E-6,1.6419766E-5,3.3915265E-5,8.09107E-6,5.1657775E-8,3.0715197E-5,2.2372044E-5,1.6476686E-5,3.1300882E-5,2.0551074E-2,4.0349685E-5,2.8448211E-2,4.998295E-2,1.3182454E-1,-8.450318E-3,2.5323927E-3,9.245569E-2,1.2501685E-2,-3.758386E-2,2.3986025E-2,7.0114665E-2,2.7646696E-2,1.1885866E-1,-1.4617441E-3,3.0759798E-2,3.1281848E-4,5.8914084E-2,1.2449215E-1,4.7349453E-2,7.886016E-2,-5.307042E-3,5.042224E-2,1.0395886E-1,-4.757227E-2,2.2976223E-2,9.186332E-2,2.1471428E-2,-2.8999848E-2,2.8163087E-2,1.2502098E-1,2.05065E-2,5.0120175E-2,8.180424E-2,2.9793484E-2,4.743E-2,6.285541E-2,7.208172E-2],"split_indices":[880,843,10,1016,790,1,1,85,651,1124,1107,2,335,0,0,425,267,2,1039,1135,1245,1063,1,0,42,321,0,376,1008,566,830,448,226,392,180,500,1131,219,1,911,776,410,688,0,19,0,0,0,0,0,0,0,0,0,0,0,0,0,0,0,0,0,0,0,0,0,0,0,0,0,0,0,0,0,0,0,0,0,0,0,0],"split_type":[0,0,0,0,0,0,0,0,0,0,0,0,0,0,0,0,0,0,0,0,0,0,0,0,0,0,0,0,0,0,0,0,0,0,0,0,0,0,0,0,0,0,0,0,0,0,0,0,0,0,0,0,0,0,0,0,0,0,0,0,0,0,0,0,0,0,0,0,0,0,0,0,0,0,0,0,0,0,0,0,0],"sum_hessian":[4.272E3,3.403E3,8.69E2,7.51E2,2.652E3,7.34E2,1.35E2,9.2E1,6.59E2,2.66E2,2.386E3,3.14E2,4.2E2,4.9E1,8.6E1,6.7E1,2.5E1,4.43E2,2.16E2,2.38E2,2.8E1,5.7E1,2.329E3,7.4E1,2.4E2,1.22E2,2.98E2,4.3E1,2.4E1,1.3E1,1.2E1,3.2E1,4.11E2,1.53E2,6.3E1,5.3E1,1.85E2,1.6E1,1.2E1,3.4E1,2.3E1,1.583E3,7.46E2,2E0,2.38E2,7E0,1.15E2,4E1,3E0,1.4E1,1E1,5E0,8E0,4E0,8E0,1.2E1,2E1,1.58E2,2.53E2,4.6E1,1.07E2,3E1,3.3E1,2.7E1,2.6E1,4.6E1,1.39E2,1.3E1,3E0,7E0,5E0,2.6E1,8E0,5E0,1.8E1,1.385E3,1.98E2,2.87E2,4.59E2,1E2,1.38E2],"tree_param":{"num_deleted":"0","num_feature":"1382","num_nodes":"81","size_leaf_vector":"1"}},{"base_weights":[-1.7906314E-1,3.544839E-2,-3.8696784E-1,1.0962736E-1,-9.806171E-2,-3.165202E-1,-4.8850986E-1,-2.1142436E-2,1.4270264E-1,1.6124505E-1,-1.4561018E-1,-2.2818002E-1,-3.5162672E-1,-6.113788E-1,-4.675519E-1,-1.15283914E-1,2.0459323E-1,1.7939873E-1,-6.6348147E-3,2.1385963E-1,-4.938921E-1,-2.2262347E-1,-9.87997E-4,-3.2208264E-1,-1.3656007E-1,-4.690914E-1,-3.044275E-1,-6.404963E-1,-2.0956564E-1,-3.8114434E-1,-5.1780695E-1,-2.0798664E-1,1.22782715E-1,2.5988165E-1,-9.24679E-1,2.784971E-1,1.1047218E-1,-6.2800986E-1,3.3387516E-2,6.60635E-1,1.24122486E-1,-8.6001694E-2,-2.0505111E-1,3.893719E-1,-2.497423E-1,-7.3531884E-1,2.2814335E-2,-2.6909128E-1,-6.0203207E-1,-4.0425375E-1,-1.2703699E-1,-3.766618E-1,-6.4651924E-1,-2.2410406E-1,-3.623893E-1,-4.2853886E-1,-7.1525043E-1,-6.9379896E-2,-2.4552586E-2,-3.425923E-1,-5.2235824E-1,-5.774904E-1,-4.6784434E-1,-1.5408179E-1,-3.0366613E-2,6.8272054E-2,-9.512068E-2,1.0805436E-1,-4.538714E-2,-3.2861665E-1,-6.188246E-2,-3.518613E-2,9.5421314E-2,6.600468E-2,-6.633676E-3,-3.954936E-2,-3.1034186E-1,4.799551E-2,-4.1769672E-2,-8.064293E-2,2.3808488E-1,-7.1995985E-3,1.1325168E-1,-4.0724132E-2,9.485183E-3,-2.516239E-2,1.7335251E-1,-1.04625665E-1,-2.2374578E-2,-4.8409183E-2,-3.376332E-1,2.0263487E-1,-6.828229E-4,-1.02098346E-1,-3.4233835E-2,-2.0675187E-1,-5.0296064E-2,-1.7172128E-2,-1.386625E-1,-2.0378929E-2,-4.770612E-2,-2.375495E-1,-8.951291E-2,-2.3544222E-1,-1.0143362E-1,-1.3548067E-1,-6.0249068E-2,-1.6970456E-1,-8.779208E-2,-1.4802858E-1,-3.5109043E-2,-2.1993013E-1,-5.1153984E-2,-1.4181873E-1,-9.3877055E-2,-1.3108784E-1,-2.0778067E-1,-1.4201874E-1,-1.9272304E-1,-6.338155E-2,-1.5251303E-1],"categories":[],"categories_nodes":[],"categories_segments":[],"categories_sizes":[],"default_left":[0,0,0,0,0,0,0,0,0,0,0,0,0,0,0,0,0,0,0,0,0,0,0,0,0,0,0,0,0,0,0,0,0,0,0,0,0,0,0,0,0,0,0,0,0,0,0,0,0,0,0,0,0,0,0,0,0,0,0,0,0,0,0,0,0,0,0,0,0,0,0,0,0,0,0,0,0,0,0,0,0,0,0,0,0,0,0,0,0,0,0,0,0,0,0,0,0,0,0,0,0,0,0,0,0,0,0,0,0,0,0,0,0,0,0,0,0,0,0,0,0],"id":11,"left_children":[1,3,5,7,9,11,13,15,17,19,21,23,25,27,29,31,33,35,37,39,41,43,45,47,49,51,53,55,57,59,61,63,65,67,69,71,73,75,77,79,81,83,-1,85,87,89,91,93,95,97,99,101,103,105,107,109,111,-1,-1,113,115,117,119,-1,-1,-1,-1,-1,-1,-1,-1,-1,-1,-1,-1,-1,-1,-1,-1,-1,-1,-1,-1,-1,-1,-1,-1,-1,-1,-1,-1,-1,-1,-1,-1,-1,-1,-1,-1,-1,-1,-1,-1,-1,-1,-1,-1,-1,-1,-1,-1,-1,-1,-1,-1,-1,-1,-1,-1,-1,-1],"loss_changes":[1.905808E2,2.0848013E1,1.5368256E1,5.855076E0,9.295368E0,3.9018555E0,1.9982452E0,5.846385E0,5.9197006E0,4.138586E0,7.083438E0,3.1220493E0,4.941269E0,1.3399506E0,3.111557E0,4.3070054E0,5.297596E0,5.891285E0,5.342908E0,4.288066E0,6.3728404E-1,6.984831E0,3.8970664E0,2.5231152E0,4.27907E-1,4.03677E0,2.9775734E0,1.5473175E0,8.789629E-3,1.3671646E0,1.1581726E0,4.5161176E0,2.6072383E0,3.2712417E0,2.6460338E-1,5.597578E0,7.45555E0,2.4854417E0,4.436628E0,2.4381084E0,3.4619484E0,2.769597E-2,0E0,1.653934E0,6.8763485E0,1.3857937E0,3.5385125E0,1.6613426E0,9.443159E-1,9.4209015E-2,3.3515024E-1,5.4190407E0,3.4877663E0,1.3812475E0,5.2226524E0,6.0930634E-1,7.014961E-1,0E0,0E0,7.2465897E-1,5.5513954E-1,1.1420517E0,2.658863E0,0E0,0E0,0E0,0E0,0E0,0E0,0E0,0E0,0E0,0E0,0E0,0E0,0E0,0E0,0E0,0E0,0E0,0E0,0E0,0E0,0E0,0E0,0E0,0E0,0E0,0E0,0E0,0E0,0E0,0E0,0E0,0E0,0E0,0E0,0E0,0E0,0E0,0E0,0E0,0E0,0E0,0E0,0E0,0E0,0E0,0E0,0E0,0E0,0E0,0E0,0E0,0E0,0E0,0E0,0E0,0E0,0E0,0E0],"parents":[2147483647,0,0,1,1,2,2,3,3,4,4,5,5,6,6,7,7,8,8,9,9,10,10,11,11,12,12,13,13,14,14,15,15,16,16,17,17,18,18,19,19,20,20,21,21,22,22,23,23,24,24,25,25,26,26,27,27,28,28,29,29,30,30,31,31,32,32,33,33,34,34,35,35,36,36,37,37,38,38,39,39,40,40,41,41,43,43,44,44,45,45,46,46,47,47,48,48,49,49,50,50,51,51,52,52,53,53,54,54,55,55,56,56,59,59,60,60,61,61,62,62],"right_children":[2,4,6,8,10,12,14,16,18,20,22,24,26,28,30,32,34,36,38,40,42,44,46,48,50,52,54,56,58,60,62,64,66,68,70,72,74,76,78,80,82,84,-1,86,88,90,92,94,96,98,100,102,104,106,108,110,112,-1,-1,114,116,118,120,-1,-1,-1,-1,-1,-1,-1,-1,-1,-1,-1,-1,-1,-1,-1,-1,-1,-1,-1,-1,-1,-1,-1,-1,-1,-1,-1,-1,-1,-1,-1,-1,-1,-1,-1,-1,-1,-1,-1,-1,-1,-1,-1,-1,-1,-1,-1,-1,-1,-1,-1,-1,-1,-1,-1,-1,-1,-1],"split_conditions":[1.5540576E-7,3.1742627E-7,9.45906E-6,8.613021E-6,2.1900918E-7,5.426615E-7,6.257134E-5,1.980127E-5,2.6962275E-6,2.8545352E-5,1.2729608E-6,5.2210826E-6,3.3273092E-5,5.1233597E-5,1.5404034E-5,2.8514336E-5,5.8730376E-7,2.2337314E-7,2.8587188E-5,3.86532E-5,5.011198E-7,5.6856358E-8,8.2125725E-6,2.043642E-6,1.0451823E-5,4.69502E-6,2.0392918E-6,5.3068223E-5,5.4407938E-5,3.1171703E-6,5.041649E-5,1.9707147E-6,3.5423156E-5,4.3050095E-5,9.891486E-8,3.365281E-5,1.2468443E-5,1.2194139E-6,1.2642544E-5,1.6857767E-7,4.328609E-6,1.11976114E-7,-2.0505111E-1,1.3364891E-5,4.4493914E-5,9.3779266E-7,3.4068339E-7,6.127972E-6,5.62974E-6,1.216271E-7,1.7859114E-5,1.0069491E-5,3.9243154E-5,2.9820212E-5,1.8046238E-5,5.8749993E-5,5.678157E-5,-6.9379896E-2,-2.4552586E-2,6.5498054E-5,7.0331706E-5,8.03805E-6,1.08143526E-4,-1.5408179E-1,-3.0366613E-2,6.8272054E-2,-9.512068E-2,1.0805436E-1,-4.538714E-2,-3.2861665E-1,-6.188246E-2,-3.518613E-2,9.5421314E-2,6.600468E-2,-6.633676E-3,-3.954936E-2,-3.1034186E-1,4.799551E-2,-4.1769672E-2,-8.064293E-2,2.3808488E-1,-7.1995985E-3,1.1325168E-1,-4.0724132E-2,9.485183E-3,-2.516239E-2,1.7335251E-1,-1.04625665E-1,-2.2374578E-2,-4.8409183E-2,-3.376332E-1,2.0263487E-1,-6.828229E-4,-1.02098346E-1,-3.4233835E-2,-2.0675187E-1,-5.0296064E-2,-1.7172128E-2,-1.386625E-1,-2.0378929E-2,-4.770612E-2,-2.375495E-1,-8.951291E-2,-2.3544222E-1,-1.0143362E-1,-1.3548067E-1,-6.0249068E-2,-1.6970456E-1,-8.779208E-2,-1.4802858E-1,-3.5109043E-2,-2.1993013E-1,-5.1153984E-2,-1.4181873E-1,-9.3877055E-2,-1.3108784E-1,-2.0778067E-1,-1.4201874E-1,-1.9272304E-1,-6.338155E-2,-1.5251303E-1],"split_indices":[2,9,4,292,7,2,1256,580,77,755,34,115,874,447,5,850,15,7,1022,1356,16,2,307,21,340,10,2,1203,514,1,20,66,1026,1214,3,1201,385,36,388,6,130,3,0,433,1331,26,11,149,110,1,479,264,991,901,139,1164,651,0,0,1293,620,3,289,0,0,0,0,0,0,0,0,0,0,0,0,0,0,0,0,0,0,0,0,0,0,0,0,0,0,0,0,0,0,0,0,0,0,0,0,0,0,0,0,0,0,0,0,0,0,0,0,0,0,0,0,0,0,0,0,0,0],"split_type":[0,0,0,0,0,0,0,0,0,0,0,0,0,0,0,0,0,0,0,0,0,0,0,0,0,0,0,0,0,0,0,0,0,0,0,0,0,0,0,0,0,0,0,0,0,0,0,0,0,0,0,0,0,0,0,0,0,0,0,0,0,0,0,0,0,0,0,0,0,0,0,0,0,0,0,0,0,0,0,0,0,0,0,0,0,0,0,0,0,0,0,0,0,0,0,0,0,0,0,0,0,0,0,0,0,0,0,0,0,0,0,0,0,0,0,0,0,0,0,0,0],"sum_hessian":[4.272E3,2.103E3,2.169E3,1.352E3,7.51E2,1.283E3,8.86E2,2.73E2,1.079E3,1.16E2,6.35E2,3.67E2,9.16E2,1.25E2,7.61E2,1.93E2,8E1,8.66E2,2.13E2,1.08E2,8E0,4.14E2,2.21E2,1.8E2,1.87E2,2.6E2,6.56E2,1.16E2,9E0,2.83E2,4.78E2,1.39E2,5.4E1,7.7E1,3E0,3.54E2,5.12E2,1.2E1,2.01E2,1.7E1,9.1E1,3E0,5E0,1.7E1,3.97E2,6E0,2.15E2,1.53E2,2.7E1,5E0,1.82E2,1.73E2,8.7E1,2.77E2,3.79E2,3.2E1,8.4E1,7E0,2E0,2.25E2,5.8E1,2.13E2,2.65E2,3.5E1,1.04E2,4.4E1,1E1,6.2E1,1.5E1,2E0,1E0,3.2E1,3.22E2,2.8E2,2.32E2,6E0,6E0,1.16E2,8.5E1,2E0,1.5E1,5.8E1,3.3E1,2E0,1E0,5E0,1.2E1,2.53E2,1.44E2,3E0,3E0,7E0,2.08E2,1.04E2,4.9E1,2.2E1,5E0,1E0,4E0,6.5E1,1.17E2,2.6E1,1.47E2,5.9E1,2.8E1,2.4E1,2.53E2,9.5E1,2.84E2,2.6E1,6E0,8.1E1,3E0,3.9E1,1.86E2,4.1E1,1.7E1,8.5E1,1.28E2,3.7E1,2.28E2],"tree_param":{"num_deleted":"0","num_feature":"1382","num_nodes":"121","size_leaf_vector":"1"}},{"base_weights":[1.227532E-1,1.1261915E-1,1.5563728E-1,5.1557366E-2,1.1730851E-1,2.073322E-1,1.4923964E-1,2.7553592E-2,2.6144248E-1,1.296512E-1,8.8600904E-2,2.3150057E-1,1.807562E-1,1.2397172E-1,1.6978747E-1,-7.870348E-3,1.6696094E-1,3.454128E-1,-4.8037283E-2,1.194524E-1,2.2337611E-1,2.6649356E-2,1.0371589E-1,3.0361572E-2,2.3729418E-1,1.4144477E-2,1.823282E-1,7.522816E-2,1.2968855E-1,1.6221337E-1,6.139345E-2,-2.5293557E-2,3.066219E-1,2.3248409E-1,-1.0640247E-1,1.3505414E-1,1.0149961E-1,-2.4412222E-2,-1.1025369E-2,1.0639777E-1,1.6756047E-1,-1.14363715E-1,2.3576882E-1,1.1449581E-2,7.516376E-2,1.3991731E-1,8.039695E-2,1.7639467E-2,7.19211E-2,1.4144477E-2,1.8395841E-1,3.267988E-2,8.354455E-2,1.5401134E-1,1.2020431E-1,2.959966E-2,1.630745E-1,2.2933196E-2,-2.0261394E-2,1.0717458E-1,-1.475874E-2,-1.4328867E-2,8.4235206E-2,1.8015457E-2,-5.9891418E-2,4.4813585E-2,-3.6395849E-3,5.327359E-4,-4.7653047E-3,3.5120632E-2,-3.49747E-3,6.7345545E-2,2.7471414E-2,-4.9805287E-2,8.119602E-3,1.10575154E-1,6.039207E-2,1.8341292E-2,-4.905398E-4,1.1907748E-2,4.3741435E-2,2.8941464E-2,6.463127E-2,1.5037547E-2,2.9897602E-2,2.9428942E-2,5.6659635E-2,3.75954E-3,1.3887596E-2,2.6147397E-2,9.583276E-3,9.520202E-3,4.648343E-2,3.1508077E-2,3.978339E-2,1.875155E-2,4.9026325E-2],"categories":[],"categories_nodes":[],"categories_segments":[],"categories_sizes":[],"default_left":[0,0,0,0,0,0,0,0,0,0,0,0,0,0,0,0,0,0,0,0,0,0,0,0,0,0,0,0,0,0,0,0,0,0,0,0,0,0,0,0,0,0,0,0,0,0,0,0,0,0,0,0,0,0,0,0,0,0,0,0,0,0,0,0,0,0,0,0,0,0,0,0,0,0,0,0,0,0,0,0,0,0,0,0,0,0,0,0,0,0,0,0,0,0,0,0,0],"id":12,"left_children":[1,3,5,7,9,11,13,15,17,19,21,23,25,27,29,31,33,35,37,39,41,43,45,-1,47,-1,49,51,53,55,-1,57,59,61,63,-1,65,-1,67,69,71,73,75,77,79,81,83,-1,-1,-1,85,87,89,91,93,-1,95,-1,-1,-1,-1,-1,-1,-1,-1,-1,-1,-1,-1,-1,-1,-1,-1,-1,-1,-1,-1,-1,-1,-1,-1,-1,-1,-1,-1,-1,-1,-1,-1,-1,-1,-1,-1,-1,-1,-1,-1],"loss_changes":[1.4064407E0,9.302864E-1,3.011074E-1,1.1767344E0,1.0642548E0,2.752304E-2,4.4467545E-1,1.0482459E0,6.4028347E-1,2.0007439E0,8.549757E-1,1.5993595E-2,3.1653643E-3,1.0337877E-1,9.669781E-2,9.3926454E-1,7.94937E-1,4.3983674E-1,6.505971E-3,1.1848564E0,8.9336395E-1,1.3261025E-1,6.100669E-1,0E0,7.7052116E-3,0E0,3.447175E-3,1.3192952E-2,6.4994335E-2,6.2913895E-3,0E0,7.014135E-1,1.7969996E-1,4.8716795E-1,1.5166348E-1,0E0,3.989622E-2,0E0,2.7700953E-4,1.9023666E0,1.7399845E0,6.2936224E-2,8.412132E-1,9.047137E-2,1.019589E-1,9.2087364E-1,2.573936E-1,0E0,0E0,0E0,4.224539E-3,1.8881978E-3,4.1145682E-3,6.2685013E-3,3.597331E-2,0E0,3.7975311E-3,0E0,0E0,0E0,0E0,0E0,0E0,0E0,0E0,0E0,0E0,0E0,0E0,0E0,0E0,0E0,0E0,0E0,0E0,0E0,0E0,0E0,0E0,0E0,0E0,0E0,0E0,0E0,0E0,0E0,0E0,0E0,0E0,0E0,0E0,0E0,0E0,0E0,0E0,0E0,0E0],"parents":[2147483647,0,0,1,1,2,2,3,3,4,4,5,5,6,6,7,7,8,8,9,9,10,10,11,11,12,12,13,13,14,14,15,15,16,16,17,17,18,18,19,19,20,20,21,21,22,22,24,24,26,26,27,27,28,28,29,29,31,31,32,32,33,33,34,34,36,36,38,38,39,39,40,40,41,41,42,42,43,43,44,44,45,45,46,46,50,50,51,51,52,52,53,53,54,54,56,56],"right_children":[2,4,6,8,10,12,14,16,18,20,22,24,26,28,30,32,34,36,38,40,42,44,46,-1,48,-1,50,52,54,56,-1,58,60,62,64,-1,66,-1,68,70,72,74,76,78,80,82,84,-1,-1,-1,86,88,90,92,94,-1,96,-1,-1,-1,-1,-1,-1,-1,-1,-1,-1,-1,-1,-1,-1,-1,-1,-1,-1,-1,-1,-1,-1,-1,-1,-1,-1,-1,-1,-1,-1,-1,-1,-1,-1,-1,-1,-1,-1,-1,-1],"split_conditions":[5.2189684E-5,8.053175E-6,2.630144E-6,1.5325686E-5,2.1732563E-7,4.3908927E-5,5.5476186E-5,2.2509706E-5,4.9408277E-6,1.5041037E-5,1.2177254E-5,4.5193112E-5,3.41197E-5,3.4658588E-5,6.957285E-6,4.4125984E-5,2.6684214E-5,2.9694267E-5,2.4210743E-7,1.4159176E-6,4.296624E-6,1.7059832E-5,1.5133093E-6,3.0361572E-2,3.1632855E-5,1.4144477E-2,4.0702645E-5,5.5710905E-5,1.0428118E-5,6.0988037E-5,6.139345E-2,3.7332786E-5,3.992059E-7,3.4403813E-6,5.8890663E-7,1.3505414E-1,4.3646256E-7,-2.4412222E-2,2.7746358E-8,1.2410774E-7,6.53521E-8,1.8439737E-6,2.3030466E-6,1.7810602E-6,4.930569E-5,1.0083547E-5,2.4797258E-5,1.7639467E-2,7.19211E-2,1.4144477E-2,6.5956265E-5,1.5855012E-5,5.1376286E-5,2.1093922E-5,5.467307E-5,2.959966E-2,7.114678E-5,2.2933196E-2,-2.0261394E-2,1.0717458E-1,-1.475874E-2,-1.4328867E-2,8.4235206E-2,1.8015457E-2,-5.9891418E-2,4.4813585E-2,-3.6395849E-3,5.327359E-4,-4.7653047E-3,3.5120632E-2,-3.49747E-3,6.7345545E-2,2.7471414E-2,-4.9805287E-2,8.119602E-3,1.10575154E-1,6.039207E-2,1.8341292E-2,-4.905398E-4,1.1907748E-2,4.3741435E-2,2.8941464E-2,6.463127E-2,1.5037547E-2,2.9897602E-2,2.9428942E-2,5.6659635E-2,3.75954E-3,1.3887596E-2,2.6147397E-2,9.583276E-3,9.520202E-3,4.648343E-2,3.1508077E-2,3.978339E-2,1.875155E-2,4.9026325E-2],"split_indices":[1053,282,2,425,1,317,71,644,142,400,274,1299,163,287,2,1174,760,864,8,38,153,421,2,0,928,0,471,1370,4,332,0,1239,12,119,21,0,13,0,1,3,1,54,69,15,1364,99,387,0,0,0,1375,28,776,109,314,0,1299,0,0,0,0,0,0,0,0,0,0,0,0,0,0,0,0,0,0,0,0,0,0,0,0,0,0,0,0,0,0,0,0,0,0,0,0,0,0,0,0],"split_type":[0,0,0,0,0,0,0,0,0,0,0,0,0,0,0,0,0,0,0,0,0,0,0,0,0,0,0,0,0,0,0,0,0,0,0,0,0,0,0,0,0,0,0,0,0,0,0,0,0,0,0,0,0,0,0,0,0,0,0,0,0,0,0,0,0,0,0,0,0,0,0,0,0,0,0,0,0,0,0,0,0,0,0,0,0,0,0,0,0,0,0,0,0,0,0,0,0],"sum_hessian":[4.272E3,3.269E3,1.003E3,2.34E2,3.035E3,1.07E2,8.96E2,2.11E2,2.3E1,2.12E3,9.15E2,5.2E1,5.5E1,4.05E2,4.91E2,1.69E2,4.2E1,1.8E1,5E0,1.914E3,2.06E2,1.8E2,7.35E2,3E0,4.9E1,1E0,5.4E1,4.4E1,3.61E2,4.08E2,8.3E1,1.61E2,8E0,3.4E1,8E0,1.2E1,6E0,2E0,3E0,1.508E3,4.06E2,7E0,1.99E2,1.38E2,4.2E1,2.86E2,4.49E2,1E0,4.8E1,1E0,5.3E1,8E0,3.6E1,9.7E1,2.64E2,7E0,4.01E2,4.7E1,1.14E2,7E0,1E0,5E0,2.9E1,3E0,5E0,4E0,2E0,1E0,2E0,1.383E3,1.25E2,2.31E2,1.75E2,5E0,2E0,3.9E1,1.6E2,2.8E1,1.1E2,2.9E1,1.3E1,1.83E2,1.03E2,1.76E2,2.73E2,4E0,4.9E1,4E0,4E0,3.3E1,3E0,1E0,9.6E1,1.23E2,1.41E2,2E0,3.99E2],"tree_param":{"num_deleted":"0","num_feature":"1382","num_nodes":"97","size_leaf_vector":"1"}},{"base_weights":[-1.2635207E-1,6.1235487E-2,-2.4449407E-1,1.0524679E-1,-3.6410645E-2,-1.4894126E-1,-3.0661792E-1,-2.3358418E-2,1.4779192E-1,2.076769E-1,-8.055401E-2,-3.4629384E-1,-1.2793076E-1,-5.1881045E-1,-2.9649124E-1,1.1254047E-2,-7.4576086E-1,1.5779467E-1,-3.87214E-1,2.6028702E-1,-4.75794E-1,1.7245091E-1,-1.2534584E-1,-1.0016595E0,-2.5299066E-1,1.931514E-1,-1.417175E-1,-6.411735E-1,-3.079968E-1,-2.0272635E-1,-3.354363E-1,3.3209562E-2,-8.246632E-1,-2.7322933E-1,-3.3352655E-1,1.6981365E-1,-2.1084508E-1,-1.8343325E-1,-2.0888294E-1,-2.6448807E-1,3.1906185E-1,-1.7193763E-1,-5.622624E-2,-4.3338147E-1,3.1510592E-1,-2.640475E-1,-4.3952346E-2,-6.9161564E-2,-3.3984894E-1,-5.1882803E-1,-6.764847E-2,5.48255E-1,-5.163231E-2,-3.93899E-1,-1.3013004E-1,-8.122897E-2,-6.951372E-1,-5.272667E-1,-1.1059022E-1,-3.1921092E-1,-1.6962603E-1,-6.437843E-1,-3.2805485E-1,3.673351E-2,-4.5539185E-2,-5.9621807E-2,-3.1058547E-1,-1.145634E-2,-1.3198906E-1,6.2476803E-2,1.3955611E-2,4.3497108E-2,-2.2248147E-1,6.2375363E-2,-7.3008046E-2,-1.0038906E-1,-1.0812342E-2,4.8930574E-2,1.5179272E-1,-4.923687E-2,-1.9221853E-1,1.5594627E-1,1.705312E-2,-6.462565E-2,-3.063773E-1,1.3938651E-2,-5.5497892E-2,-3.1571147E-1,-7.25922E-2,1.2153602E-1,-4.0986445E-2,2.275951E-1,5.081044E-2,-1.5318666E-1,3.891967E-2,-1.8830825E-1,-4.9083892E-2,-1.3919091E-1,-3.6369514E-2,1.4691735E-2,-5.5306222E-2,-2.1801534E-1,-1.9021297E-2,-2.2738649E-2,-1.8073857E-1,6.3421014E-3,-1.0009936E-1,-4.3428056E-2,-1.4122467E-1,-1.17936224E-1,-4.604586E-2,-3.639367E-2,-2.0573027E-1,-8.293457E-2,-1.0897018E-1],"categories":[],"categories_nodes":[],"categories_segments":[],"categories_sizes":[],"default_left":[0,0,0,0,0,0,0,0,0,0,0,0,0,0,0,0,0,0,0,0,0,0,0,0,0,0,0,0,0,0,0,0,0,0,0,0,0,0,0,0,0,0,0,0,0,0,0,0,0,0,0,0,0,0,0,0,0,0,0,0,0,0,0,0,0,0,0,0,0,0,0,0,0,0,0,0,0,0,0,0,0,0,0,0,0,0,0,0,0,0,0,0,0,0,0,0,0,0,0,0,0,0,0,0,0,0,0,0,0,0,0,0,0,0,0],"id":13,"left_children":[1,3,5,7,9,11,13,15,17,19,21,23,25,27,29,31,33,35,37,39,41,43,45,47,49,51,53,55,57,59,61,63,65,67,-1,69,71,73,-1,75,77,-1,-1,79,81,83,85,-1,-1,87,89,91,93,95,97,99,101,103,105,107,109,111,113,-1,-1,-1,-1,-1,-1,-1,-1,-1,-1,-1,-1,-1,-1,-1,-1,-1,-1,-1,-1,-1,-1,-1,-1,-1,-1,-1,-1,-1,-1,-1,-1,-1,-1,-1,-1,-1,-1,-1,-1,-1,-1,-1,-1,-1,-1,-1,-1,-1,-1,-1,-1],"loss_changes":[9.471306E1,7.103358E0,1.5518814E1,6.2355204E0,5.5549994E0,4.247303E0,3.258484E0,7.1095657E0,4.642004E0,2.9644845E0,4.9626093E0,5.800212E0,4.175166E0,1.6340218E0,5.4752502E0,5.019401E0,1.9445057E0,3.762003E0,8.799751E-1,2.3668118E0,6.099105E-2,5.8406134E0,4.176767E0,9.5261765E-1,4.3007402E0,3.4183276E0,2.5757465E0,1.2730694E0,1.1536782E0,1.6731968E0,2.226471E0,4.4100266E0,7.170801E-1,2.5752503E-1,0E0,3.8532104E0,5.2068305E0,3.08576E-1,0E0,1.1612958E-1,1.8705969E0,0E0,0E0,6.20631E-1,2.8254375E0,4.8246336E0,3.0053432E0,0E0,0E0,5.0630445E0,1.7835859E0,1.146965E0,2.064112E0,1.9970512E0,2.5014544E0,7.616343E-2,7.519417E-1,3.9566612E-1,4.7722504E-1,2.5225735E0,1.2057762E0,4.4325066E-1,1.8021927E0,0E0,0E0,0E0,0E0,0E0,0E0,0E0,0E0,0E0,0E0,0E0,0E0,0E0,0E0,0E0,0E0,0E0,0E0,0E0,0E0,0E0,0E0,0E0,0E0,0E0,0E0,0E0,0E0,0E0,0E0,0E0,0E0,0E0,0E0,0E0,0E0,0E0,0E0,0E0,0E0,0E0,0E0,0E0,0E0,0E0,0E0,0E0,0E0,0E0,0E0,0E0,0E0],"parents":[2147483647,0,0,1,1,2,2,3,3,4,4,5,5,6,6,7,7,8,8,9,9,10,10,11,11,12,12,13,13,14,14,15,15,16,16,17,17,18,18,19,19,20,20,21,21,22,22,23,23,24,24,25,25,26,26,27,27,28,28,29,29,30,30,31,31,32,32,33,33,35,35,36,36,37,37,39,39,40,40,43,43,44,44,45,45,46,46,49,49,50,50,51,51,52,52,53,53,54,54,55,55,56,56,57,57,58,58,59,59,60,60,61,61,62,62],"right_children":[2,4,6,8,10,12,14,16,18,20,22,24,26,28,30,32,34,36,38,40,42,44,46,48,50,52,54,56,58,60,62,64,66,68,-1,70,72,74,-1,76,78,-1,-1,80,82,84,86,-1,-1,88,90,92,94,96,98,100,102,104,106,108,110,112,114,-1,-1,-1,-1,-1,-1,-1,-1,-1,-1,-1,-1,-1,-1,-1,-1,-1,-1,-1,-1,-1,-1,-1,-1,-1,-1,-1,-1,-1,-1,-1,-1,-1,-1,-1,-1,-1,-1,-1,-1,-1,-1,-1,-1,-1,-1,-1,-1,-1,-1,-1,-1],"split_conditions":[3.8196102E-8,3.7805492E-7,4.2419806E-6,3.674953E-5,2.933028E-8,1.2437888E-5,1.4078919E-5,4.297583E-5,3.4125434E-5,2.743197E-5,7.419207E-7,2.5459535E-6,2.0239503E-7,3.9452214E-5,4.3195846E-6,3.7139318E-6,1.3251287E-5,5.1885567E-5,1.5404199E-5,1.1290033E-5,2.2949516E-7,3.7946284E-5,1.107671E-5,1.4046451E-7,2.1792972E-5,6.7544994E-7,2.8194201E-5,2.7968956E-5,2.036553E-5,2.8832683E-5,2.6205365E-5,2.4691299E-6,1.3028193E-6,2.9149211E-8,-3.3352655E-1,3.1082578E-5,1.8276934E-5,1.06513106E-7,-2.0888294E-1,2.709558E-7,4.1475032E-5,-1.7193763E-1,-5.622624E-2,1.3484457E-5,3.0539417E-5,4.9394646E-5,3.6393678E-5,-6.9161564E-2,-3.3984894E-1,4.020433E-6,1.3763873E-5,3.151787E-5,1.4965546E-5,9.207359E-6,1.3010145E-6,1.2364945E-6,4.2926604E-5,3.3223052E-6,4.1210926E-5,5.671751E-6,4.1756568E-5,3.6021735E-5,1.1941165E-5,3.673351E-2,-4.5539185E-2,-5.9621807E-2,-3.1058547E-1,-1.145634E-2,-1.3198906E-1,6.2476803E-2,1.3955611E-2,4.3497108E-2,-2.2248147E-1,6.2375363E-2,-7.3008046E-2,-1.0038906E-1,-1.0812342E-2,4.8930574E-2,1.5179272E-1,-4.923687E-2,-1.9221853E-1,1.5594627E-1,1.705312E-2,-6.462565E-2,-3.063773E-1,1.3938651E-2,-5.5497892E-2,-3.1571147E-1,-7.25922E-2,1.2153602E-1,-4.0986445E-2,2.275951E-1,5.081044E-2,-1.5318666E-1,3.891967E-2,-1.8830825E-1,-4.9083892E-2,-1.3919091E-1,-3.6369514E-2,1.4691735E-2,-5.5306222E-2,-2.1801534E-1,-1.9021297E-2,-2.2738649E-2,-1.8073857E-1,6.3421014E-3,-1.0009936E-1,-4.3428056E-2,-1.4122467E-1,-1.17936224E-1,-4.604586E-2,-3.639367E-2,-2.0573027E-1,-8.293457E-2,-1.0897018E-1],"split_indices":[1,11,10,1222,1,420,254,1114,865,756,25,89,6,1070,3,94,437,1352,460,393,7,1283,357,4,687,21,1008,890,521,674,388,73,42,1,0,906,544,4,0,8,1254,0,0,432,936,1301,1088,0,0,123,470,1015,496,272,44,2,1049,25,1148,7,1239,1085,4,0,0,0,0,0,0,0,0,0,0,0,0,0,0,0,0,0,0,0,0,0,0,0,0,0,0,0,0,0,0,0,0,0,0,0,0,0,0,0,0,0,0,0,0,0,0,0,0,0,0,0,0],"split_type":[0,0,0,0,0,0,0,0,0,0,0,0,0,0,0,0,0,0,0,0,0,0,0,0,0,0,0,0,0,0,0,0,0,0,0,0,0,0,0,0,0,0,0,0,0,0,0,0,0,0,0,0,0,0,0,0,0,0,0,0,0,0,0,0,0,0,0,0,0,0,0,0,0,0,0,0,0,0,0,0,0,0,0,0,0,0,0,0,0,0,0,0,0,0,0,0,0,0,0,0,0,0,0,0,0,0,0,0,0,0,0,0,0,0,0],"sum_hessian":[4.272E3,1.651E3,2.621E3,1.138E3,5.13E2,1.034E3,1.587E3,2.83E2,8.55E2,7.8E1,4.35E2,9.8E1,9.36E2,7E1,1.517E3,2.71E2,1.2E1,8.4E2,1.5E1,7.3E1,5E0,6.5E1,3.7E2,1.1E1,8.7E1,3.8E1,8.98E2,4.3E1,2.7E1,4.47E2,1.07E3,2.65E2,6E0,6E0,6E0,8.14E2,2.6E1,1E1,5E0,7E0,6.6E1,3E0,2E0,1.2E1,5.3E1,1.36E2,2.34E2,2E0,9E0,3.5E1,5.2E1,1.5E1,2.3E1,3.8E1,8.6E2,4E0,3.9E1,1.2E1,1.5E1,9.7E1,3.5E2,2.3E1,1.047E3,1.79E2,8.6E1,2E0,4E0,3E0,3E0,6.2E2,1.94E2,1.6E1,1E1,1E0,9E0,5E0,2E0,3.7E1,2.9E1,6E0,6E0,2.9E1,2.4E1,1.29E2,7E0,1.43E2,9.1E1,1.1E1,2.4E1,6E0,4.6E1,9E0,6E0,6E0,1.7E1,1.8E1,2E1,2.1E1,8.39E2,2E0,2E0,3.7E1,2E0,2E0,1E1,1E1,5E0,4.6E1,5.1E1,2.2E1,3.28E2,2E0,2.1E1,4.28E2,6.19E2],"tree_param":{"num_deleted":"0","num_feature":"1382","num_nodes":"115","size_leaf_vector":"1"}},{"base_weights":[8.623432E-2,5.9523076E-2,9.62749E-2,3.2839894E-2,8.7361716E-2,2.8053781E-2,1.0029203E-1,-5.829147E-2,5.3003803E-2,2.5177196E-1,7.843661E-2,2.5184813E-1,6.8977242E-3,1.373081E-1,9.1836594E-2,8.682057E-2,-9.811004E-2,-6.992777E-2,7.1262255E-2,3.5697234E-1,1.619399E-2,2.1208356E-1,6.7980744E-2,1.1120033E-1,1.0154751E-1,-9.9140935E-2,4.7973946E-2,1.06326506E-1,2.3491639E-1,1.3548616E-2,9.703809E-2,-9.635932E-2,1.8443298E-1,1.04823895E-1,-1.3243479E-1,1.7177698E-1,-1.2900919E-1,2.2729643E-1,5.459044E-2,4.2203316E-1,7.738321E-2,1.531149E-1,-1.0060577E-1,2.9352126E-1,4.5693267E-2,1.15637735E-1,4.221327E-2,3.679317E-2,-6.919067E-3,4.2614665E-2,-1.8672879E-1,-1.8303986E-1,7.638939E-2,2.4749121E-1,8.491592E-2,-1.5887368E-1,2.5525197E-1,-1.9351272E-2,2.0584576E-1,2.4377276E-1,9.4666034E-2,-2.0043408E-3,-5.0029695E-2,3.0977985E-2,8.2214065E-2,7.342205E-2,-1.5020165E-2,-4.8265204E-2,2.727232E-2,8.930223E-2,-2.6757967E-2,-4.8597813E-2,3.1850863E-2,8.4782094E-2,-4.273487E-2,-3.3825026E-3,2.6578909E-2,1.4041387E-1,6.815859E-2,3.9561065E-3,2.7040653E-2,1.43866185E-2,6.2170837E-2,-4.5697857E-2,5.670101E-4,1.019145E-1,9.46939E-3,5.502853E-2,-2.4161002E-2,7.022946E-2,2.276319E-2,-2.2626873E-2,1.8315615E-2,-1.0423203E-2,6.0936805E-2,1.4769944E-2,-6.843215E-2,-2.1340318E-2,-7.32267E-2,-5.0865624E-2,2.9595202E-2,-3.373582E-2,9.104775E-2,1.3557182E-2,5.290301E-2,-6.381062E-2,-4.8605492E-3,8.141818E-2,-5.4961577E-2,-1.5064294E-2,3.9911345E-2,2.3426466E-2,9.1740906E-2,1.0566675E-1,3.246741E-2,2.0826787E-3,2.9299516E-2],"categories":[],"categories_nodes":[],"categories_segments":[],"categories_sizes":[],"default_left":[0,0,0,0,0,0,0,0,0,0,0,0,0,0,0,0,0,0,0,0,0,0,0,0,0,0,0,0,0,0,0,0,0,0,0,0,0,0,0,0,0,0,0,0,0,0,0,0,0,0,0,0,0,0,0,0,0,0,0,0,0,0,0,0,0,0,0,0,0,0,0,0,0,0,0,0,0,0,0,0,0,0,0,0,0,0,0,0,0,0,0,0,0,0,0,0,0,0,0,0,0,0,0,0,0,0,0,0,0,0,0,0,0,0,0,0,0],"id":14,"left_children":[1,3,5,7,9,11,13,15,17,19,21,23,25,27,29,31,33,35,37,39,41,43,45,-1,47,49,51,53,55,57,59,61,63,65,67,69,71,73,75,77,79,81,83,85,87,89,91,-1,-1,93,95,97,99,101,103,105,107,109,111,113,115,-1,-1,-1,-1,-1,-1,-1,-1,-1,-1,-1,-1,-1,-1,-1,-1,-1,-1,-1,-1,-1,-1,-1,-1,-1,-1,-1,-1,-1,-1,-1,-1,-1,-1,-1,-1,-1,-1,-1,-1,-1,-1,-1,-1,-1,-1,-1,-1,-1,-1,-1,-1,-1,-1,-1,-1],"loss_changes":[1.1402721E0,8.662348E-1,8.47847E-1,1.1037908E0,8.195925E-1,8.220843E-1,9.0475273E-1,6.383369E-1,1.1070523E0,7.1292305E-1,7.4576473E-1,2.3023957E-1,7.0166296E-1,1.6170874E0,9.715214E-1,4.4690692E-1,6.129287E-1,9.360975E-1,1.1009793E0,3.3114767E-1,1.7532754E-1,5.1505554E-1,6.1648655E-1,0E0,2.385933E-2,5.6668043E-1,7.7544785E-1,1.2302651E0,1.0815878E0,9.529666E-1,7.5658417E-1,5.5711024E-2,8.8089645E-2,2.9398668E-1,4.848156E-1,4.5367062E-1,4.2056382E-1,8.787422E-1,8.700471E-1,3.7103176E-2,2.9046256E-3,1.8518716E-2,3.2094646E-2,3.0389643E-1,2.5818095E-1,8.159144E-1,7.359248E-1,0E0,0E0,2.3055765E-1,2.8461456E-1,7.144937E-2,5.861237E-1,1.1226239E0,1.3031774E0,5.03124E-2,9.2733765E-1,6.1339194E-1,2.5706685E-1,4.7638583E-1,5.796871E-1,0E0,0E0,0E0,0E0,0E0,0E0,0E0,0E0,0E0,0E0,0E0,0E0,0E0,0E0,0E0,0E0,0E0,0E0,0E0,0E0,0E0,0E0,0E0,0E0,0E0,0E0,0E0,0E0,0E0,0E0,0E0,0E0,0E0,0E0,0E0,0E0,0E0,0E0,0E0,0E0,0E0,0E0,0E0,0E0,0E0,0E0,0E0,0E0,0E0,0E0,0E0,0E0,0E0,0E0,0E0,0E0],"parents":[2147483647,0,0,1,1,2,2,3,3,4,4,5,5,6,6,7,7,8,8,9,9,10,10,11,11,12,12,13,13,14,14,15,15,16,16,17,17,18,18,19,19,20,20,21,21,22,22,24,24,25,25,26,26,27,27,28,28,29,29,30,30,31,31,32,32,33,33,34,34,35,35,36,36,37,37,38,38,39,39,40,40,41,41,42,42,43,43,44,44,45,45,46,46,49,49,50,50,51,51,52,52,53,53,54,54,55,55,56,56,57,57,58,58,59,59,60,60],"right_children":[2,4,6,8,10,12,14,16,18,20,22,24,26,28,30,32,34,36,38,40,42,44,46,-1,48,50,52,54,56,58,60,62,64,66,68,70,72,74,76,78,80,82,84,86,88,90,92,-1,-1,94,96,98,100,102,104,106,108,110,112,114,116,-1,-1,-1,-1,-1,-1,-1,-1,-1,-1,-1,-1,-1,-1,-1,-1,-1,-1,-1,-1,-1,-1,-1,-1,-1,-1,-1,-1,-1,-1,-1,-1,-1,-1,-1,-1,-1,-1,-1,-1,-1,-1,-1,-1,-1,-1,-1,-1,-1,-1,-1,-1,-1,-1,-1,-1],"split_conditions":[2.8018838E-5,2.235257E-6,3.9518007E-5,1.4865038E-5,3.5907757E-5,1.6908558E-5,6.907971E-8,2.3496717E-5,2.4247443E-5,4.369633E-5,8.849779E-6,4.089791E-5,1.5173244E-6,7.3622814E-6,3.2087537E-6,3.0195572E-5,1.06993075E-5,6.3756083E-6,1.3560129E-5,1.5504682E-5,3.046442E-8,2.6509229E-6,3.346821E-5,1.1120033E-1,6.53521E-8,3.0001218E-5,1.9504067E-5,2.5769372E-5,2.1892562E-5,3.1488427E-5,2.8892124E-5,1.8331131E-6,2.492771E-5,3.810459E-5,1.4045318E-5,9.2061555E-6,1.15554585E-5,4.4475906E-5,2.4816845E-5,1.054267E-5,3.0194453E-8,6.599503E-8,7.339621E-8,4.2924737E-5,8.0903055E-6,6.6636103E-6,1.964087E-5,3.679317E-2,-6.919067E-3,1.6670096E-5,2.1347587E-5,1.9743557E-5,3.4650406E-5,5.709662E-6,2.7788594E-5,6.3912715E-8,3.9330505E-5,7.1660565E-6,1.6119493E-5,1.5548268E-5,1.7775827E-5,-2.0043408E-3,-5.0029695E-2,3.0977985E-2,8.2214065E-2,7.342205E-2,-1.5020165E-2,-4.8265204E-2,2.727232E-2,8.930223E-2,-2.6757967E-2,-4.8597813E-2,3.1850863E-2,8.4782094E-2,-4.273487E-2,-3.3825026E-3,2.6578909E-2,1.4041387E-1,6.815859E-2,3.9561065E-3,2.7040653E-2,1.43866185E-2,6.2170837E-2,-4.5697857E-2,5.670101E-4,1.019145E-1,9.46939E-3,5.502853E-2,-2.4161002E-2,7.022946E-2,2.276319E-2,-2.2626873E-2,1.8315615E-2,-1.0423203E-2,6.0936805E-2,1.4769944E-2,-6.843215E-2,-2.1340318E-2,-7.32267E-2,-5.0865624E-2,2.9595202E-2,-3.373582E-2,9.104775E-2,1.3557182E-2,5.290301E-2,-6.381062E-2,-4.8605492E-3,8.141818E-2,-5.4961577E-2,-1.5064294E-2,3.9911345E-2,2.3426466E-2,9.1740906E-2,1.0566675E-1,3.246741E-2,2.0826787E-3,2.9299516E-2],"split_indices":[875,67,1372,512,1309,600,2,805,844,1291,312,1307,49,212,100,1003,375,216,481,440,1,78,1068,0,1,980,693,896,831,891,1048,61,746,1174,392,268,320,1223,804,318,1,2,2,1255,249,212,670,0,0,497,721,631,1219,201,822,2,1048,203,505,477,590,0,0,0,0,0,0,0,0,0,0,0,0,0,0,0,0,0,0,0,0,0,0,0,0,0,0,0,0,0,0,0,0,0,0,0,0,0,0,0,0,0,0,0,0,0,0,0,0,0,0,0,0,0,0,0,0],"split_type":[0,0,0,0,0,0,0,0,0,0,0,0,0,0,0,0,0,0,0,0,0,0,0,0,0,0,0,0,0,0,0,0,0,0,0,0,0,0,0,0,0,0,0,0,0,0,0,0,0,0,0,0,0,0,0,0,0,0,0,0,0,0,0,0,0,0,0,0,0,0,0,0,0,0,0,0,0,0,0,0,0,0,0,0,0,0,0,0,0,0,0,0,0,0,0,0,0,0,0,0,0,0,0,0,0,0,0,0,0,0,0,0,0,0,0,0,0],"sum_hessian":[4.272E3,1.169E3,3.103E3,5.98E2,5.71E2,1.73E2,2.93E3,1.08E2,4.9E2,2.8E1,5.43E2,1.4E1,1.59E2,5.42E2,2.388E3,2.3E1,8.5E1,6.3E1,4.27E2,1.9E1,9E0,3.8E1,5.05E2,7E0,7E0,4.4E1,1.15E2,4.13E2,1.29E2,1.49E2,2.239E3,8E0,1.5E1,1.2E1,7.3E1,1.2E1,5.1E1,4E1,3.87E2,1.5E1,4E0,4E0,5E0,2.5E1,1.3E1,1.76E2,3.29E2,6E0,1E0,1.7E1,2.7E1,1.2E1,1.03E2,5.3E1,3.6E2,6E0,1.23E2,1.28E2,2.1E1,3.4E1,2.205E3,4E0,4E0,9E0,6E0,6E0,6E0,6.5E1,8E0,8E0,4E0,4.5E1,6E0,3.5E1,5E0,1.32E2,2.55E2,1.1E1,4E0,1E0,3E0,2E0,2E0,3E0,2E0,2.1E1,4E0,6E0,7E0,4.3E1,1.33E2,4.5E1,2.84E2,1.2E1,5E0,4E0,2.3E1,5E0,7E0,8E0,9.5E1,7E0,4.6E1,2.52E2,1.08E2,4E0,2E0,1.19E2,4E0,1.07E2,2.1E1,1E1,1.1E1,1.8E1,1.6E1,7.3E1,2.132E3],"tree_param":{"num_deleted":"0","num_feature":"1382","num_nodes":"117","size_leaf_vector":"1"}},{"base_weights":[-8.9410834E-2,2.1038106E-2,-1.9457147E-1,7.646119E-2,-4.1172173E-2,-1.5743332E-1,-2.4108073E-1,1.4116481E-1,7.252346E-3,1.3358878E-1,-6.6090204E-2,-2.7667895E-1,-1.4465326E-1,-3.5484573E-1,-2.2611678E-1,-1.1571784E-2,1.8192029E-1,-2.5886956E-1,4.085248E-2,1.9727305E-1,-4.2045298E-1,-1.2920493E-1,1.8814053E-2,-1.5086672E-1,-4.157606E-1,-1.0063321E-1,-1.7456234E-1,-9.471195E-2,-3.8838682E-1,-1.3710253E-1,-2.4626704E-1,1.319681E-1,-2.3262136E-1,2.0130321E-1,-2.68361E-1,-6.9150174E-1,-8.583284E-2,-4.886102E-2,1.1459788E-1,-1.6085677E-1,2.6831815E-1,-6.3815254E-1,2.289092E-1,-3.5309333E-1,-9.4459385E-2,-6.6015935E-1,3.7674554E-2,-2.6531035E-1,-2.4172956E-2,-6.125542E-1,-1.889912E-1,-2.1297961E-1,-6.7832015E-2,-3.699148E-1,-1.4122951E-1,-2.3596206E-1,8.024703E-2,-4.062012E-1,2.4201298E-2,-2.942326E-1,-9.584365E-2,-2.3949079E-1,-4.7653696E-1,-5.3561848E-2,8.537476E-2,-9.4281785E-2,1.5973017E-1,6.815427E-2,-2.4329541E-2,-2.0092618E-1,2.5334356E-2,-2.8348318E-1,-5.8334824E-2,-2.6439732E-1,4.724827E-3,-7.3355645E-2,1.1834179E-2,-5.428159E-2,4.8806366E-2,-1.1492325E-1,1.1534032E-1,2.5423183E-3,1.07572734E-1,-1.0327155E-1,-2.3301667E-1,1.0820023E-1,1.9430194E-2,-6.5823205E-2,-2.5018704E-1,-8.9454845E-2,-1.2976182E-2,-2.6521116E-1,-3.1000016E-2,7.882791E-2,3.7469118E-4,-1.007726E-1,-2.0803006E-2,-3.6560085E-2,1.594626E-2,-6.317731E-2,-2.005334E-1,-7.451776E-2,1.8093616E-2,-1.1057777E-1,-4.4472978E-2,-1.48835E-1,-1.7668124E-2,-1.5397143E-1,-6.1826114E-2,-1.8010277E-2,-5.2189052E-2,-1.4989329E-2,-7.661862E-2,2.619145E-2,5.6850314E-3,-6.1543483E-2,-1.3533616E-1,2.0166904E-2,-2.2182835E-2,-5.1944543E-2,-1.4015904E-1,-1.9860793E-2,-5.11732E-2,-7.771141E-2,-1.7754383E-2,-3.5002828E-2,-1.6941644E-1],"categories":[],"categories_nodes":[],"categories_segments":[],"categories_sizes":[],"default_left":[0,0,0,0,0,0,0,0,0,0,0,0,0,0,0,0,0,0,0,0,0,0,0,0,0,0,0,0,0,0,0,0,0,0,0,0,0,0,0,0,0,0,0,0,0,0,0,0,0,0,0,0,0,0,0,0,0,0,0,0,0,0,0,0,0,0,0,0,0,0,0,0,0,0,0,0,0,0,0,0,0,0,0,0,0,0,0,0,0,0,0,0,0,0,0,0,0,0,0,0,0,0,0,0,0,0,0,0,0,0,0,0,0,0,0,0,0,0,0,0,0,0,0,0,0,0,0],"id":15,"left_children":[1,3,5,7,9,11,13,15,17,19,21,23,25,27,29,31,33,35,37,39,41,43,45,47,49,51,53,55,57,59,61,63,65,67,69,71,73,75,77,79,81,83,85,87,89,91,93,95,97,99,101,103,105,107,109,111,113,115,117,119,121,123,125,-1,-1,-1,-1,-1,-1,-1,-1,-1,-1,-1,-1,-1,-1,-1,-1,-1,-1,-1,-1,-1,-1,-1,-1,-1,-1,-1,-1,-1,-1,-1,-1,-1,-1,-1,-1,-1,-1,-1,-1,-1,-1,-1,-1,-1,-1,-1,-1,-1,-1,-1,-1,-1,-1,-1,-1,-1,-1,-1,-1,-1,-1,-1,-1],"loss_changes":[4.963448E1,7.19199E0,3.7430344E0,4.938279E0,4.2894974E0,1.8192139E0,1.5710716E0,3.550271E0,4.78546E0,4.422845E0,4.6162796E0,1.9845619E0,1.4359608E0,9.317093E-1,1.5087776E0,3.8699596E0,3.9815187E0,4.4323215E0,3.1481793E0,2.8673744E0,1.983835E0,3.809534E0,4.7373977E0,9.0704226E-1,2.338705E0,1.6401615E0,4.2193985E0,3.6491692E-1,7.3013115E-1,1.0155644E0,9.7813034E-1,3.5575166E0,3.1657794E0,3.175436E0,2.747244E0,1.9578152E0,3.5694253E0,3.7244596E0,3.7388608E0,2.4497464E0,2.1780787E0,1.398983E-1,6.314872E-2,4.059705E0,4.462322E0,1.1552596E0,2.9430614E0,4.3325973E-1,2.4066408E-1,5.1074123E-1,4.1482234E-1,9.6281433E-1,1.3067961E0,2.1248598E0,1.4832649E0,1.615572E-2,1.3739169E-3,7.563982E-1,2.608229E-2,6.102319E-1,2.744658E-1,2.3884163E0,5.370593E-1,0E0,0E0,0E0,0E0,0E0,0E0,0E0,0E0,0E0,0E0,0E0,0E0,0E0,0E0,0E0,0E0,0E0,0E0,0E0,0E0,0E0,0E0,0E0,0E0,0E0,0E0,0E0,0E0,0E0,0E0,0E0,0E0,0E0,0E0,0E0,0E0,0E0,0E0,0E0,0E0,0E0,0E0,0E0,0E0,0E0,0E0,0E0,0E0,0E0,0E0,0E0,0E0,0E0,0E0,0E0,0E0,0E0,0E0,0E0,0E0,0E0,0E0,0E0,0E0],"parents":[2147483647,0,0,1,1,2,2,3,3,4,4,5,5,6,6,7,7,8,8,9,9,10,10,11,11,12,12,13,13,14,14,15,15,16,16,17,17,18,18,19,19,20,20,21,21,22,22,23,23,24,24,25,25,26,26,27,27,28,28,29,29,30,30,31,31,32,32,33,33,34,34,35,35,36,36,37,37,38,38,39,39,40,40,41,41,42,42,43,43,44,44,45,45,46,46,47,47,48,48,49,49,50,50,51,51,52,52,53,53,54,54,55,55,56,56,57,57,58,58,59,59,60,60,61,61,62,62],"right_children":[2,4,6,8,10,12,14,16,18,20,22,24,26,28,30,32,34,36,38,40,42,44,46,48,50,52,54,56,58,60,62,64,66,68,70,72,74,76,78,80,82,84,86,88,90,92,94,96,98,100,102,104,106,108,110,112,114,116,118,120,122,124,126,-1,-1,-1,-1,-1,-1,-1,-1,-1,-1,-1,-1,-1,-1,-1,-1,-1,-1,-1,-1,-1,-1,-1,-1,-1,-1,-1,-1,-1,-1,-1,-1,-1,-1,-1,-1,-1,-1,-1,-1,-1,-1,-1,-1,-1,-1,-1,-1,-1,-1,-1,-1,-1,-1,-1,-1,-1,-1,-1,-1,-1,-1,-1,-1],"split_conditions":[7.5925726E-8,4.6984323E-7,3.2964826E-6,3.6466823E-5,2.404934E-7,3.641665E-5,4.6327314E-5,1.5647016E-5,1.9615354E-5,9.719732E-7,2.8157106E-6,6.503704E-7,4.0223604E-6,5.136394E-5,1.2697078E-5,3.6508212E-5,2.7588421E-5,2.4888723E-5,3.3187953E-5,3.9602887E-6,1.1371189E-5,2.4211646E-5,9.614192E-6,7.820445E-6,3.412241E-5,1.4216484E-5,1.5314874E-5,5.1637126E-5,4.301453E-5,5.6757464E-5,2.2998368E-4,2.791657E-5,2.2619332E-5,1.262566E-5,1.5811354E-6,1.3298247E-5,2.1838512E-5,3.1233405E-5,3.7318925E-5,3.8870094E-6,4.1265408E-5,4.7657585E-7,2.7507562E-8,3.1643624E-5,2.9889185E-5,2.9910766E-6,3.0600646E-7,9.582141E-6,6.97013E-6,3.920924E-5,1.9822652E-5,3.3435328E-5,1.5958509E-5,2.8716146E-5,7.53247E-6,3.422157E-6,8.425104E-6,4.88502E-5,3.6812712E-6,5.805623E-5,7.454295E-5,2.4944558E-5,1.6864353E-4,-5.3561848E-2,8.537476E-2,-9.4281785E-2,1.5973017E-1,6.815427E-2,-2.4329541E-2,-2.0092618E-1,2.5334356E-2,-2.8348318E-1,-5.8334824E-2,-2.6439732E-1,4.724827E-3,-7.3355645E-2,1.1834179E-2,-5.428159E-2,4.8806366E-2,-1.1492325E-1,1.1534032E-1,2.5423183E-3,1.07572734E-1,-1.0327155E-1,-2.3301667E-1,1.0820023E-1,1.9430194E-2,-6.5823205E-2,-2.5018704E-1,-8.9454845E-2,-1.2976182E-2,-2.6521116E-1,-3.1000016E-2,7.882791E-2,3.7469118E-4,-1.007726E-1,-2.0803006E-2,-3.6560085E-2,1.594626E-2,-6.317731E-2,-2.005334E-1,-7.451776E-2,1.8093616E-2,-1.1057777E-1,-4.4472978E-2,-1.48835E-1,-1.7668124E-2,-1.5397143E-1,-6.1826114E-2,-1.8010277E-2,-5.2189052E-2,-1.4989329E-2,-7.661862E-2,2.619145E-2,5.6850314E-3,-6.1543483E-2,-1.3533616E-1,2.0166904E-2,-2.2182835E-2,-5.1944543E-2,-1.4015904E-1,-1.9860793E-2,-5.11732E-2,-7.771141E-2,-1.7754383E-2,-3.5002828E-2,-1.6941644E-1],"split_indices":[1,14,2,1137,8,1195,872,532,690,27,83,3,11,1309,5,1093,721,832,1052,140,335,841,364,220,990,416,287,1126,474,1223,78,899,618,343,51,421,761,1021,1304,111,1344,15,1,917,1018,92,10,259,174,1280,417,1062,576,777,14,2,4,1252,2,1203,1289,4,866,0,0,0,0,0,0,0,0,0,0,0,0,0,0,0,0,0,0,0,0,0,0,0,0,0,0,0,0,0,0,0,0,0,0,0,0,0,0,0,0,0,0,0,0,0,0,0,0,0,0,0,0,0,0,0,0,0,0,0,0,0,0,0,0],"split_type":[0,0,0,0,0,0,0,0,0,0,0,0,0,0,0,0,0,0,0,0,0,0,0,0,0,0,0,0,0,0,0,0,0,0,0,0,0,0,0,0,0,0,0,0,0,0,0,0,0,0,0,0,0,0,0,0,0,0,0,0,0,0,0,0,0,0,0,0,0,0,0,0,0,0,0,0,0,0,0,0,0,0,0,0,0,0,0,0,0,0,0,0,0,0,0,0,0,0,0,0,0,0,0,0,0,0,0,0,0,0,0,0,0,0,0,0,0,0,0,0,0,0,0,0,0,0,0],"sum_hessian":[4.272E3,2.084E3,2.188E3,1.102E3,9.82E2,1.219E3,9.69E2,5.69E2,5.33E2,1.22E2,8.6E2,1.16E2,1.103E3,1.1E2,8.59E2,1.2E2,4.49E2,5.9E1,4.74E2,1.1E2,1.2E1,4.93E2,3.67E2,6.2E1,5.4E1,4.48E2,6.55E2,1.3E1,9.7E1,1.6E2,6.99E2,7.3E1,4.7E1,4.31E2,1.8E1,1.6E1,4.3E1,2.14E2,2.6E2,1.8E1,9.2E1,9E0,3E0,6.5E1,4.28E2,9E0,3.58E2,3.2E1,3E1,2.8E1,2.6E1,1E2,3.48E2,9.4E1,5.61E2,7E0,6E0,9.3E1,4E0,3.2E1,1.28E2,6.81E2,1.8E1,2.4E1,4.9E1,4.3E1,4E0,3.95E2,3.6E1,8E0,1E1,1E1,6E0,4E0,3.9E1,6.6E1,1.48E2,3.6E1,2.24E2,1.3E1,5E0,2.4E1,6.8E1,4E0,5E0,1E0,2E0,5.2E1,1.3E1,8.5E1,3.43E2,6E0,3E0,4.9E1,3.09E2,2.3E1,9E0,1.3E1,1.7E1,4E0,2.4E1,2.1E1,5E0,2.8E1,7.2E1,6E0,3.42E2,4.9E1,4.5E1,1.62E2,3.99E2,1E0,6E0,5E0,1E0,1.8E1,7.5E1,3E0,1E0,2E1,1.2E1,9.3E1,3.5E1,6.14E2,6.7E1,4E0,1.4E1],"tree_param":{"num_deleted":"0","num_feature":"1382","num_nodes":"127","size_leaf_vector":"1"}},{"base_weights":[6.0627244E-2,3.638857E-2,6.853246E-2,3.0161405E-2,1.8556719E-1,1.10521615E-1,6.267517E-2,2.6243841E-2,2.5791034E-1,2.969029E-1,3.5165917E-2,1.4090768E-1,9.574745E-3,-3.518646E-2,6.5572545E-2,-4.4171758E-2,3.7430692E-2,6.266971E-2,1.076124E-1,5.7474863E-2,3.4191474E-1,-7.306308E-2,1.9311368E-1,4.857235E-2,1.9823201E-1,-9.277091E-2,3.0717028E-2,2.1878652E-1,-6.559957E-2,-5.0489154E-2,6.7523435E-2,-6.4635836E-2,2.5405467E-1,1.6101701E-2,8.2263544E-2,-5.162696E-3,2.7250566E-2,2.7842673E-2,-1.2579194E-2,4.7209408E-2,1.09567694E-1,-1.3053241E-1,3.350045E-2,7.899546E-2,-1.1666576E-2,-9.6496325E-3,1.4194196E-1,-4.8564993E-2,2.1553159E-1,-5.004597E-2,-5.418626E-2,4.8919567E-3,9.5057346E-2,2.2277612E-2,8.36022E-2,-1.1548714E-1,7.487123E-2,1.823823E-1,-1.2024184E-1,1.24824025E-1,6.360431E-2,7.688522E-3,-3.6072914E-2,9.62025E-2,-4.1836202E-2,-1.2693564E-2,1.2298517E-2,3.1780332E-2,-1.8190444E-2,-3.5073685E-3,1.1841551E-3,-4.723124E-2,-1.92804E-2,8.529872E-4,1.2136176E-2,-6.388933E-3,1.1389733E-3,-1.1022168E-2,8.969675E-2,9.9679805E-2,1.0711322E-2,-5.2144483E-2,5.5979375E-2,7.7629085E-3,7.037202E-2,-1.1544377E-3,-1.9160723E-2,1.9533101E-2,-5.618165E-3,3.839391E-2,-4.2196563E-3,-4.340108E-2,3.1587854E-2,5.8712598E-2,-1.2536238E-2,7.9126306E-2,-3.6758367E-2,-4.7363948E-2,4.3406866E-2,5.5701453E-2,1.3656302E-2,-4.219842E-3,2.025245E-2],"categories":[],"categories_nodes":[],"categories_segments":[],"categories_sizes":[],"default_left":[0,0,0,0,0,0,0,0,0,0,0,0,0,0,0,0,0,0,0,0,0,0,0,0,0,0,0,0,0,0,0,0,0,0,0,0,0,0,0,0,0,0,0,0,0,0,0,0,0,0,0,0,0,0,0,0,0,0,0,0,0,0,0,0,0,0,0,0,0,0,0,0,0,0,0,0,0,0,0,0,0,0,0,0,0,0,0,0,0,0,0,0,0,0,0,0,0,0,0,0,0,0,0],"id":16,"left_children":[1,3,5,7,9,11,13,15,17,19,21,23,25,27,29,31,33,35,-1,37,39,41,43,45,47,49,51,53,55,57,59,61,63,65,67,69,-1,-1,-1,-1,-1,71,73,-1,75,77,79,81,83,-1,85,87,89,-1,-1,91,93,95,97,99,101,-1,-1,-1,-1,-1,-1,-1,-1,-1,-1,-1,-1,-1,-1,-1,-1,-1,-1,-1,-1,-1,-1,-1,-1,-1,-1,-1,-1,-1,-1,-1,-1,-1,-1,-1,-1,-1,-1,-1,-1,-1,-1],"loss_changes":[8.1626415E-1,9.725976E-1,7.852535E-1,8.9615905E-1,6.928505E-1,1.2041302E0,8.044472E-1,7.8623116E-1,3.1207645E-1,2.3899865E-1,3.3890554E-1,1.5888758E0,2.0192116E-1,6.477292E-1,6.2562275E-1,8.5252225E-1,8.210417E-1,1.3842691E-2,0E0,2.1453526E-2,2.8567076E-2,7.7862516E-2,1.1808401E-1,6.374008E-1,8.0459166E-1,3.6675125E-2,1.2747768E-1,5.7204664E-2,5.2722E-1,7.6912683E-1,5.990677E-1,6.505766E-1,2.8066057E-1,8.509348E-1,9.433843E-1,2.2456981E-4,0E0,0E0,0E0,0E0,0E0,4.144579E-3,9.508454E-4,0E0,5.275779E-4,6.213607E-1,8.98017E-1,4.1533735E-1,6.2231064E-1,0E0,5.6032017E-3,8.086859E-2,8.083686E-2,0E0,0E0,3.696003E-1,2.9011285E-1,3.0524E-1,3.8181686E-1,8.2151484E-1,7.686882E-1,0E0,0E0,0E0,0E0,0E0,0E0,0E0,0E0,0E0,0E0,0E0,0E0,0E0,0E0,0E0,0E0,0E0,0E0,0E0,0E0,0E0,0E0,0E0,0E0,0E0,0E0,0E0,0E0,0E0,0E0,0E0,0E0,0E0,0E0,0E0,0E0,0E0,0E0,0E0,0E0,0E0,0E0],"parents":[2147483647,0,0,1,1,2,2,3,3,4,4,5,5,6,6,7,7,8,8,9,9,10,10,11,11,12,12,13,13,14,14,15,15,16,16,17,17,19,19,20,20,21,21,22,22,23,23,24,24,25,25,26,26,27,27,28,28,29,29,30,30,31,31,32,32,33,33,34,34,35,35,41,41,42,42,44,44,45,45,46,46,47,47,48,48,50,50,51,51,52,52,55,55,56,56,57,57,58,58,59,59,60,60],"right_children":[2,4,6,8,10,12,14,16,18,20,22,24,26,28,30,32,34,36,-1,38,40,42,44,46,48,50,52,54,56,58,60,62,64,66,68,70,-1,-1,-1,-1,-1,72,74,-1,76,78,80,82,84,-1,86,88,90,-1,-1,92,94,96,98,100,102,-1,-1,-1,-1,-1,-1,-1,-1,-1,-1,-1,-1,-1,-1,-1,-1,-1,-1,-1,-1,-1,-1,-1,-1,-1,-1,-1,-1,-1,-1,-1,-1,-1,-1,-1,-1,-1,-1,-1,-1,-1,-1],"split_conditions":[5.6320278E-6,3.0721727E-5,3.9603514E-5,1.8701074E-5,3.6105866E-5,2.3373522E-7,1.0933156E-5,6.0529615E-6,2.4639542E-6,2.0210811E-5,2.0809885E-5,7.9155325E-6,7.2689213E-6,2.5533725E-5,2.8141028E-6,2.3719223E-5,1.1325445E-5,4.9296887E-7,1.076124E-1,1.0933504E-7,2.4979465E-5,9.596113E-6,6.793456E-8,4.518122E-5,3.2128742E-6,1.5157926E-6,4.220083E-5,2.5018716E-7,3.1945474E-6,3.682016E-5,1.5011851E-5,3.231208E-5,3.615879E-8,2.5445337E-5,1.5485315E-5,3.252712E-8,2.7250566E-2,2.7842673E-2,-1.2579194E-2,4.7209408E-2,1.09567694E-1,4.407229E-7,5.2175825E-8,7.899546E-2,2.9149211E-8,4.3769447E-5,3.331766E-5,1.5097033E-6,4.6012124E-6,-5.004597E-2,3.1270015E-6,6.701907E-7,4.857887E-5,2.2277612E-2,8.36022E-2,4.242813E-6,6.569062E-6,1.7565654E-7,1.7639166E-5,3.4428023E-5,2.395737E-5,7.688522E-3,-3.6072914E-2,9.62025E-2,-4.1836202E-2,-1.2693564E-2,1.2298517E-2,3.1780332E-2,-1.8190444E-2,-3.5073685E-3,1.1841551E-3,-4.723124E-2,-1.92804E-2,8.529872E-4,1.2136176E-2,-6.388933E-3,1.1389733E-3,-1.1022168E-2,8.969675E-2,9.9679805E-2,1.0711322E-2,-5.2144483E-2,5.5979375E-2,7.7629085E-3,7.037202E-2,-1.1544377E-3,-1.9160723E-2,1.9533101E-2,-5.618165E-3,3.839391E-2,-4.2196563E-3,-4.340108E-2,3.1587854E-2,5.8712598E-2,-1.2536238E-2,7.9126306E-2,-3.6758367E-2,-4.7363948E-2,4.3406866E-2,5.5701453E-2,1.3656302E-2,-4.219842E-3,2.025245E-2],"split_indices":[174,797,1308,468,1096,3,390,208,84,701,632,250,209,914,100,619,336,16,0,3,841,298,2,1359,113,36,1179,8,89,1223,501,1036,1,833,436,1,0,0,0,0,0,14,2,0,1,1153,1047,45,165,0,87,4,1302,0,0,113,201,5,490,1042,813,0,0,0,0,0,0,0,0,0,0,0,0,0,0,0,0,0,0,0,0,0,0,0,0,0,0,0,0,0,0,0,0,0,0,0,0,0,0,0,0,0,0],"split_type":[0,0,0,0,0,0,0,0,0,0,0,0,0,0,0,0,0,0,0,0,0,0,0,0,0,0,0,0,0,0,0,0,0,0,0,0,0,0,0,0,0,0,0,0,0,0,0,0,0,0,0,0,0,0,0,0,0,0,0,0,0,0,0,0,0,0,0,0,0,0,0,0,0,0,0,0,0,0,0,0,0,0,0,0,0,0,0,0,0,0,0,0,0,0,0,0,0,0,0,0,0,0,0],"sum_hessian":[4.272E3,1.052E3,3.22E3,1.011E3,4.1E1,3.92E2,2.828E3,9.95E2,1.6E1,2.3E1,1.8E1,3.01E2,9.1E1,8.1E1,2.747E3,1.36E2,8.59E2,6E0,1E1,4E0,1.9E1,1.1E1,7E0,1.16E2,1.85E2,1.5E1,7.6E1,8E0,7.3E1,4.5E1,2.702E3,1.28E2,8E0,5.83E2,2.76E2,2E0,4E0,3E0,1E0,3E0,1.6E1,7E0,4E0,5E0,2E0,7.2E1,4.4E1,1.2E1,1.73E2,4E0,1.1E1,5.5E1,2.1E1,3E0,5E0,5.4E1,1.9E1,1E1,3.5E1,1.71E2,2.531E3,4.9E1,7.9E1,7E0,1E0,1.74E2,4.09E2,2.37E2,3.9E1,1E0,1E0,4E0,3E0,1E0,3E0,1E0,1E0,6.7E1,5E0,1.5E1,2.9E1,8E0,4E0,1.6E1,1.57E2,2E0,9E0,1.5E1,4E1,1.6E1,5E0,4.8E1,6E0,9E0,1E1,8E0,2E0,3.1E1,4E0,9.6E1,7.5E1,1.21E2,2.41E3],"tree_param":{"num_deleted":"0","num_feature":"1382","num_nodes":"103","size_leaf_vector":"1"}},{"base_weights":[-6.336646E-2,3.385021E-2,-1.23692706E-1,8.86225E-2,-1.610429E-2,-6.304865E-2,-1.4771779E-1,-2.887127E-1,1.0251741E-1,9.057922E-2,-7.642507E-2,-1.761656E-1,-1.3925378E-2,-4.087633E-1,-1.4141224E-1,-5.2156794E-1,1.8258345E-1,-1.4171861E-1,1.2307403E-1,-1.1365524E-2,2.0517035E-1,2.894843E-2,-1.4299688E-1,-4.4006804E-1,-1.04812905E-1,1.0141183E-1,-5.4213125E-2,-4.8047018E-1,-2.6023522E-2,-1.1738643E-1,-1.850897E-1,-5.740018E-1,-1.517603E-2,-6.221742E-2,1.3194835E-1,-4.3981773E-1,3.4594513E-2,7.543971E-2,2.3370789E-1,5.629772E-2,-4.3156022E-1,-1.5302774E-1,2.6657185E-1,1.9634373E-1,-8.595188E-2,-3.882586E-1,-1.0759352E-1,-2.822787E-1,-1.0924577E0,-2.6854724E-1,2.886004E-2,-2.0752461E-1,1.2450378E-1,-1.6971935E-1,-3.0085789E-2,-5.5845326E-1,-2.4537803E-1,9.2513084E-2,-1.15648106E-1,-1.1108142E-1,-3.42669E-1,-4.1162547E-1,-1.7875345E-1,-1.1031783E-1,-1.9592586E-1,-3.76829E-2,1.2913408E-2,-4.6735078E-2,-2.1290693E-1,-8.399335E-2,6.892824E-2,-5.5880196E-2,3.1522512E-2,-1.6220263E-1,7.6601475E-2,2.8108671E-2,-9.746645E-2,-1.3647422E-2,-2.0294939E-1,3.1914816E-3,-2.1348597E-1,1.2173029E-1,4.4316202E-2,-7.455396E-2,7.7203445E-2,-5.221572E-2,6.5330684E-2,-3.777925E-2,-1.9337691E-1,-3.9754204E-2,6.230113E-2,1.4893818E-1,-1.0765127E-1,-7.74062E-2,-3.4935296E-1,-2.4435122E-1,-5.9267636E-2,1.8781375E-2,-1.2852114E-1,-2.494119E-2,5.6527637E-2,-8.105758E-2,-1.927651E-2,-3.620125E-2,-3.557206E-3,-5.6833614E-2,-1.7900571E-1,-3.2228816E-2,-8.510403E-2,7.051063E-3,3.2304525E-2,-1.6692325E-2,-5.335143E-2,-7.141509E-2,-2.9552234E-2,5.1396597E-2,-1.2052445E-1,-2.5998332E-2,-1.34753E-1,-3.9875887E-2,-6.3188635E-2],"categories":[],"categories_nodes":[],"categories_segments":[],"categories_sizes":[],"default_left":[0,0,0,0,0,0,0,0,0,0,0,0,0,0,0,0,0,0,0,0,0,0,0,0,0,0,0,0,0,0,0,0,0,0,0,0,0,0,0,0,0,0,0,0,0,0,0,0,0,0,0,0,0,0,0,0,0,0,0,0,0,0,0,0,0,0,0,0,0,0,0,0,0,0,0,0,0,0,0,0,0,0,0,0,0,0,0,0,0,0,0,0,0,0,0,0,0,0,0,0,0,0,0,0,0,0,0,0,0,0,0,0,0,0,0,0,0,0,0,0,0],"id":17,"left_children":[1,3,5,7,9,11,13,15,17,19,21,23,25,27,29,31,33,35,37,39,41,43,45,47,49,51,53,55,57,59,61,63,-1,65,-1,67,69,71,73,75,77,79,81,83,85,87,89,91,93,95,97,-1,99,101,103,105,107,109,111,113,115,117,119,-1,-1,-1,-1,-1,-1,-1,-1,-1,-1,-1,-1,-1,-1,-1,-1,-1,-1,-1,-1,-1,-1,-1,-1,-1,-1,-1,-1,-1,-1,-1,-1,-1,-1,-1,-1,-1,-1,-1,-1,-1,-1,-1,-1,-1,-1,-1,-1,-1,-1,-1,-1,-1,-1,-1,-1,-1,-1],"loss_changes":[2.5064123E1,4.4804597E0,3.832737E0,4.1244116E0,5.5219164E0,4.1650524E0,3.0499077E0,3.168055E0,3.8030257E0,3.6237402E0,3.8483071E0,4.2283187E0,2.4403563E0,1.1950798E0,1.9143906E0,4.4017506E-1,6.571014E-1,3.116184E0,3.6502676E0,4.715533E0,3.2519016E0,4.11367E0,2.8757434E0,4.6327496E0,3.9473834E0,2.5770507E0,1.0789816E0,5.4129696E-1,9.568932E-2,1.6564884E0,8.637295E-1,3.716755E-2,0E0,4.544363E-2,0E0,1.5758052E0,2.397297E0,3.8043902E0,3.6388445E0,2.0689816E0,2.1441698E0,2.0188663E0,2.008007E0,2.4248507E0,3.4361646E0,2.7430224E0,2.3451962E0,2.5629246E0,2.4063873E-1,2.978375E0,1.5698359E0,0E0,1.7809429E0,6.925888E-1,5.3191435E-1,2.6787853E-1,2.764535E-2,1.6562268E-3,8.764073E-3,1.831687E0,1.0405447E0,1.6852164E-1,9.026394E-1,0E0,0E0,0E0,0E0,0E0,0E0,0E0,0E0,0E0,0E0,0E0,0E0,0E0,0E0,0E0,0E0,0E0,0E0,0E0,0E0,0E0,0E0,0E0,0E0,0E0,0E0,0E0,0E0,0E0,0E0,0E0,0E0,0E0,0E0,0E0,0E0,0E0,0E0,0E0,0E0,0E0,0E0,0E0,0E0,0E0,0E0,0E0,0E0,0E0,0E0,0E0,0E0,0E0,0E0,0E0,0E0,0E0,0E0],"parents":[2147483647,0,0,1,1,2,2,3,3,4,4,5,5,6,6,7,7,8,8,9,9,10,10,11,11,12,12,13,13,14,14,15,15,16,16,17,17,18,18,19,19,20,20,21,21,22,22,23,23,24,24,25,25,26,26,27,27,28,28,29,29,30,30,31,31,33,33,35,35,36,36,37,37,38,38,39,39,40,40,41,41,42,42,43,43,44,44,45,45,46,46,47,47,48,48,49,49,50,50,52,52,53,53,54,54,55,55,56,56,57,57,58,58,59,59,60,60,61,61,62,62],"right_children":[2,4,6,8,10,12,14,16,18,20,22,24,26,28,30,32,34,36,38,40,42,44,46,48,50,52,54,56,58,60,62,64,-1,66,-1,68,70,72,74,76,78,80,82,84,86,88,90,92,94,96,98,-1,100,102,104,106,108,110,112,114,116,118,120,-1,-1,-1,-1,-1,-1,-1,-1,-1,-1,-1,-1,-1,-1,-1,-1,-1,-1,-1,-1,-1,-1,-1,-1,-1,-1,-1,-1,-1,-1,-1,-1,-1,-1,-1,-1,-1,-1,-1,-1,-1,-1,-1,-1,-1,-1,-1,-1,-1,-1,-1,-1,-1,-1,-1,-1,-1,-1],"split_conditions":[3.7372993E-7,9.7468444E-8,1.5313503E-6,3.2723256E-5,3.4609835E-7,1.8726743E-6,9.766408E-6,3.7438604E-5,2.6629283E-5,2.0213251E-6,1.9423732E-7,1.1401561E-5,1.641593E-7,2.6994885E-5,2.3007362E-6,9.810402E-6,6.0887294E-7,3.721187E-5,1.3999729E-5,2.8368497E-5,1.6028303E-5,3.1568696E-5,3.5173052E-5,4.6149045E-5,3.1431835E-5,1.4373269E-6,9.538271E-6,2.749867E-5,8.439607E-6,1.1904006E-4,3.4981378E-5,2.2157596E-5,-1.517603E-2,3.4791523E-8,1.3194835E-1,2.4095103E-5,3.1328884E-5,2.2003953E-5,3.6440833E-5,2.73868E-5,1.7166154E-5,