{"learner":{"attributes":{"scikit_learn":"{\"_estimator_type\": \"regressor\"}"},"feature_names":[],"feature_types":[],"gradient_booster":{"model":{"gbtree_model_param":{"num_parallel_tree":"1","num_trees":"200"},"iteration_indptr":[0,2,4,6,8,10,12,14,16,18,20,22,24,26,28,30,32,34,36,38,40,42,44,46,48,50,52,54,56,58,60,62,64,66,68,70,72,74,76,78,80,82,84,86,88,90,92,94,96,98,100,102,104,106,108,110,112,114,116,118,120,122,124,126,128,130,132,134,136,138,140,142,144,146,148,150,152,154,156,158,160,162,164,166,168,170,172,174,176,178,180,182,184,186,188,190,192,194,196,198,200],"tree_info":[0,1,0,1,0,1,0,1,0,1,0,1,0,1,0,1,0,1,0,1,0,1,0,1,0,1,0,1,0,1,0,1,0,1,0,1,0,1,0,1,0,1,0,1,0,1,0,1,0,1,0,1,0,1,0,1,0,1,0,1,0,1,0,1,0,1,0,1,0,1,0,1,0,1,0,1,0,1,0,1,0,1,0,1,0,1,0,1,0,1,0,1,0,1,0,1,0,1,0,1,0,1,0,1,0,1,0,1,0,1,0,1,0,1,0,1,0,1,0,1,0,1,0,1,0,1,0,1,0,1,0,1,0,1,0,1,0,1,0,1,0,1,0,1,0,1,0,1,0,1,0,1,0,1,0,1,0,1,0,1,0,1,0,1,0,1,0,1,0,1,0,1,0,1,0,1,0,1,0,1,0,1,0,1,0,1,0,1,0,1,0,1,0,1,0,1,0,1,0,1],"trees":[{"base_weights":[1.0245315E0,9.554817E-1,1.3144268E0,9.4456214E-1,1.0611941E0,1.2140898E0,4.3034837E-1,9.6537995E-1,8.5569835E-1,3.945818E-1,2.897605E-1,4.1121832E-1,1.1743125E0,9.47767E-1,3.951886E-1,7.529171E-1,9.200635E-1,3.2907853E-1,3.6851922E-1,9.647068E-1,7.2699726E-1,2.0277439E-1,7.949357E-1,1.1229411E0,2.5328162E-1,2.864876E-1,3.860722E-1,1.9645467E-1,2.5862125E-1,2.7821335E-1,2.192444E-1,2.580566E-1,3.5426277E-1],"categories":[],"categories_nodes":[],"categories_segments":[],"categories_sizes":[],"default_left":[0,0,0,0,0,0,0,0,0,0,0,0,0,0,0,0,0,0,0,0,0,0,0,0,0,0,0,0,0,0,0,0,0],"id":0,"left_children":[1,3,5,7,9,11,-1,13,15,-1,-1,-1,17,19,-1,21,23,-1,-1,25,27,-1,29,31,-1,-1,-1,-1,-1,-1,-1,-1,-1],"loss_changes":[1.0245361E2,3.831787E0,1.0233398E1,6.213135E0,8.030182E0,1.8047485E0,0E0,1.7811035E1,4.1432495E0,0E0,0E0,0E0,5.108032E-1,1.0263916E1,0E0,3.9128113E-1,5.8944397E0,0E0,0E0,7.313965E0,1.5112381E0,0E0,8.5087585E-1,7.8045654E-1,0E0,0E0,0E0,0E0,0E0,0E0,0E0,0E0,0E0],"parents":[2147483647,0,0,1,1,2,2,3,3,4,4,5,5,7,7,8,8,12,12,13,13,15,15,16,16,19,19,20,20,22,22,23,23],"right_children":[2,4,6,8,10,12,-1,14,16,-1,-1,-1,18,20,-1,22,24,-1,-1,26,28,-1,30,32,-1,-1,-1,-1,-1,-1,-1,-1,-1],"split_conditions":[-1.0498458E1,-1.1052615E1,-1.0014562E1,-1.3718775E1,-1.2269327E1,-1.198131E1,4.3034837E-1,-1.2203741E1,-1.161722E1,3.945818E-1,2.897605E-1,4.1121832E-1,-1.0106798E1,-1.4515074E1,3.951886E-1,-1.1687087E1,-1.2823265E1,3.2907853E-1,3.6851922E-1,-1.2745795E1,-1.2060357E1,2.0277439E-1,-1.2381036E1,-1.1511425E1,2.5328162E-1,2.864876E-1,3.860722E-1,1.9645467E-1,2.5862125E-1,2.7821335E-1,2.192444E-1,2.580566E-1,3.5426277E-1],"split_indices":[6,7,3,0,0,0,0,10,11,0,0,0,7,0,0,19,0,0,0,8,17,0,1,12,0,0,0,0,0,0,0,0,0],"split_type":[0,0,0,0,0,0,0,0,0,0,0,0,0,0,0,0,0,0,0,0,0,0,0,0,0,0,0,0,0,0,0,0,0],"sum_hessian":[5.18E3,4.187E3,9.93E2,3.804E3,3.83E2,5.47E2,4.46E2,3.074E3,7.3E2,1.01E2,2.82E2,1.04E2,4.43E2,2.931E3,1.43E2,2.86E2,4.44E2,1.91E2,2.52E2,2.719E3,2.12E2,1.07E2,1.79E2,1.17E2,3.27E2,2.643E3,7.6E1,1.42E2,7E1,5.4E1,1.25E2,2.4E1,9.3E1],"tree_param":{"num_deleted":"0","num_feature":"20","num_nodes":"33","size_leaf_vector":"1"}},{"base_weights":[-1.0245315E0,4.6327862E-1,-2.025039E0,5.688287E-1,-3.424739E-1,-1.22251E0,-2.4625359E0,6.529918E-1,2.87345E-1,3.6324516E-2,-7.3431027E-1,-9.7188324E-1,-1.647104E0,-2.085234E0,-2.715692E0,7.6914424E-1,6.078642E-1,4.8292068E-1,3.2392886E-2,2.525311E-1,-3.1126368E-1,-9.428027E-1,-3.8294613E-1,-1.5704367E0,-8.9094263E-1,-2.1888871E0,-1.3494513E0,-2.2664692E0,-1.5608488E0,-2.527535E0,-2.8698554E0,7.744215E-1,-1.7504478E-1,6.578001E-1,4.9147955E-1,6.072462E-1,2.8545988E-1,2.5877783E-1,-2.6426387E-1,6.8809426E-1,1.0798483E-1,9.646436E-2,-5.379682E-1,-1.5250627E0,-7.8152436E-1,-4.293851E-1,-3.2784346E-1,-1.7399212E0,-5.50062E-1,-1.6602498E0,-8.539132E-1,-1.5877852E0,-2.5618396E0,-1.1542078E0,-1.6482282E0,-2.1049E0,-2.6279674E0,-4.024205E-1,-5.111995E-1,-8.4121007E-1,-2.2479007E0,-9.093809E-1,-2.752328E0,2.3537809E-1,7.6648764E-2,-6.9385074E-2,-9.385076E-3,2.0448881E-1,1.3065723E-1,1.8133414E-1,1.0046873E-1,2.0887135E-1,8.361683E-2,2.0118745E-1,3.4345828E-2,1.0017538E-1,-1.2615469E-1,-3.911818E-2,-1.9216205E-1,2.5056928E-1,-1.12513445E-1,-2.1251343E-1,4.4717047E-2,2.0107614E-1,-9.888195E-2,-3.7501615E-1,-1.15852736E-1,-5.42206E-1,-8.9077614E-2,-2.7879632E-1,-6.8858E-2,-1.4889313E-1,-8.158209E-2,-3.86371E-1,-6.582014E-1,-9.385076E-3,-1.7720598E-1,-5.8246243E-1,-1.0564179E-1,-2.0896031E-1,-3.1278998E-1,-5.2985513E-1,-3.5083163E-1,-8.0824625E-1,-4.8348013E-1,-3.9491904E-1,-3.1329203E-1,-6.083791E-1,-3.8606524E-1,-7.002083E-1,-4.9097744E-1,-8.156704E-1,-6.464534E-1,-6.036279E-1,-7.3371005E-1,-3.8392386E-1,-8.32826E-1],"categories":[],"categories_nodes":[],"categories_segments":[],"categories_sizes":[],"default_left":[0,0,0,0,0,0,0,0,0,0,0,0,0,0,0,0,0,0,0,0,0,0,0,0,0,0,0,0,0,0,0,0,0,0,0,0,0,0,0,0,0,0,0,0,0,0,0,0,0,0,0,0,0,0,0,0,0,0,0,0,0,0,0,0,0,0,0,0,0,0,0,0,0,0,0,0,0,0,0,0,0,0,0,0,0,0,0,0,0,0,0,0,0,0,0,0,0,0,0,0,0,0,0,0,0,0,0,0,0,0,0,0,0,0,0,0,0],"id":1,"left_children":[1,3,5,7,9,11,13,15,17,19,21,23,25,27,29,31,33,35,37,39,41,43,45,47,49,51,53,55,57,59,61,63,65,67,69,71,73,75,77,79,81,83,85,87,89,-1,91,93,95,97,99,101,103,105,107,109,111,-1,-1,-1,113,-1,115,-1,-1,-1,-1,-1,-1,-1,-1,-1,-1,-1,-1,-1,-1,-1,-1,-1,-1,-1,-1,-1,-1,-1,-1,-1,-1,-1,-1,-1,-1,-1,-1,-1,-1,-1,-1,-1,-1,-1,-1,-1,-1,-1,-1,-1,-1,-1,-1,-1,-1,-1,-1,-1,-1],"loss_changes":[7.7131934E3,1.7743332E2,1.084709E3,4.3474E1,3.594601E1,1.1492322E2,1.8575195E2,6.965149E0,2.1225754E1,9.39731E0,8.356506E0,3.207788E1,6.2357788E1,7.334766E1,2.7439453E1,2.0937958E0,5.6395874E0,5.7430725E0,1.2559889E1,4.7735415E0,4.4887176E0,5.757164E0,2.1880088E0,1.3050888E1,1.59878845E1,2.7766235E1,1.3497833E1,2.9454102E1,4.3425903E0,3.598999E1,3.987793E0,1.8634491E0,1.7019495E-2,3.4902344E0,5.316513E0,4.103607E0,6.1792674E0,5.5508885E0,3.996616E0,3.2853584E0,2.0838382E0,4.621469E0,2.8680239E0,4.663723E0,4.6817055E0,0E0,2.88836E-1,1.1336853E1,2.5549817E-1,9.251228E0,1.664859E1,2.1885986E0,6.4709473E0,1.530716E0,1.138504E1,4.1139893E1,1.9283447E0,0E0,0E0,0E0,7.9989014E0,0E0,9.987305E0,0E0,0E0,0E0,0E0,0E0,0E0,0E0,0E0,0E0,0E0,0E0,0E0,0E0,0E0,0E0,0E0,0E0,0E0,0E0,0E0,0E0,0E0,0E0,0E0,0E0,0E0,0E0,0E0,0E0,0E0,0E0,0E0,0E0,0E0,0E0,0E0,0E0,0E0,0E0,0E0,0E0,0E0,0E0,0E0,0E0,0E0,0E0,0E0,0E0,0E0,0E0,0E0,0E0,0E0],"parents":[2147483647,0,0,1,1,2,2,3,3,4,4,5,5,6,6,7,7,8,8,9,9,10,10,11,11,12,12,13,13,14,14,15,15,16,16,17,17,18,18,19,19,20,20,21,21,22,22,23,23,24,24,25,25,26,26,27,27,28,28,29,29,30,30,31,31,32,32,33,33,34,34,35,35,36,36,37,37,38,38,39,39,40,40,41,41,42,42,43,43,44,44,46,46,47,47,48,48,49,49,50,50,51,51,52,52,53,53,54,54,55,55,56,56,60,60,62,62],"right_children":[2,4,6,8,10,12,14,16,18,20,22,24,26,28,30,32,34,36,38,40,42,44,46,48,50,52,54,56,58,60,62,64,66,68,70,72,74,76,78,80,82,84,86,88,90,-1,92,94,96,98,100,102,104,106,108,110,112,-1,-1,-1,114,-1,116,-1,-1,-1,-1,-1,-1,-1,-1,-1,-1,-1,-1,-1,-1,-1,-1,-1,-1,-1,-1,-1,-1,-1,-1,-1,-1,-1,-1,-1,-1,-1,-1,-1,-1,-1,-1,-1,-1,-1,-1,-1,-1,-1,-1,-1,-1,-1,-1,-1,-1,-1,-1,-1,-1],"split_conditions":[-1.5984732E1,-1.6068441E1,-1.3406051E1,-1.491468E1,-1.4876687E1,-1.4440648E1,-1.2122393E1,-1.4976171E1,-1.6131838E1,-1.404377E1,-1.312926E1,-1.2959484E1,-1.2038811E1,-1.1052615E1,-1.166366E1,-1.2493661E1,-1.4395528E1,-1.3604608E1,-1.4387446E1,-1.4968635E1,-1.4924312E1,-1.2662919E1,-1.2651486E1,-1.2524163E1,-1.3049121E1,-1.3160653E1,-1.3718775E1,-1.1656813E1,-1.2554177E1,-1.0153845E1,-9.993487E0,-1.4345482E1,-1.6197016E1,-1.356618E1,-1.3805858E1,-1.3416908E1,-1.4428749E1,-1.3560735E1,-1.4019975E1,-1.2370525E1,-1.2632135E1,-1.4410219E1,-1.2991574E1,-1.2441644E1,-1.3535381E1,-4.293851E-1,-1.2416354E1,-1.4300022E1,-1.3826238E1,-1.2369286E1,-1.5244526E1,-1.2530806E1,-1.2117825E1,-1.1989472E1,-1.1818392E1,-1.1248829E1,-1.0794837E1,-4.024205E-1,-5.111995E-1,-8.4121007E-1,-1.1791444E1,-9.093809E-1,-9.628078E0,2.3537809E-1,7.6648764E-2,-6.9385074E-2,-9.385076E-3,2.0448881E-1,1.3065723E-1,1.8133414E-1,1.0046873E-1,2.0887135E-1,8.361683E-2,2.0118745E-1,3.4345828E-2,1.0017538E-1,-1.2615469E-1,-3.911818E-2,-1.9216205E-1,2.5056928E-1,-1.12513445E-1,-2.1251343E-1,4.4717047E-2,2.0107614E-1,-9.888195E-2,-3.7501615E-1,-1.15852736E-1,-5.42206E-1,-8.9077614E-2,-2.7879632E-1,-6.8858E-2,-1.4889313E-1,-8.158209E-2,-3.86371E-1,-6.582014E-1,-9.385076E-3,-1.7720598E-1,-5.8246243E-1,-1.0564179E-1,-2.0896031E-1,-3.1278998E-1,-5.2985513E-1,-3.5083163E-1,-8.0824625E-1,-4.8348013E-1,-3.9491904E-1,-3.1329203E-1,-6.083791E-1,-3.8606524E-1,-7.002083E-1,-4.9097744E-1,-8.156704E-1,-6.464534E-1,-6.036279E-1,-7.3371005E-1,-3.8392386E-1,-8.32826E-1],"split_indices":[0,0,0,1,1,0,0,1,0,3,8,10,17,7,0,15,2,5,2,1,1,14,15,15,9,2,0,1,0,16,3,2,0,5,4,6,2,5,3,18,15,2,10,17,5,0,18,2,4,18,0,10,15,14,17,16,18,0,0,0,0,0,10,0,0,0,0,0,0,0,0,0,0,0,0,0,0,0,0,0,0,0,0,0,0,0,0,0,0,0,0,0,0,0,0,0,0,0,0,0,0,0,0,0,0,0,0,0,0,0,0,0,0,0,0,0,0],"split_type":[0,0,0,0,0,0,0,0,0,0,0,0,0,0,0,0,0,0,0,0,0,0,0,0,0,0,0,0,0,0,0,0,0,0,0,0,0,0,0,0,0,0,0,0,0,0,0,0,0,0,0,0,0,0,0,0,0,0,0,0,0,0,0,0,0,0,0,0,0,0,0,0,0,0,0,0,0,0,0,0,0,0,0,0,0,0,0,0,0,0,0,0,0,0,0,0,0,0,0,0,0,0,0,0,0,0,0,0,0,0,0,0,0,0,0,0,0],"sum_hessian":[5.18E3,2.083E3,3.097E3,1.842E3,2.41E2,1.094E3,2.003E3,1.417E3,4.25E2,1.23E2,1.18E2,6.9E2,4.04E2,8.08E2,1.195E3,3.92E2,1.025E3,2.4E2,1.85E2,7.6E1,4.7E1,7.3E1,4.5E1,8E1,6.1E2,1.41E2,2.63E2,5.98E2,2.1E2,5.46E2,6.49E2,3.9E2,2E0,7.14E2,3.11E2,1.46E2,9.4E1,1.05E2,8E1,1.8E1,5.8E1,1.7E1,3E1,1.4E1,5.9E1,1E0,4.4E1,6.8E1,1.2E1,2.6E1,5.84E2,5.6E1,8.5E1,1.62E2,1.01E2,4.18E2,1.8E2,8.7E1,1.23E2,2.7E2,2.76E2,2.63E2,3.86E2,3.82E2,8E0,1E0,1E0,6.43E2,7.1E1,1.79E2,1.32E2,1.14E2,3.2E1,2.8E1,6.6E1,9.5E1,1E1,6E1,2E1,1.6E1,2E0,2E0,5.6E1,7E0,1E1,4E0,2.6E1,1.1E1,3E0,4.6E1,1.3E1,9E0,3.5E1,3.6E1,3.2E1,1E0,1.1E1,2.1E1,5E0,3.21E2,2.63E2,3.7E1,1.9E1,7.3E1,1.2E1,6.1E1,1.01E2,4.7E1,5.4E1,2.78E2,1.4E2,1.47E2,3.3E1,1.31E2,1.45E2,7E0,3.79E2],"tree_param":{"num_deleted":"0","num_feature":"20","num_nodes":"117","size_leaf_vector":"1"}},{"base_weights":[7.1819735E-1,6.696651E-1,9.219547E-1,6.6067916E-1,7.337471E-1,8.540051E-1,1.0101827E0,6.7489326E-1,5.7030684E-1,2.9045662E-1,6.7931044E-1,2.8666478E-1,8.2379055E-1,2.9118592E-1,3.2435846E-1,6.629028E-1,9.321894E-1,1.4955437E-1,6.135793E-1,6.3593197E-1,7.2342056E-1,2.3371412E-1,2.6392224E-1,6.7550194E-1,5.089876E-1,9.820586E-1,2.3213966E-1,7.568041E-1,1.682788E-1,2.2194074E-1,1.837773E-1,2.3522064E-1,2.0350392E-1,1.9992223E-1,2.6832443E-1,1.3103576E-1,1.7675363E-1,8.4993556E-2,2.9585156E-1,2.5835246E-1,2.056249E-1],"categories":[],"categories_nodes":[],"categories_segments":[],"categories_sizes":[],"default_left":[0,0,0,0,0,0,0,0,0,0,0,0,0,0,0,0,0,0,0,0,0,0,0,0,0,0,0,0,0,0,0,0,0,0,0,0,0,0,0,0,0],"id":2,"left_children":[1,3,5,7,9,11,13,15,17,-1,19,-1,21,-1,-1,23,25,-1,27,29,31,-1,-1,33,35,37,-1,39,-1,-1,-1,-1,-1,-1,-1,-1,-1,-1,-1,-1,-1],"loss_changes":[5.0616455E1,1.9268799E0,5.0964355E0,4.3460693E0,5.8000183E0,9.555054E-1,1.50177E-1,9.183472E0,1.2691956E0,0E0,3.321228E-1,0E0,4.286499E-1,0E0,0E0,5.5494385E0,3.380127E-1,0E0,1.9281998E0,7.291412E-2,9.391785E-3,0E0,0E0,4.9906006E0,1.097496E0,1.3763428E-2,0E0,1.3252258E-2,0E0,0E0,0E0,0E0,0E0,0E0,0E0,0E0,0E0,0E0,0E0,0E0,0E0],"parents":[2147483647,0,0,1,1,2,2,3,3,4,4,5,5,6,6,7,7,8,8,10,10,12,12,15,15,16,16,18,18,19,19,20,20,23,23,24,24,25,25,27,27],"right_children":[2,4,6,8,10,12,14,16,18,-1,20,-1,22,-1,-1,24,26,-1,28,30,32,-1,-1,34,36,38,-1,40,-1,-1,-1,-1,-1,-1,-1,-1,-1,-1,-1,-1,-1],"split_conditions":[-1.0420613E1,-1.1191986E1,-9.993487E0,-1.3406051E1,-1.2619749E1,-1.1929101E1,-9.96368E0,-1.2040895E1,-1.13944235E1,2.9045662E-1,-1.0825812E1,2.8666478E-1,-9.768956E0,2.9118592E-1,3.2435846E-1,-1.3283525E1,-1.3618206E1,1.4955437E-1,-1.2859153E1,-1.1448933E1,-1.1945467E1,2.3371412E-1,2.6392224E-1,-1.2689201E1,-1.1978545E1,-1.2339075E1,2.3213966E-1,-1.3225438E1,1.682788E-1,2.2194074E-1,1.837773E-1,2.3522064E-1,2.0350392E-1,1.9992223E-1,2.6832443E-1,1.3103576E-1,1.7675363E-1,8.4993556E-2,2.9585156E-1,2.5835246E-1,2.056249E-1],"split_indices":[8,8,3,0,0,0,1,10,19,0,7,0,14,0,0,1,0,0,0,1,0,0,0,8,17,7,0,0,0,0,0,0,0,0,0,0,0,0,0,0,0],"split_type":[0,0,0,0,0,0,0,0,0,0,0,0,0,0,0,0,0,0,0,0,0,0,0,0,0,0,0,0,0,0,0,0,0,0,0,0,0,0,0,0,0],"sum_hessian":[5.18E3,4.187E3,9.93E2,3.682E3,5.05E2,5.67E2,4.26E2,3.176E3,5.06E2,9.2E1,4.13E2,1.23E2,4.44E2,2.83E2,1.43E2,3.038E3,1.38E2,1.95E2,3.11E2,2.16E2,1.97E2,2.55E2,1.89E2,2.805E3,2.33E2,1.01E2,3.7E1,8E1,2.31E2,3.4E1,1.82E2,7.7E1,1.2E2,2.697E3,1.08E2,1.26E2,1.07E2,1E0,1E2,2.8E1,5.2E1],"tree_param":{"num_deleted":"0","num_feature":"20","num_nodes":"41","size_leaf_vector":"1"}},{"base_weights":[-7.2009116E-1,3.2384577E-1,-1.4221069E0,3.796874E-1,-4.6635336E-1,-8.5134E-1,-1.7236916E0,4.445114E-1,1.1120383E-1,-3.4943104E-2,-5.5687004E-1,-6.838509E-1,-1.1512972E0,-1.4657252E0,-1.9089005E0,4.8828545E-1,3.5300958E-1,3.914978E-1,-8.152523E-2,-2.8176227E-1,8.452369E-2,-8.812785E-1,-3.764273E-1,-1.0393122E0,-5.858874E-1,-1.5935934E0,-9.359279E-1,-1.5887159E0,-1.1079297E0,-1.7813734E0,-2.0247076E0,8.1538445E-1,4.7957987E-1,4.6840435E-1,2.538371E-1,6.202119E-1,2.7000898E-1,1.39733385E-2,-4.0134686E-1,5.2525055E-1,-6.708103E-2,-4.709086E-1,-1.3566802E0,-8.599956E-1,-2.4120194E-1,-1.1724049E0,-4.9917555E-1,-4.474425E-1,-7.31028E-1,-1.1625705E0,-1.8787932E0,-1.1014068E0,-7.88457E-1,-6.439489E-1,-1.5285103E0,-2.410929E-1,-1.1687183E0,-1.9247485E0,-1.4994329E0,-6.229943E-1,-1.7525321E0,1.3960777E-1,2.7595457E-1,1.4701642E-1,8.5322276E-2,1.5119879E-1,6.2518574E-2,1.5415378E-1,5.871129E-2,2.2603068E-1,8.8131435E-2,6.9443164E-3,1.127925E-1,-1.2799707E-1,2.1112448E-2,-1.9819006E-1,-5.1877573E-2,1.6581895E-2,2.2392634E-1,-3.898225E-2,8.320893E-3,-1.0090509E-1,-3.7675422E-1,-5.311033E-1,-7.028829E-2,-1.416258E-1,-4.856939E-1,-2.4684331E-1,-5.5489615E-2,-3.9236575E-1,-1.761828E-1,-6.350762E-2,-2.642837E-1,-2.3015434E-1,-1.1641325E-1,-2.7046937E-1,-1.602537E-1,-3.8089976E-1,-2.5267562E-1,-5.761222E-1,-2.7862832E-1,-2.5668824E-1,-4.2190695E-1,-2.1973947E-1,-2.7483508E-1,-3.2340133E-1,-5.119553E-1,-3.9081633E-1,-3.2604858E-1,-5.47995E-1,-6.1942816E-1,-4.747125E-1,-3.9933646E-1,-3.6870995E-1,-6.2211406E-1],"categories":[],"categories_nodes":[],"categories_segments":[],"categories_sizes":[],"default_left":[0,0,0,0,0,0,0,0,0,0,0,0,0,0,0,0,0,0,0,0,0,0,0,0,0,0,0,0,0,0,0,0,0,0,0,0,0,0,0,0,0,0,0,0,0,0,0,0,0,0,0,0,0,0,0,0,0,0,0,0,0,0,0,0,0,0,0,0,0,0,0,0,0,0,0,0,0,0,0,0,0,0,0,0,0,0,0,0,0,0,0,0,0,0,0,0,0,0,0,0,0,0,0,0,0,0,0,0,0,0,0,0,0,0,0],"id":3,"left_children":[1,3,5,7,9,11,13,15,17,19,21,23,25,27,29,31,33,35,37,-1,39,41,43,45,47,49,51,53,55,57,59,61,63,65,67,69,71,73,75,77,79,81,83,85,87,89,91,93,95,97,99,101,103,-1,105,-1,107,109,111,-1,113,-1,-1,-1,-1,-1,-1,-1,-1,-1,-1,-1,-1,-1,-1,-1,-1,-1,-1,-1,-1,-1,-1,-1,-1,-1,-1,-1,-1,-1,-1,-1,-1,-1,-1,-1,-1,-1,-1,-1,-1,-1,-1,-1,-1,-1,-1,-1,-1,-1,-1,-1,-1,-1,-1],"loss_changes":[3.7974082E3,9.2135666E1,5.318052E2,3.3836517E1,5.369419E0,5.311975E1,9.4E1,6.1080933E0,2.0559818E1,2.7801247E0,6.3414993E0,2.3453247E1,3.4991974E1,3.5688477E1,1.376123E1,2.6217194E0,5.728977E0,4.1393986E0,6.9082146E0,0E0,1.5720088E0,7.164749E0,4.696871E0,1.0054199E1,1.0604019E1,1.3058777E1,5.4764404E0,1.7908936E1,3.1486511E0,2.007434E1,4.9697266E0,5.226307E-1,1.9724884E0,2.0696907E0,4.086302E0,2.0836105E0,2.6856632E0,4.3791604E0,2.9655476E0,5.8241427E-1,1.1088765E-1,2.006856E0,7.9424553E0,3.9463768E0,1.8102701E0,8.586227E0,3.2158408E0,5.039036E0,8.380859E0,7.144623E-1,1.1024475E0,7.790741E0,3.368454E-1,0E0,4.4111206E1,0E0,5.813141E-1,1.3515625E0,6.298218E-1,0E0,1.4937683E1,0E0,0E0,0E0,0E0,0E0,0E0,0E0,0E0,0E0,0E0,0E0,0E0,0E0,0E0,0E0,0E0,0E0,0E0,0E0,0E0,0E0,0E0,0E0,0E0,0E0,0E0,0E0,0E0,0E0,0E0,0E0,0E0,0E0,0E0,0E0,0E0,0E0,0E0,0E0,0E0,0E0,0E0,0E0,0E0,0E0,0E0,0E0,0E0,0E0,0E0,0E0,0E0,0E0,0E0],"parents":[2147483647,0,0,1,1,2,2,3,3,4,4,5,5,6,6,7,7,8,8,9,9,10,10,11,11,12,12,13,13,14,14,15,15,16,16,17,17,18,18,20,20,21,21,22,22,23,23,24,24,25,25,26,26,27,27,28,28,29,29,30,30,31,31,32,32,33,33,34,34,35,35,36,36,37,37,38,38,39,39,40,40,41,41,42,42,43,43,44,44,45,45,46,46,47,47,48,48,49,49,50,50,51,51,52,52,54,54,56,56,57,57,58,58,60,60],"right_children":[2,4,6,8,10,12,14,16,18,20,22,24,26,28,30,32,34,36,38,-1,40,42,44,46,48,50,52,54,56,58,60,62,64,66,68,70,72,74,76,78,80,82,84,86,88,90,92,94,96,98,100,102,104,-1,106,-1,108,110,112,-1,114,-1,-1,-1,-1,-1,-1,-1,-1,-1,-1,-1,-1,-1,-1,-1,-1,-1,-1,-1,-1,-1,-1,-1,-1,-1,-1,-1,-1,-1,-1,-1,-1,-1,-1,-1,-1,-1,-1,-1,-1,-1,-1,-1,-1,-1,-1,-1,-1,-1,-1,-1,-1,-1,-1],"split_conditions":[-1.5984732E1,-1.485493E1,-1.3469995E1,-1.6101383E1,-1.6116219E1,-1.4440648E1,-1.210609E1,-1.4929224E1,-1.4935796E1,-1.3241213E1,-1.2575205E1,-1.2840314E1,-1.19867E1,-1.1052615E1,-1.1643623E1,-1.31367235E1,-1.4414382E1,-1.4433332E1,-1.4370167E1,-2.8176227E-1,-1.3623953E1,-1.3770405E1,-1.2881344E1,-1.2653496E1,-1.5244526E1,-1.3160653E1,-1.1852381E1,-1.1687087E1,-1.2884728E1,-1.0251018E1,-1.11541395E1,-1.253967E1,-1.2458376E1,-1.2354178E1,-1.3332716E1,-1.3776631E1,-1.2600975E1,-1.2697534E1,-1.3169356E1,-1.3180898E1,-1.3583397E1,-1.2404438E1,-1.3547129E1,-1.4010124E1,-1.2774294E1,-1.2524163E1,-1.5818517E1,-1.2443614E1,-1.255341E1,-1.2530806E1,-1.1970581E1,-1.2961727E1,-1.3618206E1,-6.439489E-1,-1.2085483E1,-2.410929E-1,-1.0601084E1,-1.1841781E1,-9.875735E0,-6.229943E-1,-8.6533E0,1.3960777E-1,2.7595457E-1,1.4701642E-1,8.5322276E-2,1.5119879E-1,6.2518574E-2,1.5415378E-1,5.871129E-2,2.2603068E-1,8.8131435E-2,6.9443164E-3,1.127925E-1,-1.2799707E-1,2.1112448E-2,-1.9819006E-1,-5.1877573E-2,1.6581895E-2,2.2392634E-1,-3.898225E-2,8.320893E-3,-1.0090509E-1,-3.7675422E-1,-5.311033E-1,-7.028829E-2,-1.416258E-1,-4.856939E-1,-2.4684331E-1,-5.5489615E-2,-3.9236575E-1,-1.761828E-1,-6.350762E-2,-2.642837E-1,-2.3015434E-1,-1.1641325E-1,-2.7046937E-1,-1.602537E-1,-3.8089976E-1,-2.5267562E-1,-5.761222E-1,-2.7862832E-1,-2.5668824E-1,-4.2190695E-1,-2.1973947E-1,-2.7483508E-1,-3.2340133E-1,-5.119553E-1,-3.9081633E-1,-3.2604858E-1,-5.47995E-1,-6.1942816E-1,-4.747125E-1,-3.9933646E-1,-3.6870995E-1,-6.2211406E-1],"split_indices":[0,1,0,0,0,0,0,1,1,8,15,11,19,7,0,9,2,2,2,0,5,4,11,13,0,2,16,19,0,6,0,16,16,18,7,4,15,14,8,8,5,17,5,3,13,15,0,17,11,10,18,2,0,0,1,0,11,0,5,0,7,0,0,0,0,0,0,0,0,0,0,0,0,0,0,0,0,0,0,0,0,0,0,0,0,0,0,0,0,0,0,0,0,0,0,0,0,0,0,0,0,0,0,0,0,0,0,0,0,0,0,0,0,0,0],"split_type":[0,0,0,0,0,0,0,0,0,0,0,0,0,0,0,0,0,0,0,0,0,0,0,0,0,0,0,0,0,0,0,0,0,0,0,0,0,0,0,0,0,0,0,0,0,0,0,0,0,0,0,0,0,0,0,0,0,0,0,0,0,0,0,0,0,0,0,0,0,0,0,0,0,0,0,0,0,0,0,0,0,0,0,0,0,0,0,0,0,0,0,0,0,0,0,0,0,0,0,0,0,0,0,0,0,0,0,0,0,0,0,0,0,0,0],"sum_hessian":[5.18E3,2.083E3,3.097E3,1.946E3,1.37E2,1.072E3,2.025E3,1.567E3,3.79E2,2.4E1,1.13E2,6.9E2,3.82E2,8.5E2,1.175E3,1.057E3,5.1E2,1.54E2,2.25E2,2E0,2.2E1,3.9E1,7.4E1,1.47E2,5.43E2,1.23E2,2.59E2,6.3E2,2.2E2,5.67E2,6.08E2,2.5E1,1.032E3,2.34E2,2.76E2,5.2E1,1.02E2,1.74E2,5.1E1,5E0,1.7E1,2.2E1,1.7E1,1.5E1,5.9E1,1.17E2,3E1,2.8E2,2.63E2,5.1E1,7.2E1,1.19E2,1.4E2,5.8E1,5.72E2,3.9E1,1.81E2,3.72E2,1.95E2,5.05E2,1.03E2,7E0,1.8E1,9.78E2,5.4E1,2.05E2,2.9E1,4.9E1,2.27E2,3.6E1,1.6E1,3.1E1,7.1E1,1.9E1,1.55E2,2.3E1,2.8E1,2E0,3E0,1E1,7E0,2E1,2E0,1.2E1,5E0,1.1E1,4E0,4E0,5.5E1,9.4E1,2.3E1,1.8E1,1.2E1,4.2E1,2.38E2,1.39E2,1.24E2,3.6E1,1.5E1,6.8E1,4E0,6.8E1,5.1E1,1.02E2,3.8E1,1.64E2,4.08E2,6.3E1,1.18E2,2.27E2,1.45E2,1.25E2,7E1,4.1E1,6.2E1],"tree_param":{"num_deleted":"0","num_feature":"20","num_nodes":"115","size_leaf_vector":"1"}},{"base_weights":[5.036464E-1,4.6905896E-1,6.453196E-1,4.3992874E-1,4.8294964E-1,6.078949E-1,2.1897705E-1,4.553191E-1,2.2829773E-1,5.254542E-1,4.5300505E-1,2.1223259E-1,5.9464717E-1,4.4590688E-1,5.5496544E-1,1.4108634E-1,2.9310113E-1,4.7507322E-1,7.070625E-1,3.1466937E-1,4.7923267E-1,1.6471149E-1,1.9130315E-1,5.6805986E-1,4.3825555E-1,2.532147E-1,5.739352E-1,9.356995E-2,2.3988675E-1,1.3983433E-1,3.445345E-1,4.9376264E-1,3.0993363E-1,7.825877E-1,5.9951884E-1,2.518099E-1,3.5778216E-1,6.919079E-1,4.631092E-1,9.436474E-2,1.825301E-1,1.20324574E-1,1.3720375E-1,2.6287468E-2,1.00513086E-1,1.3774468E-1,1.9260864E-1,1.9480687E-2,5.9185404E-2,9.0113506E-2,2.4907354E-2,2.915173E-2,8.342733E-2,4.518534E-2,1.2186258E-1,1.440789E-1,2.0139782E-1,5.314076E-2,1.2098796E-1,1.834108E-1,2.6298702E-1,1.2607516E-1,2.2658299E-1,9.115482E-2,5.5776317E-2,1.6521221E-1,8.8594615E-2,1.5506202E-1,2.1851568E-1,1.1850878E-1,1.4954643E-1],"categories":[],"categories_nodes":[],"categories_segments":[],"categories_sizes":[],"default_left":[0,0,0,0,0,0,0,0,0,0,0,0,0,0,0,0,0,0,0,0,0,0,0,0,0,0,0,0,0,0,0,0,0,0,0,0,0,0,0,0,0,0,0,0,0,0,0,0,0,0,0,0,0,0,0,0,0,0,0,0,0,0,0,0,0,0,0,0,0,0,0],"id":4,"left_children":[1,3,5,7,9,11,-1,13,15,17,19,-1,21,23,25,27,29,31,33,35,37,-1,-1,39,41,43,45,47,49,51,53,55,57,59,61,63,65,67,69,-1,-1,-1,-1,-1,-1,-1,-1,-1,-1,-1,-1,-1,-1,-1,-1,-1,-1,-1,-1,-1,-1,-1,-1,-1,-1,-1,-1,-1,-1,-1,-1],"loss_changes":[2.5084839E1,1.47406E0,2.7668457E0,4.3158875E0,3.3410645E0,5.143738E-1,0E0,9.380493E-1,4.8989725E-1,1.0241028E1,5.861145E0,0E0,8.9019775E-1,8.3522034E-1,4.5570755E-1,1.7472863E-1,3.6962223E-1,2.6493988E0,1.5532684E0,6.334896E-1,4.449402E0,0E0,0E0,4.7390556E-1,5.943451E-1,7.904208E-2,4.7120285E-1,7.628325E-2,9.841621E-2,6.1451674E-2,4.0524387E-1,1.6287842E0,1.1063671E0,1.766449E0,2.6702957E0,3.275361E-1,1.7173901E0,2.3646545E-1,2.924591E0,0E0,0E0,0E0,0E0,0E0,0E0,0E0,0E0,0E0,0E0,0E0,0E0,0E0,0E0,0E0,0E0,0E0,0E0,0E0,0E0,0E0,0E0,0E0,0E0,0E0,0E0,0E0,0E0,0E0,0E0,0E0,0E0],"parents":[2147483647,0,0,1,1,2,2,3,3,4,4,5,5,7,7,8,8,9,9,10,10,12,12,13,13,14,14,15,15,16,16,17,17,18,18,19,19,20,20,23,23,24,24,25,25,26,26,27,27,28,28,29,29,30,30,31,31,32,32,33,33,34,34,35,35,36,36,37,37,38,38],"right_children":[2,4,6,8,10,12,-1,14,16,18,20,-1,22,24,26,28,30,32,34,36,38,-1,-1,40,42,44,46,48,50,52,54,56,58,60,62,64,66,68,70,-1,-1,-1,-1,-1,-1,-1,-1,-1,-1,-1,-1,-1,-1,-1,-1,-1,-1,-1,-1,-1,-1,-1,-1,-1,-1,-1,-1,-1,-1,-1,-1],"split_conditions":[-1.0489712E1,-1.2706113E1,-9.987442E0,-1.5984732E1,-1.5244526E1,-1.2122393E1,2.1897705E-1,-1.3008704E1,-1.3038804E1,-1.3360698E1,-1.2154444E1,2.1223259E-1,-1.0024589E1,-1.2511417E1,-1.2452179E1,-1.3379031E1,-1.3573263E1,-1.4774635E1,-1.5659218E1,-1.2532432E1,-1.4375539E1,1.6471149E-1,1.9130315E-1,-1.3109584E1,-1.2415483E1,-1.3187199E1,-1.2884776E1,-1.2400946E1,-1.2489074E1,-1.252542E1,-1.263326E1,-1.3541773E1,-1.3028172E1,-1.2992757E1,-1.2873652E1,-1.3908719E1,-1.4709825E1,-1.2445333E1,-1.1701812E1,9.436474E-2,1.825301E-1,1.20324574E-1,1.3720375E-1,2.6287468E-2,1.00513086E-1,1.3774468E-1,1.9260864E-1,1.9480687E-2,5.9185404E-2,9.0113506E-2,2.4907354E-2,2.915173E-2,8.342733E-2,4.518534E-2,1.2186258E-1,1.440789E-1,2.0139782E-1,5.314076E-2,1.2098796E-1,1.834108E-1,2.6298702E-1,1.2607516E-1,2.2658299E-1,9.115482E-2,5.5776317E-2,1.6521221E-1,8.8594615E-2,1.5506202E-1,2.1851568E-1,1.1850878E-1,1.4954643E-1],"split_indices":[7,13,2,0,0,0,0,9,9,6,16,0,6,17,18,6,5,1,0,12,0,0,0,9,18,8,11,17,16,15,14,5,9,9,9,1,0,10,9,0,0,0,0,0,0,0,0,0,0,0,0,0,0,0,0,0,0,0,0,0,0,0,0,0,0,0,0,0,0,0,0],"split_type":[0,0,0,0,0,0,0,0,0,0,0,0,0,0,0,0,0,0,0,0,0,0,0,0,0,0,0,0,0,0,0,0,0,0,0,0,0,0,0,0,0,0,0,0,0,0,0,0,0,0,0,0,0,0,0,0,0,0,0,0,0,0,0,0,0,0,0,0,0,0,0],"sum_hessian":[5.18E3,4.167E3,1.013E3,1.356E3,2.811E3,7.08E2,3.05E2,1.263E3,9.3E1,1.155E3,1.656E3,7.7E1,6.31E2,1.159E3,1.04E2,4.1E1,5.2E1,9.07E2,2.48E2,2.66E2,1.39E3,3.13E2,3.18E2,6.4E1,1.095E3,7E0,9.7E1,2.9E1,1.2E1,1.4E1,3.8E1,8.13E2,9.4E1,1.42E2,1.06E2,1.11E2,1.55E2,9.5E1,1.295E3,1E1,5.4E1,3.79E2,7.16E2,3E0,4E0,3.9E1,5.8E1,2.4E1,5E0,8E0,4E0,1.2E1,2E0,1E1,2.8E1,7.59E2,5.4E1,4E1,5.4E1,5.3E1,8.9E1,5.1E1,5.5E1,6E1,5.1E1,3.6E1,1.19E2,1.9E1,7.6E1,4.47E2,8.48E2],"tree_param":{"num_deleted":"0","num_feature":"20","num_nodes":"71","size_leaf_vector":"1"}},{"base_weights":[-5.0625587E-1,2.3396578E-1,-9.9688214E-1,2.797304E-1,-2.0409341E-1,-6.985975E-1,-1.2860461E0,3.0876824E-1,5.6977812E-2,-7.0506865E-3,-4.1350675E-1,-4.89254E-1,-8.8562727E-1,-1.1850437E0,-1.4144212E0,3.234325E-1,-1.813436E-2,2.4012423E-1,-1.2335665E-1,2.7875826E-1,-1.4168847E-1,-6.199546E-1,-1.7034343E-1,-1.1181294E0,-4.510107E-1,-1.0209818E0,-6.018222E-1,-1.3025689E0,-9.5151746E-1,-1.5165312E0,-1.3331355E0,3.552539E-1,2.6001877E-1,2.0831564E-1,-2.6347625E-1,5.56795E-1,1.5264106E-1,-3.808953E-1,-1.0119201E-1,6.1960423E-1,5.448419E-2,-3.8193083E-1,-2.3620496E-2,-7.532299E-1,8.568896E-2,-3.3033863E-1,-1.0144345E-1,-1.2962358E0,-2.2141103E-1,-7.850643E-1,-4.050645E-1,-9.550703E-1,-5.2582896E-1,-5.089382E-1,-7.7281106E-1,-1.2430904E0,-1.5138847E0,-7.659595E-1,-1.0730293E0,-1.4302855E0,-1.6107091E0,-1.086965E0,-1.4112295E0,1.12026446E-1,6.163244E-2,9.338419E-2,4.783388E-2,1.7378938E-1,1.0715775E-2,-1.9167054E-1,5.169406E-3,4.1348964E-2,1.996551E-1,-2.2540979E-1,5.4932967E-2,-1.7214587E-2,-1.9413637E-1,2.3906367E-1,-7.1081325E-2,1.9833052E-1,-2.500398E-2,-1.8610601E-1,1.7363057E-2,-2.0087112E-1,1.5095921E-2,-1.4481775E-1,-3.6779675E-1,1.2595934E-1,-2.0931117E-2,-7.061786E-2,1.1135114E-2,-4.913529E-1,-2.2630318E-1,-4.845053E-3,-1.6743873E-1,-7.360681E-2,-2.7990708E-1,-7.1929604E-2,-1.5000111E-1,-3.0433655E-1,-1.9248942E-1,-2.5615802E-1,-1.4873992E-1,-3.0480167E-1,-1.9280149E-1,-3.9904466E-1,-2.52884E-1,-4.6007624E-1,-2.6025465E-1,-1.6811098E-1,-2.394393E-1,-3.3333462E-1,-2.6091078E-1,-4.3182972E-1,1.04712015E-2,-4.8473626E-1,-1.3952881E-1,-1.171669E-1,-3.3830854E-1,-4.4958997E-1,-3.708899E-1],"categories":[],"categories_nodes":[],"categories_segments":[],"categories_sizes":[],"default_left":[0,0,0,0,0,0,0,0,0,0,0,0,0,0,0,0,0,0,0,0,0,0,0,0,0,0,0,0,0,0,0,0,0,0,0,0,0,0,0,0,0,0,0,0,0,0,0,0,0,0,0,0,0,0,0,0,0,0,0,0,0,0,0,0,0,0,0,0,0,0,0,0,0,0,0,0,0,0,0,0,0,0,0,0,0,0,0,0,0,0,0,0,0,0,0,0,0,0,0,0,0,0,0,0,0,0,0,0,0,0,0,0,0,0,0,0,0,0,0,0,0],"id":5,"left_children":[1,3,5,7,9,11,13,15,17,19,21,23,25,27,29,31,33,35,37,39,41,43,45,47,49,51,53,55,57,59,61,63,65,67,69,71,73,-1,75,77,79,81,83,85,87,-1,89,91,93,95,97,99,-1,101,103,105,107,109,111,113,115,117,119,-1,-1,-1,-1,-1,-1,-1,-1,-1,-1,-1,-1,-1,-1,-1,-1,-1,-1,-1,-1,-1,-1,-1,-1,-1,-1,-1,-1,-1,-1,-1,-1,-1,-1,-1,-1,-1,-1,-1,-1,-1,-1,-1,-1,-1,-1,-1,-1,-1,-1,-1,-1,-1,-1,-1,-1,-1,-1],"loss_changes":[1.8818284E3,4.1475487E1,2.6786646E2,1.2084503E1,8.084704E0,5.9706482E1,1.8823242E1,7.9395905E0,7.1966114E0,3.9645264E0,4.6634464E0,1.6980255E1,3.050116E1,2.3214233E1,3.713745E0,3.104004E0,4.055039E0,2.9069734E0,2.6663127E0,2.488857E0,1.9765236E0,4.8608303E0,2.7741966E0,6.261158E0,1.0226425E1,2.470929E1,3.7995682E0,5.5336914E0,5.9874573E0,1.24816895E-1,6.02124E0,2.7865295E0,2.698269E0,2.4124556E0,3.699477E0,9.559388E-1,2.5063682E0,0E0,2.5698404E0,2.1627727E0,1.8109224E0,2.4476855E0,2.3262534E0,4.9071655E0,4.9685043E-1,0E0,8.0682135E-1,5.058384E0,5.4390645E-1,6.319172E0,9.390289E0,8.730347E0,0E0,3.651886E-1,2.2271194E0,1.5112244E1,2.6153564E-1,3.6628723E-1,4.2756653E-1,2.2615662E0,3.390503E-2,2.3676834E0,2.6575928E0,0E0,0E0,0E0,0E0,0E0,0E0,0E0,0E0,0E0,0E0,0E0,0E0,0E0,0E0,0E0,0E0,0E0,0E0,0E0,0E0,0E0,0E0,0E0,0E0,0E0,0E0,0E0,0E0,0E0,0E0,0E0,0E0,0E0,0E0,0E0,0E0,0E0,0E0,0E0,0E0,0E0,0E0,0E0,0E0,0E0,0E0,0E0,0E0,0E0,0E0,0E0,0E0,0E0,0E0,0E0,0E0,0E0,0E0],"parents":[2147483647,0,0,1,1,2,2,3,3,4,4,5,5,6,6,7,7,8,8,9,9,10,10,11,11,12,12,13,13,14,14,15,15,16,16,17,17,18,18,19,19,20,20,21,21,22,22,23,23,24,24,25,25,26,26,27,27,28,28,29,29,30,30,31,31,32,32,33,33,34,34,35,35,36,36,38,38,39,39,40,40,41,41,42,42,43,43,44,44,46,46,47,47,48,48,49,49,50,50,51,51,53,53,54,54,55,55,56,56,57,57,58,58,59,59,60,60,61,61,62,62],"right_children":[2,4,6,8,10,12,14,16,18,20,22,24,26,28,30,32,34,36,38,40,42,44,46,48,50,52,54,56,58,60,62,64,66,68,70,72,74,-1,76,78,80,82,84,86,88,-1,90,92,94,96,98,100,-1,102,104,106,108,110,112,114,116,118,120,-1,-1,-1,-1,-1,-1,-1,-1,-1,-1,-1,-1,-1,-1,-1,-1,-1,-1,-1,-1,-1,-1,-1,-1,-1,-1,-1,-1,-1,-1,-1,-1,-1,-1,-1,-1,-1,-1,-1,-1,-1,-1,-1,-1,-1,-1,-1,-1,-1,-1,-1,-1,-1,-1,-1,-1,-1,-1],"split_conditions":[-1.4817665E1,-1.6060062E1,-1.2670152E1,-1.4892606E1,-1.4876687E1,-1.4375539E1,-1.1690734E1,-1.3545286E1,-1.6130577E1,-1.4067057E1,-1.2565128E1,-1.2657718E1,-1.1726346E1,-1.0452625E1,-9.993487E0,-1.3045744E1,-1.4934884E1,-1.4441197E1,-1.2583063E1,-1.346877E1,-1.2589243E1,-1.2667581E1,-1.290212E1,-1.2818042E1,-1.3564381E1,-1.2119284E1,-1.2859153E1,-1.1929101E1,-1.1929101E1,-1.1590556E1,-1.1517591E1,-1.3126721E1,-1.4056511E1,-1.4446425E1,-1.2894836E1,-1.2739848E1,-1.3241213E1,-3.808953E-1,-1.2456362E1,-1.2497189E1,-1.235449E1,-1.2771824E1,-1.2405933E1,-1.5993685E1,-1.3138E1,-3.3033863E-1,-1.35677595E1,-1.2434703E1,-1.5840211E1,-1.4361884E1,-1.5596482E1,-1.1541282E1,-5.2582896E-1,-1.1834643E1,-1.1333531E1,-1.0601128E1,-1.0120781E1,-1.0137008E1,-9.993487E0,-1.0145709E1,-9.669851E0,-9.659734E0,-1.11541395E1,1.12026446E-1,6.163244E-2,9.338419E-2,4.783388E-2,1.7378938E-1,1.0715775E-2,-1.9167054E-1,5.169406E-3,4.1348964E-2,1.996551E-1,-2.2540979E-1,5.4932967E-2,-1.7214587E-2,-1.9413637E-1,2.3906367E-1,-7.1081325E-2,1.9833052E-1,-2.500398E-2,-1.8610601E-1,1.7363057E-2,-2.0087112E-1,1.5095921E-2,-1.4481775E-1,-3.6779675E-1,1.2595934E-1,-2.0931117E-2,-7.061786E-2,1.1135114E-2,-4.913529E-1,-2.2630318E-1,-4.845053E-3,-1.6743873E-1,-7.360681E-2,-2.7990708E-1,-7.1929604E-2,-1.5000111E-1,-3.0433655E-1,-1.9248942E-1,-2.5615802E-1,-1.4873992E-1,-3.0480167E-1,-1.9280149E-1,-3.9904466E-1,-2.52884E-1,-4.6007624E-1,-2.6025465E-1,-1.6811098E-1,-2.394393E-1,-3.3333462E-1,-2.6091078E-1,-4.3182972E-1,1.04712015E-2,-4.8473626E-1,-1.3952881E-1,-1.171669E-1,-3.3830854E-1,-4.4958997E-1,-3.708899E-1],"split_indices":[1,0,0,1,1,0,0,5,0,3,15,14,8,7,3,9,1,2,16,6,15,13,11,11,5,2,0,0,0,0,0,8,3,2,11,13,8,0,16,16,19,12,19,0,8,0,5,17,0,2,0,18,0,7,14,13,18,19,3,2,5,10,0,0,0,0,0,0,0,0,0,0,0,0,0,0,0,0,0,0,0,0,0,0,0,0,0,0,0,0,0,0,0,0,0,0,0,0,0,0,0,0,0,0,0,0,0,0,0,0,0,0,0,0,0,0,0,0,0,0,0],"split_type":[0,0,0,0,0,0,0,0,0,0,0,0,0,0,0,0,0,0,0,0,0,0,0,0,0,0,0,0,0,0,0,0,0,0,0,0,0,0,0,0,0,0,0,0,0,0,0,0,0,0,0,0,0,0,0,0,0,0,0,0,0,0,0,0,0,0,0,0,0,0,0,0,0,0,0,0,0,0,0,0,0,0,0,0,0,0,0,0,0,0,0,0,0,0,0,0,0,0,0,0,0,0,0,0,0,0,0,0,0,0,0,0,0,0,0,0,0,0,0,0,0],"sum_hessian":[5.18E3,2.065E3,3.115E3,1.87E3,1.95E2,1.535E3,1.58E3,1.654E3,2.16E2,1.01E2,9.4E1,7.26E2,8.09E2,8.9E2,6.9E2,1.583E3,7.1E1,1.07E2,1.09E2,3.2E1,6.9E1,5E1,4.4E1,4E1,6.86E2,5.46E2,2.63E2,5.89E2,3.01E2,2.98E2,3.92E2,1.051E3,5.32E2,3.7E1,3.4E1,2.2E1,8.5E1,1E0,1.08E2,1.2E1,2E1,2.2E1,4.7E1,4.2E1,8E0,2E0,4.2E1,3.3E1,7E0,8.1E1,6.05E2,5.03E2,4.3E1,1.73E2,9E1,4.65E2,1.24E2,1.22E2,1.79E2,1.64E2,1.34E2,9.8E1,2.94E2,9.36E2,1.15E2,3.51E2,1.81E2,1.1E1,2.6E1,1.4E1,2E1,5E0,1.7E1,2E0,8.3E1,1.01E2,7E0,1E1,2E0,3E0,1.7E1,1.4E1,8E0,4E0,4.3E1,2.8E1,1.4E1,2E0,6E0,2.1E1,2.1E1,1.9E1,1.4E1,5E0,2E0,1.8E1,6.3E1,2.22E2,3.83E2,4.21E2,8.2E1,4E0,1.69E2,2.9E1,6.1E1,3.8E2,8.5E1,1.19E2,5E0,1.9E1,1.03E2,1.47E2,3.2E1,1.63E2,1E0,1.33E2,1E0,6E0,9.2E1,1.91E2,1.03E2],"tree_param":{"num_deleted":"0","num_feature":"20","num_nodes":"121","size_leaf_vector":"1"}},{"base_weights":[3.5344285E-1,3.2688043E-1,4.4574884E-1,3.3323866E-1,2.8094473E-1,4.061633E-1,4.887045E-1,3.2455263E-1,4.9508345E-1,2.1009414E-1,3.012999E-1,1.5151556E-1,3.8152045E-1,1.3933212E-1,1.601806E-1,3.3371836E-1,2.560064E-1,1.6440724E-1,4.055746E-1,2.3274276E-1,5.74051E-2,1.2061356E-1,2.8566462E-1,1.06029235E-1,4.070728E-1,3.2647687E-1,4.6794915E-1,2.131607E-1,3.082456E-1,3.104413E-1,1.4197002E-1,6.1893836E-2,8.779125E-2,2.674134E-1,3.200867E-1,1.3256608E-1,1.1541843E-1,1.0108845E-1,6.918378E-2,1.5502809E-1,1.2467893E-1,5.6912214E-2,7.017638E-2,1.2675671E-1,6.85405E-2,4.0378753E-2,9.719729E-2,7.235407E-2,8.367664E-2,1.187986E-1,8.6125076E-2],"categories":[],"categories_nodes":[],"categories_segments":[],"categories_sizes":[],"default_left":[0,0,0,0,0,0,0,0,0,0,0,0,0,0,0,0,0,0,0,0,0,0,0,0,0,0,0,0,0,0,0,0,0,0,0,0,0,0,0,0,0,0,0,0,0,0,0,0,0,0,0],"id":6,"left_children":[1,3,5,7,9,11,13,15,17,19,21,-1,23,-1,-1,25,27,-1,29,31,-1,-1,33,-1,35,37,39,41,43,45,-1,-1,-1,47,49,-1,-1,-1,-1,-1,-1,-1,-1,-1,-1,-1,-1,-1,-1,-1,-1],"loss_changes":[1.2557434E1,1.0825195E0,1.7654724E0,4.804596E0,6.520157E-1,1.2865067E0,3.5455322E-1,2.0224E0,6.2121964E-1,3.8599968E-3,4.884491E-1,0E0,2.0783234E-1,0E0,0E0,2.7205505E0,8.295822E-1,0E0,3.036518E-1,1.402688E-2,0E0,0E0,1.2486458E-1,0E0,2.4471283E-2,2.7445984E0,1.6599274E-1,6.420326E-2,1.5262375E0,3.263712E-2,0E0,0E0,0E0,6.599426E-4,1.6439533E-1,0E0,0E0,0E0,0E0,0E0,0E0,0E0,0E0,0E0,0E0,0E0,0E0,0E0,0E0,0E0,0E0],"parents":[2147483647,0,0,1,1,2,2,3,3,4,4,5,5,6,6,7,7,8,8,9,9,10,10,12,12,15,15,16,16,18,18,19,19,22,22,24,24,25,25,26,26,27,27,28,28,29,29,33,33,34,34],"right_children":[2,4,6,8,10,12,14,16,18,20,22,-1,24,-1,-1,26,28,-1,30,32,-1,-1,34,-1,36,38,40,42,44,46,-1,-1,-1,48,50,-1,-1,-1,-1,-1,-1,-1,-1,-1,-1,-1,-1,-1,-1,-1,-1],"split_conditions":[-1.0730415E1,-1.27815695E1,-1.0163123E1,-1.1686728E1,-1.1136501E1,-1.2122393E1,-9.751314E0,-1.3988063E1,-1.3006445E1,-1.1848351E1,-1.2473393E1,1.5151556E-1,-1.0304471E1,1.3933212E-1,1.601806E-1,-1.2422932E1,-1.1649354E1,1.6440724E-1,-1.1741616E1,-1.1206439E1,5.74051E-2,1.2061356E-1,-1.0798877E1,1.06029235E-1,-1.1703937E1,-1.521137E1,-1.4375539E1,-1.185643E1,-1.2289577E1,-1.1300914E1,1.4197002E-1,6.1893836E-2,8.779125E-2,-1.0883566E1,-1.210609E1,1.3256608E-1,1.1541843E-1,1.0108845E-1,6.918378E-2,1.5502809E-1,1.2467893E-1,5.6912214E-2,7.017638E-2,1.2675671E-1,6.85405E-2,4.0378753E-2,9.719729E-2,7.235407E-2,8.367664E-2,1.187986E-1,8.6125076E-2],"split_indices":[7,0,3,8,14,0,2,0,0,2,0,0,6,0,0,10,17,0,3,16,0,0,9,0,0,0,0,17,1,19,0,0,0,17,0,0,0,0,0,0,0,0,0,0,0,0,0,0,0,0,0],"split_type":[0,0,0,0,0,0,0,0,0,0,0,0,0,0,0,0,0,0,0,0,0,0,0,0,0,0,0,0,0,0,0,0,0,0,0,0,0,0,0,0,0,0,0,0,0,0,0,0,0,0,0],"sum_hessian":[5.18E3,4.026E3,1.154E3,3.531E3,4.95E2,6.06E2,5.48E2,3.354E3,1.77E2,1.13E2,3.82E2,1.17E2,4.89E2,3.64E2,1.84E2,2.955E3,3.99E2,1.08E2,6.9E1,4.6E1,6.7E1,4.8E1,3.34E2,2.4E2,2.49E2,2.807E3,1.48E2,2.22E2,1.77E2,3.1E1,3.8E1,3.5E1,1.1E1,2.24E2,1.1E2,9E1,1.59E2,2.528E3,2.79E2,7.2E1,7.6E1,1.09E2,1.13E2,7.1E1,1.06E2,3E0,2.8E1,7.5E1,1.49E2,3E1,8E1],"tree_param":{"num_deleted":"0","num_feature":"20","num_nodes":"51","size_leaf_vector":"1"}},{"base_weights":[-3.561366E-1,1.771444E-1,-6.920302E-1,2.184762E-1,2.1312047E-2,-4.1038775E-1,-8.610075E-1,2.5745693E-1,1.6198091E-1,3.1210282E-1,-4.8882533E-2,-3.3035883E-1,-5.4386604E-1,-7.269308E-1,-9.417766E-1,3.692127E-1,2.2789079E-1,1.9052571E-1,-3.2285012E-2,3.8081802E-2,4.0581366E-1,4.842566E-2,-1.6533698E-1,-6.059911E-1,-2.7733305E-1,-8.1729037E-1,-4.0254524E-1,-8.609094E-1,-5.0232697E-1,-1.106759E0,-9.183169E-1,2.0702033E-1,4.5510203E-1,2.3616807E-1,-2.953248E-1,2.3141006E-1,3.6643803E-2,1.7204958E-1,-3.095103E-1,-5.06679E-1,2.2811021E-1,4.7033748E-1,-1.5913256E-1,3.103845E-1,-3.9863568E-2,-2.8243777E-1,-6.035273E-2,-2.1828876E-1,-7.9711366E-1,-9.9641436E-1,-2.6412785E-1,-5.621422E-1,-1.0367076E0,-2.853922E-1,-5.2589506E-1,-1.2843872E0,-8.1070125E-1,-3.6352497E-1,-6.2471586E-1,-1.0226139E0,-3.802842E-1,-6.4714473E-1,-9.702931E-1,7.600996E-2,-7.1900964E-2,1.4701512E-1,-1.6103087E-2,1.5859285E-3,7.443594E-2,2.412634E-2,-1.7256105E-1,-1.8322396E-1,7.154276E-2,1.0679113E-1,-1.4068763E-2,-2.7653527E-2,1.1722815E-1,-1.6717061E-1,-3.1808637E-2,-2.0795818E-1,-2.672983E-2,1.5120298E-1,9.540118E-3,1.625572E-1,2.8293783E-2,6.1170574E-2,-1.0353802E-1,6.740473E-3,1.6885564E-1,-1.6393612E-1,3.569529E-3,-3.0955886E-2,-1.4223164E-1,2.8496599E-2,-5.1023755E-2,-1.3094544E-1,-8.564709E-3,-2.9198444E-1,-6.598396E-2,-3.1196859E-2,-3.954225E-1,-5.358005E-2,-9.9938445E-2,-2.3845215E-1,-1.2400139E-1,-3.2527637E-1,-1.1579052E-1,-5.405406E-2,-1.0027272E-1,-2.2893187E-1,-1.0047149E-1,-2.0367895E-1,-4.1135964E-1,-1.110416E-1,-2.6481006E-1,-7.859313E-2,-1.416259E-1,-3.3343548E-1,-1.6980198E-1,-3.5841238E-1,-2.3764394E-1,-2.4068372E-1,-1.7610148E-1,-2.866723E-1,-3.735556E-1],"categories":[],"categories_nodes":[],"categories_segments":[],"categories_sizes":[],"default_left":[0,0,0,0,0,0,0,0,0,0,0,0,0,0,0,0,0,0,0,0,0,0,0,0,0,0,0,0,0,0,0,0,0,0,0,0,0,0,0,0,0,0,0,0,0,0,0,0,0,0,0,0,0,0,0,0,0,0,0,0,0,0,0,0,0,0,0,0,0,0,0,0,0,0,0,0,0,0,0,0,0,0,0,0,0,0,0,0,0,0,0,0,0,0,0,0,0,0,0,0,0,0,0,0,0,0,0,0,0,0,0,0,0,0,0,0,0,0,0,0,0,0,0,0,0],"id":7,"left_children":[1,3,5,7,9,11,13,15,17,19,21,23,25,27,29,31,33,35,37,39,41,43,45,47,49,51,53,55,57,59,61,63,65,67,69,71,73,75,77,79,81,83,85,87,89,91,93,95,97,99,101,103,105,107,109,111,113,115,117,119,-1,121,123,-1,-1,-1,-1,-1,-1,-1,-1,-1,-1,-1,-1,-1,-1,-1,-1,-1,-1,-1,-1,-1,-1,-1,-1,-1,-1,-1,-1,-1,-1,-1,-1,-1,-1,-1,-1,-1,-1,-1,-1,-1,-1,-1,-1,-1,-1,-1,-1,-1,-1,-1,-1,-1,-1,-1,-1,-1,-1,-1,-1,-1,-1],"loss_changes":[9.281725E2,1.2896343E1,1.5093909E2,3.4444199E0,8.608682E0,1.2574783E1,2.0822266E1,3.005272E0,3.6050396E0,2.0902033E0,3.8608773E0,1.077903E1,1.6904694E1,2.2166718E1,3.7675781E0,2.6083183E0,3.2832031E0,3.552431E0,4.811575E0,2.393019E0,2.2984467E0,4.3142076E0,1.888483E0,8.717838E0,5.719059E0,7.870796E0,4.12735E0,8.930634E0,4.5804596E0,7.20459E-1,1.4706909E1,1.4891894E0,2.2667103E0,2.0158348E0,1.3082175E0,2.8055248E0,3.2178664E0,2.8677077E0,1.7555859E0,4.055457E-1,9.0472317E-1,1.4280233E0,5.4302806E-1,3.4037614E0,3.6775982E0,2.4591193E0,1.4308956E0,1.6849576E0,7.920185E0,3.0205708E0,3.599392E0,2.1645699E0,2.0567627E0,7.312784E-1,6.223049E0,1.5919647E0,1.3059113E1,1.3645878E0,3.6287155E0,3.1388092E0,0E0,1.1897583E0,2.4960938E0,0E0,0E0,0E0,0E0,0E0,0E0,0E0,0E0,0E0,0E0,0E0,0E0,0E0,0E0,0E0,0E0,0E0,0E0,0E0,0E0,0E0,0E0,0E0,0E0,0E0,0E0,0E0,0E0,0E0,0E0,0E0,0E0,0E0,0E0,0E0,0E0,0E0,0E0,0E0,0E0,0E0,0E0,0E0,0E0,0E0,0E0,0E0,0E0,0E0,0E0,0E0,0E0,0E0,0E0,0E0,0E0,0E0,0E0,0E0,0E0,0E0,0E0],"parents":[2147483647,0,0,1,1,2,2,3,3,4,4,5,5,6,6,7,7,8,8,9,9,10,10,11,11,12,12,13,13,14,14,15,15,16,16,17,17,18,18,19,19,20,20,21,21,22,22,23,23,24,24,25,25,26,26,27,27,28,28,29,29,30,30,31,31,32,32,33,33,34,34,35,35,36,36,37,37,38,38,39,39,40,40,41,41,42,42,43,43,44,44,45,45,46,46,47,47,48,48,49,49,50,50,51,51,52,52,53,53,54,54,55,55,56,56,57,57,58,58,59,59,61,61,62,62],"right_children":[2,4,6,8,10,12,14,16,18,20,22,24,26,28,30,32,34,36,38,40,42,44,46,48,50,52,54,56,58,60,62,64,66,68,70,72,74,76,78,80,82,84,86,88,90,92,94,96,98,100,102,104,106,108,110,112,114,116,118,120,-1,122,124,-1,-1,-1,-1,-1,-1,-1,-1,-1,-1,-1,-1,-1,-1,-1,-1,-1,-1,-1,-1,-1,-1,-1,-1,-1,-1,-1,-1,-1,-1,-1,-1,-1,-1,-1,-1,-1,-1,-1,-1,-1,-1,-1,-1,-1,-1,-1,-1,-1,-1,-1,-1,-1,-1,-1,-1,-1,-1,-1,-1,-1,-1],"split_conditions":[-1.4841922E1,-1.6101383E1,-1.241701E1,-1.3052168E1,-1.4968635E1,-1.4515074E1,-1.21631155E1,-1.3332716E1,-1.4024335E1,-1.2600975E1,-1.4394615E1,-1.3038804E1,-1.2117825E1,-1.1082184E1,-1.0472424E1,-1.2356966E1,-1.3527997E1,-1.341265E1,-1.4929224E1,-1.2999436E1,-1.2528556E1,-1.4084726E1,-1.3168802E1,-1.4345482E1,-1.2675764E1,-1.3160653E1,-1.3769495E1,-1.1680787E1,-1.1475127E1,-1.1170222E1,-1.1856531E1,-1.2589993E1,-1.4888525E1,-1.3328709E1,-1.318302E1,-1.2605378E1,-1.4447797E1,-1.318302E1,-1.3440897E1,-1.2623156E1,-1.4450749E1,-1.4032246E1,-1.3308441E1,-1.3819684E1,-1.3498744E1,-1.4052419E1,-1.3053555E1,-1.2730821E1,-1.24752035E1,-1.5993685E1,-1.5596482E1,-1.255341E1,-1.2157432E1,-1.4078008E1,-1.1827144E1,-1.2451182E1,-1.2264255E1,-1.0734871E1,-1.0861443E1,-1.0881304E1,-3.802842E-1,-1.0445789E1,-8.485639E0,7.600996E-2,-7.1900964E-2,1.4701512E-1,-1.6103087E-2,1.5859285E-3,7.443594E-2,2.412634E-2,-1.7256105E-1,-1.8322396E-1,7.154276E-2,1.0679113E-1,-1.4068763E-2,-2.7653527E-2,1.1722815E-1,-1.6717061E-1,-3.1808637E-2,-2.0795818E-1,-2.672983E-2,1.5120298E-1,9.540118E-3,1.625572E-1,2.8293783E-2,6.1170574E-2,-1.0353802E-1,6.740473E-3,1.6885564E-1,-1.6393612E-1,3.569529E-3,-3.0955886E-2,-1.4223164E-1,2.8496599E-2,-5.1023755E-2,-1.3094544E-1,-8.564709E-3,-2.9198444E-1,-6.598396E-2,-3.1196859E-2,-3.954225E-1,-5.358005E-2,-9.9938445E-2,-2.3845215E-1,-1.2400139E-1,-3.2527637E-1,-1.1579052E-1,-5.405406E-2,-1.0027272E-1,-2.2893187E-1,-1.0047149E-1,-2.0367895E-1,-4.1135964E-1,-1.110416E-1,-2.6481006E-1,-7.859313E-2,-1.416259E-1,-3.3343548E-1,-1.6980198E-1,-3.5841238E-1,-2.3764394E-1,-2.4068372E-1,-1.7610148E-1,-2.866723E-1,-3.735556E-1],"split_indices":[1,0,1,9,1,0,0,7,3,15,2,9,15,11,19,19,5,6,1,10,15,3,8,2,14,2,0,18,1,1,0,14,1,7,8,16,2,8,6,14,2,3,7,4,6,3,9,13,16,0,0,11,14,0,16,2,1,17,17,9,0,13,17,0,0,0,0,0,0,0,0,0,0,0,0,0,0,0,0,0,0,0,0,0,0,0,0,0,0,0,0,0,0,0,0,0,0,0,0,0,0,0,0,0,0,0,0,0,0,0,0,0,0,0,0,0,0,0,0,0,0,0,0,0,0],"split_type":[0,0,0,0,0,0,0,0,0,0,0,0,0,0,0,0,0,0,0,0,0,0,0,0,0,0,0,0,0,0,0,0,0,0,0,0,0,0,0,0,0,0,0,0,0,0,0,0,0,0,0,0,0,0,0,0,0,0,0,0,0,0,0,0,0,0,0,0,0,0,0,0,0,0,0,0,0,0,0,0,0,0,0,0,0,0,0,0,0,0,0,0,0,0,0,0,0,0,0,0,0,0,0,0,0,0,0,0,0,0,0,0,0,0,0,0,0,0,0,0,0,0,0,0,0],"sum_hessian":[5.18E3,2.002E3,3.178E3,1.582E3,4.2E2,1.193E3,1.985E3,9.34E2,6.48E2,8.1E1,3.39E2,7.48E2,4.45E2,7.5E2,1.235E3,1.93E2,7.41E2,5.65E2,8.3E1,2.1E1,6E1,1.85E2,1.54E2,1.19E2,6.29E2,1.5E2,2.95E2,4.68E2,2.82E2,1.48E2,1.087E3,6.8E1,1.25E2,7.3E2,1.1E1,4.46E2,1.19E2,4.8E1,3.5E1,5E0,1.6E1,5.4E1,6E0,4.6E1,1.39E2,7.2E1,8.2E1,4E1,7.9E1,1E1,6.19E2,7.1E1,7.9E1,1.53E2,1.42E2,4.7E1,4.21E2,1.34E2,1.48E2,1.02E2,4.6E1,1.77E2,9.1E2,6.2E1,6E0,1.17E2,8E0,3.6E1,6.94E2,5E0,6E0,3E0,4.43E2,2.4E1,9.5E1,2.2E1,2.6E1,1.5E1,2E1,3E0,2E0,6E0,1E1,4.5E1,9E0,2E0,4E0,2.2E1,2.4E1,1.2E1,1.27E2,3.8E1,3.4E1,3.4E1,4.8E1,1.8E1,2.2E1,6E1,1.9E1,3E0,7E0,2.78E2,3.41E2,2.6E1,4.5E1,7.3E1,6E0,5E1,1.03E2,6.2E1,8E1,7E0,4E1,6E1,3.61E2,7.1E1,6.3E1,1.4E1,1.34E2,5.6E1,4.6E1,4.6E1,1.31E2,8.68E2,4.2E1],"tree_param":{"num_deleted":"0","num_feature":"20","num_nodes":"125","size_leaf_vector":"1"}},{"base_weights":[2.4793306E-1,2.2928934E-1,3.127212E-1,2.0229962E-1,2.4004677E-1,2.9003572E-1,3.507188E-1,2.1971132E-1,5.1836845E-2,2.639318E-1,2.1796148E-1,1.0644611E-1,2.7707067E-1,3.347339E-1,1.19143695E-1,1.4131084E-1,2.3369074E-1,-3.7343174E-2,9.8008394E-2,2.3969264E-1,4.2163447E-1,1.1698268E-1,2.286889E-1,2.506382E-1,2.9964134E-1,1.3425384E-1,9.891511E-2,2.6461923E-1,1.01745024E-1,3.6233044E-1,2.2412664E-1,-5.1460035E-2,8.12172E-2,4.6709437E-2,2.0899773E-1,2.4747886E-1,1.0491143E-1,5.151197E-1,3.3252147E-1,3.63129E-2,1.4114751E-1,3.2796207E-1,2.1823582E-1,2.718163E-1,7.092637E-2,9.931145E-2,8.3665416E-2,9.1255166E-2,8.7311125E-4,2.3399115E-2,7.978426E-2,1.1335125E-1,1.6394762E-2,6.613621E-2,1.589278E-1,1.8567092E-3,-2.5487147E-2,7.100913E-2,3.034093E-3,9.305548E-2,1.5604611E-2,7.12539E-2,1.3025726E-1,3.9256956E-2,-1.6818367E-2,5.443148E-2,1.6398406E-1,5.5203E-2,1.2799487E-1,3.133249E-2,3.6775225E-3,7.374485E-2,2.8862206E-2,8.048804E-2,1.0972651E-1,5.163822E-2,7.1170755E-2,6.3339084E-2,8.765675E-2],"categories":[],"categories_nodes":[],"categories_segments":[],"categories_sizes":[],"default_left":[0,0,0,0,0,0,0,0,0,0,0,0,0,0,0,0,0,0,0,0,0,0,0,0,0,0,0,0,0,0,0,0,0,0,0,0,0,0,0,0,0,0,0,0,0,0,0,0,0,0,0,0,0,0,0,0,0,0,0,0,0,0,0,0,0,0,0,0,0,0,0,0,0,0,0,0,0,0,0],"id":8,"left_children":[1,3,5,7,9,11,13,15,17,19,21,-1,23,25,-1,27,29,31,33,35,37,39,41,43,45,-1,-1,47,49,51,53,55,-1,57,59,61,63,65,67,69,71,73,75,77,-1,-1,-1,-1,-1,-1,-1,-1,-1,-1,-1,-1,-1,-1,-1,-1,-1,-1,-1,-1,-1,-1,-1,-1,-1,-1,-1,-1,-1,-1,-1,-1,-1,-1,-1],"loss_changes":[6.186371E0,1.120636E0,8.9388275E-1,3.0118752E0,1.4585266E0,5.1399994E-1,1.8395233E-1,1.1002388E0,5.018871E-1,5.1588135E0,1.5970306E0,0E0,2.9002E-1,3.57666E-2,0E0,7.4880505E-1,9.965515E-1,1.9658698E-1,4.4572872E-1,1.2281036E0,1.3449059E0,2.794826E-1,1.3334885E0,2.2449493E-2,1.19478226E-1,0E0,0E0,3.9258265E-1,4.5499325E-1,2.6085424E-1,8.013916E-1,7.969996E-2,0E0,3.8696003E-1,3.8098073E-1,1.9976578E0,2.8715807E-1,8.150978E-1,1.2634859E0,5.6077775E-2,5.031791E-1,1.8826199E-1,1.0349655E0,7.307148E-2,0E0,0E0,0E0,0E0,0E0,0E0,0E0,0E0,0E0,0E0,0E0,0E0,0E0,0E0,0E0,0E0,0E0,0E0,0E0,0E0,0E0,0E0,0E0,0E0,0E0,0E0,0E0,0E0,0E0,0E0,0E0,0E0,0E0,0E0,0E0],"parents":[2147483647,0,0,1,1,2,2,3,3,4,4,5,5,6,6,7,7,8,8,9,9,10,10,12,12,13,13,15,15,16,16,17,17,18,18,19,19,20,20,21,21,22,22,23,23,24,24,27,27,28,28,29,29,30,30,31,31,33,33,34,34,35,35,36,36,37,37,38,38,39,39,40,40,41,41,42,42,43,43],"right_children":[2,4,6,8,10,12,14,16,18,20,22,-1,24,26,-1,28,30,32,34,36,38,40,42,44,46,-1,-1,48,50,52,54,56,-1,58,60,62,64,66,68,70,72,74,76,78,-1,-1,-1,-1,-1,-1,-1,-1,-1,-1,-1,-1,-1,-1,-1,-1,-1,-1,-1,-1,-1,-1,-1,-1,-1,-1,-1,-1,-1,-1,-1,-1,-1,-1,-1],"split_conditions":[-1.0730415E1,-1.2963721E1,-1.0220827E1,-1.604744E1,-1.521137E1,-1.2122393E1,-1.11541395E1,-1.3855322E1,-1.3168802E1,-1.3179082E1,-1.2254811E1,1.0644611E-1,-9.920832E0,-9.586989E0,1.19143695E-1,-1.2377023E1,-1.2511417E1,-1.3905409E1,-1.2763E1,-1.5771371E1,-1.5596482E1,-1.2715356E1,-1.4440648E1,-1.1825945E1,-1.1673564E1,1.3425384E-1,9.891511E-2,-1.2844712E1,-1.2602566E1,-1.3006957E1,-1.3726081E1,-1.3793082E1,8.12172E-2,-1.40701E1,-1.4774635E1,-1.3090688E1,-1.4410584E1,-1.264754E1,-1.3082108E1,-1.3963709E1,-1.3908719E1,-1.2487408E1,-1.1727697E1,-1.05842E1,7.092637E-2,9.931145E-2,8.3665416E-2,9.1255166E-2,8.7311125E-4,2.3399115E-2,7.978426E-2,1.1335125E-1,1.6394762E-2,6.613621E-2,1.589278E-1,1.8567092E-3,-2.5487147E-2,7.100913E-2,3.034093E-3,9.305548E-2,1.5604611E-2,7.12539E-2,1.3025726E-1,3.9256956E-2,-1.6818367E-2,5.443148E-2,1.6398406E-1,5.5203E-2,1.2799487E-1,3.133249E-2,3.6775225E-3,7.374485E-2,2.8862206E-2,8.048804E-2,1.0972651E-1,5.163822E-2,7.1170755E-2,6.3339084E-2,8.765675E-2],"split_indices":[7,10,2,0,0,0,0,4,8,7,16,0,15,11,0,19,17,3,12,0,0,11,0,0,0,0,0,11,14,9,4,4,0,3,1,8,1,14,7,2,1,10,14,8,0,0,0,0,0,0,0,0,0,0,0,0,0,0,0,0,0,0,0,0,0,0,0,0,0,0,0,0,0,0,0,0,0,0,0],"split_type":[0,0,0,0,0,0,0,0,0,0,0,0,0,0,0,0,0,0,0,0,0,0,0,0,0,0,0,0,0,0,0,0,0,0,0,0,0,0,0,0,0,0,0,0,0,0,0,0,0,0,0,0,0,0,0,0,0,0,0,0,0,0,0,0,0,0,0,0,0,0,0,0,0,0,0,0,0,0,0],"sum_hessian":[5.18E3,4.026E3,1.154E3,1.153E3,2.873E3,7.28E2,4.26E2,1.033E3,1.2E2,1.375E3,1.498E3,1.17E2,6.11E2,3.23E2,1.03E2,1.58E2,8.75E2,4.1E1,7.9E1,1.194E3,1.81E2,1.45E2,1.353E3,2.87E2,3.24E2,1E1,3.13E2,3.7E1,1.21E2,5.8E1,8.17E2,4E1,1E0,5.5E1,2.4E1,1.128E3,6.6E1,8.6E1,9.5E1,3.4E1,1.11E2,1.26E2,1.227E3,1.08E2,1.79E2,1.23E2,2.01E2,3.2E1,5E0,1.07E2,1.4E1,5.5E1,3E0,8.09E2,8E0,1.5E1,2.5E1,8E0,4.7E1,1.4E1,1E1,1.073E3,5.5E1,5.7E1,9E0,8E0,7.8E1,3.8E1,5.7E1,8E0,2.6E1,3.2E1,7.9E1,5.2E1,7.4E1,3.61E2,8.66E2,3E1,7.8E1],"tree_param":{"num_deleted":"0","num_feature":"20","num_nodes":"79","size_leaf_vector":"1"}},{"base_weights":[-2.5051242E-1,1.2785074E-1,-4.8535767E-1,1.7588915E-1,6.216041E-2,-2.813837E-1,-6.0027975E-1,1.799886E-1,-2.6346102E-1,1.0519643E-1,-4.778017E-2,-5.487229E-1,-2.633506E-1,-4.8708808E-1,-6.571003E-1,1.8345144E-1,-1.9084495E-1,1.1418544E-1,-5.971973E-1,1.6052902E-1,-1.1683355E-2,4.637143E-2,-1.6260335E-1,-6.635482E-1,8.0698945E-2,-1.7653121E-1,-3.546126E-1,-6.0669553E-1,-3.045896E-1,-1.0835112E0,-6.482903E-1,4.0043855E-1,1.7775619E-1,2.1091187E-1,-3.0355892E-1,2.7099985E-1,-3.988868E-2,-2.4079284E-1,-8.814417E-2,2.3809776E-1,8.5520245E-2,1.8190552E-2,-3.9920962E-1,-3.3675E-1,8.429714E-2,-3.2259846E-1,-2.187303E-2,-3.8753223E-1,-1.0455098E0,-1.1955825E-1,1.6049476E-1,-3.8992855E-1,-1.2955247E-1,-5.0632894E-1,-1.9922645E-1,-5.4163E-1,-9.815549E-1,-1.2536813E-1,-3.666554E-1,-1.1421736E-1,-3.37864E-1,-5.8672124E-1,-7.014886E-1,4.075574E-2,1.6196504E-1,5.563216E-2,4.86438E-3,8.828704E-2,6.6233007E-3,-1.19938694E-1,6.6539287E-3,2.9388798E-2,1.1851672E-1,7.694272E-2,-3.1810188E-1,3.220681E-2,-2.0243672E-1,1.6195579E-1,1.2129634E-4,-1.9133769E-1,-4.216457E-2,8.4812135E-2,-1.4667365E-1,1.269064E-1,9.563761E-3,9.440409E-3,-1.5682328E-1,-6.82223E-2,4.56691E-2,-2.1765819E-1,-5.8882058E-2,-3.7158668E-1,-6.826521E-2,6.105976E-2,-6.6350405E-3,-4.187967E-2,-1.8831123E-1,-1.9485341E-1,-3.3870924E-2,-1.2079426E-1,-2.2667716E-1,-3.81743E-2,-8.207554E-2,-2.0264639E-1,-8.215877E-2,-3.2220778E-1,-2.0534399E-1,-4.4107933E-2,2.4308942E-3,-1.9912662E-1,-9.152359E-2,-2.0566377E-1,-1.3201952E-1,-2.4640428E-1,-1.9546284E-1],"categories":[],"categories_nodes":[],"categories_segments":[],"categories_sizes":[],"default_left":[0,0,0,0,0,0,0,0,0,0,0,0,0,0,0,0,0,0,0,0,0,0,0,0,0,0,0,0,0,0,0,0,0,0,0,0,0,0,0,0,0,0,0,0,0,0,0,0,0,0,0,0,0,0,0,0,0,0,0,0,0,0,0,0,0,0,0,0,0,0,0,0,0,0,0,0,0,0,0,0,0,0,0,0,0,0,0,0,0,0,0,0,0,0,0,0,0,0,0,0,0,0,0,0,0,0,0,0,0,0,0,0,0,0,0],"id":9,"left_children":[1,3,5,7,9,11,13,15,17,19,21,23,25,27,29,31,33,35,37,39,41,43,45,47,49,51,53,55,57,59,61,63,65,67,69,71,-1,-1,-1,73,75,77,79,81,83,85,87,89,91,-1,93,95,97,99,101,103,105,107,109,-1,-1,111,113,-1,-1,-1,-1,-1,-1,-1,-1,-1,-1,-1,-1,-1,-1,-1,-1,-1,-1,-1,-1,-1,-1,-1,-1,-1,-1,-1,-1,-1,-1,-1,-1,-1,-1,-1,-1,-1,-1,-1,-1,-1,-1,-1,-1,-1,-1,-1,-1,-1,-1,-1,-1],"loss_changes":[4.604291E2,6.253048E0,7.477228E1,2.1114693E0,3.9794066E0,5.4188766E0,1.2826172E1,1.4937973E0,1.4545689E0,3.9081016E0,2.5696964E0,5.2572403E0,8.518341E0,1.48111725E1,4.39917E0,1.3203278E0,5.621438E-1,2.685707E-1,1.3814497E-1,2.3651552E0,2.264762E0,1.9318373E0,2.4021728E0,6.0259113E0,5.2284473E-1,5.5334854E0,1.2322952E1,9.565994E0,3.0018768E0,3.5149574E-1,3.9544678E0,9.5972013E-1,1.3612251E0,4.0736765E-2,2.9099953E-1,4.716441E-2,0E0,0E0,0E0,5.0683403E0,3.5588512E0,1.6884508E0,7.74328E-1,1.2693139E0,2.1171415E0,3.5596952E0,2.110106E0,2.2494445E0,3.667099E0,0E0,9.0952635E-2,5.864601E0,3.891572E0,6.5702057E0,1.3674765E0,1.25392E1,9.130974E-1,2.0932603E-1,3.5112782E0,0E0,0E0,8.742096E0,3.7152405E0,0E0,0E0,0E0,0E0,0E0,0E0,0E0,0E0,0E0,0E0,0E0,0E0,0E0,0E0,0E0,0E0,0E0,0E0,0E0,0E0,0E0,0E0,0E0,0E0,0E0,0E0,0E0,0E0,0E0,0E0,0E0,0E0,0E0,0E0,0E0,0E0,0E0,0E0,0E0,0E0,0E0,0E0,0E0,0E0,0E0,0E0,0E0,0E0,0E0,0E0,0E0,0E0],"parents":[2147483647,0,0,1,1,2,2,3,3,4,4,5,5,6,6,7,7,8,8,9,9,10,10,11,11,12,12,13,13,14,14,15,15,16,16,17,17,18,18,19,19,20,20,21,21,22,22,23,23,24,24,25,25,26,26,27,27,28,28,29,29,30,30,31,31,32,32,33,33,34,34,35,35,39,39,40,40,41,41,42,42,43,43,44,44,45,45,46,46,47,47,48,48,50,50,51,51,52,52,53,53,54,54,55,55,56,56,57,57,58,58,61,61,62,62],"right_children":[2,4,6,8,10,12,14,16,18,20,22,24,26,28,30,32,34,36,38,40,42,44,46,48,50,52,54,56,58,60,62,64,66,68,70,72,-1,-1,-1,74,76,78,80,82,84,86,88,90,92,-1,94,96,98,100,102,104,106,108,110,-1,-1,112,114,-1,-1,-1,-1,-1,-1,-1,-1,-1,-1,-1,-1,-1,-1,-1,-1,-1,-1,-1,-1,-1,-1,-1,-1,-1,-1,-1,-1,-1,-1,-1,-1,-1,-1,-1,-1,-1,-1,-1,-1,-1,-1,-1,-1,-1,-1,-1,-1,-1,-1,-1,-1],"split_conditions":[-1.603698E1,-1.4933992E1,-1.3517841E1,-1.2867856E1,-1.6101383E1,-1.2652825E1,-1.2332815E1,-1.2493661E1,-1.2397445E1,-1.2860011E1,-1.2637984E1,-1.2343016E1,-1.4892149E1,-1.1088E1,-1.1122048E1,-1.31367235E1,-1.3332716E1,-1.4974466E1,-1.305133E1,-1.2401701E1,-1.2793056E1,-1.3345265E1,-1.250626E1,-1.3993134E1,-1.3182046E1,-1.341265E1,-1.2231118E1,-1.1848351E1,-1.1708515E1,-1.1422148E1,-1.1703937E1,-1.3184777E1,-1.2393465E1,-1.6190441E1,-1.3788575E1,-1.4374418E1,-3.988868E-2,-2.4079284E-1,-8.814417E-2,-1.3977573E1,-1.2509148E1,-1.2721084E1,-1.3599501E1,-1.2772093E1,-1.3203258E1,-1.3444994E1,-1.2869154E1,-1.3171315E1,-1.3094021E1,-1.1955825E-1,-1.2777696E1,-1.4338907E1,-1.2611741E1,-1.31432705E1,-1.292467E1,-1.1529965E1,-1.1128524E1,-1.1656813E1,-1.1052832E1,-1.1421736E-1,-3.37864E-1,-1.0452625E1,-9.879874E0,4.075574E-2,1.6196504E-1,5.563216E-2,4.86438E-3,8.828704E-2,6.6233007E-3,-1.19938694E-1,6.6539287E-3,2.9388798E-2,1.1851672E-1,7.694272E-2,-3.1810188E-1,3.220681E-2,-2.0243672E-1,1.6195579E-1,1.2129634E-4,-1.9133769E-1,-4.216457E-2,8.4812135E-2,-1.4667365E-1,1.269064E-1,9.563761E-3,9.440409E-3,-1.5682328E-1,-6.82223E-2,4.56691E-2,-2.1765819E-1,-5.8882058E-2,-3.7158668E-1,-6.826521E-2,6.105976E-2,-6.6350405E-3,-4.187967E-2,-1.8831123E-1,-1.9485341E-1,-3.3870924E-2,-1.2079426E-1,-2.2667716E-1,-3.81743E-2,-8.207554E-2,-2.0264639E-1,-8.215877E-2,-3.2220778E-1,-2.0534399E-1,-4.4107933E-2,2.4308942E-3,-1.9912662E-1,-9.152359E-2,-2.0566377E-1,-1.3201952E-1,-2.4640428E-1,-1.9546284E-1],"split_indices":[0,1,0,10,0,14,0,15,18,11,14,18,0,18,10,9,7,1,9,18,11,7,16,3,8,6,12,2,2,5,0,8,17,0,4,2,0,0,0,3,15,14,5,13,8,6,11,8,8,0,11,2,15,1,1,13,16,1,13,0,0,7,7,0,0,0,0,0,0,0,0,0,0,0,0,0,0,0,0,0,0,0,0,0,0,0,0,0,0,0,0,0,0,0,0,0,0,0,0,0,0,0,0,0,0,0,0,0,0,0,0,0,0,0,0],"split_type":[0,0,0,0,0,0,0,0,0,0,0,0,0,0,0,0,0,0,0,0,0,0,0,0,0,0,0,0,0,0,0,0,0,0,0,0,0,0,0,0,0,0,0,0,0,0,0,0,0,0,0,0,0,0,0,0,0,0,0,0,0,0,0,0,0,0,0,0,0,0,0,0,0,0,0,0,0,0,0,0,0,0,0,0,0,0,0,0,0,0,0,0,0,0,0,0,0,0,0,0,0,0,0,0,0,0,0,0,0,0,0,0,0,0,0],"sum_hessian":[5.18E3,1.984E3,3.196E3,1.145E3,8.39E2,1.153E3,2.043E3,1.135E3,1E1,6.03E2,2.36E2,7.1E1,1.082E3,6.86E2,1.357E3,1.125E3,1E1,5E0,5E0,4.09E2,1.94E2,1.3E2,1.06E2,6E1,1.1E1,5.56E2,5.26E2,4.13E2,2.73E2,2.5E1,1.332E3,2.7E1,1.098E3,2E0,8E0,3E0,2E0,2E0,3E0,2E2,2.09E2,1.81E2,1.3E1,1.1E1,1.19E2,4.9E1,5.7E1,3.6E1,2.4E1,1E0,1E1,9.9E1,4.57E2,2.65E2,2.61E2,3.54E2,5.9E1,7.1E1,2.02E2,2E0,2.3E1,6.23E2,7.09E2,1E1,1.7E1,1.048E3,5E1,1E0,1E0,6E0,2E0,2E0,1E0,1.98E2,2E0,2.04E2,5E0,5E0,1.76E2,6E0,7E0,2E0,9E0,1.5E1,1.04E2,1.8E1,3.1E1,2.6E1,3.1E1,1.2E1,2.4E1,1.9E1,5E0,8E0,2E0,4.9E1,5E1,1.3E1,4.44E2,1.89E2,7.6E1,1.34E2,1.27E2,2.35E2,1.19E2,4.3E1,1.6E1,6.1E1,1E1,3.3E1,1.69E2,3.7E2,2.53E2,2.04E2,5.05E2],"tree_param":{"num_deleted":"0","num_feature":"20","num_nodes":"115","size_leaf_vector":"1"}},{"base_weights":[1.7408012E-1,1.6347162E-1,2.309582E-1,1.3604069E-1,1.723577E-1,2.177037E-1,2.607443E-1,1.4814809E-1,1.663308E-2,1.8769571E-1,1.6040693E-1,7.70376E-2,2.0444015E-1,7.3628895E-2,8.374426E-2,-6.1942894E-2,1.5171784E-1,-1.1494825E-2,1.6502301E-1,1.6474383E-1,2.920309E-1,6.03498E-2,1.6654038E-1,5.57251E-2,2.1454512E-1,7.784719E-2,-1.4526905E-1,1.5733863E-1,1.1347103E-2,-3.7426446E-2,1.8673497E-1,-3.1604443E-2,3.6560103E-1,1.8208134E-1,7.504675E-2,-4.700012E-3,3.040148E-1,8.110009E-2,-5.673313E-3,2.2710422E-1,1.6035284E-1,2.6905987E-1,6.274526E-2,4.972708E-2,-2.838543E-2,-5.482023E-2,-1.0206508E-2,4.60142E-2,1.01212114E-1,-1.0722927E-2,4.4032186E-2,1.587694E-2,-2.9250177E-2,1.0005509E-1,-8.025114E-3,3.3053003E-2,-3.6257338E-2,1.2092877E-1,1.5470544E-2,5.1831692E-2,9.776658E-2,9.212562E-3,6.1416026E-2,-3.1769995E-2,9.013997E-2,1.09575585E-1,7.3686205E-2,6.395387E-3,3.6643956E-2,-6.6919224E-3,9.021409E-3,5.058152E-2,7.709477E-2,3.2288305E-2,5.1469002E-2,5.824164E-2,9.9617764E-2],"categories":[],"categories_nodes":[],"categories_segments":[],"categories_sizes":[],"default_left":[0,0,0,0,0,0,0,0,0,0,0,0,0,0,0,0,0,0,0,0,0,0,0,0,0,0,0,0,0,0,0,0,0,0,0,0,0,0,0,0,0,0,0,0,0,0,0,0,0,0,0,0,0,0,0,0,0,0,0,0,0,0,0,0,0,0,0,0,0,0,0,0,0,0,0,0,0],"id":10,"left_children":[1,3,5,7,9,11,13,15,17,19,21,-1,23,-1,-1,25,27,29,31,33,35,37,39,-1,41,43,45,47,49,51,53,55,57,59,61,63,65,67,69,71,73,75,-1,-1,-1,-1,-1,-1,-1,-1,-1,-1,-1,-1,-1,-1,-1,-1,-1,-1,-1,-1,-1,-1,-1,-1,-1,-1,-1,-1,-1,-1,-1,-1,-1,-1,-1],"loss_changes":[3.0884094E0,1.041748E0,2.638092E-1,1.5502357E0,5.7424927E-1,2.419796E-1,5.3977966E-4,7.4062157E-1,4.192867E-1,3.3954506E0,1.131424E0,0E0,4.1168213E-2,0E0,0E0,2.0932765E-1,7.5486183E-1,4.4392455E-1,6.4258087E-1,1.822937E0,9.1887283E-1,1.4978996E-1,6.2012863E-1,0E0,2.3712158E-2,1.2181324E-1,3.9629847E-2,6.052456E-1,2.4758266E-1,4.1766316E-1,3.222797E-1,1.2720564E-1,7.3409915E-2,1.2676773E0,1.1033636E0,3.7153074E-1,7.971077E-1,2.01065E-1,1.6723488E-2,2.3632812E-1,9.231148E-1,3.465402E-2,0E0,0E0,0E0,0E0,0E0,0E0,0E0,0E0,0E0,0E0,0E0,0E0,0E0,0E0,0E0,0E0,0E0,0E0,0E0,0E0,0E0,0E0,0E0,0E0,0E0,0E0,0E0,0E0,0E0,0E0,0E0,0E0,0E0,0E0,0E0],"parents":[2147483647,0,0,1,1,2,2,3,3,4,4,5,5,6,6,7,7,8,8,9,9,10,10,12,12,15,15,16,16,17,17,18,18,19,19,20,20,21,21,22,22,24,24,25,25,26,26,27,27,28,28,29,29,30,30,31,31,32,32,33,33,34,34,35,35,36,36,37,37,38,38,39,39,40,40,41,41],"right_children":[2,4,6,8,10,12,14,16,18,20,22,-1,24,-1,-1,26,28,30,32,34,36,38,40,-1,42,44,46,48,50,52,54,56,58,60,62,64,66,68,70,72,74,76,-1,-1,-1,-1,-1,-1,-1,-1,-1,-1,-1,-1,-1,-1,-1,-1,-1,-1,-1,-1,-1,-1,-1,-1,-1,-1,-1,-1,-1,-1,-1,-1,-1,-1,-1],"split_conditions":[-1.0506897E1,-1.343843E1,-9.856262E0,-1.4010124E1,-1.5244526E1,-1.17321615E1,-1.11541395E1,-1.2658438E1,-1.2462144E1,-1.2894475E1,-1.2359633E1,7.70376E-2,-9.879874E0,7.3628895E-2,8.374426E-2,-1.3812128E1,-1.6043264E1,-1.3008704E1,-1.3991125E1,-1.5984732E1,-1.3830279E1,-1.3777149E1,-1.4440648E1,5.57251E-2,-9.601193E0,-1.3279678E1,-1.2726445E1,-1.4014723E1,-1.3766437E1,-1.2520024E1,-1.4785499E1,-1.2895714E1,-1.5860736E1,-1.3993134E1,-1.2345047E1,-1.2785225E1,-1.5746954E1,-1.2342038E1,-1.2910031E1,-1.2835257E1,-1.1783182E1,-1.049789E1,6.274526E-2,4.972708E-2,-2.838543E-2,-5.482023E-2,-1.0206508E-2,4.60142E-2,1.01212114E-1,-1.0722927E-2,4.4032186E-2,1.587694E-2,-2.9250177E-2,1.0005509E-1,-8.025114E-3,3.3053003E-2,-3.6257338E-2,1.2092877E-1,1.5470544E-2,5.1831692E-2,9.776658E-2,9.212562E-3,6.1416026E-2,-3.1769995E-2,9.013997E-2,1.09575585E-1,7.3686205E-2,6.395387E-3,3.6643956E-2,-6.6919224E-3,9.021409E-3,5.058152E-2,7.709477E-2,3.2288305E-2,5.1469002E-2,5.824164E-2,9.9617764E-2],"split_indices":[3,6,2,3,0,0,0,15,16,10,15,0,7,0,0,4,0,9,3,0,4,1,0,0,17,7,13,3,4,16,1,11,0,3,18,12,0,17,7,7,18,1,0,0,0,0,0,0,0,0,0,0,0,0,0,0,0,0,0,0,0,0,0,0,0,0,0,0,0,0,0,0,0,0,0,0,0],"split_type":[0,0,0,0,0,0,0,0,0,0,0,0,0,0,0,0,0,0,0,0,0,0,0,0,0,0,0,0,0,0,0,0,0,0,0,0,0,0,0,0,0,0,0,0,0,0,0,0,0,0,0,0,0,0,0,0,0,0,0,0,0,0,0,0,0,0,0,0,0,0,0,0,0,0,0,0,0],"sum_hessian":[5.18E3,4.369E3,8.11E2,1.073E3,3.296E3,5.67E2,2.44E2,9.74E2,9.9E1,1.437E3,1.859E3,1.39E2,4.28E2,1.41E2,1.03E2,1.6E1,9.58E2,8.4E1,1.5E1,1.18E3,2.57E2,1.08E2,1.751E3,1.57E2,2.71E2,6E0,1E1,9.21E2,3.7E1,7.5E1,9E0,8E0,7E0,9.88E2,1.92E2,1E1,2.47E2,8.2E1,2.6E1,1.59E2,1.592E3,2E1,2.51E2,4E0,2E0,7E0,3E0,9.03E2,1.8E1,2.8E1,9E0,3E1,4.5E1,5E0,4E0,3E0,5E0,6E0,1E0,9.3E2,5.8E1,1.44E2,4.8E1,8E0,2E0,1.18E2,1.29E2,3.4E1,4.8E1,1.8E1,8E0,5.6E1,1.03E2,2.81E2,1.311E3,1.1E1,9E0],"tree_param":{"num_deleted":"0","num_feature":"20","num_nodes":"77","size_leaf_vector":"1"}},{"base_weights":[-1.76254E-1,9.312869E-2,-3.4033868E-1,1.2825043E-1,4.5867234E-2,-2.0511185E-1,-4.2910838E-1,2.1378551E-1,9.278081E-2,7.634252E-2,-8.0802485E-2,-3.986882E-1,-1.8780372E-1,-6.748629E-1,-4.1484338E-1,2.565911E-1,2.530667E-2,1.8393509E-1,5.4567605E-2,3.2180822E-1,5.622257E-2,-3.8143158E-1,-4.548618E-2,-8.885949E-2,-5.614084E-1,-1.1772081E-1,-2.6198342E-1,-9.0619475E-1,-6.0977083E-1,-2.2002509E-1,-4.4969204E-1,3.837084E-1,1.9647394E-1,-1.3139309E-1,2.9672772E-1,2.9893634E-1,9.80229E-2,1.2299498E-1,8.99024E-3,5.3074145E-1,1.3122942E-1,1.6713418E-1,9.316032E-3,-6.8006314E-2,-5.9402865E-1,-4.1939932E-1,-1.2159383E-2,-2.7682012E-2,-5.8665323E-1,-8.213967E-1,-2.928081E-1,-7.2322226E-1,-9.901666E-2,-4.585498E-1,-1.8548821E-1,-3.0010128E-2,-9.415011E-1,-4.1503805E-1,-7.37783E-1,-8.153315E-2,-2.796694E-1,-4.1744998E-1,-5.195974E-1,7.902442E-2,1.6440912E-1,-6.8512917E-3,7.079519E-2,-1.14021435E-1,9.905031E-3,1.6831505E-1,-1.2788595E-2,9.49465E-2,-1.1222244E-1,3.826365E-2,-9.982362E-2,2.4496317E-2,9.035332E-2,-7.715264E-3,4.9341142E-2,1.7902514E-1,-3.9071377E-2,5.9572E-2,-2.5305843E-1,5.4638717E-2,-1.681993E-1,1.0671843E-1,-2.6554628E-3,5.8699075E-2,-7.9602286E-2,-2.7245772E-1,-9.88936E-2,-3.276359E-1,-5.2692987E-2,5.584914E-2,-2.1745479E-2,-1.6635968E-1,1.2357489E-2,-2.3984924E-1,7.781911E-3,-2.8650936E-1,4.3406874E-2,-1.6013233E-1,-1.0672373E-2,-2.8187597E-1,8.17263E-3,-2.860311E-1,-2.7904643E-2,-1.10187285E-1,-1.9178076E-1,-7.372896E-2,-2.6705736E-2,-2.909993E-1,-6.001014E-2,-2.2948436E-1,-9.586735E-2,-2.3329361E-1,-1.2939006E-1,-1.3179159E-1,-2.164673E-2,-1.8931074E-1,-6.3710414E-2,-1.341433E-1,-7.816739E-2,-1.9110423E-1,-1.3198549E-1],"categories":[],"categories_nodes":[],"categories_segments":[],"categories_sizes":[],"default_left":[0,0,0,0,0,0,0,0,0,0,0,0,0,0,0,0,0,0,0,0,0,0,0,0,0,0,0,0,0,0,0,0,0,0,0,0,0,0,0,0,0,0,0,0,0,0,0,0,0,0,0,0,0,0,0,0,0,0,0,0,0,0,0,0,0,0,0,0,0,0,0,0,0,0,0,0,0,0,0,0,0,0,0,0,0,0,0,0,0,0,0,0,0,0,0,0,0,0,0,0,0,0,0,0,0,0,0,0,0,0,0,0,0,0,0,0,0,0,0,0,0,0,0,0,0],"id":11,"left_children":[1,3,5,7,9,11,13,15,17,19,21,23,25,27,29,31,33,35,37,39,41,43,45,47,49,51,53,55,57,59,61,63,65,67,69,71,73,75,77,79,81,83,85,87,89,91,93,95,97,99,101,103,105,107,109,-1,111,113,115,117,119,121,123,-1,-1,-1,-1,-1,-1,-1,-1,-1,-1,-1,-1,-1,-1,-1,-1,-1,-1,-1,-1,-1,-1,-1,-1,-1,-1,-1,-1,-1,-1,-1,-1,-1,-1,-1,-1,-1,-1,-1,-1,-1,-1,-1,-1,-1,-1,-1,-1,-1,-1,-1,-1,-1,-1,-1,-1,-1,-1,-1,-1,-1,-1],"loss_changes":[2.2904001E2,3.2508507E0,3.8565033E1,3.393299E0,3.2410975E0,4.206997E0,6.531555E0,2.6478624E0,2.7661514E0,3.320508E0,1.7132392E0,5.1933136E0,6.0776634E0,1.0285072E0,1.2386353E1,1.9726486E0,2.675948E0,2.2924986E0,1.7547448E0,1.961082E0,3.2551956E0,1.0923684E0,1.8267154E0,1.1105497E0,4.508129E0,6.7915764E0,8.485687E0,5.035324E-1,1.8126869E0,2.2983294E0,3.2969055E0,1.5358267E0,1.5997505E0,1.6479557E0,2.0870054E0,1.2996607E0,1.7720062E0,1.632798E0,1.8336006E0,1.1248527E0,2.0055337E0,2.1319757E0,2.7785676E0,4.681672E-1,5.312152E-1,1.7759326E0,1.6405916E0,1.2565693E0,5.4228604E-1,4.527668E0,2.1504734E0,2.9483223E0,2.931436E0,2.3874702E0,2.373767E0,0E0,2.2855186E-1,9.5829535E-1,2.7545738E-1,2.5682867E-1,4.500886E0,4.877716E0,4.283386E0,0E0,0E0,0E0,0E0,0E0,0E0,0E0,0E0,0E0,0E0,0E0,0E0,0E0,0E0,0E0,0E0,0E0,0E0,0E0,0E0,0E0,0E0,0E0,0E0,0E0,0E0,0E0,0E0,0E0,0E0,0E0,0E0,0E0,0E0,0E0,0E0,0E0,0E0,0E0,0E0,0E0,0E0,0E0,0E0,0E0,0E0,0E0,0E0,0E0,0E0,0E0,0E0,0E0,0E0,0E0,0E0,0E0,0E0,0E0,0E0,0E0,0E0],"parents":[2147483647,0,0,1,1,2,2,3,3,4,4,5,5,6,6,7,7,8,8,9,9,10,10,11,11,12,12,13,13,14,14,15,15,16,16,17,17,18,18,19,19,20,20,21,21,22,22,23,23,24,24,25,25,26,26,27,27,28,28,29,29,30,30,31,31,32,32,33,33,34,34,35,35,36,36,37,37,38,38,39,39,40,40,41,41,42,42,43,43,44,44,45,45,46,46,47,47,48,48,49,49,50,50,51,51,52,52,53,53,54,54,56,56,57,57,58,58,59,59,60,60,61,61,62,62],"right_children":[2,4,6,8,10,12,14,16,18,20,22,24,26,28,30,32,34,36,38,40,42,44,46,48,50,52,54,56,58,60,62,64,66,68,70,72,74,76,78,80,82,84,86,88,90,92,94,96,98,100,102,104,106,108,110,-1,112,114,116,118,120,122,124,-1,-1,-1,-1,-1,-1,-1,-1,-1,-1,-1,-1,-1,-1,-1,-1,-1,-1,-1,-1,-1,-1,-1,-1,-1,-1,-1,-1,-1,-1,-1,-1,-1,-1,-1,-1,-1,-1,-1,-1,-1,-1,-1,-1,-1,-1,-1,-1,-1,-1,-1,-1,-1,-1,-1,-1,-1,-1,-1,-1,-1,-1],"split_conditions":[-1.485493E1,-1.4405846E1,-1.2342451E1,-1.4093087E1,-1.608699E1,-1.2720587E1,-1.1467736E1,-1.302549E1,-1.3635867E1,-1.4998544E1,-1.269345E1,-1.4360293E1,-1.3731476E1,-1.1724966E1,-1.2619749E1,-1.3831048E1,-1.3008704E1,-1.2412312E1,-1.4958744E1,-1.3061727E1,-1.3318612E1,-1.2591532E1,-1.3022065E1,-1.39618025E1,-1.3138E1,-1.2818051E1,-1.2116773E1,-1.204656E1,-1.2216147E1,-1.2052609E1,-1.1590556E1,-1.30676775E1,-1.3102072E1,-1.3622703E1,-1.2811633E1,-1.27263775E1,-1.2463495E1,-1.2930562E1,-1.2542185E1,-1.2534765E1,-1.356618E1,-1.3527997E1,-1.3122643E1,-1.2462201E1,-1.43836155E1,-1.3226527E1,-1.2979204E1,-1.3222395E1,-1.5978897E1,-1.2730564E1,-1.2379322E1,-1.2296824E1,-1.2533704E1,-1.3055998E1,-1.1927265E1,-3.0010128E-2,-1.1816368E1,-1.1687087E1,-1.1441922E1,-1.1642699E1,-1.1398387E1,-9.935491E0,-9.987442E0,7.902442E-2,1.6440912E-1,-6.8512917E-3,7.079519E-2,-1.14021435E-1,9.905031E-3,1.6831505E-1,-1.2788595E-2,9.49465E-2,-1.1222244E-1,3.826365E-2,-9.982362E-2,2.4496317E-2,9.035332E-2,-7.715264E-3,4.9341142E-2,1.7902514E-1,-3.9071377E-2,5.9572E-2,-2.5305843E-1,5.4638717E-2,-1.681993E-1,1.0671843E-1,-2.6554628E-3,5.8699075E-2,-7.9602286E-2,-2.7245772E-1,-9.88936E-2,-3.276359E-1,-5.2692987E-2,5.584914E-2,-2.1745479E-2,-1.6635968E-1,1.2357489E-2,-2.3984924E-1,7.781911E-3,-2.8650936E-1,4.3406874E-2,-1.6013233E-1,-1.0672373E-2,-2.8187597E-1,8.17263E-3,-2.860311E-1,-2.7904643E-2,-1.10187285E-1,-1.9178076E-1,-7.372896E-2,-2.6705736E-2,-2.909993E-1,-6.001014E-2,-2.2948436E-1,-9.586735E-2,-2.3329361E-1,-1.2939006E-1,-1.3179159E-1,-2.164673E-2,-1.8931074E-1,-6.3710414E-2,-1.341433E-1,-7.816739E-2,-1.9110423E-1,-1.3198549E-1],"split_indices":[1,2,1,3,0,13,17,9,5,1,14,2,1,17,0,4,9,18,1,9,7,15,10,3,8,12,16,12,2,1,0,9,9,5,12,12,16,10,15,15,5,5,9,17,2,8,10,8,0,12,18,19,17,3,12,0,13,19,18,14,15,7,2,0,0,0,0,0,0,0,0,0,0,0,0,0,0,0,0,0,0,0,0,0,0,0,0,0,0,0,0,0,0,0,0,0,0,0,0,0,0,0,0,0,0,0,0,0,0,0,0,0,0,0,0,0,0,0,0,0,0,0,0,0,0],"split_type":[0,0,0,0,0,0,0,0,0,0,0,0,0,0,0,0,0,0,0,0,0,0,0,0,0,0,0,0,0,0,0,0,0,0,0,0,0,0,0,0,0,0,0,0,0,0,0,0,0,0,0,0,0,0,0,0,0,0,0,0,0,0,0,0,0,0,0,0,0,0,0,0,0,0,0,0,0,0,0,0,0,0,0,0,0,0,0,0,0,0,0,0,0,0,0,0,0,0,0,0,0,0,0,0,0,0,0,0,0,0,0,0,0,0,0,0,0,0,0,0,0,0,0,0,0],"sum_hessian":[5.18E3,1.961E3,3.219E3,1.124E3,8.37E2,1.277E3,1.942E3,3.28E2,7.96E2,6.75E2,1.62E2,1.03E2,1.174E3,1.04E2,1.838E3,2.67E2,6.1E1,2.34E2,5.62E2,5E1,6.25E2,1.6E1,1.46E2,3.6E1,6.7E1,6.05E2,5.69E2,2E1,8.4E1,2.8E2,1.558E3,8.4E1,1.83E2,3.9E1,2.2E1,9.9E1,1.35E2,2.24E2,3.38E2,2.3E1,2.7E1,1.85E2,4.4E2,7E0,9E0,1.1E1,1.35E2,3.3E1,3E0,3.3E1,3.4E1,1.7E1,5.88E2,1.58E2,4.11E2,1E0,1.9E1,3.5E1,4.9E1,8.5E1,1.95E2,1.071E3,4.87E2,5E1,3.4E1,2.8E1,1.55E2,1.5E1,2.4E1,1.2E1,1E1,9.7E1,2E0,1.27E2,8E0,1.83E2,4.1E1,2.77E2,6.1E1,2.1E1,2E0,2.6E1,1E0,1.82E2,3E0,2.1E1,4.19E2,3E0,4E0,3E0,6E0,2E0,9E0,3.1E1,1.04E2,3E0,3E1,2E0,1E0,2.9E1,4E0,1.7E1,1.7E1,1.3E1,4E0,3E0,5.85E2,1.07E2,5.1E1,2.52E2,1.59E2,1.8E1,1E0,6E0,2.9E1,4.2E1,7E0,1E0,8.4E1,3E1,1.65E2,8.99E2,1.72E2,1.94E2,2.93E2],"tree_param":{"num_deleted":"0","num_feature":"20","num_nodes":"125","size_leaf_vector":"1"}},{"base_weights":[1.2216067E-1,1.1128877E-1,1.5268496E-1,1.1828542E-1,7.105614E-2,9.712899E-2,1.4791436E-1,1.1280543E-1,2.5024742E-1,5.3979386E-2,1.15135685E-1,1.0033159E-1,1.5580526E-1,1.00003034E-1,1.3054273E-1,2.8730613E-1,5.904248E-2,7.5967334E-2,4.2382766E-2,1.8688963E-1,6.1628625E-2,4.977156E-2,7.653573E-2,1.4561753E-1,1.7855708E-1,1.1035161E-1,3.4833264E-2,1.5564038E-1,9.421881E-2,7.016294E-2,1.02047965E-1,2.435468E-2,1.223686E-1,1.9671818E-2,6.740598E-2,8.3791606E-2,1.6773365E-1,8.145561E-2,5.0721124E-2,5.165421E-2,8.192831E-2,1.6875128E-1,1.3330205E-1,5.108034E-2,5.8862537E-2,2.1951204E-2,3.7633482E-2,1.2932996E-3,4.4633552E-2,3.5760604E-2,6.2269643E-2,1.9233493E-2,3.6864996E-2,1.057152E-3,8.907004E-3,4.5586172E-2,2.7576432E-2,1.7789671E-2,3.7272337E-3,4.0947538E-2,1.2069149E-2,5.4188807E-2,3.8712475E-2,8.84793E-3,2.7824068E-2,3.9592227E-3,1.6351758E-2,5.994091E-3,1.730134E-2,3.7559748E-2,2.2255711E-2,4.5634925E-2,5.588524E-2,3.4053285E-2,4.2860862E-2],"categories":[],"categories_nodes":[],"categories_segments":[],"categories_sizes":[],"default_left":[0,0,0,0,0,0,0,0,0,0,0,0,0,0,0,0,0,0,0,0,0,0,0,0,0,0,0,0,0,0,0,0,0,0,0,0,0,0,0,0,0,0,0,0,0,0,0,0,0,0,0,0,0,0,0,0,0,0,0,0,0,0,0,0,0,0,0,0,0,0,0,0,0,0,0],"id":12,"left_children":[1,3,5,7,9,-1,11,13,15,17,19,21,23,25,27,29,-1,31,33,35,37,-1,39,41,43,45,47,49,51,-1,-1,53,55,57,59,-1,61,63,65,67,69,71,73,-1,-1,-1,-1,-1,-1,-1,-1,-1,-1,-1,-1,-1,-1,-1,-1,-1,-1,-1,-1,-1,-1,-1,-1,-1,-1,-1,-1,-1,-1,-1,-1],"loss_changes":[1.7023621E0,1.0680237E0,1.0604382E0,2.3263435E0,4.2209172E-1,0E0,4.8111534E-1,6.972542E-1,1.9892597E-1,1.01834536E-1,5.9509826E-1,2.8533506E-1,2.3661613E-1,1.2242622E0,1.1777687E0,1.2941837E-1,0E0,3.3469957E-1,1.5325177E-1,7.1762085E-2,1.5764654E-2,0E0,1.4820993E-2,2.0201111E-1,1.7217636E-2,8.7244225E-1,8.723032E-1,1.4359303E0,4.555564E-1,0E0,0E0,7.4528567E-3,5.2690506E-2,4.0620852E-2,2.3669869E-1,0E0,5.63097E-3,1.5453011E-2,8.085713E-3,4.183933E-3,2.924043E-2,5.041027E-2,8.205509E-2,0E0,0E0,0E0,0E0,0E0,0E0,0E0,0E0,0E0,0E0,0E0,0E0,0E0,0E0,0E0,0E0,0E0,0E0,0E0,0E0,0E0,0E0,0E0,0E0,0E0,0E0,0E0,0E0,0E0,0E0,0E0,0E0],"parents":[2147483647,0,0,1,1,2,2,3,3,4,4,6,6,7,7,8,8,9,9,10,10,11,11,12,12,13,13,14,14,15,15,17,17,18,18,19,19,20,20,22,22,23,23,24,24,25,25,26,26,27,27,28,28,31,31,32,32,33,33,34,34,36,36,37,37,38,38,39,39,40,40,41,41,42,42],"right_children":[2,4,6,8,10,-1,12,14,16,18,20,22,24,26,28,30,-1,32,34,36,38,-1,40,42,44,46,48,50,52,-1,-1,54,56,58,60,-1,62,64,66,68,70,72,74,-1,-1,-1,-1,-1,-1,-1,-1,-1,-1,-1,-1,-1,-1,-1,-1,-1,-1,-1,-1,-1,-1,-1,-1,-1,-1,-1,-1,-1,-1,-1,-1],"split_conditions":[-1.1024069E1,-1.3306193E1,-1.2884728E1,-1.1558496E1,-1.1082184E1,9.712899E-2,-1.0656292E1,-1.2611289E1,-1.3618206E1,-1.2052609E1,-1.1475127E1,-1.214439E1,-1.0072666E1,-1.604744E1,-1.49529705E1,-1.25757065E1,5.904248E-2,-1.1541282E1,-1.1185094E1,-1.2980158E1,-1.1361817E1,4.977156E-2,-1.0632513E1,-1.1825945E1,-1.11541395E1,-1.4436813E1,-1.3520195E1,-1.2665322E1,-1.2117825E1,7.016294E-2,1.02047965E-1,-1.1839023E1,-1.2166526E1,-1.2081419E1,-1.1675295E1,8.3791606E-2,-1.1567675E1,-1.1234998E1,-1.2223011E1,-1.1044365E1,-1.2035011E1,-1.0830071E1,-1.0124457E1,5.108034E-2,5.8862537E-2,2.1951204E-2,3.7633482E-2,1.2932996E-3,4.4633552E-2,3.5760604E-2,6.2269643E-2,1.9233493E-2,3.6864996E-2,1.057152E-3,8.907004E-3,4.5586172E-2,2.7576432E-2,1.7789671E-2,3.7272337E-3,4.0947538E-2,1.2069149E-2,5.4188807E-2,3.8712475E-2,8.84793E-3,2.7824068E-2,3.9592227E-3,1.6351758E-2,5.994091E-3,1.730134E-2,3.7559748E-2,2.2255711E-2,4.5634925E-2,5.588524E-2,3.4053285E-2,4.2860862E-2],"split_indices":[7,0,0,19,11,0,8,14,0,1,1,0,2,0,0,1,0,18,15,0,1,0,16,0,0,2,5,13,15,0,0,14,1,2,1,0,1,7,0,6,0,2,8,0,0,0,0,0,0,0,0,0,0,0,0,0,0,0,0,0,0,0,0,0,0,0,0,0,0,0,0,0,0,0,0],"split_type":[0,0,0,0,0,0,0,0,0,0,0,0,0,0,0,0,0,0,0,0,0,0,0,0,0,0,0,0,0,0,0,0,0,0,0,0,0,0,0,0,0,0,0,0,0,0,0,0,0,0,0,0,0,0,0,0,0,0,0,0,0,0,0,0,0,0,0,0,0,0,0,0,0,0,0],"sum_hessian":[5.18E3,3.823E3,1.357E3,3.255E3,5.68E2,3.5E1,1.322E3,3.127E3,1.28E2,4.11E2,1.57E2,1.9E2,1.132E3,1.82E3,1.307E3,7.3E1,5.5E1,1.4E2,2.71E2,6.6E1,9.1E1,4.9E1,1.41E2,7.87E2,3.45E2,1.57E3,2.5E2,7.71E2,5.36E2,3.9E1,3.4E1,6.7E1,7.3E1,1.43E2,1.28E2,9E0,5.7E1,3E1,6.1E1,2.7E1,1.14E2,2.69E2,5.18E2,2.42E2,1.03E2,4.55E2,1.115E3,1.98E2,5.2E1,4.55E2,3.16E2,2.63E2,2.73E2,1.4E1,5.3E1,3.5E1,3.8E1,2.1E1,1.22E2,3.5E1,9.3E1,4E1,1.7E1,6E0,2.4E1,6E0,5.5E1,5E0,2.2E1,1.5E1,9.9E1,1.43E2,1.26E2,1.73E2,3.45E2],"tree_param":{"num_deleted":"0","num_feature":"20","num_nodes":"75","size_leaf_vector":"1"}},{"base_weights":[-1.2418189E-1,5.502922E-2,-2.4683937E-1,7.158068E-2,-7.098646E-2,-1.4917572E-1,-3.0036616E-1,5.762196E-2,1.5892474E-1,1.7197888E-1,-1.09617755E-1,-6.859087E-1,-1.4004129E-1,-2.5105706E-1,-3.419192E-1,1.1820052E-1,4.193452E-2,1.7893453E-1,-4.8374555E-1,4.495916E-1,1.9660102E-2,-2.452552E-1,-1.6905643E-2,-3.855353E-1,-2.7921107E-1,-6.015141E-1,-1.3382013E-1,-4.4424823E-1,-2.1633263E-1,-5.1598555E-1,-3.2549083E-1,3.3789343E-1,9.9865474E-2,2.3514582E-2,1.15378514E-1,2.2566901E-1,-8.650345E-2,-1.7525633E-1,3.2902453E-2,5.770627E-1,-1.2517601E-1,6.589689E-2,-1.496324E-1,-1.371543E-1,-5.035353E-1,-2.6385802E-1,3.1719644E-2,-6.0963076E-1,4.3893125E-2,1.20891206E-1,-8.0250907E-1,-5.2532773E-2,-1.6163827E-1,-1.3465577E-1,-4.8090863E-1,-2.567658E-1,-1.1184618E-1,-3.4857896E-1,-5.926022E-1,-1.9881995E-1,-3.489067E-1,3.659873E-2,1.684849E-1,3.2726925E-2,-7.721238E-2,8.389363E-3,-1.4428641E-1,2.6407529E-2,1.3012432E-1,9.014426E-2,3.5670348E-2,-5.7468813E-2,1.517219E-1,-3.008061E-2,1.9903883E-1,-4.842812E-2,-7.901091E-3,-4.8855323E-2,3.7733115E-2,-2.5043473E-1,-2.2394765E-2,-2.1434751E-1,8.50726E-2,2.3956802E-2,-1.3242571E-1,-7.833119E-2,2.3582457E-2,-2.6203958E-2,-2.0898551E-1,8.386139E-2,-6.0817495E-2,-3.3421963E-1,-4.3055177E-2,-6.063508E-2,1.7496783E-2,-6.507944E-2,-3.0872777E-2,-1.5704149E-1,-1.3986E-3,-1.960942E-1,-1.2619898E-1,-4.7854673E-2,-1.1999617E-1,-4.083148E-2,-1.1771596E-2,-1.6056319E-1,-2.5117652E-2,-1.8025678E-1,-1.4606596E-2,1.3067754E-2,-6.747417E-2,-1.3916503E-1,-9.596929E-2],"categories":[],"categories_nodes":[],"categories_segments":[],"categories_sizes":[],"default_left":[0,0,0,0,0,0,0,0,0,0,0,0,0,0,0,0,0,0,0,0,0,0,0,0,0,0,0,0,0,0,0,0,0,0,0,0,0,0,0,0,0,0,0,0,0,0,0,0,0,0,0,0,0,0,0,0,0,0,0,0,0,0,0,0,0,0,0,0,0,0,0,0,0,0,0,0,0,0,0,0,0,0,0,0,0,0,0,0,0,0,0,0,0,0,0,0,0,0,0,0,0,0,0,0,0,0,0,0,0,0,0,0,0],"id":13,"left_children":[1,3,5,7,9,11,13,15,17,19,21,23,25,27,29,31,33,35,37,39,41,43,45,-1,47,49,51,53,55,57,59,61,63,65,67,69,71,-1,-1,73,75,77,-1,79,81,83,85,87,89,-1,91,93,95,97,99,101,103,105,107,109,111,-1,-1,-1,-1,-1,-1,-1,-1,-1,-1,-1,-1,-1,-1,-1,-1,-1,-1,-1,-1,-1,-1,-1,-1,-1,-1,-1,-1,-1,-1,-1,-1,-1,-1,-1,-1,-1,-1,-1,-1,-1,-1,-1,-1,-1,-1,-1,-1,-1,-1,-1,-1],"loss_changes":[1.1390017E2,4.3976564E0,1.603537E1,2.261014E0,2.318438E0,5.252838E0,3.983368E0,1.5222111E0,3.378642E0,1.4288723E0,2.6618035E0,4.027725E0,3.0028534E0,6.022003E0,2.9061508E0,1.2955217E0,1.7262087E0,3.1083922E0,5.409061E-1,9.5142984E-1,5.8419514E-1,2.3320842E0,1.5334021E0,0E0,1.3078785E0,3.1499376E0,2.3907108E0,1.5015144E0,3.2454376E0,9.6060944E-1,2.8522491E0,1.1390164E0,1.0364318E0,2.3099494E0,2.1911917E0,1.6576223E0,2.461264E0,0E0,0E0,6.517389E-1,6.4975545E-3,3.2182714E-1,0E0,2.6412125E0,4.353763E0,1.3168845E0,1.4896429E0,2.1174598E-1,4.634693E-1,0E0,2.3038692E0,4.5221486E0,2.5430546E0,8.062577E-1,1.0050621E0,7.7081985E0,3.7863755E-1,1.4875202E0,2.4459457E-1,9.96439E-1,2.619957E0,0E0,0E0,0E0,0E0,0E0,0E0,0E0,0E0,0E0,0E0,0E0,0E0,0E0,0E0,0E0,0E0,0E0,0E0,0E0,0E0,0E0,0E0,0E0,0E0,0E0,0E0,0E0,0E0,0E0,0E0,0E0,0E0,0E0,0E0,0E0,0E0,0E0,0E0,0E0,0E0,0E0,0E0,0E0,0E0,0E0,0E0,0E0,0E0,0E0,0E0,0E0,0E0],"parents":[2147483647,0,0,1,1,2,2,3,3,4,4,5,5,6,6,7,7,8,8,9,9,10,10,11,11,12,12,13,13,14,14,15,15,16,16,17,17,18,18,19,19,20,20,21,21,22,22,24,24,25,25,26,26,27,27,28,28,29,29,30,30,31,31,32,32,33,33,34,34,35,35,36,36,39,39,40,40,41,41,43,43,44,44,45,45,46,46,47,47,48,48,50,50,51,51,52,52,53,53,54,54,55,55,56,56,57,57,58,58,59,59,60,60],"right_children":[2,4,6,8,10,12,14,16,18,20,22,24,26,28,30,32,34,36,38,40,42,44,46,-1,48,50,52,54,56,58,60,62,64,66,68,70,72,-1,-1,74,76,78,-1,80,82,84,86,88,90,-1,92,94,96,98,100,102,104,106,108,110,112,-1,-1,-1,-1,-1,-1,-1,-1,-1,-1,-1,-1,-1,-1,-1,-1,-1,-1,-1,-1,-1,-1,-1,-1,-1,-1,-1,-1,-1,-1,-1,-1,-1,-1,-1,-1,-1,-1,-1,-1,-1,-1,-1,-1,-1,-1,-1,-1,-1,-1,-1,-1],"split_conditions":[-1.4318805E1,-1.6060062E1,-1.241701E1,-1.2303299E1,-1.346877E1,-1.2893769E1,-1.2000671E1,-1.4976171E1,-1.2576464E1,-1.40701E1,-1.25707655E1,-1.2511889E1,-1.2826861E1,-1.1467736E1,-1.0538502E1,-1.3869181E1,-1.32671585E1,-1.3393961E1,-1.3773083E1,-1.2497189E1,-1.39530325E1,-1.4360293E1,-1.2990353E1,-3.855353E-1,-1.3258555E1,-1.2383598E1,-1.5596482E1,-1.2451182E1,-1.068792E1,-1.1149498E1,-1.1791444E1,-1.3878308E1,-1.3379031E1,-1.2867856E1,-1.3006957E1,-1.2285443E1,-1.37743435E1,-1.7525633E-1,3.2902453E-2,-1.4132622E1,-1.6043264E1,-1.2369699E1,-1.496324E-1,-1.2907803E1,-1.2427691E1,-1.603698E1,-1.2426462E1,-1.6117369E1,-1.3145651E1,1.20891206E-1,-1.2550761E1,-1.2747931E1,-1.2266652E1,-1.1827144E1,-1.1738263E1,-1.15989485E1,-1.210609E1,-1.05025425E1,-1.0859013E1,-1.1059931E1,-9.913454E0,3.659873E-2,1.684849E-1,3.2726925E-2,-7.721238E-2,8.389363E-3,-1.4428641E-1,2.6407529E-2,1.3012432E-1,9.014426E-2,3.5670348E-2,-5.7468813E-2,1.517219E-1,-3.008061E-2,1.9903883E-1,-4.842812E-2,-7.901091E-3,-4.8855323E-2,3.7733115E-2,-2.5043473E-1,-2.2394765E-2,-2.1434751E-1,8.50726E-2,2.3956802E-2,-1.3242571E-1,-7.833119E-2,2.3582457E-2,-2.6203958E-2,-2.0898551E-1,8.386139E-2,-6.0817495E-2,-3.3421963E-1,-4.3055177E-2,-6.063508E-2,1.7496783E-2,-6.507944E-2,-3.0872777E-2,-1.5704149E-1,-1.3986E-3,-1.960942E-1,-1.2619898E-1,-4.7854673E-2,-1.1999617E-1,-4.083148E-2,-1.1771596E-2,-1.6056319E-1,-2.5117652E-2,-1.8025678E-1,-1.4606596E-2,1.3067754E-2,-6.747417E-2,-1.3916503E-1,-9.596929E-2],"split_indices":[2,0,1,19,6,11,0,1,14,3,15,16,12,17,11,4,7,6,4,16,3,2,10,0,7,19,0,2,13,1,0,4,6,10,9,19,4,0,0,3,0,19,0,11,17,0,18,0,8,0,15,12,13,16,18,1,0,19,3,1,14,0,0,0,0,0,0,0,0,0,0,0,0,0,0,0,0,0,0,0,0,0,0,0,0,0,0,0,0,0,0,0,0,0,0,0,0,0,0,0,0,0,0,0,0,0,0,0,0,0,0,0,0],"split_type":[0,0,0,0,0,0,0,0,0,0,0,0,0,0,0,0,0,0,0,0,0,0,0,0,0,0,0,0,0,0,0,0,0,0,0,0,0,0,0,0,0,0,0,0,0,0,0,0,0,0,0,0,0,0,0,0,0,0,0,0,0,0,0,0,0,0,0,0,0,0,0,0,0,0,0,0,0,0,0,0,0,0,0,0,0,0,0,0,0,0,0,0,0,0,0,0,0,0,0,0,0,0,0,0,0,0,0,0,0,0,0,0,0],"sum_hessian":[5.18E3,2.105E3,3.075E3,1.861E3,2.44E2,1.09E3,1.985E3,1.606E3,2.55E2,3.3E1,2.11E2,1.7E1,1.073E3,9.11E2,1.074E3,3.29E2,1.277E3,2.48E2,7E0,1.1E1,2.2E1,8.5E1,1.26E2,6E0,1.1E1,1.3E1,1.06E3,1.37E2,7.74E2,9E1,9.84E2,2.4E1,3.05E2,1.022E3,2.55E2,2.11E2,3.7E1,6E0,1E0,9E0,2E0,2.1E1,1E0,6.1E1,2.4E1,2E1,1.06E2,5E0,6E0,2E0,1.1E1,2.71E2,7.89E2,1.5E1,1.22E2,5.57E2,2.17E2,3E1,6E1,1.55E2,8.29E2,1.3E1,1.1E1,2.98E2,7E0,1.014E3,8E0,2.36E2,1.9E1,1.23E2,8.8E1,3.2E1,5E0,1E0,8E0,1E0,1E0,4E0,1.7E1,4E0,5.7E1,1.9E1,5E0,7E0,1.3E1,1.4E1,9.2E1,1E0,4E0,3E0,3E0,7E0,4E0,1.15E2,1.56E2,4.05E2,3.84E2,3E0,1.2E1,2.9E1,9.3E1,3.33E2,2.24E2,1.62E2,5.5E1,1.7E1,1.3E1,5.9E1,1E0,1.5E1,1.4E2,1.64E2,6.65E2],"tree_param":{"num_deleted":"0","num_feature":"20","num_nodes":"113","size_leaf_vector":"1"}},{"base_weights":[8.57828E-2,4.013013E-2,8.943921E-2,2.8123813E-2,1.5607701E-1,5.5952802E-2,9.464764E-2,3.9701182E-2,-9.7077385E-2,-1.2693436E-2,2.2147693E-1,2.850175E-1,5.1182687E-2,1.619582E-1,9.2360824E-2,1.0094193E-1,3.3958808E-2,-1.3027388E-1,1.5126832E-1,-1.375674E-1,1.6466881E-1,-3.5809293E-2,2.5659293E-1,3.3380855E-2,1.17944114E-1,1.0643945E-1,3.4058053E-2,5.9724003E-2,2.1073383E-1,-2.750536E-2,9.351306E-2,5.8187474E-2,-2.2423724E-2,3.2559343E-2,-1.5371953E-1,5.3034097E-2,1.120985E-2,-5.9665374E-2,-4.1858386E-2,5.5577803E-2,1.2346003E-2,-1.1479248E-2,-1.6319916E-2,1.3031586E-1,3.4370485E-1,3.4962125E-2,-4.488861E-2,1.3584824E-1,-7.08412E-2,3.0045329E-2,2.7056417E-1,2.2856452E-1,-8.598741E-3,2.2870328E-1,-8.195063E-2,2.391265E-2,-2.0155568E-1,1.1548203E-1,8.783156E-2,1.7355455E-3,2.9202154E-2,-1.199007E-2,6.1900437E-2,3.2352034E-2,-5.073336E-2,-6.775886E-4,-1.629163E-2,-4.2221546E-3,-9.435073E-4,-8.029577E-3,5.777008E-2,1.0944674E-1,1.3544039E-2,2.538213E-2,6.8885475E-2,-3.9200597E-2,3.314304E-2,7.426985E-3,7.0272624E-2,1.3184546E-2,1.016334E-1,-3.064651E-3,1.00747205E-1,8.160455E-2,-1.7005183E-2,-6.0496952E-2,7.240518E-2,-6.085582E-2,3.1970713E-2,2.4566177E-2,-5.5966686E-2,-1.5647817E-2,-6.4113095E-2,3.004243E-2,6.1804246E-2,-1.6413936E-3,2.8269017E-2],"categories":[],"categories_nodes":[],"categories_segments":[],"categories_sizes":[],"default_left":[0,0,0,0,0,0,0,0,0,0,0,0,0,0,0,0,0,0,0,0,0,0,0,0,0,0,0,0,0,0,0,0,0,0,0,0,0,0,0,0,0,0,0,0,0,0,0,0,0,0,0,0,0,0,0,0,0,0,0,0,0,0,0,0,0,0,0,0,0,0,0,0,0,0,0,0,0,0,0,0,0,0,0,0,0,0,0,0,0,0,0,0,0,0,0,0,0],"id":14,"left_children":[1,3,5,7,9,11,13,15,17,19,21,23,25,27,29,-1,31,33,35,37,39,41,43,45,-1,47,49,51,53,55,57,59,61,-1,63,-1,-1,-1,65,-1,-1,67,-1,69,71,-1,-1,73,75,77,79,81,83,85,87,89,91,93,95,-1,-1,-1,-1,-1,-1,-1,-1,-1,-1,-1,-1,-1,-1,-1,-1,-1,-1,-1,-1,-1,-1,-1,-1,-1,-1,-1,-1,-1,-1,-1,-1,-1,-1,-1,-1,-1,-1],"loss_changes":[8.61248E-1,5.329593E-1,8.311844E-1,5.126287E-1,4.001639E-1,6.9345903E-1,6.236839E-1,5.373182E-1,2.670325E-1,2.662803E-1,2.4409509E-1,3.40598E-1,5.98191E-1,6.605964E-1,5.571022E-1,0E0,4.343501E-1,1.678547E-1,5.017884E-3,3.2755256E-2,5.0922185E-3,1.1847555E-3,2.0821512E-1,9.353274E-2,0E0,7.9166496E-1,4.5405006E-1,5.210695E-1,4.9734592E-1,3.5384327E-1,4.8624802E-1,4.5491654E-1,3.9350897E-1,0E0,1.18882895E-1,0E0,0E0,0E0,1.848944E-3,0E0,0E0,2.0609325E-5,0E0,1.12717256E-1,6.549227E-2,0E0,0E0,6.0040283E-1,2.5308734E-1,5.125712E-1,1.0877782E-1,3.3637905E-1,4.6070027E-1,5.167594E-1,1.5837234E-1,3.9353272E-1,5.195707E-3,1.1098661E0,1.8894196E0,0E0,0E0,0E0,0E0,0E0,0E0,0E0,0E0,0E0,0E0,0E0,0E0,0E0,0E0,0E0,0E0,0E0,0E0,0E0,0E0,0E0,0E0,0E0,0E0,0E0,0E0,0E0,0E0,0E0,0E0,0E0,0E0,0E0,0E0,0E0,0E0,0E0,0E0],"parents":[2147483647,0,0,1,1,2,2,3,3,4,4,5,5,6,6,7,7,8,8,9,9,10,10,11,11,12,12,13,13,14,14,16,16,17,17,18,18,19,19,20,20,21,21,22,22,23,23,25,25,26,26,27,27,28,28,29,29,30,30,31,31,32,32,34,34,38,38,41,41,43,43,44,44,47,47,48,48,49,49,50,50,51,51,52,52,53,53,54,54,55,55,56,56,57,57,58,58],"right_children":[2,4,6,8,10,12,14,16,18,20,22,24,26,28,30,-1,32,34,36,38,40,42,44,46,-1,48,50,52,54,56,58,60,62,-1,64,-1,-1,-1,66,-1,-1,68,-1,70,72,-1,-1,74,76,78,80,82,84,86,88,90,92,94,96,-1,-1,-1,-1,-1,-1,-1,-1,-1,-1,-1,-1,-1,-1,-1,-1,-1,-1,-1,-1,-1,-1,-1,-1,-1,-1,-1,-1,-1,-1,-1,-1,-1,-1,-1,-1,-1,-1],"split_conditions":[-1.3093849E1,-1.2671126E1,-1.4078534E1,-1.4017233E1,-1.6171938E1,-1.4162234E1,-1.40701E1,-1.2807018E1,-1.3115688E1,-1.3809649E1,-1.271475E1,-1.2600975E1,-1.254419E1,-1.4435057E1,-1.5007957E1,1.0094193E-1,-1.2434703E1,-1.2710283E1,-1.4929749E1,-1.6179981E1,-1.3766437E1,-1.6134802E1,-1.409095E1,-1.4960989E1,1.17944114E-1,-1.2755179E1,-1.3736051E1,-1.3462694E1,-1.2520746E1,-1.2555387E1,-1.603698E1,-1.2526649E1,-1.2747931E1,3.2559343E-2,-1.2632135E1,5.3034097E-2,1.120985E-2,-5.9665374E-2,-1.617856E1,5.5577803E-2,1.2346003E-2,-1.6139769E1,-1.6319916E-2,-1.2420589E1,-1.6006119E1,3.4962125E-2,-4.488861E-2,-1.4093087E1,-1.3159212E1,-1.3367381E1,-1.615462E1,-1.2386846E1,-1.2398534E1,-1.2577558E1,-1.4935796E1,-1.2749311E1,-1.406385E1,-1.4880039E1,-1.2422266E1,1.7355455E-3,2.9202154E-2,-1.199007E-2,6.1900437E-2,3.2352034E-2,-5.073336E-2,-6.775886E-4,-1.629163E-2,-4.2221546E-3,-9.435073E-4,-8.029577E-3,5.777008E-2,1.0944674E-1,1.3544039E-2,2.538213E-2,6.8885475E-2,-3.9200597E-2,3.314304E-2,7.426985E-3,7.0272624E-2,1.3184546E-2,1.016334E-1,-3.064651E-3,1.00747205E-1,8.160455E-2,-1.7005183E-2,-6.0496952E-2,7.240518E-2,-6.085582E-2,3.1970713E-2,2.4566177E-2,-5.5966686E-2,-1.5647817E-2,-6.4113095E-2,3.004243E-2,6.1804246E-2,-1.6413936E-3,2.8269017E-2],"split_indices":[9,13,3,3,0,3,3,13,8,4,14,15,16,2,1,0,17,14,1,0,4,0,3,1,0,12,4,6,15,15,0,16,12,0,15,0,0,0,0,0,0,0,0,18,0,0,0,3,8,6,0,19,19,16,1,12,3,1,17,0,0,0,0,0,0,0,0,0,0,0,0,0,0,0,0,0,0,0,0,0,0,0,0,0,0,0,0,0,0,0,0,0,0,0,0,0,0],"split_type":[0,0,0,0,0,0,0,0,0,0,0,0,0,0,0,0,0,0,0,0,0,0,0,0,0,0,0,0,0,0,0,0,0,0,0,0,0,0,0,0,0,0,0,0,0,0,0,0,0,0,0,0,0,0,0,0,0,0,0,0,0,0,0,0,0,0,0,0,0,0,0,0,0,0,0,0,0,0,0,0,0,0,0,0,0,0,0,0,0,0,0,0,0,0,0,0,0],"sum_hessian":[5.18E3,3.85E2,4.795E3,3.5E2,3.5E1,6.47E2,4.148E3,3.21E2,2.9E1,1E1,2.5E1,1.2E1,6.35E2,1.34E2,4.014E3,5E0,3.16E2,2.6E1,3E0,6E0,4E0,3E0,2.2E1,4E0,8E0,1.49E2,4.86E2,4.4E1,9E1,3.8E1,3.976E3,2.21E2,9.5E1,2E0,2.4E1,2E0,1E0,3E0,3E0,3E0,1E0,2E0,1E0,1E1,1.2E1,3E0,1E0,1.28E2,2.1E1,4.79E2,7E0,1.2E1,3.2E1,8.5E1,5E0,3E1,8E0,8.13E2,3.163E3,9.5E1,1.26E2,8.9E1,6E0,1E0,2.3E1,1E0,2E0,1E0,1E0,3E0,7E0,1.1E1,1E0,8.4E1,4.4E1,1.6E1,5E0,4.68E2,1.1E1,2E0,5E0,4E0,8E0,4E0,2.8E1,2E0,8.3E1,3E0,2E0,2.4E1,6E0,1E0,7E0,6.97E2,1.16E2,2.03E2,2.96E3],"tree_param":{"num_deleted":"0","num_feature":"20","num_nodes":"97","size_leaf_vector":"1"}},{"base_weights":[-8.745212E-2,8.768731E-3,-2.0355198E-1,5.444686E-2,-6.1910976E-2,-1.9832985E-1,-4.788696E-1,8.9159325E-2,3.0755404E-2,-6.425599E-1,-5.6064148E-2,-2.0683959E-1,1.1300382E-1,-3.56208E-1,-1.8063602E-1,-9.967248E-3,1.1794461E-1,-3.2695207E-1,4.2240195E-2,-1.4550903E-1,-9.0580195E-1,-7.591775E-2,6.585281E-2,-1.8998003E-1,-3.5885772E-1,1.4668529E-1,-6.44833E-2,-4.9187995E-2,-4.1515258E-1,4.8109837E-2,-4.9449542E-1,2.4223709E-1,9.359289E-2,3.0208645E-2,-6.06422E-1,2.573255E-1,3.295221E-2,4.6574034E-2,-7.7852905E-2,-6.456737E-2,-2.9550824E-1,-5.1950146E-2,-2.660379E-1,7.165324E-2,-1.24112E-1,-1.9710684E-1,6.861345E-2,-3.3647835E-1,-5.81432E-1,-2.5921237E-1,3.9677545E-2,-1.5439391E-3,-3.5964634E-2,-1.5154392E-1,-4.5275742E-1,7.32806E-2,-4.7716843E-3,-3.1382588E-1,-1.0536328E-1,-4.953469E-2,8.2217105E-2,-6.193563E-2,3.5050303E-2,-5.4688483E-2,8.973361E-2,1.2142971E-1,-2.2743548E-1,-1.3705508E-1,9.771906E-2,1.4409058E-2,-3.116702E-2,4.6620477E-2,-1.931187E-2,-1.224511E-1,-3.1426366E-2,-2.1085244E-2,2.3364706E-2,-1.2548876E-1,-5.7373215E-2,5.07725E-3,7.0292324E-2,-1.1006982E-1,-2.3941012E-2,-1.0590113E-2,-2.0448764E-1,3.4124397E-2,-6.5958776E-2,1.1002887E-2,-7.952834E-3,-5.964625E-3,-5.6641154E-2,-4.7952842E-2,-1.4434695E-1],"categories":[],"categories_nodes":[],"categories_segments":[],"categories_sizes":[],"default_left":[0,0,0,0,0,0,0,0,0,0,0,0,0,0,0,0,0,0,0,0,0,0,0,0,0,0,0,0,0,0,0,0,0,0,0,0,0,0,0,0,0,0,0,0,0,0,0,0,0,0,0,0,0,0,0,0,0,0,0,0,0,0,0,0,0,0,0,0,0,0,0,0,0,0,0,0,0,0,0,0,0,0,0,0,0,0,0,0,0,0,0,0,0],"id":15,"left_children":[1,3,5,7,9,11,13,15,17,19,21,23,25,27,-1,29,31,33,35,37,39,41,43,45,47,-1,49,51,53,55,57,59,61,63,65,67,69,-1,-1,-1,-1,71,73,75,-1,77,79,81,83,-1,85,87,-1,89,91,-1,-1,-1,-1,-1,-1,-1,-1,-1,-1,-1,-1,-1,-1,-1,-1,-1,-1,-1,-1,-1,-1,-1,-1,-1,-1,-1,-1,-1,-1,-1,-1,-1,-1,-1,-1,-1,-1],"loss_changes":[5.7879913E1,9.1529875E0,3.2808456E0,1.4134116E0,3.7425585E0,6.13282E0,4.3559837E-1,1.9928393E0,4.2247114E0,1.3074894E0,2.6747997E0,5.6856613E0,4.1685276E0,4.1391158E-1,0E0,4.4699078E0,1.6147919E0,3.212421E0,1.9772435E0,2.1171983E-1,1.7097712E-1,4.3105116E0,4.6079934E-1,3.7417908E0,9.1514015E-1,0E0,3.615436E0,1.665568E-2,1.2964654E-1,1.787007E0,9.761882E-1,1.1859007E0,3.190081E0,9.1167057E-1,3.0679417E0,2.1517813E0,1.973383E0,0E0,0E0,0E0,0E0,2.1840458E0,2.3871427E0,1.4163202E-1,0E0,2.473381E0,4.670886E-1,1.5714226E0,1.015595E0,0E0,7.7475464E-1,4.789017E-3,0E0,1.5869021E-2,6.450534E-2,0E0,0E0,0E0,0E0,0E0,0E0,0E0,0E0,0E0,0E0,0E0,0E0,0E0,0E0,0E0,0E0,0E0,0E0,0E0,0E0,0E0,0E0,0E0,0E0,0E0,0E0,0E0,0E0,0E0,0E0,0E0,0E0,0E0,0E0,0E0,0E0,0E0,0E0],"parents":[2147483647,0,0,1,1,2,2,3,3,4,4,5,5,6,6,7,7,8,8,9,9,10,10,11,11,12,12,13,13,15,15,16,16,17,17,18,18,19,19,20,20,21,21,22,22,23,23,24,24,26,26,27,27,28,28,29,29,30,30,31,31,32,32,33,33,34,34,35,35,36,36,41,41,42,42,43,43,45,45,46,46,47,47,48,48,50,50,51,51,53,53,54,54],"right_children":[2,4,6,8,10,12,14,16,18,20,22,24,26,28,-1,30,32,34,36,38,40,42,44,46,48,-1,50,52,54,56,58,60,62,64,66,68,70,-1,-1,-1,-1,72,74,76,-1,78,80,82,84,-1,86,88,-1,90,92,-1,-1,-1,-1,-1,-1,-1,-1,-1,-1,-1,-1,-1,-1,-1,-1,-1,-1,-1,-1,-1,-1,-1,-1,-1,-1,-1,-1,-1,-1,-1,-1,-1,-1,-1,-1,-1,-1],"split_conditions":[-1.32447405E1,-1.4895214E1,-8.475515E0,-1.24093275E1,-1.271475E1,-1.11541395E1,-8.540231E0,-1.2674654E1,-1.2407192E1,-1.4409022E1,-1.2382324E1,-1.1517591E1,-8.879779E0,-8.491923E0,-1.8063602E-1,-1.2676853E1,-1.3652479E1,-1.40681925E1,-1.35046015E1,-1.6234793E1,-1.4069278E1,-1.3908719E1,-1.4078008E1,-1.0026256E1,-9.041514E0,1.4668529E-1,-1.0645412E1,-1.0089592E1,-8.505551E0,-1.2605757E1,-1.3493289E1,-1.2767776E1,-1.364492E1,-1.2639717E1,-1.3326584E1,-1.30499525E1,-1.2410701E1,4.6574034E-2,-7.7852905E-2,-6.456737E-2,-2.9550824E-1,-1.44425E1,-1.2146166E1,-1.2206837E1,-1.24112E-1,-1.2232433E1,-9.856262E0,-9.96368E0,-9.911485E0,-2.5921237E-1,-8.479584E0,-9.010812E0,-3.5964634E-2,-8.600828E0,-8.476169E0,7.32806E-2,-4.7716843E-3,-3.1382588E-1,-1.0536328E-1,-4.953469E-2,8.2217105E-2,-6.193563E-2,3.5050303E-2,-5.4688483E-2,8.973361E-2,1.2142971E-1,-2.2743548E-1,-1.3705508E-1,9.771906E-2,1.4409058E-2,-3.116702E-2,4.6620477E-2,-1.931187E-2,-1.224511E-1,-3.1426366E-2,-2.1085244E-2,2.3364706E-2,-1.2548876E-1,-5.7373215E-2,5.07725E-3,7.0292324E-2,-1.1006982E-1,-2.3941012E-2,-1.0590113E-2,-2.0448764E-1,3.4124397E-2,-6.5958776E-2,1.1002887E-2,-7.952834E-3,-5.964625E-3,-5.6641154E-2,-4.7952842E-2,-1.4434695E-1],"split_indices":[1,1,19,18,14,0,5,14,18,2,13,0,12,18,0,14,5,3,6,0,3,1,0,2,5,0,0,0,8,15,6,13,5,14,7,10,17,0,0,0,0,2,19,17,0,14,2,1,1,0,14,1,0,4,12,0,0,0,0,0,0,0,0,0,0,0,0,0,0,0,0,0,0,0,0,0,0,0,0,0,0,0,0,0,0,0,0,0,0,0,0,0,0],"split_type":[0,0,0,0,0,0,0,0,0,0,0,0,0,0,0,0,0,0,0,0,0,0,0,0,0,0,0,0,0,0,0,0,0,0,0,0,0,0,0,0,0,0,0,0,0,0,0,0,0,0,0,0,0,0,0,0,0,0,0,0,0,0,0,0,0,0,0,0,0,0,0,0,0,0,0,0,0,0,0,0,0,0,0,0,0,0,0,0,0,0,0,0,0],"sum_hessian":[5.18E3,2.833E3,2.347E3,1.721E3,1.112E3,2.305E3,4.2E1,6.97E2,1.024E3,1E1,1.102E3,2.244E3,6.1E1,2.3E1,1.9E1,1.57E2,5.4E2,3.1E1,9.93E2,4E0,6E0,9.48E2,1.54E2,2.022E3,2.22E2,1.9E1,4.2E1,4E0,1.9E1,1.41E2,1.6E1,8.7E1,4.53E2,1.4E1,1.7E1,4E1,9.53E2,1E0,3E0,1E0,5E0,8.43E2,1.05E2,1.53E2,1E0,1.968E3,5.4E1,2.04E2,1.8E1,4E0,3.8E1,3E0,1E0,3E0,1.6E1,3.4E1,1.07E2,2E0,1.4E1,6E0,8.1E1,3.2E1,4.21E2,8E0,6E0,2E0,1.5E1,3E0,3.7E1,8.59E2,9.4E1,4.7E1,7.96E2,5.5E1,5E1,6E0,1.47E2,4.9E1,1.919E3,4.2E1,1.2E1,1.82E2,2.2E1,3E0,1.5E1,3E1,8E0,1E0,2E0,1E0,2E0,2E0,1.4E1],"tree_param":{"num_deleted":"0","num_feature":"20","num_nodes":"93","size_leaf_vector":"1"}},{"base_weights":[6.023019E-2,5.415718E-2,8.13521E-2,5.860168E-2,2.6247418E-2,4.2725228E-2,7.863325E-2,5.41333E-2,1.4900789E-1,-6.9309063E-3,4.0061187E-2,6.459525E-2,9.181759E-2,5.818394E-2,-2.2190039E-3,1.3664879E-1,2.5401646E-1,6.161516E-3,-2.5046002E-2,9.629683E-2,2.6890345E-2,7.884371E-2,5.8442097E-2,1.180294E-1,8.703445E-2,3.89864E-2,6.867689E-2,-3.4983378E-2,1.4620938E-2,1.9992028E-1,1.0615459E-1,9.270528E-3,8.00492E-2,-2.62021E-2,3.0763522E-2,-2.7902294E-2,1.7094994E-2,-1.4269084E-3,9.7746275E-2,1.8425113E-2,4.7897466E-2,6.7179516E-2,9.182462E-2,3.3690587E-2,6.2079214E-2,1.07123405E-1,1.386575E-1,6.8654925E-2,9.958295E-2,1.3992791E-2,-8.367995E-3,1.0416126E-2,2.2823159E-2,-3.0342736E-3,-1.2758101E-2,1.07966345E-2,-4.933348E-3,4.434081E-2,6.4069875E-2,2.1224398E-2,4.3353926E-2,4.949181E-3,-9.725448E-3,1.2046971E-2,-6.51217E-3,-9.3792295E-3,-3.1346988E-3,1.00332415E-2,-1.4857443E-3,2.332166E-2,3.254034E-2,1.2693948E-2,3.989723E-3,2.5167322E-2,8.370777E-3,2.055689E-2,-7.4550393E-3,5.9329018E-2,2.1560952E-2,6.8199993E-3,1.1845813E-2,2.48646E-2,1.715028E-2,3.6278654E-2,2.5325714E-2,4.2320874E-2,1.1753315E-2,4.727832E-2,1.9383777E-2,2.8214244E-2,3.359652E-2],"categories":[],"categories_nodes":[],"categories_segments":[],"categories_sizes":[],"default_left":[0,0,0,0,0,0,0,0,0,0,0,0,0,0,0,0,0,0,0,0,0,0,0,0,0,0,0,0,0,0,0,0,0,0,0,0,0,0,0,0,0,0,0,0,0,0,0,0,0,0,0,0,0,0,0,0,0,0,0,0,0,0,0,0,0,0,0,0,0,0,0,0,0,0,0,0,0,0,0,0,0,0,0,0,0,0,0,0,0,0,0],"id":16,"left_children":[1,3,5,7,9,-1,11,13,15,17,19,21,23,25,27,29,31,33,35,37,39,41,43,45,47,49,51,53,55,57,59,-1,-1,61,63,65,67,-1,69,71,73,75,77,79,81,83,85,87,89,-1,-1,-1,-1,-1,-1,-1,-1,-1,-1,-1,-1,-1,-1,-1,-1,-1,-1,-1,-1,-1,-1,-1,-1,-1,-1,-1,-1,-1,-1,-1,-1,-1,-1,-1,-1,-1,-1,-1,-1,-1,-1],"loss_changes":[6.6017914E-1,4.9799156E-1,1.8056297E-1,1.3949194E0,2.5464395E-1,0E0,1.991396E-1,7.55908E-1,1.7683196E-1,3.905028E-2,2.8775346E-1,4.273534E-2,6.1065674E-2,6.1956596E-1,1.2355177E-1,2.6433086E-1,3.749919E-2,7.724221E-2,8.782309E-3,1.1303782E-2,5.5845305E-2,1.8057108E-2,3.2207727E-2,4.269004E-3,1.0502124E-1,5.614803E-1,4.9892998E-1,1.3827726E-2,9.883442E-2,1.860261E-3,1.2830675E-1,0E0,0E0,1.1682523E-2,2.7979005E-2,3.487166E-3,1.9679181E-3,0E0,7.227063E-3,2.7478553E-2,6.315081E-2,1.2582868E-2,1.4010769E-1,2.340965E-3,2.9081821E-2,8.59791E-3,7.120073E-4,6.172198E-2,9.107351E-3,0E0,0E0,0E0,0E0,0E0,0E0,0E0,0E0,0E0,0E0,0E0,0E0,0E0,0E0,0E0,0E0,0E0,0E0,0E0,0E0,0E0,0E0,0E0,0E0,0E0,0E0,0E0,0E0,0E0,0E0,0E0,0E0,0E0,0E0,0E0,0E0,0E0,0E0,0E0,0E0,0E0,0E0],"parents":[2147483647,0,0,1,1,2,2,3,3,4,4,6,6,7,7,8,8,9,9,10,10,11,11,12,12,13,13,14,14,15,15,16,16,17,17,18,18,19,19,20,20,21,21,22,22,23,23,24,24,25,25,26,26,27,27,28,28,29,29,30,30,33,33,34,34,35,35,36,36,38,38,39,39,40,40,41,41,42,42,43,43,44,44,45,45,46,46,47,47,48,48],"right_children":[2,4,6,8,10,-1,12,14,16,18,20,22,24,26,28,30,32,34,36,38,40,42,44,46,48,50,52,54,56,58,60,-1,-1,62,64,66,68,-1,70,72,74,76,78,80,82,84,86,88,90,-1,-1,-1,-1,-1,-1,-1,-1,-1,-1,-1,-1,-1,-1,-1,-1,-1,-1,-1,-1,-1,-1,-1,-1,-1,-1,-1,-1,-1,-1,-1,-1,-1,-1,-1,-1,-1,-1,-1,-1,-1,-1],"split_conditions":[-1.0681253E1,-1.2884728E1,-1.2436248E1,-1.1834643E1,-1.1045608E1,4.2725228E-2,-9.926979E0,-1.2605352E1,-1.1749753E1,-1.18013735E1,-1.2436248E1,-1.1889692E1,-1.166366E1,-1.271679E1,-1.1839023E1,-1.3618206E1,-1.1214875E1,-1.1293832E1,-1.1120976E1,-1.1362191E1,-1.0686165E1,-1.0830071E1,-1.0246279E1,-1.04634495E1,-9.548405E0,-1.485493E1,-1.2531771E1,-1.2543184E1,-1.2216147E1,-1.25757065E1,-1.1397159E1,9.270528E-3,8.00492E-2,-1.2052609E1,-1.1697539E1,-1.1299556E1,-1.2436248E1,-1.4269084E-3,-1.0846428E1,-1.1475127E1,-1.2035011E1,-1.0106583E1,-1.0128319E1,-1.0327854E1,-1.1776472E1,-1.1776472E1,-1.0325226E1,-9.677646E0,-1.0645412E1,1.3992791E-2,-8.367995E-3,1.0416126E-2,2.2823159E-2,-3.0342736E-3,-1.2758101E-2,1.07966345E-2,-4.933348E-3,4.434081E-2,6.4069875E-2,2.1224398E-2,4.3353926E-2,4.949181E-3,-9.725448E-3,1.2046971E-2,-6.51217E-3,-9.3792295E-3,-3.1346988E-3,1.00332415E-2,-1.4857443E-3,2.332166E-2,3.254034E-2,1.2693948E-2,3.989723E-3,2.5167322E-2,8.370777E-3,2.055689E-2,-7.4550393E-3,5.9329018E-2,2.1560952E-2,6.8199993E-3,1.1845813E-2,2.48646E-2,1.715028E-2,3.6278654E-2,2.5325714E-2,4.2320874E-2,1.1753315E-2,4.727832E-2,1.9383777E-2,2.8214244E-2,3.359652E-2],"split_indices":[8,0,0,7,17,0,6,1,1,2,0,0,0,13,14,0,4,17,13,9,12,2,16,1,4,1,16,3,2,1,8,0,0,1,1,9,0,0,18,1,0,10,15,17,0,0,1,16,0,0,0,0,0,0,0,0,0,0,0,0,0,0,0,0,0,0,0,0,0,0,0,0,0,0,0,0,0,0,0,0,0,0,0,0,0,0,0,0,0,0,0],"split_type":[0,0,0,0,0,0,0,0,0,0,0,0,0,0,0,0,0,0,0,0,0,0,0,0,0,0,0,0,0,0,0,0,0,0,0,0,0,0,0,0,0,0,0,0,0,0,0,0,0,0,0,0,0,0,0,0,0,0,0,0,0,0,0,0,0,0,0,0,0,0,0,0,0,0,0,0,0,0,0,0,0,0,0,0,0,0,0,0,0,0,0],"sum_hessian":[5.18E3,4.026E3,1.154E3,3.472E3,5.54E2,4.7E1,1.107E3,3.31E3,1.62E2,1.63E2,3.91E2,5.39E2,5.68E2,3.088E3,2.22E2,1.47E2,1.5E1,9.5E1,6.8E1,7.3E1,3.18E2,1.59E2,3.8E2,8.4E1,4.84E2,1.093E3,1.995E3,7.5E1,1.47E2,4.6E1,1.01E2,1E0,1.4E1,4.1E1,5.4E1,6.4E1,4E0,1E0,7.2E1,2.28E2,9E1,8.7E1,7.2E1,5E1,3.3E2,5.9E1,2.5E1,1.99E2,2.85E2,9.81E2,1.12E2,3.58E2,1.637E3,1.8E1,5.7E1,8.7E1,6E1,1.2E1,3.4E1,5.4E1,4.7E1,5E0,3.6E1,4.6E1,8E0,5.3E1,1.1E1,2E0,2E0,2.8E1,4.4E1,3.9E1,1.89E2,3.1E1,5.9E1,8.6E1,1E0,1E1,6.2E1,1.9E1,3.1E1,6E1,2.7E2,3.4E1,2.5E1,2.4E1,1E0,7E0,1.92E2,2.03E2,8.2E1],"tree_param":{"num_deleted":"0","num_feature":"20","num_nodes":"91","size_leaf_vector":"1"}},{"base_weights":[-6.1637446E-2,4.847995E-3,-1.4446537E-1,3.574179E-2,-5.3739984E-2,-1.1184376E-1,-1.7690541E-1,3.9675847E-2,-1.6160813E-1,-1.5661654E-1,-2.7433414E-2,-1.4716579E-1,-2.8691966E-2,-3.8357934E-1,-1.6542974E-1,3.6917046E-2,3.1794977E-1,9.06297E-2,-2.1140872E-1,-4.894523E-2,-2.9837808E-1,-2.3103443E-1,-1.5148015E-2,-1.2204931E-1,-3.489839E-1,4.489697E-2,-8.355293E-2,1.6059144E-1,-4.0511265E-1,1.3082681E-2,-1.752356E-1,4.309545E-2,-8.587701E-2,5.042178E-1,-4.6788253E-2,-3.2318047E-1,-5.994345E-3,1.333702E-1,-1.6637571E-1,-5.8475536E-1,-9.437885E-2,-5.330989E-1,1.0208795E-2,-4.953292E-1,-8.629801E-3,-1.4742878E-1,5.752711E-2,-2.1746355E-1,-2.9222664E-1,1.7559592E-1,-5.1369667E-2,-2.6486E-1,-1.3723474E-2,6.0190704E-2,1.2075448E-2,-5.6179523E-1,-3.205606E-1,-1.175355E-1,3.3315286E-2,-1.6909555E-1,-4.3911386E-1,1.3456091E-2,-2.1974666E-1,-7.273817E-2,6.630583E-3,1.6097814E-1,2.2212286E-2,-4.1889105E-2,3.7063397E-2,-1.296244E-1,8.246808E-2,1.1165489E-1,-4.6999753E-2,2.3317061E-2,1.7223845E-1,-1.9441342E-1,-3.1070244E-2,-1.7782135E-2,-2.3537518E-1,-2.871189E-1,-1.22190695E-2,-8.783469E-2,-2.8127253E-1,-1.9273198E-1,5.885812E-2,2.6647551E-2,-1.957413E-1,2.0642683E-2,-1.4293927E-2,-3.33856E-2,-9.373439E-2,8.895392E-3,4.4312127E-2,-3.8235866E-2,-1.3999647E-1,1.6100049E-2,6.478856E-2,1.6472882E-2,-2.030683E-2,-6.9572157E-3,-9.952898E-2,-8.995393E-3,5.029444E-2,-1.7859915E-1,6.2757614E-3,-3.227723E-2,-1.1638927E-1,3.445573E-2,-6.424207E-2,2.9992515E-2,-1.2002962E-2,-5.5111334E-2,-8.3452906E-5,-4.7716857E-3,-1.3728829E-1],"categories":[],"categories_nodes":[],"categories_segments":[],"categories_sizes":[],"default_left":[0,0,0,0,0,0,0,0,0,0,0,0,0,0,0,0,0,0,0,0,0,0,0,0,0,0,0,0,0,0,0,0,0,0,0,0,0,0,0,0,0,0,0,0,0,0,0,0,0,0,0,0,0,0,0,0,0,0,0,0,0,0,0,0,0,0,0,0,0,0,0,0,0,0,0,0,0,0,0,0,0,0,0,0,0,0,0,0,0,0,0,0,0,0,0,0,0,0,0,0,0,0,0,0,0,0,0,0,0,0,0,0,0,0,0],"id":17,"left_children":[1,3,5,7,9,11,13,15,17,19,21,23,25,27,29,31,33,-1,35,37,39,41,43,45,47,49,51,53,55,57,59,61,63,65,67,69,71,73,75,77,79,81,83,85,87,89,91,-1,93,95,97,99,101,-1,-1,103,105,107,109,111,113,-1,-1,-1,-1,-1,-1,-1,-1,-1,-1,-1,-1,-1,-1,-1,-1,-1,-1,-1,-1,-1,-1,-1,-1,-1,-1,-1,-1,-1,-1,-1,-1,-1,-1,-1,-1,-1,-1,-1,-1,-1,-1,-1,-1,-1,-1,-1,-1,-1,-1,-1,-1,-1,-1],"loss_changes":[2.8531693E1,5.205685E0,2.421589E0,1.4683466E0,2.6830885E0,3.3822403E0,2.6758842E0,1.4062088E0,9.183034E-1,3.068653E0,1.9775455E0,4.058197E0,1.3965715E0,7.6812553E-1,1.920805E0,1.3920698E0,1.2464939E0,0E0,7.786864E-1,2.5056787E0,5.0274167E0,3.2846375E0,2.3369083E0,3.2944784E0,1.686965E0,1.8711487E0,2.5031588E0,6.3808784E-3,5.8828545E-1,1.5719499E-1,1.6091633E0,2.409645E0,1.4932387E0,1.273992E-1,1.2794903E-1,1.5516531E0,7.990553E-1,1.0836055E0,2.0808315E0,3.733718E0,2.367673E0,1.6695414E0,3.2819963E0,9.7590613E-1,2.2360919E0,3.734706E0,2.2186589E-1,0E0,2.2110777E0,2.984823E-1,1.5287963E-1,8.8157177E-1,4.2972815E-1,0E0,0E0,3.837409E-1,5.324559E-1,2.041927E-1,2.5327972E-1,2.5081081E0,1.7293024E-1,0E0,0E0,0E0,0E0,0E0,0E0,0E0,0E0,0E0,0E0,0E0,0E0,0E0,0E0,0E0,0E0,0E0,0E0,0E0,0E0,0E0,0E0,0E0,0E0,0E0,0E0,0E0,0E0,0E0,0E0,0E0,0E0,0E0,0E0,0E0,0E0,0E0,0E0,0E0,0E0,0E0,0E0,0E0,0E0,0E0,0E0,0E0,0E0,0E0,0E0,0E0,0E0,0E0,0E0],"parents":[2147483647,0,0,1,1,2,2,3,3,4,4,5,5,6,6,7,7,8,8,9,9,10,10,11,11,12,12,13,13,14,14,15,15,16,16,18,18,19,19,20,20,21,21,22,22,23,23,24,24,25,25,26,26,27,27,28,28,29,29,30,30,31,31,32,32,33,33,34,34,35,35,36,36,37,37,38,38,39,39,40,40,41,41,42,42,43,43,44,44,45,45,46,46,48,48,49,49,50,50,51,51,52,52,55,55,56,56,57,57,58,58,59,59,60,60],"right_children":[2,4,6,8,10,12,14,16,18,20,22,24,26,28,30,32,34,-1,36,38,40,42,44,46,48,50,52,54,56,58,60,62,64,66,68,70,72,74,76,78,80,82,84,86,88,90,92,-1,94,96,98,100,102,-1,-1,104,106,108,110,112,114,-1,-1,-1,-1,-1,-1,-1,-1,-1,-1,-1,-1,-1,-1,-1,-1,-1,-1,-1,-1,-1,-1,-1,-1,-1,-1,-1,-1,-1,-1,-1,-1,-1,-1,-1,-1,-1,-1,-1,-1,-1,-1,-1,-1,-1,-1,-1,-1,-1,-1,-1,-1,-1,-1],"split_conditions":[-1.31432705E1,-1.6060062E1,-1.2089804E1,-1.2803543E1,-1.2502192E1,-1.1234998E1,-1.0659616E1,-1.2711767E1,-1.2382276E1,-1.3996291E1,-1.2656297E1,-1.15989485E1,-1.1385404E1,-1.14097395E1,-1.198131E1,-1.3545286E1,-1.3033294E1,9.06297E-2,-1.35900345E1,-1.2398371E1,-1.39618025E1,-1.2387277E1,-1.2761762E1,-1.1121399E1,-1.1128524E1,-1.1052615E1,-1.1044365E1,-1.2055594E1,-1.0881304E1,-1.0999322E1,-8.450565E0,-1.4289809E1,-1.3815155E1,-1.4918421E1,-1.4900233E1,-1.27846365E1,-1.6200583E1,-1.2401701E1,-1.2892969E1,-1.4361884E1,-1.2829379E1,-1.4774635E1,-1.2452986E1,-1.4081502E1,-1.569805E1,-1.2049759E1,-1.1623793E1,-2.1746355E-1,-1.1596491E1,-1.1749753E1,-1.0763013E1,-1.1361817E1,-1.210609E1,6.0190704E-2,1.2075448E-2,-1.198131E1,-1.2010779E1,-1.1230211E1,-1.0089504E1,-1.11541395E1,-8.493092E0,1.3456091E-2,-2.1974666E-1,-7.273817E-2,6.630583E-3,1.6097814E-1,2.2212286E-2,-4.1889105E-2,3.7063397E-2,-1.296244E-1,8.246808E-2,1.1165489E-1,-4.6999753E-2,2.3317061E-2,1.7223845E-1,-1.9441342E-1,-3.1070244E-2,-1.7782135E-2,-2.3537518E-1,-2.871189E-1,-1.22190695E-2,-8.783469E-2,-2.8127253E-1,-1.9273198E-1,5.885812E-2,2.6647551E-2,-1.957413E-1,2.0642683E-2,-1.4293927E-2,-3.33856E-2,-9.373439E-2,8.895392E-3,4.4312127E-2,-3.8235866E-2,-1.3999647E-1,1.6100049E-2,6.478856E-2,1.6472882E-2,-2.030683E-2,-6.9572157E-3,-9.952898E-2,-8.995393E-3,5.029444E-2,-1.7859915E-1,6.2757614E-3,-3.227723E-2,-1.1638927E-1,3.445573E-2,-6.424207E-2,2.9992515E-2,-1.2002962E-2,-5.5111334E-2,-8.3452906E-5,-4.7716857E-3,-1.3728829E-1],"split_indices":[1,0,0,11,16,7,13,12,19,3,14,1,1,2,0,5,9,0,5,18,3,18,13,18,16,7,6,0,9,4,8,2,4,1,1,11,0,18,11,2,12,1,17,3,0,2,3,0,2,1,17,1,0,0,0,0,0,1,16,0,10,0,0,0,0,0,0,0,0,0,0,0,0,0,0,0,0,0,0,0,0,0,0,0,0,0,0,0,0,0,0,0,0,0,0,0,0,0,0,0,0,0,0,0,0,0,0,0,0,0,0,0,0,0,0],"split_type":[0,0,0,0,0,0,0,0,0,0,0,0,0,0,0,0,0,0,0,0,0,0,0,0,0,0,0,0,0,0,0,0,0,0,0,0,0,0,0,0,0,0,0,0,0,0,0,0,0,0,0,0,0,0,0,0,0,0,0,0,0,0,0,0,0,0,0,0,0,0,0,0,0,0,0,0,0,0,0,0,0,0,0,0,0,0,0,0,0,0,0,0,0,0,0,0,0,0,0,0,0,0,0,0,0,0,0,0,0,0,0,0,0,0,0],"sum_hessian":[5.18E3,2.874E3,2.306E3,1.882E3,9.92E2,1.152E3,1.154E3,1.846E3,3.6E1,2.01E2,7.91E2,8.08E2,3.44E2,5.9E1,1.095E3,1.829E3,1.7E1,3E0,3.3E1,1.15E2,8.6E1,4.4E1,7.47E2,7.2E2,8.8E1,1.47E2,1.97E2,2E0,5.7E1,5.7E1,1.038E3,1.742E3,8.7E1,1.1E1,6E0,2.1E1,1.2E1,4.5E1,7E1,3.5E1,5.1E1,1.9E1,2.5E1,9E0,7.38E2,6.31E2,8.9E1,1E1,7.8E1,6.2E1,8.5E1,5.4E1,1.43E2,1E0,1E0,1.8E1,3.9E1,7E0,5E1,1.016E3,2.2E1,1.739E3,3E0,3.5E1,5.2E1,1E1,1E0,4E0,2E0,1.8E1,3E0,3E0,9E0,4.1E1,4E0,7E0,6.3E1,1E1,2.5E1,2E0,4.9E1,1.3E1,6E0,5E0,2E1,2E0,7E0,2.47E2,4.91E2,5.19E2,1.12E2,6.9E1,2E1,4.1E1,3.7E1,1.6E1,4.6E1,1.1E1,7.4E1,1.2E1,4.2E1,1.32E2,1.1E1,1.7E1,1E0,1E1,2.9E1,2E0,5E0,2.6E1,2.4E1,9.35E2,8.1E1,1E0,2.1E1],"tree_param":{"num_deleted":"0","num_feature":"20","num_nodes":"115","size_leaf_vector":"1"}},{"base_weights":[4.2322155E-2,-1.5243237E-2,4.418325E-2,7.22153E-2,-4.427215E-2,-3.6834724E-2,4.5419738E-2,1.2828206E-1,-9.235605E-2,3.4915295E-3,-1.2714012E-1,-1.7351016E-1,-1.1035646E-2,1.5699595E-2,4.764582E-2,1.7986372E-1,-4.249823E-2,-6.459183E-2,9.82452E-2,6.676409E-2,-1.2083947E-1,-1.8710957E-1,3.4870017E-2,-2.3814532E-1,2.9933125E-2,1.1075087E-2,-1.3375218E-1,2.2925455E-2,-1.254906E-1,-1.0816572E-2,4.9241357E-2,6.734759E-2,2.5542185E-1,-4.085428E-2,2.5568908E-2,4.991606E-2,-2.644847E-3,-1.387236E-2,1.725452E-1,-2.0114018E-2,-2.1293353E-1,-2.3471643E-1,-8.99859E-3,-1.0763679E-1,8.5322484E-2,-9.048446E-3,-2.5790337E-1,-7.997198E-2,4.6335522E-2,2.3479948E-2,-1.7599522E-1,-7.329138E-2,3.4224994E-2,-1.8945889E-1,7.0854306E-2,-2.4373867E-2,9.420311E-2,6.524615E-2,4.141934E-2,5.658259E-2,-8.6665545E-3,9.795214E-2,-1.175429E-3,-7.0742774E-3,5.8840965E-3,-2.6594674E-2,4.5606986E-2,8.021497E-2,1.343339E-2,4.03803E-2,-4.5892626E-2,6.112859E-3,-7.605495E-2,-7.607069E-2,3.548951E-2,3.7737682E-2,-5.257126E-2,-5.241818E-2,-5.705689E-3,-2.5171408E-2,-8.868927E-2,-3.819867E-3,-5.6974493E-2,2.6963996E-3,5.978117E-2,-7.3781763E-3,1.7944153E-2,-5.9875276E-2,-2.1045621E-2,-5.2448176E-2,6.4241807E-3,-9.227598E-4,2.07324E-2,1.09187495E-2,-6.810164E-2,3.0417398E-3,-3.555688E-2,1.6332373E-2,5.457552E-2,-1.4849786E-2,1.3821432E-2],"categories":[],"categories_nodes":[],