{"learner":{"attributes":{"scikit_learn":"{\"_estimator_type\": \"regressor\"}"},"feature_names":[],"feature_types":[],"gradient_booster":{"model":{"gbtree_model_param":{"num_parallel_tree":"1","num_trees":"200"},"iteration_indptr":[0,2,4,6,8,10,12,14,16,18,20,22,24,26,28,30,32,34,36,38,40,42,44,46,48,50,52,54,56,58,60,62,64,66,68,70,72,74,76,78,80,82,84,86,88,90,92,94,96,98,100,102,104,106,108,110,112,114,116,118,120,122,124,126,128,130,132,134,136,138,140,142,144,146,148,150,152,154,156,158,160,162,164,166,168,170,172,174,176,178,180,182,184,186,188,190,192,194,196,198,200],"tree_info":[0,1,0,1,0,1,0,1,0,1,0,1,0,1,0,1,0,1,0,1,0,1,0,1,0,1,0,1,0,1,0,1,0,1,0,1,0,1,0,1,0,1,0,1,0,1,0,1,0,1,0,1,0,1,0,1,0,1,0,1,0,1,0,1,0,1,0,1,0,1,0,1,0,1,0,1,0,1,0,1,0,1,0,1,0,1,0,1,0,1,0,1,0,1,0,1,0,1,0,1,0,1,0,1,0,1,0,1,0,1,0,1,0,1,0,1,0,1,0,1,0,1,0,1,0,1,0,1,0,1,0,1,0,1,0,1,0,1,0,1,0,1,0,1,0,1,0,1,0,1,0,1,0,1,0,1,0,1,0,1,0,1,0,1,0,1,0,1,0,1,0,1,0,1,0,1,0,1,0,1,0,1,0,1,0,1,0,1,0,1,0,1,0,1,0,1,0,1,0,1],"trees":[{"base_weights":[1.0245315E0,9.5418864E-1,1.3053888E0,9.463019E-1,1.0738522E0,1.2144922E0,4.3279737E-1,9.7228336E-1,8.6394215E-1,3.981189E-1,2.9593387E-1,4.0843484E-1,1.1627259E0,9.5907146E-1,1.2792008E0,7.719704E-1,9.4202846E-1,3.2751673E-1,3.6980617E-1,9.6740204E-1,8.385563E-1,1.0049179E0,1.348774E0,7.418507E-1,2.5754783E-1,1.240854E0,8.9120585E-1,2.886103E-1,3.4306854E-1,2.3725505E-1,3.0126286E-1,1.3328885E-1,3.163262E-1,1.535914E-1,4.085043E-1,2.0884232E-1,2.3695554E-1,2.047569E-1,3.845676E-1,2.46746E-1,2.7807838E-1],"categories":[],"categories_nodes":[],"categories_segments":[],"categories_sizes":[],"default_left":[0,0,0,0,0,0,0,0,0,0,0,0,0,0,0,0,0,0,0,0,0,0,0,0,0,0,0,0,0,0,0,0,0,0,0,0,0,0,0,0,0],"id":0,"left_children":[1,3,5,7,9,11,-1,13,15,-1,-1,-1,17,19,21,23,25,-1,-1,27,29,31,33,35,-1,37,39,-1,-1,-1,-1,-1,-1,-1,-1,-1,-1,-1,-1,-1,-1],"loss_changes":[1.0111182E2,2.897461E0,1.1161865E1,7.503418E0,4.2018127E0,3.2021484E0,0E0,1.0759766E1,6.052368E0,0E0,0E0,0E0,9.9890137E-1,2.0378418E0,9.154358E-1,5.071411E-1,6.578827E0,0E0,0E0,1.4038086E0,7.152405E-1,3.0858994E-1,2.9652405E-1,1.8080139E-1,0E0,7.5188446E-1,3.0789185E-1,0E0,0E0,0E0,0E0,0E0,0E0,0E0,0E0,0E0,0E0,0E0,0E0,0E0,0E0],"parents":[2147483647,0,0,1,1,2,2,3,3,4,4,5,5,7,7,8,8,12,12,13,13,14,14,15,15,16,16,19,19,20,20,21,21,22,22,23,23,25,25,26,26],"right_children":[2,4,6,8,10,12,-1,14,16,-1,-1,-1,18,20,22,24,26,-1,-1,28,30,32,34,36,-1,38,40,-1,-1,-1,-1,-1,-1,-1,-1,-1,-1,-1,-1,-1,-1],"split_conditions":[4.1008912E-5,3.2629214E-5,4.9701783E-5,1.1060761E-6,1.7050031E-6,2.2609981E-6,4.3279737E-1,1.2728226E-5,2.219435E-5,3.981189E-1,2.9593387E-1,4.0843484E-1,5.0489874E-5,4.3191395E-7,1.38654195E-5,3.3353255E-5,9.3712345E-7,3.2751673E-1,3.6980617E-1,7.985087E-6,2.5176005E-5,1.5701356E-4,3.0847415E-5,5.0946128E-5,2.5754783E-1,1.7342318E-5,3.067062E-5,2.886103E-1,3.4306854E-1,2.3725505E-1,3.0126286E-1,1.3328885E-1,3.163262E-1,1.535914E-1,4.085043E-1,2.0884232E-1,2.3695554E-1,2.047569E-1,3.845676E-1,2.46746E-1,2.7807838E-1],"split_indices":[49,50,20,2,1,1,0,31,49,0,0,0,38,1,39,81,1,0,0,20,69,575,109,144,0,46,62,0,0,0,0,0,0,0,0,0,0,0,0,0,0],"split_type":[0,0,0,0,0,0,0,0,0,0,0,0,0,0,0,0,0,0,0,0,0,0,0,0,0,0,0,0,0,0,0,0,0,0,0,0,0,0,0,0,0],"sum_hessian":[5.18E3,4.146E3,1.034E3,3.898E3,2.48E2,6.28E2,4.06E2,2.955E3,9.43E2,6E1,1.88E2,1.57E2,4.71E2,2.837E3,1.18E2,4.38E2,5.05E2,2.42E2,2.29E2,2.647E3,1.9E2,2.7E1,9.1E1,3.32E2,1.06E2,7E1,4.35E2,2.575E3,7.2E1,1.52E2,3.8E1,3E0,2.4E1,2E0,8.9E1,1.78E2,1.54E2,6E0,6.4E1,1.57E2,2.78E2],"tree_param":{"num_deleted":"0","num_feature":"1382","num_nodes":"41","size_leaf_vector":"1"}},{"base_weights":[-1.0245315E0,1.4198636E-1,-2.2862463E0,2.1943876E-1,-6.883821E-1,-1.8581055E0,-2.7626839E0,2.6841065E-1,-1.5741727E-1,5.8684196E-2,-8.9095074E-1,-1.3379883E0,-1.9888433E0,-2.537476E0,-2.8808098E0,3.3073032E-1,9.581659E-2,1.2341388E-1,-6.4465785E-1,4.0855587E-1,-4.0517774E-1,9.646435E-2,-9.9389297E-1,-1.486905E0,-1.0660104E0,-2.137071E0,-1.7612245E0,-8.246055E-1,-2.330183E0,-2.9223816E0,-2.5888886E0,-7.7765256E-2,3.5423982E-1,3.6352763E-1,-6.404361E-2,-7.645373E-1,2.2616024E-1,-4.0500462E-1,-1.4266268E0,6.7664045E-1,-3.7974626E-1,7.771808E-2,-6.8666947E-1,4.9264678E-1,-1.7894585E-1,2.3061495E-1,-1.0094225E0,-1.2583234E0,-1.8647838E0,2.0061494E-1,-1.0907881E0,-1.9430256E0,-2.4360812E0,-1.4408422E0,-2.0107965E0,-6.304655E-1,-2.5107186E0,-8.3326215E-1,-3.022824E0,-6.292526E-1,-8.702657E-1,-2.9567698E-1,5.0926574E-2,1.13537766E-1,-8.673769E-3,-1.4683165E-1,1.3435496E-1,1.04220435E-2,-1.8953368E-1,-1.7205968E-2,-5.189239E-1,1.00926705E-1,-9.524264E-2,1.0208305E-1,-2.0145734E-1,-7.514239E-1,-2.506072E-1,-5.101612E-2,2.6227266E-1,-1.2513435E-2,-1.4564179E-1,-3.323156E-2,1.4748658E-1,-5.1016122E-2,-2.6289314E-1,2.3435822E-1,5.2482735E-2,-4.3246242E-1,-2.8060982E-1,-2.9456502E-1,-4.0813679E-1,-6.158176E-1,-3.58847E-1,-4.7101614E-1,-3.159877E-1,-6.4128685E-1,-5.004746E-1,-7.50631E-1,-5.17988E-1,-3.6370835E-1,-4.6177194E-1,-6.8035185E-1,-5.7065976E-1,-2.1938507E-1,-7.5597394E-1,-2.1938507E-1,-9.080856E-1],"categories":[],"categories_nodes":[],"categories_segments":[],"categories_sizes":[],"default_left":[0,0,0,0,0,0,0,0,0,0,0,0,0,0,0,0,0,0,0,0,0,0,0,0,0,0,0,0,0,0,0,0,0,0,0,0,0,0,0,0,0,0,0,0,0,0,0,0,0,0,0,0,0,0,0,0,0,0,0,0,0,0,0,0,0,0,0,0,0,0,0,0,0,0,0,0,0,0,0,0,0,0,0,0,0,0,0,0,0,0,0,0,0,0,0,0,0,0,0,0,0,0,0,0,0,0,0],"id":1,"left_children":[1,3,5,7,9,11,13,15,17,19,21,23,25,27,29,31,33,35,37,39,41,43,45,47,49,51,53,-1,55,57,59,61,63,65,67,69,71,73,75,77,79,81,83,85,-1,-1,87,89,91,-1,93,95,97,99,101,-1,103,-1,105,-1,-1,-1,-1,-1,-1,-1,-1,-1,-1,-1,-1,-1,-1,-1,-1,-1,-1,-1,-1,-1,-1,-1,-1,-1,-1,-1,-1,-1,-1,-1,-1,-1,-1,-1,-1,-1,-1,-1,-1,-1,-1,-1,-1,-1,-1,-1,-1],"loss_changes":[7.625786E3,1.7334877E2,5.0257812E2,4.5516243E1,3.4858696E1,8.668994E1,2.3975586E1,2.3427155E1,3.893994E1,8.280145E0,1.8493927E1,9.228973E0,3.1594727E1,1.1677002E1,1.7060547E0,1.5412415E1,2.484516E1,1.6686216E1,1.891196E1,6.38557E0,3.043853E0,5.235483E0,5.2650757E0,1.2337433E1,4.9417343E0,3.1820068E1,3.0605469E1,0E0,3.5980225E0,1.2202148E0,9.859436E0,1.9941368E1,1.4069702E1,1.5826712E1,2.0436169E1,1.2869822E1,9.877417E0,1.6317715E1,1.3206661E1,3.8294487E0,2.6566386E-1,7.566082E-1,1.2225814E0,9.6340895E-1,0E0,0E0,3.8678436E0,1.7416229E0,5.335724E0,0E0,8.9416504E-2,1.7127075E1,7.1087646E0,2.3380127E0,2.1900635E0,0E0,3.8757324E-2,0E0,1.3713379E0,0E0,0E0,0E0,0E0,0E0,0E0,0E0,0E0,0E0,0E0,0E0,0E0,0E0,0E0,0E0,0E0,0E0,0E0,0E0,0E0,0E0,0E0,0E0,0E0,0E0,0E0,0E0,0E0,0E0,0E0,0E0,0E0,0E0,0E0,0E0,0E0,0E0,0E0,0E0,0E0,0E0,0E0,0E0,0E0,0E0,0E0,0E0,0E0],"parents":[2147483647,0,0,1,1,2,2,3,3,4,4,5,5,6,6,7,7,8,8,9,9,10,10,11,11,12,12,13,13,14,14,15,15,16,16,17,17,18,18,19,19,20,20,21,21,22,22,23,23,24,24,25,25,26,26,28,28,29,29,30,30,31,31,32,32,33,33,34,34,35,35,36,36,37,37,38,38,39,39,40,40,41,41,42,42,43,43,46,46,47,47,48,48,50,50,51,51,52,52,53,53,54,54,56,56,58,58],"right_children":[2,4,6,8,10,12,14,16,18,20,22,24,26,28,30,32,34,36,38,40,42,44,46,48,50,52,54,-1,56,58,60,62,64,66,68,70,72,74,76,78,80,82,84,86,-1,-1,88,90,92,-1,94,96,98,100,102,-1,104,-1,106,-1,-1,-1,-1,-1,-1,-1,-1,-1,-1,-1,-1,-1,-1,-1,-1,-1,-1,-1,-1,-1,-1,-1,-1,-1,-1,-1,-1,-1,-1,-1,-1,-1,-1,-1,-1,-1,-1,-1,-1,-1,-1,-1,-1,-1,-1,-1,-1],"split_conditions":[4.3191395E-7,1.5601487E-6,2.0694408E-6,2.2083905E-6,2.6447979E-6,1.1060761E-6,5.050125E-6,2.4060766E-6,3.469323E-7,2.5278381E-5,1.614083E-6,1.7641758E-5,4.1636828E-5,5.6762976E-5,7.709595E-6,3.3552307E-4,6.2628214E-7,1.11229725E-4,3.820995E-4,1.4530384E-4,1.792857E-6,5.9383824E-6,2.7557542E-5,4.112475E-6,8.9471484E-7,8.165895E-6,1.377015E-6,-8.246055E-1,2.4531903E-6,8.775758E-6,2.1463307E-4,3.597998E-4,3.460319E-4,1.2669148E-4,3.6282586E-7,1.2603633E-5,3.0665554E-4,2.5686468E-6,3.2652385E-4,2.734479E-4,1.5700602E-6,4.9550545E-6,9.885046E-7,3.8471203E-6,-1.7894585E-1,2.3061495E-1,4.663221E-5,1.1827852E-6,3.7998316E-4,2.0061494E-1,1.1999892E-4,2.599767E-5,1.8968523E-5,8.352393E-7,5.402163E-5,-6.304655E-1,2.1267394E-4,-8.3326215E-1,1.9753833E-4,-6.292526E-1,-8.702657E-1,-2.9567698E-1,5.0926574E-2,1.13537766E-1,-8.673769E-3,-1.4683165E-1,1.3435496E-1,1.04220435E-2,-1.8953368E-1,-1.7205968E-2,-5.189239E-1,1.00926705E-1,-9.524264E-2,1.0208305E-1,-2.0145734E-1,-7.514239E-1,-2.506072E-1,-5.101612E-2,2.6227266E-1,-1.2513435E-2,-1.4564179E-1,-3.323156E-2,1.4748658E-1,-5.1016122E-2,-2.6289314E-1,2.3435822E-1,5.2482735E-2,-4.3246242E-1,-2.8060982E-1,-2.9456502E-1,-4.0813679E-1,-6.158176E-1,-3.58847E-1,-4.7101614E-1,-3.159877E-1,-6.4128685E-1,-5.004746E-1,-7.50631E-1,-5.17988E-1,-3.6370835E-1,-4.6177194E-1,-6.8035185E-1,-5.7065976E-1,-2.1938507E-1,-7.5597394E-1,-2.1938507E-1,-9.080856E-1],"split_indices":[1,4,1,6,8,2,2,7,1,78,5,46,90,95,2,1232,2,396,1085,429,6,17,105,9,3,8,1,0,1,3,129,1195,916,455,1,39,878,8,1105,957,5,15,3,13,0,0,159,3,1072,0,440,67,26,1,116,0,728,0,639,0,0,0,0,0,0,0,0,0,0,0,0,0,0,0,0,0,0,0,0,0,0,0,0,0,0,0,0,0,0,0,0,0,0,0,0,0,0,0,0,0,0,0,0,0,0,0,0],"split_type":[0,0,0,0,0,0,0,0,0,0,0,0,0,0,0,0,0,0,0,0,0,0,0,0,0,0,0,0,0,0,0,0,0,0,0,0,0,0,0,0,0,0,0,0,0,0,0,0,0,0,0,0,0,0,0,0,0,0,0,0,0,0,0,0,0,0,0,0,0,0,0,0,0,0,0,0,0,0,0,0,0,0,0,0,0,0,0,0,0,0,0,0,0,0,0,0,0,0,0,0,0,0,0,0,0,0,0],"sum_hessian":[5.18E3,2.692E3,2.488E3,2.463E3,2.29E2,1.313E3,1.175E3,2.18E3,2.83E2,4.9E1,1.8E2,2.66E2,1.047E3,4.12E2,7.63E2,1.601E3,5.79E2,1.8E2,1.03E2,2.8E1,2.1E1,1.7E1,1.63E2,1.69E2,9.7E1,6.29E2,4.18E2,1.98E2,2.14E2,6.6E2,1.03E2,8.7E1,1.514E3,2.16E2,3.63E2,1.8E1,1.62E2,8E1,2.3E1,2.1E1,7E0,8E0,1.3E1,1.1E1,6E0,1E0,1.62E2,1.08E2,6.1E1,1E0,9.6E1,3.86E2,2.43E2,1.86E2,2.32E2,1E2,1.14E2,2.82E2,3.78E2,4.3E1,6E1,1.8E1,6.9E1,1.424E3,9E1,1.9E1,1.97E2,3.1E2,5.3E1,1.1E1,7E0,1.35E2,2.7E1,2.1E1,5.9E1,7E0,1.6E1,4E0,1.7E1,2E0,5E0,6E0,2E0,4E0,9E0,5E0,6E0,2.1E1,1.41E2,3.2E1,7.6E1,4.6E1,1.5E1,4E0,9.2E1,2.22E2,1.64E2,2.2E2,2.3E1,6E1,1.26E2,6.3E1,1.69E2,1E0,1.13E2,1E0,3.77E2],"tree_param":{"num_deleted":"0","num_feature":"1382","num_nodes":"107","size_leaf_vector":"1"}},{"base_weights":[7.183749E-1,6.705524E-1,9.245072E-1,6.6253024E-1,7.5347143E-1,8.6083585E-1,3.0560848E-1,6.826938E-1,6.007757E-1,2.9095408E-1,2.098722E-1,2.834396E-1,8.176316E-1,6.731964E-1,9.811656E-1,5.345586E-1,6.528657E-1,2.3027912E-1,2.5703412E-1,5.8271503E-1,6.805173E-1,9.751522E-2,1.0088693E0,4.5725635E-1,5.5304843E-1,8.0205244E-1,6.018745E-1,1.4740741E-1,1.9271941E-1,1.9433434E-1,2.1176645E-1,8.327141E-2,3.0704978E-1,1.2097365E-1,1.5359649E-1,1.8270472E-1,1.5303512E-1,1.9328623E-1,2.7509987E-1,1.6074944E-1,1.9030897E-1],"categories":[],"categories_nodes":[],"categories_segments":[],"categories_sizes":[],"default_left":[0,0,0,0,0,0,0,0,0,0,0,0,0,0,0,0,0,0,0,0,0,0,0,0,0,0,0,0,0,0,0,0,0,0,0,0,0,0,0,0,0],"id":2,"left_children":[1,3,5,7,9,11,-1,13,15,-1,-1,-1,17,19,21,23,25,-1,-1,27,29,-1,31,33,35,37,39,-1,-1,-1,-1,-1,-1,-1,-1,-1,-1,-1,-1,-1,-1],"loss_changes":[5.0453125E1,2.3006592E0,4.95813E0,4.378662E0,3.566513E0,1.3569031E0,0E0,7.5374756E0,2.9450684E0,0E0,0E0,0E0,1.1605835E-1,1.4621582E0,1.2534561E0,3.560028E-1,3.5490723E0,0E0,0E0,8.6753845E-1,1.6939697E0,0E0,6.0391235E-1,5.3682327E-2,5.038605E-1,1.8029556E0,5.162201E-1,0E0,0E0,0E0,0E0,0E0,0E0,0E0,0E0,0E0,0E0,0E0,0E0,0E0,0E0],"parents":[2147483647,0,0,1,1,2,2,3,3,4,4,5,5,7,7,8,8,12,12,13,13,14,14,15,15,16,16,19,19,20,20,22,22,23,23,24,24,25,25,26,26],"right_children":[2,4,6,8,10,12,-1,14,16,-1,-1,-1,18,20,22,24,26,-1,-1,28,30,-1,32,34,36,38,40,-1,-1,-1,-1,-1,-1,-1,-1,-1,-1,-1,-1,-1,-1],"split_conditions":[3.8430193E-5,3.9602608E-5,4.887592E-5,5.2801374E-7,1.377015E-6,2.5599732E-6,3.0560848E-1,9.913736E-6,2.6740217E-5,2.9095408E-1,2.098722E-1,2.834396E-1,6.264882E-5,3.1406664E-5,2.3440893E-5,1.5465519E-5,1.9134413E-6,2.3027912E-1,2.5703412E-1,2.7038966E-4,2.1051794E-5,9.751522E-2,1.4798848E-5,1.1232533E-5,6.496808E-6,1.7575176E-5,3.6355148E-5,1.4740741E-1,1.9271941E-1,1.9433434E-1,2.1176645E-1,8.327141E-2,3.0704978E-1,1.2097365E-1,1.5359649E-1,1.8270472E-1,1.5303512E-1,1.9328623E-1,2.7509987E-1,1.6074944E-1,1.9030897E-1],"split_indices":[38,71,19,1,1,1,0,23,65,0,0,0,60,113,75,44,2,0,0,862,66,0,45,29,11,39,84,0,0,0,0,0,0,0,0,0,0,0,0,0,0],"split_type":[0,0,0,0,0,0,0,0,0,0,0,0,0,0,0,0,0,0,0,0,0,0,0,0,0,0,0,0,0,0,0,0,0,0,0,0,0,0,0,0,0],"sum_hessian":[5.18E3,4.208E3,9.72E2,3.845E3,3.63E2,5.86E2,3.86E2,2.891E3,9.54E2,6.9E1,2.94E2,1.92E2,3.94E2,2.805E3,8.6E1,4.25E2,5.29E2,1.82E2,2.12E2,2.16E2,2.589E3,4E0,8.2E1,8.7E1,3.38E2,1.31E2,3.98E2,8.9E1,1.27E2,1.142E3,1.447E3,2E0,8E1,4.8E1,3.9E1,1.41E2,1.97E2,5.8E1,7.3E1,1.37E2,2.61E2],"tree_param":{"num_deleted":"0","num_feature":"1382","num_nodes":"41","size_leaf_vector":"1"}},{"base_weights":[-7.200915E-1,8.749457E-2,-1.6210358E0,1.5773068E-1,-4.8264617E-1,-1.297846E0,-1.9166355E0,2.1799447E-1,-8.058284E-2,1.4173722E-2,-7.0246154E-1,-1.0940721E0,-1.4291885E0,-1.7778237E0,-2.0478003E0,3.5586563E-1,1.4581119E-1,3.098384E-2,-5.471403E-1,2.3515782E-1,-4.577315E-1,-1.6419197E-2,-7.673686E-1,-1.373079E0,-9.250233E-1,-1.6811669E0,-1.2239877E0,-1.9378784E0,-1.6738262E0,-2.0928183E0,-1.8358145E0,-1.4402697E0,3.688744E-1,2.2344483E-1,-8.134541E-2,-1.3406639E0,6.616505E-2,1.5337111E-1,-6.22233E-1,9.504335E-1,8.5098736E-2,-8.3962363E-1,3.868984E-2,-4.488091E-1,7.889362E-1,-6.165037E-1,-7.427394E-1,-9.758532E-1,-1.5092721E0,-1.2758427E0,-8.5078084E-1,-2.7677733E-1,-1.721211E0,-1.0389984E0,-1.356319E0,-1.9735214E0,-4.252648E-1,-1.4187881E0,-1.7747589E0,-2.0109816E0,-6.593316E-1,-3.2365543E-1,-5.9746736E-1,-6.049139E-1,-1.1522098E-1,1.1412876E-1,-4.8896506E-1,8.311547E-2,-2.6056169E-2,8.6377606E-2,-7.033693E-2,5.132223E-2,-6.038972E-1,2.5294272E-2,-5.1053166E-1,2.663149E-1,-8.644945E-2,-1.9842798E-1,2.0477903E-1,1.0477903E-1,3.1356594E-1,-1.0981014E-1,8.540452E-2,-9.229535E-2,-3.3054665E-1,-8.269778E-2,1.5112956E-1,2.0376394E-2,-1.8318611E-1,3.0461686E-2,2.659738E-1,-6.7874506E-2,-2.3300076E-1,-3.5588244E-1,-2.1743137E-1,-5.105046E-1,-3.4004107E-1,-5.8923995E-1,-2.833225E-1,-4.0225953E-1,-2.4384719E-1,-5.3039724E-1,-3.334581E-1,-5.8467805E-1,-2.9629505E-1,-5.045984E-1,-3.610344E-1,-5.9838504E-1,-3.4717768E-1,-5.330825E-1,-4.002023E-1,-4.9643323E-1,-5.960721E-1,-5.6260574E-1,-6.3720334E-1],"categories":[],"categories_nodes":[],"categories_segments":[],"categories_sizes":[],"default_left":[0,0,0,0,0,0,0,0,0,0,0,0,0,0,0,0,0,0,0,0,0,0,0,0,0,0,0,0,0,0,0,0,0,0,0,0,0,0,0,0,0,0,0,0,0,0,0,0,0,0,0,0,0,0,0,0,0,0,0,0,0,0,0,0,0,0,0,0,0,0,0,0,0,0,0,0,0,0,0,0,0,0,0,0,0,0,0,0,0,0,0,0,0,0,0,0,0,0,0,0,0,0,0,0,0,0,0,0,0,0,0,0,0,0,0],"id":3,"left_children":[1,3,5,7,9,11,13,15,17,19,21,23,25,27,29,31,33,35,37,39,41,43,45,47,49,51,53,55,57,59,61,63,65,67,69,71,73,75,77,79,81,83,85,87,89,-1,91,93,95,97,99,-1,101,103,105,107,-1,109,111,113,-1,-1,-1,-1,-1,-1,-1,-1,-1,-1,-1,-1,-1,-1,-1,-1,-1,-1,-1,-1,-1,-1,-1,-1,-1,-1,-1,-1,-1,-1,-1,-1,-1,-1,-1,-1,-1,-1,-1,-1,-1,-1,-1,-1,-1,-1,-1,-1,-1,-1,-1,-1,-1,-1,-1],"loss_changes":[3.7697866E3,1.0951767E2,2.3147656E2,3.4973877E1,3.2772552E1,2.983081E1,1.9610352E1,1.9284843E1,2.5626667E1,9.806008E0,9.249428E0,2.0614746E1,3.4653687E1,7.209717E0,2.361084E0,1.6116074E1,2.2538067E1,1.9294687E1,5.092745E0,6.7884707E0,5.7198677E0,6.9704056E0,4.4992676E0,7.886383E0,6.519882E0,8.010986E0,8.260376E0,1.6719971E0,7.4697266E0,1.2402344E-1,1.2234253E1,2.2680035E0,1.5932182E1,1.5859726E1,1.8499355E1,1.0508188E1,1.26251745E1,3.4982064E0,4.8496017E0,2.6175213E-1,4.966276E0,2.0322227E0,2.1856115E0,1.1284404E0,3.7981462E-1,0E0,3.1188812E0,1.6233711E0,7.254303E0,9.323082E0,3.4490204E0,0E0,6.562561E0,5.97139E0,9.277283E0,1.5316162E0,0E0,1.1214447E0,3.6864014E0,7.537842E-1,0E0,0E0,0E0,0E0,0E0,0E0,0E0,0E0,0E0,0E0,0E0,0E0,0E0,0E0,0E0,0E0,0E0,0E0,0E0,0E0,0E0,0E0,0E0,0E0,0E0,0E0,0E0,0E0,0E0,0E0,0E0,0E0,0E0,0E0,0E0,0E0,0E0,0E0,0E0,0E0,0E0,0E0,0E0,0E0,0E0,0E0,0E0,0E0,0E0,0E0,0E0,0E0,0E0,0E0,0E0],"parents":[2147483647,0,0,1,1,2,2,3,3,4,4,5,5,6,6,7,7,8,8,9,9,10,10,11,11,12,12,13,13,14,14,15,15,16,16,17,17,18,18,19,19,20,20,21,21,22,22,23,23,24,24,25,25,26,26,27,27,28,28,29,29,30,30,31,31,32,32,33,33,34,34,35,35,36,36,37,37,38,38,39,39,40,40,41,41,42,42,43,43,44,44,46,46,47,47,48,48,49,49,50,50,52,52,53,53,54,54,55,55,57,57,58,58,59,59],"right_children":[2,4,6,8,10,12,14,16,18,20,22,24,26,28,30,32,34,36,38,40,42,44,46,48,50,52,54,56,58,60,62,64,66,68,70,72,74,76,78,80,82,84,86,88,90,-1,92,94,96,98,100,-1,102,104,106,108,-1,110,112,114,-1,-1,-1,-1,-1,-1,-1,-1,-1,-1,-1,-1,-1,-1,-1,-1,-1,-1,-1,-1,-1,-1,-1,-1,-1,-1,-1,-1,-1,-1,-1,-1,-1,-1,-1,-1,-1,-1,-1,-1,-1,-1,-1,-1,-1,-1,-1,-1,-1,-1,-1,-1,-1,-1,-1],"split_conditions":[8.7188937E-7,1.1378802E-6,1.8734332E-6,1.4220682E-6,2.0060945E-6,1.4981864E-6,5.3207045E-6,4.031808E-6,3.6362476E-7,5.719425E-5,6.2628214E-7,3.6427955E-5,3.845917E-5,1.0694753E-4,2.1814245E-5,1.2571276E-4,3.4453728E-6,2.9730162E-4,2.306183E-4,1.8378864E-4,2.2662547E-4,3.2030087E-4,1.4240794E-4,5.7273755E-6,2.1458769E-5,5.440122E-6,2.4850076E-6,2.2979784E-4,1.0836272E-5,3.214147E-6,1.5863511E-4,1.0452885E-6,4.5570242E-4,2.493291E-6,1.0009592E-4,5.9752183E-6,4.040304E-4,3.689482E-6,3.2057756E-4,8.571871E-6,2.1476984E-4,3.8073864E-4,4.751114E-5,1.8547153E-5,2.855075E-7,-6.165037E-1,2.0588745E-6,8.0200734E-5,5.9517628E-5,2.4014915E-4,2.055655E-5,-2.7677733E-1,1.2432665E-4,1.2483262E-5,5.750141E-5,5.049699E-4,-4.252648E-1,3.1520874E-5,2.839811E-6,1.8304258E-5,-6.593316E-1,-3.2365543E-1,-5.9746736E-1,-6.049139E-1,-1.1522098E-1,1.1412876E-1,-4.8896506E-1,8.311547E-2,-2.6056169E-2,8.6377606E-2,-7.033693E-2,5.132223E-2,-6.038972E-1,2.5294272E-2,-5.1053166E-1,2.663149E-1,-8.644945E-2,-1.9842798E-1,2.0477903E-1,1.0477903E-1,3.1356594E-1,-1.0981014E-1,8.540452E-2,-9.229535E-2,-3.3054665E-1,-8.269778E-2,1.5112956E-1,2.0376394E-2,-1.8318611E-1,3.0461686E-2,2.659738E-1,-6.7874506E-2,-2.3300076E-1,-3.5588244E-1,-2.1743137E-1,-5.105046E-1,-3.4004107E-1,-5.8923995E-1,-2.833225E-1,-4.0225953E-1,-2.4384719E-1,-5.3039724E-1,-3.334581E-1,-5.8467805E-1,-2.9629505E-1,-5.045984E-1,-3.610344E-1,-5.9838504E-1,-3.4717768E-1,-5.330825E-1,-4.002023E-1,-4.9643323E-1,-5.960721E-1,-5.6260574E-1,-6.3720334E-1],"split_indices":[2,3,1,4,6,2,2,13,1,170,2,108,90,245,4,504,10,1146,790,644,723,966,550,15,65,8,2,555,4,1,100,3,1100,7,326,19,982,12,831,30,712,1247,152,64,1,0,6,246,170,810,66,0,312,29,129,1248,0,55,1,5,0,0,0,0,0,0,0,0,0,0,0,0,0,0,0,0,0,0,0,0,0,0,0,0,0,0,0,0,0,0,0,0,0,0,0,0,0,0,0,0,0,0,0,0,0,0,0,0,0,0,0,0,0,0,0],"split_type":[0,0,0,0,0,0,0,0,0,0,0,0,0,0,0,0,0,0,0,0,0,0,0,0,0,0,0,0,0,0,0,0,0,0,0,0,0,0,0,0,0,0,0,0,0,0,0,0,0,0,0,0,0,0,0,0,0,0,0,0,0,0,0,0,0,0,0,0,0,0,0,0,0,0,0,0,0,0,0,0,0,0,0,0,0,0,0,0,0,0,0,0,0,0,0,0,0,0,0,0,0,0,0,0,0,0,0,0,0,0,0,0,0,0,0],"sum_hessian":[5.18E3,2.732E3,2.448E3,2.433E3,2.99E2,1.172E3,1.276E3,1.942E3,4.91E2,9.2E1,2.07E2,4.63E2,7.09E2,6.27E2,6.49E2,6.66E2,1.276E3,3.97E2,9.4E1,6.3E1,2.9E1,1.8E1,1.89E2,1.72E2,2.91E2,3.15E2,3.94E2,2.4E2,3.87E2,5.28E2,1.21E2,4E0,6.62E2,9.51E2,3.25E2,9E0,3.88E2,9E0,8.5E1,1E1,5.3E1,1.6E1,1.3E1,1.2E1,6E0,2E0,1.87E2,4.6E1,1.26E2,4.8E1,2.43E2,1.7E1,2.98E2,1.68E2,2.26E2,2.22E2,1.8E1,1.14E2,2.73E2,3.08E2,2.2E2,2.2E1,9.9E1,2E0,2E0,6.59E2,3E0,8.11E2,1.4E2,9.5E1,2.3E2,3E0,6E0,3.85E2,3E0,3E0,6E0,8.3E1,2E0,2E0,8E0,1.6E1,3.7E1,6E0,1E1,8E0,5E0,3E0,9E0,1E0,5E0,1.2E1,1.75E2,2.3E1,2.3E1,8.1E1,4.5E1,1.4E1,3.4E1,1.5E1,2.28E2,2.75E2,2.3E1,7E0,1.61E2,6.9E1,1.57E2,2.15E2,7E0,1.8E1,9.6E1,1.8E2,9.3E1,1.48E2,1.6E2],"tree_param":{"num_deleted":"0","num_feature":"1382","num_nodes":"115","size_leaf_vector":"1"}},{"base_weights":[5.03681E-1,4.6762076E-1,6.4097935E-1,4.3855876E-1,4.8155192E-1,5.822807E-1,6.961582E-1,4.6052283E-1,3.9340106E-1,3.8134584E-1,4.875579E-1,2.1137145E-1,5.544521E-1,2.0007549E-1,2.3212923E-1,3.6251003E-1,4.7476E-1,3.5942698E-1,4.806812E-1,2.5265664E-1,4.353915E-1,5.0470865E-1,4.3891606E-1,1.55022E-1,1.7212668E-1,3.195287E-1,1.9769298E-1,4.9863067E-1,4.0582603E-1,2.823918E-1,4.0255705E-1,3.8406083E-1,5.8412445E-1,2.040897E-1,5.2184075E-1,3.4982598E-1,5.6455874E-1,4.9023023E-1,6.7228526E-1,3.6454865E-1,4.720187E-1,8.447619E-2,1.95544E-1,1.3207969E-1,1.6413094E-1,9.878184E-2,1.4332232E-1,1.3483977E-1,7.010811E-2,7.6639205E-2,1.3093866E-1,1.5519628E-1,8.356176E-2,9.519248E-2,1.9446725E-1,1.2723038E-1,4.9502615E-2,5.843723E-2,1.8411079E-1,5.8600962E-2,1.24969244E-1,1.8515301E-1,6.1735366E-2,1.5125974E-1,1.1570622E-1,1.145156E-1,2.0981693E-1,1.02674715E-1,1.21580936E-1,1.920576E-1,1.3379207E-1],"categories":[],"categories_nodes":[],"categories_segments":[],"categories_sizes":[],"default_left":[0,0,0,0,0,0,0,0,0,0,0,0,0,0,0,0,0,0,0,0,0,0,0,0,0,0,0,0,0,0,0,0,0,0,0,0,0,0,0,0,0,0,0,0,0,0,0,0,0,0,0,0,0,0,0,0,0,0,0,0,0,0,0,0,0,0,0,0,0,0,0],"id":4,"left_children":[1,3,5,7,9,11,13,15,17,19,21,-1,23,-1,-1,25,27,29,31,33,35,37,39,-1,-1,41,-1,43,45,47,49,51,53,55,57,59,61,63,65,67,69,-1,-1,-1,-1,-1,-1,-1,-1,-1,-1,-1,-1,-1,-1,-1,-1,-1,-1,-1,-1,-1,-1,-1,-1,-1,-1,-1,-1,-1,-1],"loss_changes":[2.535144E1,1.4515991E0,3.076477E0,1.1499023E0,1.4787598E0,1.402832E0,7.297363E-1,1.0795746E0,1.1497345E0,1.0097656E0,1.9525146E0,0E0,1.9454956E-2,0E0,0E0,1.2930565E0,1.0811462E0,9.6614456E-1,9.95018E-1,5.4717016E-1,1.0403557E0,4.3287964E0,1.519165E0,0E0,0E0,1.1402292E0,0E0,1.385849E0,9.7678757E-1,8.7130547E-1,9.1586685E-1,7.8398514E-1,7.691746E-1,3.083434E-1,9.076023E-2,6.403532E-1,6.8474483E-1,2.3917847E0,9.1438293E-1,5.7437897E-2,1.7818832E0,0E0,0E0,0E0,0E0,0E0,0E0,0E0,0E0,0E0,0E0,0E0,0E0,0E0,0E0,0E0,0E0,0E0,0E0,0E0,0E0,0E0,0E0,0E0,0E0,0E0,0E0,0E0,0E0,0E0,0E0],"parents":[2147483647,0,0,1,1,2,2,3,3,4,4,5,5,6,6,7,7,8,8,9,9,10,10,12,12,15,15,16,16,17,17,18,18,19,19,20,20,21,21,22,22,25,25,27,27,28,28,29,29,30,30,31,31,32,32,33,33,34,34,35,35,36,36,37,37,38,38,39,39,40,40],"right_children":[2,4,6,8,10,12,14,16,18,20,22,-1,24,-1,-1,26,28,30,32,34,36,38,40,-1,-1,42,-1,44,46,48,50,52,54,56,58,60,62,64,66,68,70,-1,-1,-1,-1,-1,-1,-1,-1,-1,-1,-1,-1,-1,-1,-1,-1,-1,-1,-1,-1,-1,-1,-1,-1,-1,-1,-1,-1,-1,-1],"split_conditions":[4.014655E-5,1.8662927E-4,4.0533334E-5,2.8461168E-4,1.420305E-4,3.436535E-6,2.072102E-5,2.6229818E-5,1.6496243E-4,1.7204028E-4,1.617858E-6,2.1137145E-1,4.317558E-5,2.0007549E-1,2.3212923E-1,4.711279E-4,4.0126753E-7,1.1183782E-4,3.88393E-4,1.2107028E-4,4.1774558E-4,2.296797E-5,2.7858961E-5,1.55022E-1,1.7212668E-1,2.1087033E-4,1.9769298E-1,3.7849655E-5,4.0086932E-5,3.2432625E-4,2.3596629E-5,4.258714E-4,3.8456425E-4,1.2319715E-4,1.819053E-5,2.5467254E-4,3.6687206E-4,4.6633406E-7,4.8949725E-5,3.3426666E-5,1.2700273E-6,8.447619E-2,1.95544E-1,1.3207969E-1,1.6413094E-1,9.878184E-2,1.4332232E-1,1.3483977E-1,7.010811E-2,7.6639205E-2,1.3093866E-1,1.5519628E-1,8.356176E-2,9.519248E-2,1.9446725E-1,1.2723038E-1,4.9502615E-2,5.843723E-2,1.8411079E-1,5.8600962E-2,1.24969244E-1,1.8515301E-1,6.1735366E-2,1.5125974E-1,1.1570622E-1,1.145156E-1,2.0981693E-1,1.02674715E-1,1.21580936E-1,1.920576E-1,1.3379207E-1],"split_indices":[52,598,20,841,512,2,4,91,476,575,2,0,41,0,0,1257,1,358,1191,345,1274,57,60,0,0,588,0,119,109,1124,78,1354,1367,447,56,834,1011,1,160,77,1,0,0,0,0,0,0,0,0,0,0,0,0,0,0,0,0,0,0,0,0,0,0,0,0,0,0,0,0,0,0],"split_type":[0,0,0,0,0,0,0,0,0,0,0,0,0,0,0,0,0,0,0,0,0,0,0,0,0,0,0,0,0,0,0,0,0,0,0,0,0,0,0,0,0,0,0,0,0,0,0,0,0,0,0,0,0,0,0,0,0,0,0,0,0,0,0,0,0,0,0,0,0,0,0],"sum_hessian":[5.18E3,4.106E3,1.074E3,1.341E3,2.765E3,5.26E2,5.48E2,8.96E2,4.45E2,1.6E2,2.605E3,9.3E1,4.33E2,4.05E2,1.43E2,1.17E2,7.79E2,3.24E2,1.21E2,4.9E1,1.11E2,1.919E3,6.86E2,1.56E2,2.77E2,1.04E2,1.3E1,5.74E2,2.05E2,1.19E2,2.05E2,6.5E1,5.6E1,4.3E1,6E0,6.9E1,4.2E1,1.77E3,1.49E2,2.15E2,4.71E2,9.5E1,9E0,2.65E2,3.09E2,1.02E2,1.03E2,2.5E1,9.4E1,4E1,1.65E2,2.7E1,3.8E1,1.2E1,4.4E1,5E0,3.8E1,2E0,4E0,2.2E1,4.7E1,3.6E1,6E0,1.558E3,2.12E2,1.4E1,1.35E2,1.45E2,7E1,6E1,4.11E2],"tree_param":{"num_deleted":"0","num_feature":"1382","num_nodes":"71","size_leaf_vector":"1"}},{"base_weights":[-5.068867E-1,6.598345E-2,-1.1351928E0,1.14034146E-1,-3.60073E-1,-8.832343E-1,-1.3276275E0,1.921316E-1,-7.989849E-3,9.2470996E-2,-4.685293E-1,-6.255899E-1,-9.351599E-1,-1.1919621E0,-1.4242331E0,-6.0783285E-1,2.0623629E-1,9.59621E-2,-2.5908527E-1,3.558647E-1,-3.7309158E-1,4.0976018E-1,-5.032773E-1,-7.962481E-1,-4.4430637E-1,-1.1461259E0,-8.059877E-1,-1.467849E0,-1.1080922E0,-1.3097613E0,-1.4648228E0,-5.958458E-1,-2.6694956E-1,3.0425397E-1,1.1162566E-1,1.3621615E-1,-4.4394222E-1,-2.904368E-2,-5.0424784E-1,6.610306E-1,-4.7834158E-2,-5.9301156E-1,2.3889028E-1,7.427337E-1,-5.764206E-2,-1.5233402E0,-4.7158518E-1,-7.180493E-1,-1.2642522E0,-9.0999264E-1,-4.0665027E-1,-1.0504678E0,-1.4343032E0,-5.615484E-1,-9.0333295E-1,-1.6693002E0,-1.2921455E0,-1.0143957E0,-1.3641226E0,-1.5131624E0,-1.1541761E0,-1.5080216E0,-1.2687429E0,2.378941E-1,-1.4281282E-1,1.2436425E-1,4.7184646E-2,3.6206063E-2,-6.509226E-1,-4.1494474E-1,4.5928836E-2,-4.5211545E-1,-1.09167E-2,8.956802E-3,-4.1955873E-1,-7.365877E-1,-1.3239157E-1,2.5407684E-1,2.58385E-2,-9.49065E-2,1.3572793E-1,-2.4217136E-1,-9.139763E-2,1.2607421E-1,1.294497E-2,2.4620013E-1,5.296005E-2,-6.392798E-1,-6.16311E-2,7.29619E-4,-1.5736407E-1,-3.0365226E-1,-1.8766575E-1,-7.5409845E-2,-4.000444E-1,-1.0607922E-2,-3.2335418E-1,-4.24814E-2,-1.2850286E-1,-3.8391528E-1,-2.544887E-1,-4.5774636E-1,-1.8958323E-1,-2.704741E-1,-1.5373275E-1,-3.2073653E-1,-2.191302E-1,-2.2283538E-1,-5.117013E-1,-4.546966E-1,-3.3134732E-1,-3.5959122E-1,-2.827231E-1,-3.711165E-1,-4.727067E-1,-3.1484124E-1,-4.7461537E-1,-2.531659E-1,-3.6087626E-1,-6.462393E-2,-4.5308256E-1,-3.1581932E-1,-4.787724E-1],"categories":[],"categories_nodes":[],"categories_segments":[],"categories_sizes":[],"default_left":[0,0,0,0,0,0,0,0,0,0,0,0,0,0,0,0,0,0,0,0,0,0,0,0,0,0,0,0,0,0,0,0,0,0,0,0,0,0,0,0,0,0,0,0,0,0,0,0,0,0,0,0,0,0,0,0,0,0,0,0,0,0,0,0,0,0,0,0,0,0,0,0,0,0,0,0,0,0,0,0,0,0,0,0,0,0,0,0,0,0,0,0,0,0,0,0,0,0,0,0,0,0,0,0,0,0,0,0,0,0,0,0,0,0,0,0,0,0,0,0,0,0,0],"id":5,"left_children":[1,3,5,7,9,11,13,15,17,19,21,23,25,27,29,31,33,35,37,39,41,43,45,47,49,51,53,55,57,59,61,-1,63,65,67,69,71,73,75,77,79,81,83,85,-1,87,89,91,93,95,97,99,101,103,105,107,109,111,113,115,117,119,121,-1,-1,-1,-1,-1,-1,-1,-1,-1,-1,-1,-1,-1,-1,-1,-1,-1,-1,-1,-1,-1,-1,-1,-1,-1,-1,-1,-1,-1,-1,-1,-1,-1,-1,-1,-1,-1,-1,-1,-1,-1,-1,-1,-1,-1,-1,-1,-1,-1,-1,-1,-1,-1,-1,-1,-1,-1,-1,-1,-1],"loss_changes":[1.8649127E3,5.5541485E1,1.18635254E2,2.3225567E1,1.35406685E1,1.37699585E1,1.6637695E1,1.6892262E1,2.4873833E1,6.754588E0,6.9813995E0,5.307785E0,2.3356812E1,1.1979065E1,1.854248E0,1.1685799E1,1.3514641E1,1.4708738E1,1.5720282E1,4.3434496E0,2.833405E0,1.9464611E0,6.1998024E0,2.495758E0,1.2257214E0,7.7556458E0,1.2722748E1,2.586029E0,9.53125E0,5.2789917E0,3.0928955E0,0E0,5.253222E0,1.1557396E1,1.5662459E1,1.6317966E1,2.0309017E1,1.1737782E1,1.5494984E1,2.0644522E0,2.2924137E0,6.806598E-1,1.9485974E-1,1.198802E-1,0E0,4.3667154E0,5.248165E0,1.5976906E0,5.062618E-1,8.4275484E-1,4.3380356E-1,1.07795105E1,4.983597E0,2.226307E0,1.05703125E1,7.212372E-1,1.5136261E0,3.3399048E0,1.2499084E0,1.3103943E0,9.5111084E-1,1.0699463E0,6.305832E0,0E0,0E0,0E0,0E0,0E0,0E0,0E0,0E0,0E0,0E0,0E0,0E0,0E0,0E0,0E0,0E0,0E0,0E0,0E0,0E0,0E0,0E0,0E0,0E0,0E0,0E0,0E0,0E0,0E0,0E0,0E0,0E0,0E0,0E0,0E0,0E0,0E0,0E0,0E0,0E0,0E0,0E0,0E0,0E0,0E0,0E0,0E0,0E0,0E0,0E0,0E0,0E0,0E0,0E0,0E0,0E0,0E0,0E0,0E0,0E0],"parents":[2147483647,0,0,1,1,2,2,3,3,4,4,5,5,6,6,7,7,8,8,9,9,10,10,11,11,12,12,13,13,14,14,15,15,16,16,17,17,18,18,19,19,20,20,21,21,22,22,23,23,24,24,25,25,26,26,27,27,28,28,29,29,30,30,32,32,33,33,34,34,35,35,36,36,37,37,38,38,39,39,40,40,41,41,42,42,43,43,45,45,46,46,47,47,48,48,49,49,50,50,51,51,52,52,53,53,54,54,55,55,56,56,57,57,58,58,59,59,60,60,61,61,62,62],"right_children":[2,4,6,8,10,12,14,16,18,20,22,24,26,28,30,32,34,36,38,40,42,44,46,48,50,52,54,56,58,60,62,-1,64,66,68,70,72,74,76,78,80,82,84,86,-1,88,90,92,94,96,98,100,102,104,106,108,110,112,114,116,118,120,122,-1,-1,-1,-1,-1,-1,-1,-1,-1,-1,-1,-1,-1,-1,-1,-1,-1,-1,-1,-1,-1,-1,-1,-1,-1,-1,-1,-1,-1,-1,-1,-1,-1,-1,-1,-1,-1,-1,-1,-1,-1,-1,-1,-1,-1,-1,-1,-1,-1,-1,-1,-1,-1,-1,-1,-1,-1,-1,-1,-1],"split_conditions":[1.81261E-6,3.0588787E-6,4.600808E-6,6.6570556E-7,1.2700092E-6,1.5447437E-6,2.5599732E-6,3.0929624E-4,1.0416662E-6,1.5205199E-4,3.4285866E-4,1.3909725E-5,2.9553548E-5,6.8922884E-5,1.281045E-5,3.0229377E-4,1.2198422E-5,3.38882E-4,1.7024356E-6,4.746801E-6,3.0830925E-4,3.4625003E-7,1.1054324E-4,4.6467526E-6,4.8616566E-5,7.913054E-6,1.617858E-6,1.1356692E-4,1.6267435E-4,4.9465456E-5,2.428971E-5,-5.958458E-1,2.2482022E-4,1.5620128E-4,3.1384922E-4,1.1295355E-4,1.6662882E-4,4.0422697E-4,1.6164024E-4,1.9924427E-4,3.5913818E-4,1.1399193E-4,1.1240127E-6,7.4220407E-7,-5.764206E-2,3.4001224E-7,3.6751057E-6,3.2762627E-4,2.8269915E-6,4.6633406E-7,2.6838858E-5,2.6636879E-5,5.136021E-5,1.4269738E-5,3.011493E-5,1.806028E-5,3.324585E-4,3.6533478E-5,2.0378953E-4,2.685743E-4,1.2357934E-5,1.9582719E-4,1.7865088E-4,2.378941E-1,-1.4281282E-1,1.2436425E-1,4.7184646E-2,3.6206063E-2,-6.509226E-1,-4.1494474E-1,4.5928836E-2,-4.5211545E-1,-1.09167E-2,8.956802E-3,-4.1955873E-1,-7.365877E-1,-1.3239157E-1,2.5407684E-1,2.58385E-2,-9.49065E-2,1.3572793E-1,-2.4217136E-1,-9.139763E-2,1.2607421E-1,1.294497E-2,2.4620013E-1,5.296005E-2,-6.392798E-1,-6.16311E-2,7.29619E-4,-1.5736407E-1,-3.0365226E-1,-1.8766575E-1,-7.5409845E-2,-4.000444E-1,-1.0607922E-2,-3.2335418E-1,-4.24814E-2,-1.2850286E-1,-3.8391528E-1,-2.544887E-1,-4.5774636E-1,-1.8958323E-1,-2.704741E-1,-1.5373275E-1,-3.2073653E-1,-2.191302E-1,-2.2283538E-1,-5.117013E-1,-4.546966E-1,-3.3134732E-1,-3.5959122E-1,-2.827231E-1,-3.711165E-1,-4.727067E-1,-3.1484124E-1,-4.7461537E-1,-2.531659E-1,-3.6087626E-1,-6.462393E-2,-4.5308256E-1,-3.1581932E-1,-4.787724E-1],"split_indices":[4,8,3,2,4,3,1,1225,3,447,1295,38,76,157,4,1045,38,916,5,15,937,1,418,9,170,11,2,309,215,75,5,0,769,480,764,440,574,1064,627,605,1112,373,4,2,0,1,12,1117,6,1,87,74,118,39,62,36,1020,55,269,865,5,699,23,0,0,0,0,0,0,0,0,0,0,0,0,0,0,0,0,0,0,0,0,0,0,0,0,0,0,0,0,0,0,0,0,0,0,0,0,0,0,0,0,0,0,0,0,0,0,0,0,0,0,0,0,0,0,0,0,0,0,0,0],"split_type":[0,0,0,0,0,0,0,0,0,0,0,0,0,0,0,0,0,0,0,0,0,0,0,0,0,0,0,0,0,0,0,0,0,0,0,0,0,0,0,0,0,0,0,0,0,0,0,0,0,0,0,0,0,0,0,0,0,0,0,0,0,0,0,0,0,0,0,0,0,0,0,0,0,0,0,0,0,0,0,0,0,0,0,0,0,0,0,0,0,0,0,0,0,0,0,0,0,0,0,0,0,0,0,0,0,0,0,0,0,0,0,0,0,0,0,0,0,0,0,0,0,0,0],"sum_hessian":[5.18E3,2.71E3,2.47E3,2.436E3,2.74E2,1.072E3,1.398E3,1.485E3,9.51E2,5.3E1,2.21E2,1.82E2,8.9E2,5.87E2,8.11E2,2.5E1,1.46E3,6.73E2,2.78E2,3.4E1,1.9E1,8E0,2.13E2,9.2E1,9E1,3.35E2,5.55E2,1.33E2,4.54E2,2.21E2,5.9E2,4E0,2.1E1,7.16E2,7.44E2,6.27E2,4.6E1,1.44E2,1.34E2,1.9E1,1.5E1,1.4E1,5E0,5E0,3E0,5E0,2.08E2,8.1E1,1.1E1,5E0,8.5E1,2.55E2,8E1,1.6E2,3.95E2,5.8E1,7.5E1,3.36E2,1.18E2,9.2E1,1.29E2,4.78E2,1.12E2,3E0,1.8E1,4.08E2,3.08E2,7.42E2,2E0,6E0,6.21E2,1.2E1,3.4E1,1.39E2,5E0,3E0,1.31E2,1.4E1,5E0,1E1,5E0,7E0,7E0,2E0,3E0,4E0,1E0,3E0,2E0,2.1E1,1.87E2,1.7E1,6.4E1,1E0,1E1,1E0,4E0,7E0,7.8E1,1.17E2,1.38E2,7.1E1,9E0,1.8E1,1.42E2,1.99E2,1.96E2,3E0,5.5E1,3.1E1,4.4E1,9E1,2.46E2,7.8E1,4E1,1.4E1,7.8E1,2E1,1.09E2,1E0,4.77E2,7E1,4.2E1],"tree_param":{"num_deleted":"0","num_feature":"1382","num_nodes":"123","size_leaf_vector":"1"}},{"base_weights":[3.535261E-1,3.261187E-1,4.4457316E-1,3.1263125E-1,3.5187382E-1,4.0835854E-1,4.9281588E-1,2.8694382E-1,3.3167568E-1,3.7303033E-1,3.0888045E-1,1.4929241E-1,3.815112E-1,1.403675E-1,1.626729E-1,2.2956602E-1,3.045316E-1,2.4175864E-1,3.4045735E-1,3.4828427E-1,5.0975245E-1,1.9566876E-1,3.2895616E-1,9.5912315E-2,3.9217636E-1,2.1272355E-1,4.8153973E-1,1.9372635E-1,3.1428185E-1,1.8148687E-1,2.1754834E-1,8.687564E-2,3.4416348E-1,3.1305224E-1,4.0738934E-1,3.2785243E-1,5.6431836E-1,1.4324617E-1,2.426561E-1,3.7575713E-1,2.978159E-1,1.1123794E-1,1.2259268E-1,5.057604E-2,8.939256E-2,5.056989E-2,1.6223931E-1,2.1780249E-2,9.005738E-2,-1.3598104E-2,9.5270164E-2,4.8357952E-2,1.049236E-1,-1.309711E-2,7.044819E-2,1.0834511E-1,8.450076E-2,7.423345E-2,1.0600243E-1,1.0796958E-1,1.5558992E-1,1.4667064E-1,2.7378792E-2,-3.3240863E-3,1.7271279E-1,1.8102704E-2,5.3193048E-2,8.943685E-2,5.3201187E-2,8.7026365E-2,1.3864404E-1,7.893711E-2,1.0074692E-1],"categories":[],"categories_nodes":[],"categories_segments":[],"categories_sizes":[],"default_left":[0,0,0,0,0,0,0,0,0,0,0,0,0,0,0,0,0,0,0,0,0,0,0,0,0,0,0,0,0,0,0,0,0,0,0,0,0,0,0,0,0,0,0,0,0,0,0,0,0,0,0,0,0,0,0,0,0,0,0,0,0,0,0,0,0,0,0,0,0,0,0,0,0],"id":6,"left_children":[1,3,5,7,9,11,13,15,17,19,21,-1,23,-1,-1,25,27,29,31,33,35,37,39,-1,41,43,45,47,49,-1,51,53,55,57,59,61,63,65,67,69,71,-1,-1,-1,-1,-1,-1,-1,-1,-1,-1,-1,-1,-1,-1,-1,-1,-1,-1,-1,-1,-1,-1,-1,-1,-1,-1,-1,-1,-1,-1,-1,-1],"loss_changes":[1.2783508E1,1.2745972E0,1.8882751E0,1.1889954E0,1.123642E0,1.4616852E0,3.7210846E-1,1.0653839E0,1.1029205E0,2.8945236E0,9.6975327E-1,0E0,2.2659302E-1,0E0,0E0,1.0349197E0,8.6608124E-1,1.0730495E0,1.252945E0,1.4800797E0,1.1747818E0,1.401279E-1,4.4919205E-1,0E0,7.2784424E-3,9.0173626E-1,2.0557857E-1,9.0669036E-1,9.44191E-1,0E0,9.121218E-1,4.1581485E-1,1.3260956E0,1.2024803E0,1.3190155E0,1.2508738E0,6.8803406E-1,9.096593E-2,7.7560425E-2,9.7607803E-1,2.2281456E-1,0E0,0E0,0E0,0E0,0E0,0E0,0E0,0E0,0E0,0E0,0E0,0E0,0E0,0E0,0E0,0E0,0E0,0E0,0E0,0E0,0E0,0E0,0E0,0E0,0E0,0E0,0E0,0E0,0E0,0E0,0E0,0E0],"parents":[2147483647,0,0,1,1,2,2,3,3,4,4,5,5,6,6,7,7,8,8,9,9,10,10,12,12,15,15,16,16,17,17,18,18,19,19,20,20,21,21,22,22,24,24,25,25,26,26,27,27,28,28,30,30,31,31,32,32,33,33,34,34,35,35,36,36,37,37,38,38,39,39,40,40],"right_children":[2,4,6,8,10,12,14,16,18,20,22,-1,24,-1,-1,26,28,30,32,34,36,38,40,-1,42,44,46,48,50,-1,52,54,56,58,60,62,64,66,68,70,72,-1,-1,-1,-1,-1,-1,-1,-1,-1,-1,-1,-1,-1,-1,-1,-1,-1,-1,-1,-1,-1,-1,-1,-1,-1,-1,-1,-1,-1,-1,-1,-1],"split_conditions":[3.7829246E-5,2.7102337E-4,4.8406826E-5,1.5493443E-4,4.9891986E-7,1.9536596E-6,4.3386783E-5,3.821817E-4,1.8661199E-4,1.4269738E-5,2.1717215E-5,1.4929241E-1,4.9465456E-5,1.403675E-1,1.626729E-1,5.109577E-4,5.1552703E-5,3.3837277E-4,8.867586E-5,1.5973764E-4,2.186775E-6,2.7639544E-4,3.1679854E-6,9.5912315E-2,5.8298825E-5,1.5848262E-5,2.1408682E-4,3.7424237E-4,1.0907371E-5,1.8148687E-1,4.5391533E-4,6.2597624E-5,1.5784941E-6,1.9470132E-4,1.8187022E-5,3.680183E-4,1.6601523E-4,1.8839783E-5,3.6912167E-4,1.7610086E-5,3.281134E-5,1.1123794E-1,1.2259268E-1,5.057604E-2,8.939256E-2,5.056989E-2,1.6223931E-1,2.1780249E-2,9.005738E-2,-1.3598104E-2,9.5270164E-2,4.8357952E-2,1.049236E-1,-1.309711E-2,7.044819E-2,1.0834511E-1,8.450076E-2,7.423345E-2,1.0600243E-1,1.0796958E-1,1.5558992E-1,1.4667064E-1,2.7378792E-2,-3.3240863E-3,1.7271279E-1,1.8102704E-2,5.3193048E-2,8.943685E-2,5.3201187E-2,8.7026365E-2,1.3864404E-1,7.893711E-2,1.0074692E-1],"split_indices":[57,801,25,483,1,1,10,1280,653,39,59,0,75,0,0,1379,181,1248,344,481,7,834,3,0,62,46,751,1186,41,0,1348,191,2,621,53,1109,651,53,1187,38,61,0,0,0,0,0,0,0,0,0,0,0,0,0,0,0,0,0,0,0,0,0,0,0,0,0,0,0,0,0,0,0,0],"split_type":[0,0,0,0,0,0,0,0,0,0,0,0,0,0,0,0,0,0,0,0,0,0,0,0,0,0,0,0,0,0,0,0,0,0,0,0,0,0,0,0,0,0,0,0,0,0,0,0,0,0,0,0,0,0,0,0,0,0,0,0,0,0,0,0,0,0,0,0,0,0,0,0,0],"sum_hessian":[5.18E3,3.985E3,1.195E3,2.624E3,1.361E3,6.88E2,5.07E2,1.124E3,1.5E3,9.07E2,4.54E2,1.55E2,5.33E2,3.44E2,1.63E2,2.67E2,8.57E2,1.36E2,1.364E3,7.71E2,1.36E2,7E1,3.84E2,8.3E1,4.5E2,2.52E2,1.5E1,7.1E1,7.86E2,7E0,1.29E2,2E1,1.344E3,4.87E2,2.84E2,3.3E1,1.03E2,3.5E1,3.5E1,1.49E2,2.35E2,2.06E2,2.44E2,1.68E2,8.4E1,3E0,1.2E1,3.4E1,3.7E1,7E0,7.79E2,9.2E1,3.7E1,1.1E1,9E0,1.053E3,2.91E2,1.88E2,2.99E2,2.02E2,8.2E1,1.9E1,1.4E1,2E0,1.01E2,1.1E1,2.4E1,1.7E1,1.8E1,7.7E1,7.2E1,1.27E2,1.08E2],"tree_param":{"num_deleted":"0","num_feature":"1382","num_nodes":"73","size_leaf_vector":"1"}},{"base_weights":[-3.5732785E-1,4.2205445E-2,-8.030474E-1,9.272043E-2,-2.1703333E-1,-6.2223494E-1,-9.3429387E-1,1.6175589E-1,-3.4173343E-2,1.3150924E-1,-3.3570245E-1,-6.9584066E-1,-4.809092E-1,-8.700244E-1,-1.0343227E0,-6.385204E-3,2.2737792E-1,-4.3144116E-1,1.0744199E-2,1.7881188E-1,-3.642049E-1,2.0912659E-1,-4.0451258E-1,-5.761985E-1,-8.8198376E-1,-8.707564E-1,-4.5518902E-1,-1.0165827E0,-8.121627E-1,-1.0695268E0,-8.995559E-1,1.5753875E-2,-1.3053533E0,2.3812182E-1,-8.2470775E-1,-1.7822573E-1,-1.0732448E0,1.3223128E-1,-1.1871149E-1,5.5691606E-1,3.8300443E-2,5.085538E-1,-4.8201182E-1,-1.1214569E0,-3.5953915E-1,-6.566365E-1,-3.4719655E-1,-9.531294E-1,-5.6755215E-1,-4.2855725E-1,-1.1666926E0,-3.5760853E-1,-5.2970916E-1,-5.534348E-1,-1.0425943E0,-7.051429E-1,-8.792352E-1,-9.6746844E-1,-1.1319036E0,-6.812182E-1,-1.0799574E0,-2.2699814E-1,1.5300556E-2,-5.8150407E-2,-5.133581E-1,7.546348E-2,-1.7911924E-1,-4.4743726E-1,-6.919278E-2,-1.6595753E-1,5.711815E-2,-4.7377095E-1,2.1868136E-2,-1.3000618E-1,5.751836E-2,-8.318135E-2,3.7012104E-2,2.8828647E-2,2.455948E-1,-8.2788214E-2,8.707294E-2,4.0619582E-2,2.891144E-1,-6.531704E-2,-3.6069074E-1,-5.576577E-1,-1.6507511E-1,-2.8360572E-1,-9.177658E-2,-3.082568E-1,-1.7910038E-1,-3.348055E-1,-9.456322E-2,-3.619835E-1,-2.5375152E-1,-2.8209022E-1,-1.3611111E-1,-3.6045242E-2,-1.3484237E-1,-9.400018E-2,-3.6473572E-1,-2.6922012E-3,-1.1014924E-1,-3.1605622E-1,-1.4929971E-1,-1.0353494E-1,-1.9619024E-1,-1.5600841E-1,-3.1925395E-1,-2.6801515E-1,-1.8990162E-1,-3.3159748E-1,-2.4933581E-1,-3.4515306E-1,-2.712578E-1,-3.417817E-1,-1.1209454E-1,-3.0381677E-1,-1.7109363E-1,-1.5588512E-1,-3.3259594E-1],"categories":[],"categories_nodes":[],"categories_segments":[],"categories_sizes":[],"default_left":[0,0,0,0,0,0,0,0,0,0,0,0,0,0,0,0,0,0,0,0,0,0,0,0,0,0,0,0,0,0,0,0,0,0,0,0,0,0,0,0,0,0,0,0,0,0,0,0,0,0,0,0,0,0,0,0,0,0,0,0,0,0,0,0,0,0,0,0,0,0,0,0,0,0,0,0,0,0,0,0,0,0,0,0,0,0,0,0,0,0,0,0,0,0,0,0,0,0,0,0,0,0,0,0,0,0,0,0,0,0,0,0,0,0,0,0,0,0,0,0,0],"id":7,"left_children":[1,3,5,7,9,11,13,15,17,19,21,23,25,27,29,31,33,35,37,39,-1,41,43,45,47,49,51,53,55,57,59,61,63,65,67,69,71,73,75,77,79,81,83,85,87,89,91,93,95,97,99,101,103,105,107,109,111,113,115,117,119,-1,-1,-1,-1,-1,-1,-1,-1,-1,-1,-1,-1,-1,-1,-1,-1,-1,-1,-1,-1,-1,-1,-1,-1,-1,-1,-1,-1,-1,-1,-1,-1,-1,-1,-1,-1,-1,-1,-1,-1,-1,-1,-1,-1,-1,-1,-1,-1,-1,-1,-1,-1,-1,-1,-1,-1,-1,-1,-1,-1],"loss_changes":[9.226654E2,3.5809967E1,5.7535767E1,2.0048796E1,1.849126E1,1.0411041E1,8.209839E0,1.6353485E1,1.440498E1,7.472828E0,1.2568684E1,1.456897E1,3.183258E0,6.543579E0,1.6425171E0,1.2012632E1,1.2245922E1,1.3134919E1,1.143364E1,5.875874E0,0E0,8.109063E0,9.140858E0,7.416504E0,5.3424835E0,2.2481222E0,2.261139E0,2.3383942E0,3.8878784E0,1.6423035E0,3.990921E0,1.1228493E1,2.826006E0,1.1988796E1,4.0130267E0,8.398513E0,1.3453653E1,1.2701979E1,1.3545708E1,3.5396929E0,6.5725107E0,4.4553466E0,2.022604E0,6.1377125E0,8.505505E0,6.1546326E0,2.3532734E0,4.772217E0,1.7376595E0,1.0505557E-2,1.217823E-1,4.9308586E-1,2.648018E0,8.8447094E-2,2.018402E0,2.788559E0,3.236908E0,9.286804E-1,1.0326233E0,1.5180874E0,4.5300293E-1,0E0,0E0,0E0,0E0,0E0,0E0,0E0,0E0,0E0,0E0,0E0,0E0,0E0,0E0,0E0,0E0,0E0,0E0,0E0,0E0,0E0,0E0,0E0,0E0,0E0,0E0,0E0,0E0,0E0,0E0,0E0,0E0,0E0,0E0,0E0,0E0,0E0,0E0,0E0,0E0,0E0,0E0,0E0,0E0,0E0,0E0,0E0,0E0,0E0,0E0,0E0,0E0,0E0,0E0,0E0,0E0,0E0,0E0,0E0,0E0],"parents":[2147483647,0,0,1,1,2,2,3,3,4,4,5,5,6,6,7,7,8,8,9,9,10,10,11,11,12,12,13,13,14,14,15,15,16,16,17,17,18,18,19,19,21,21,22,22,23,23,24,24,25,25,26,26,27,27,28,28,29,29,30,30,31,31,32,32,33,33,34,34,35,35,36,36,37,37,38,38,39,39,40,40,41,41,42,42,43,43,44,44,45,45,46,46,47,47,48,48,49,49,50,50,51,51,52,52,53,53,54,54,55,55,56,56,57,57,58,58,59,59,60,60],"right_children":[2,4,6,8,10,12,14,16,18,20,22,24,26,28,30,32,34,36,38,40,-1,42,44,46,48,50,52,54,56,58,60,62,64,66,68,70,72,74,76,78,80,82,84,86,88,90,92,94,96,98,100,102,104,106,108,110,112,114,116,118,120,-1,-1,-1,-1,-1,-1,-1,-1,-1,-1,-1,-1,-1,-1,-1,-1,-1,-1,-1,-1,-1,-1,-1,-1,-1,-1,-1,-1,-1,-1,-1,-1,-1,-1,-1,-1,-1,-1,-1,-1,-1,-1,-1,-1,-1,-1,-1,-1,-1,-1,-1,-1,-1,-1,-1,-1,-1,-1,-1,-1],"split_conditions":[4.453723E-7,3.6470877E-7,3.0689062E-6,6.054313E-6,2.57764E-6,5.460196E-5,5.5563332E-6,9.837329E-5,8.789853E-5,3.7582015E-4,3.8980143E-6,2.3010502E-6,7.745285E-5,1.04954E-4,2.428971E-5,2.7732507E-4,3.442278E-5,1.6940116E-4,2.1435534E-4,9.935502E-6,-3.642049E-1,1.5575533E-5,3.030717E-4,2.3028519E-5,1.4715015E-4,3.3380458E-4,3.103364E-6,3.3211694E-4,1.1395276E-5,2.6611964E-5,3.2050963E-4,4.8410904E-5,5.100788E-6,1.0953678E-5,3.976899E-6,5.474132E-6,3.8418963E-4,3.6100153E-4,1.0792978E-4,2.3127081E-4,3.78778E-4,2.0271217E-4,9.866059E-6,2.12822E-5,7.3638616E-6,3.331176E-4,2.3141515E-6,5.565455E-5,1.3990038E-4,5.206384E-6,5.180179E-7,2.733272E-4,1.662732E-5,1.40237125E-5,2.039425E-4,1.0402848E-4,3.462761E-5,5.3517444E-5,5.944017E-4,2.7734889E-6,3.8686252E-4,-2.2699814E-1,1.5300556E-2,-5.8150407E-2,-5.133581E-1,7.546348E-2,-1.7911924E-1,-4.4743726E-1,-6.919278E-2,-1.6595753E-1,5.711815E-2,-4.7377095E-1,2.1868136E-2,-1.3000618E-1,5.751836E-2,-8.318135E-2,3.7012104E-2,2.8828647E-2,2.455948E-1,-8.2788214E-2,8.707294E-2,4.0619582E-2,2.891144E-1,-6.531704E-2,-3.6069074E-1,-5.576577E-1,-1.6507511E-1,-2.8360572E-1,-9.177658E-2,-3.082568E-1,-1.7910038E-1,-3.348055E-1,-9.456322E-2,-3.619835E-1,-2.5375152E-1,-2.8209022E-1,-1.3611111E-1,-3.6045242E-2,-1.3484237E-1,-9.400018E-2,-3.6473572E-1,-2.6922012E-3,-1.1014924E-1,-3.1605622E-1,-1.4929971E-1,-1.0353494E-1,-1.9619024E-1,-1.5600841E-1,-3.1925395E-1,-2.6801515E-1,-1.8990162E-1,-3.3159748E-1,-2.4933581E-1,-3.4515306E-1,-2.712578E-1,-3.417817E-1,-1.1209454E-1,-3.0381677E-1,-1.7109363E-1,-1.5588512E-1,-3.3259594E-1],"split_indices":[1,1,2,18,8,137,2,325,311,1019,13,3,246,261,5,709,86,497,668,33,0,46,1125,59,397,1008,3,1217,4,8,563,179,17,28,13,17,1140,1294,324,731,1167,634,29,67,25,1168,5,164,448,12,1,986,36,14,719,259,34,70,1283,1,1110,0,0,0,0,0,0,0,0,0,0,0,0,0,0,0,0,0,0,0,0,0,0,0,0,0,0,0,0,0,0,0,0,0,0,0,0,0,0,0,0,0,0,0,0,0,0,0,0,0,0,0,0,0,0,0,0,0,0,0,0],"split_type":[0,0,0,0,0,0,0,0,0,0,0,0,0,0,0,0,0,0,0,0,0,0,0,0,0,0,0,0,0,0,0,0,0,0,0,0,0,0,0,0,0,0,0,0,0,0,0,0,0,0,0,0,0,0,0,0,0,0,0,0,0,0,0,0,0,0,0,0,0,0,0,0,0,0,0,0,0,0,0,0,0,0,0,0,0,0,0,0,0,0,0,0,0,0,0,0,0,0,0,0,0,0,0,0,0,0,0,0,0,0,0,0,0,0,0,0,0,0,0,0,0],"sum_hessian":[5.18E3,2.732E3,2.448E3,2.287E3,4.45E2,1.032E3,1.416E3,1.481E3,8.06E2,1.13E2,3.32E2,6.76E2,3.56E2,8.68E2,5.48E2,4.16E2,1.065E3,8.1E1,7.25E2,1.1E2,3E0,3.7E1,2.95E2,4.14E2,2.62E2,2E1,3.36E2,2.41E2,6.27E2,4.29E2,1.19E2,4.1E2,6E0,1.055E3,1E1,5.9E1,2.2E1,3.74E2,3.51E2,2.9E1,8.1E1,2.6E1,1.1E1,1.6E1,2.79E2,3.05E2,1.09E2,2.12E2,5E1,9E0,1.1E1,1.48E2,1.88E2,1.4E1,2.27E2,2.46E2,3.81E2,1.69E2,2.6E2,5.6E1,6.3E1,1.7E1,3.93E2,2E0,4E0,1.039E3,1.6E1,4E0,6E0,2.9E1,3E1,1.5E1,7E0,3.5E1,3.39E2,2.12E2,1.39E2,1.1E1,1.8E1,3.6E1,4.5E1,1.5E1,1.1E1,9E0,2E0,6E0,1E1,2.2E1,2.57E2,4E1,2.65E2,3E0,1.06E2,6E1,1.52E2,1E1,4E1,1E0,8E0,1E0,1E1,4E0,1.44E2,9E0,1.79E2,6E0,8E0,1E1,2.17E2,6.5E1,1.81E2,6.3E1,3.18E2,3.9E1,1.3E2,2.57E2,3E0,1.2E1,4.4E1,4E0,5.9E1],"tree_param":{"num_deleted":"0","num_feature":"1382","num_nodes":"121","size_leaf_vector":"1"}},{"base_weights":[2.4810903E-1,2.2943807E-1,3.1438947E-1,1.8723185E-1,2.3683323E-1,2.9747227E-1,3.6887032E-1,2.2728418E-1,1.3790566E-1,2.4764104E-1,2.0408374E-1,3.408234E-1,2.7528557E-1,1.0442101E-1,1.1975964E-1,-6.476048E-2,2.3743047E-1,2.014357E-1,7.2441556E-2,2.358677E-1,3.7742233E-1,1.6822779E-1,2.3312618E-1,3.6205682E-1,3.1431246E-1,2.4376786E-1,2.8913012E-1,1.4940807E-1,-1.22535E-1,3.5571176E-1,2.09649E-1,3.2836357E-1,1.3512339E-1,2.0923277E-2,1.8847284E-1,2.4472627E-1,1.4822316E-1,7.8350484E-2,3.9176896E-1,1.3651133E-1,1.9035856E-1,3.2149592E-1,2.0570524E-1,4.167793E-2,1.0921967E-1,3.299107E-2,9.495755E-2,5.8117148E-2,7.556433E-2,9.0815514E-2,8.0532104E-2,6.1071232E-2,6.1624E-3,-4.568742E-2,-1.194827E-2,1.362967E-1,6.2785655E-2,8.16847E-2,4.433474E-2,1.20619185E-1,4.639732E-3,2.5819367E-2,1.0042614E-1,1.868795E-4,8.3681606E-2,8.846403E-2,1.3243212E-2,7.191221E-2,1.2060903E-1,2.7371645E-2,6.226506E-2,5.4831542E-2,4.903807E-3,4.3973625E-2,1.2192185E-1,3.787471E-2,6.687169E-2,8.907409E-2,5.2688483E-2,5.5912245E-2,1.0594755E-1,5.3015172E-2,6.7252696E-2],"categories":[],"categories_nodes":[],"categories_segments":[],"categories_sizes":[],"default_left":[0,0,0,0,0,0,0,0,0,0,0,0,0,0,0,0,0,0,0,0,0,0,0,0,0,0,0,0,0,0,0,0,0,0,0,0,0,0,0,0,0,0,0,0,0,0,0,0,0,0,0,0,0,0,0,0,0,0,0,0,0,0,0,0,0,0,0,0,0,0,0,0,0,0,0,0,0,0,0,0,0,0,0],"id":8,"left_children":[1,3,5,7,9,11,13,15,17,19,21,23,25,-1,-1,27,29,31,33,35,37,39,41,43,45,47,49,51,53,55,57,59,61,63,65,67,69,71,73,75,77,79,81,-1,-1,-1,-1,-1,-1,-1,-1,-1,-1,-1,-1,-1,-1,-1,-1,-1,-1,-1,-1,-1,-1,-1,-1,-1,-1,-1,-1,-1,-1,-1,-1,-1,-1,-1,-1,-1,-1,-1,-1],"loss_changes":[6.339447E0,1.2185059E0,9.372711E-1,1.169838E0,1.166687E0,7.448883E-1,2.8224945E-2,1.0050755E0,1.1291156E0,3.8546295E0,8.552971E-1,5.0006866E-2,1.834755E-1,0E0,0E0,1.6678953E-1,9.868126E-1,1.1255765E0,8.1500584E-1,1.8030396E0,8.8321877E-1,2.4635506E-1,1.0776062E0,1.8892288E-2,2.7135849E-2,2.5912285E-2,3.0914307E-2,1.675769E-2,1.854536E-2,7.712674E-1,9.8273754E-1,1.0776339E0,8.8199735E-1,5.026552E-1,6.320032E-1,1.6010437E0,7.248206E-1,6.8232864E-2,6.6897583E-1,1.1637497E-1,3.0257893E-1,4.0479374E-1,1.5474224E-1,0E0,0E0,0E0,0E0,0E0,0E0,0E0,0E0,0E0,0E0,0E0,0E0,0E0,0E0,0E0,0E0,0E0,0E0,0E0,0E0,0E0,0E0,0E0,0E0,0E0,0E0,0E0,0E0,0E0,0E0,0E0,0E0,0E0,0E0,0E0,0E0,0E0,0E0,0E0,0E0],"parents":[2147483647,0,0,1,1,2,2,3,3,4,4,5,5,6,6,7,7,8,8,9,9,10,10,11,11,12,12,15,15,16,16,17,17,18,18,19,19,20,20,21,21,22,22,23,23,24,24,25,25,26,26,27,27,28,28,29,29,30,30,31,31,32,32,33,33,34,34,35,35,36,36,37,37,38,38,39,39,40,40,41,41,42,42],"right_children":[2,4,6,8,10,12,14,16,18,20,22,24,26,-1,-1,28,30,32,34,36,38,40,42,44,46,48,50,52,54,56,58,60,62,64,66,68,70,72,74,76,78,80,82,-1,-1,-1,-1,-1,-1,-1,-1,-1,-1,-1,-1,-1,-1,-1,-1,-1,-1,-1,-1,-1,-1,-1,-1,-1,-1,-1,-1,-1,-1,-1,-1,-1,-1,-1,-1,-1,-1,-1,-1],"split_conditions":[3.7857193E-5,5.2124764E-5,3.4556684E-5,3.0636712E-4,7.5991284E-7,2.4307717E-6,3.3914332E-6,4.3349002E-5,3.3498075E-4,1.2966061E-5,3.9395753E-5,1.8348368E-6,4.8015638E-5,1.0442101E-1,1.1975964E-1,1.3643714E-5,1.298291E-4,9.605107E-5,1.4685771E-4,8.7188937E-7,1.9496427E-5,2.4912517E-5,5.8885803E-6,2.3374964E-4,3.4091245E-5,3.2520536E-5,3.2665134E-6,3.4806249E-7,5.1082075E-6,2.812599E-4,3.2045942E-4,1.102222E-4,8.6100066E-5,2.584334E-4,2.0077583E-4,1.638549E-5,3.6427955E-5,2.6567432E-6,5.4430155E-5,1.6757142E-4,1.5543959E-6,3.1520984E-5,5.4716656E-5,4.167793E-2,1.0921967E-1,3.299107E-2,9.495755E-2,5.8117148E-2,7.556433E-2,9.0815514E-2,8.0532104E-2,6.1071232E-2,6.1624E-3,-4.568742E-2,-1.194827E-2,1.362967E-1,6.2785655E-2,8.16847E-2,4.433474E-2,1.20619185E-1,4.639732E-3,2.5819367E-2,1.0042614E-1,1.868795E-4,8.3681606E-2,8.846403E-2,1.3243212E-2,7.191221E-2,1.2060903E-1,2.7371645E-2,6.226506E-2,5.4831542E-2,4.903807E-3,4.3973625E-2,1.2192185E-1,3.787471E-2,6.687169E-2,8.907409E-2,5.2688483E-2,5.5912245E-2,1.0594755E-1,5.3015172E-2,6.7252696E-2],"split_indices":[53,177,9,945,1,1,1,165,1026,32,90,1,48,0,0,46,446,311,438,2,65,62,4,804,63,37,1,1,14,858,1003,306,238,700,622,42,108,9,183,436,2,77,116,0,0,0,0,0,0,0,0,0,0,0,0,0,0,0,0,0,0,0,0,0,0,0,0,0,0,0,0,0,0,0,0,0,0,0,0,0,0,0,0],"split_type":[0,0,0,0,0,0,0,0,0,0,0,0,0,0,0,0,0,0,0,0,0,0,0,0,0,0,0,0,0,0,0,0,0,0,0,0,0,0,0,0,0,0,0,0,0,0,0,0,0,0,0,0,0,0,0,0,0,0,0,0,0,0,0,0,0,0,0,0,0,0,0,0,0,0,0,0,0,0,0,0,0,0,0],"sum_hessian":[5.18E3,4.045E3,1.135E3,6.07E2,3.438E3,8.71E2,2.64E2,3.33E2,2.74E2,2.58E3,8.58E2,2.9E2,5.81E2,1.64E2,1E2,1.1E1,3.22E2,1.38E2,1.36E2,2.368E3,2.12E2,3.87E2,4.71E2,1.54E2,1.36E2,1.83E2,3.98E2,2E0,9E0,5.9E1,2.63E2,4.6E1,9.2E1,9.5E1,4.1E1,2.149E3,2.19E2,1E1,2.02E2,1.62E2,2.25E2,1.09E2,3.62E2,2E0,1.52E2,2E0,1.34E2,2.9E1,1.54E2,2.32E2,1.66E2,1E0,1E0,6E0,3E0,3.4E1,2.5E1,1.29E2,1.34E2,3.7E1,9E0,7.5E1,1.7E1,8.9E1,6E0,2.3E1,1.8E1,2.085E3,6.4E1,1.13E2,1.06E2,3E0,7E0,1.2E1,1.9E2,1.47E2,1.5E1,2.5E1,2E2,2.2E1,8.7E1,1.45E2,2.17E2],"tree_param":{"num_deleted":"0","num_feature":"1382","num_nodes":"83","size_leaf_vector":"1"}},{"base_weights":[-2.521308E-1,4.4517428E-2,-5.5352885E-1,1.13540456E-1,-6.614251E-2,-4.17031E-1,-6.5377593E-1,-3.9170393E-1,1.2700137E-1,1.5514673E-1,-1.4693145E-1,-5.5973595E-1,-3.721599E-1,-6.09504E-1,-7.5472313E-1,-1.1804881E0,2.5954493E-3,1.3588867E-1,-6.4584184E-1,1.7585659E-1,-5.219237E-1,7.7350765E-2,-2.2346719E-1,-4.3042263E-1,-8.3859205E-1,-2.0287627E-1,-4.1494012E-1,-8.478114E-1,-5.902513E-1,-8.086809E-1,-6.5090996E-1,-1.6055819E0,-3.4609938E-1,1.987901E-1,-7.826157E-1,-9.419892E-3,1.8793824E-1,-8.247849E-3,-1.4418033E0,-1.1989691E0,2.013253E-1,-1.6372074E-1,3.0041358E-1,-6.48675E-1,-1.6701294E-1,-1.2430886E0,-3.9505222E-1,-1.0187789E0,-5.3084403E-1,4.5152444E-1,-2.3374946E-1,-6.469482E-1,-3.7168074E-1,-1.1181551E0,-6.815441E-1,-5.496203E-1,-7.458254E-1,-8.144186E-1,-5.8448054E-2,-2.8627986E-1,-7.1729696E-1,-1.4075334E-1,-5.0669557E-1,-1.5159808E-1,6.750573E-2,1.5223566E-1,-3.04261E-2,-2.5964788E-1,-5.523448E-2,-3.6876395E-1,4.445322E-3,-4.3858096E-2,6.636082E-2,-9.584983E-2,9.131351E-2,-5.6908663E-2,-4.7807294E-1,-4.0313777E-1,-9.2951365E-2,3.4941908E-2,1.6813996E-1,-2.325611E-2,-4.1159183E-1,1.4045225E-1,-1.3263299E-2,-3.487604E-1,-7.994817E-2,-4.3707616E-3,-8.63705E-2,-4.030075E-1,-9.622066E-2,-2.925391E-1,-1.0830521E-1,-3.5248354E-1,-1.0748574E-1,-6.433757E-2,-2.1298571E-1,2.032203E-1,5.4155502E-2,-1.9006976E-1,-5.6684006E-2,-2.3761089E-1,-7.4823596E-2,-7.502392E-2,-1.2835787E-1,-3.5730273E-1,-1.2044805E-1,-6.794173E-2,-2.3772667E-1,-1.9358206E-1,-1.4998756E-1,-2.6615492E-1,-1.922068E-1,-3.5635736E-2,-2.4566506E-1,-4.1950695E-2,-1.1530498E-1,-1.6628945E-1,-2.3913272E-1],"categories":[],"categories_nodes":[],"categories_segments":[],"categories_sizes":[],"default_left":[0,0,0,0,0,0,0,0,0,0,0,0,0,0,0,0,0,0,0,0,0,0,0,0,0,0,0,0,0,0,0,0,0,0,0,0,0,0,0,0,0,0,0,0,0,0,0,0,0,0,0,0,0,0,0,0,0,0,0,0,0,0,0,0,0,0,0,0,0,0,0,0,0,0,0,0,0,0,0,0,0,0,0,0,0,0,0,0,0,0,0,0,0,0,0,0,0,0,0,0,0,0,0,0,0,0,0,0,0,0,0,0,0,0,0,0,0,0,0],"id":9,"left_children":[1,3,5,7,9,11,13,15,17,19,21,23,25,27,29,31,33,35,37,39,-1,41,43,45,47,49,51,53,55,57,59,61,63,65,67,69,71,73,75,77,79,81,83,85,87,89,91,93,95,97,99,101,103,105,107,109,111,113,-1,115,117,-1,-1,-1,-1,-1,-1,-1,-1,-1,-1,-1,-1,-1,-1,-1,-1,-1,-1,-1,-1,-1,-1,-1,-1,-1,-1,-1,-1,-1,-1,-1,-1,-1,-1,-1,-1,-1,-1,-1,-1,-1,-1,-1,-1,-1,-1,-1,-1,-1,-1,-1,-1,-1,-1,-1,-1,-1,-1],"loss_changes":[4.632537E2,1.9958183E1,3.4893982E1,1.0992643E1,1.797203E1,6.77771E0,6.154297E0,1.3065781E1,1.0857534E1,1.0862298E1,1.2651172E1,8.9785385E0,5.948395E0,4.243622E0,1.9775238E0,4.410017E0,4.623149E0,1.1732368E1,9.123111E0,9.590401E0,0E0,1.0158713E1,1.30702915E1,4.654152E0,3.9508133E0,3.5401273E0,6.423805E0,2.609127E0,5.658386E0,8.627472E-1,3.6193085E0,6.0583115E-2,6.5933496E-1,2.2753918E0,1.3826203E-1,1.2139822E1,1.2725349E1,1.1676081E0,1.2179966E0,2.2747755E-1,7.9493694E0,9.371455E0,5.686511E0,1.2258989E1,8.952166E0,2.1652508E-1,3.0634823E0,4.73637E0,1.6610975E0,3.6742795E-1,2.8000908E0,5.743267E0,3.732254E0,9.315262E-1,2.2929535E0,3.3113708E0,2.34449E0,7.9411316E-1,0E0,3.196609E-1,1.2883911E0,0E0,0E0,0E0,0E0,0E0,0E0,0E0,0E0,0E0,0E0,0E0,0E0,0E0,0E0,0E0,0E0,0E0,0E0,0E0,0E0,0E0,0E0,0E0,0E0,0E0,0E0,0E0,0E0,0E0,0E0,0E0,0E0,0E0,0E0,0E0,0E0,0E0,0E0,0E0,0E0,0E0,0E0,0E0,0E0,0E0,0E0,0E0,0E0,0E0,0E0,0E0,0E0,0E0,0E0,0E0,0E0,0E0,0E0],"parents":[2147483647,0,0,1,1,2,2,3,3,4,4,5,5,6,6,7,7,8,8,9,9,10,10,11,11,12,12,13,13,14,14,15,15,16,16,17,17,18,18,19,19,21,21,22,22,23,23,24,24,25,25,26,26,27,27,28,28,29,29,30,30,31,31,32,32,33,33,34,34,35,35,36,36,37,37,38,38,39,39,40,40,41,41,42,42,43,43,44,44,45,45,46,46,47,47,48,48,49,49,50,50,51,51,52,52,53,53,54,54,55,55,56,56,57,57,59,59,60,60],"right_children":[2,4,6,8,10,12,14,16,18,20,22,24,26,28,30,32,34,36,38,40,-1,42,44,46,48,50,52,54,56,58,60,62,64,66,68,70,72,74,76,78,80,82,84,86,88,90,92,94,96,98,100,102,104,106,108,110,112,114,-1,116,118,-1,-1,-1,-1,-1,-1,-1,-1,-1,-1,-1,-1,-1,-1,-1,-1,-1,-1,-1,-1,-1,-1,-1,-1,-1,-1,-1,-1,-1,-1,-1,-1,-1,-1,-1,-1,-1,-1,-1,-1,-1,-1,-1,-1,-1,-1,-1,-1,-1,-1,-1,-1,-1,-1,-1,-1,-1,-1],"split_conditions":[3.9911456E-6,2.0144953E-6,1.5112495E-6,1.0074691E-4,2.473278E-6,3.418557E-5,9.060553E-6,2.2333386E-4,3.4223467E-5,4.5916598E-4,6.146698E-7,7.772565E-6,5.2801374E-7,1.01254926E-4,4.4933848E-5,3.5657143E-4,3.971211E-4,3.28638E-4,4.460227E-4,3.0099097E-4,-5.219237E-1,2.7853835E-4,2.5200585E-4,1.21972604E-4,2.26098E-5,2.162882E-6,5.8210186E-5,2.6289717E-4,3.1068744E-6,5.228495E-4,1.5575199E-4,1.062178E-6,1.0782857E-6,7.407388E-5,1.0390365E-6,3.483405E-4,7.5110314E-5,2.5226771E-5,5.989978E-7,6.8459576E-7,4.1425272E-4,1.5517439E-4,2.5677166E-4,3.3564464E-4,2.983189E-6,9.639231E-6,1.3684445E-4,4.2013373E-4,6.0850152E-6,2.5332438E-6,1.3325246E-4,4.018665E-5,6.9098583E-6,3.3047335E-4,1.7059593E-4,9.027158E-5,1.7628836E-4,2.0205598E-4,-5.8448054E-2,1.3418969E-4,4.6669497E-4,-1.4075334E-1,-5.0669557E-1,-1.5159808E-1,6.750573E-2,1.5223566E-1,-3.04261E-2,-2.5964788E-1,-5.523448E-2,-3.6876395E-1,4.445322E-3,-4.3858096E-2,6.636082E-2,-9.584983E-2,9.131351E-2,-5.6908663E-2,-4.7807294E-1,-4.0313777E-1,-9.2951365E-2,3.4941908E-2,1.6813996E-1,-2.325611E-2,-4.1159183E-1,1.4045225E-1,-1.3263299E-2,-3.487604E-1,-7.994817E-2,-4.3707616E-3,-8.63705E-2,-4.030075E-1,-9.622066E-2,-2.925391E-1,-1.0830521E-1,-3.5248354E-1,-1.0748574E-1,-6.433757E-2,-2.1298571E-1,2.032203E-1,5.4155502E-2,-1.9006976E-1,-5.6684006E-2,-2.3761089E-1,-7.4823596E-2,-7.502392E-2,-1.2835787E-1,-3.5730273E-1,-1.2044805E-1,-6.794173E-2,-2.3772667E-1,-1.9358206E-1,-1.4998756E-1,-2.6615492E-1,-1.922068E-1,-3.5635736E-2,-2.4566506E-1,-4.1950695E-2,-1.1530498E-1,-1.6628945E-1,-2.3913272E-1],"split_indices":[10,6,1,381,8,102,3,728,86,1121,2,17,1,295,8,1069,1131,1102,1343,1151,0,888,883,446,58,7,180,801,1,1094,132,4,3,227,3,1348,271,80,2,2,1184,426,759,1058,9,23,511,1208,8,8,479,105,8,962,570,209,430,640,0,93,1141,0,0,0,0,0,0,0,0,0,0,0,0,0,0,0,0,0,0,0,0,0,0,0,0,0,0,0,0,0,0,0,0,0,0,0,0,0,0,0,0,0,0,0,0,0,0,0,0,0,0,0,0,0,0,0,0,0,0],"split_type":[0,0,0,0,0,0,0,0,0,0,0,0,0,0,0,0,0,0,0,0,0,0,0,0,0,0,0,0,0,0,0,0,0,0,0,0,0,0,0,0,0,0,0,0,0,0,0,0,0,0,0,0,0,0,0,0,0,0,0,0,0,0,0,0,0,0,0,0,0,0,0,0,0,0,0,0,0,0,0,0,0,0,0,0,0,0,0,0,0,0,0,0,0,0,0,0,0,0,0,0,0,0,0,0,0,0,0,0,0,0,0,0,0,0,0,0,0,0,0],"sum_hessian":[5.18E3,2.611E3,2.569E3,1.608E3,1.003E3,1.09E3,1.479E3,4.1E1,1.567E3,2.68E2,7.35E2,2.58E2,8.32E2,1.033E3,4.46E2,1.3E1,2.8E1,1.55E3,1.7E1,2.66E2,2E0,1.87E2,5.48E2,1.78E2,8E1,1.69E2,6.63E2,7.4E1,9.59E2,2.89E2,1.57E2,8E0,5E0,2.3E1,5E0,4.09E2,1.141E3,1E1,7E0,4E0,2.62E2,9E1,9.7E1,6.3E1,4.85E2,6E0,1.72E2,4.9E1,3.1E1,7E0,1.62E2,1.02E2,5.61E2,2.6E1,4.8E1,7.64E2,1.95E2,2.86E2,3E0,2.5E1,1.32E2,1E0,7E0,4E0,1E0,1.1E1,1.2E1,4E0,1E0,7E0,4.02E2,1.03E2,1.038E3,5E0,5E0,1E0,6E0,3E0,1E0,2.13E2,4.9E1,8.5E1,5E0,6.5E1,3.2E1,2.6E1,3.7E1,2.15E2,2.7E2,5E0,1E0,8E0,1.64E2,3.9E1,1E1,1.2E1,1.9E1,3E0,4E0,1.5E1,1.47E2,7.4E1,2.8E1,1.79E2,3.82E2,2.3E1,3E0,1E1,3.8E1,2.57E2,5.07E2,8E1,1.15E2,2E0,2.84E2,1.1E1,1.4E1,4.6E1,8.6E1],"tree_param":{"num_deleted":"0","num_feature":"1382","num_nodes":"119","size_leaf_vector":"1"}},{"base_weights":[1.741813E-1,1.5819234E-1,2.1405761E-1,1.367454E-1,1.7380002E-1,4.5372438E-1,2.1145934E-1,6.814808E-2,1.4931238E-1,3.0276367E-1,1.6831575E-1,5.648016E-2,1.5994172E-1,1.8929861E-1,2.3779458E-1,1.712846E-1,2.2245798E-2,1.3803811E-1,2.338516E-1,4.0995958E-1,1.348508E-1,2.3196885E-2,1.7185073E-1,2.2500464E-1,1.6999409E-1,2.2678241E-1,8.103594E-2,2.5762153E-1,2.5452886E-2,2.4392088E-3,3.083193E-1,1.8337137E-1,1.1785643E-1,2.8442708E-1,8.260082E-2,-1.3860067E-3,4.5374924E-1,3.2519323E-1,4.57061E-2,2.9528967E-1,-3.566102E-2,1.1659402E-1,1.8120179E-1,7.32914E-2,2.4444176E-1,1.1851277E-1,1.8261229E-1,7.572786E-2,2.106762E-1,1.1060392E-1,2.2365784E-2,7.567086E-2,-1.3402431E-2,-6.954115E-3,5.8135074E-2,7.7391457E-4,1.2679477E-1,1.2763649E-1,5.1016502E-2,-2.3039827E-2,3.7785344E-2,1.0714847E-1,4.0059023E-2,-1.8908735E-2,5.4694097E-2,7.699616E-2,-3.129743E-2,-1.6407859E-2,1.4326863E-1,1.1707698E-1,3.413047E-2,-1.8686885E-2,4.5055788E-2,8.178462E-3,9.761566E-2,-3.6664557E-2,2.9644096E-2,8.468183E-2,2.8126452E-2,7.208409E-2,5.125416E-2,9.9929154E-2,9.659561E-4,-2.7472824E-2,7.553793E-2,1.8878156E-2,3.768185E-2,6.3613415E-2,5.283041E-2,6.0423926E-2,6.882537E-2],"categories":[],"categories_nodes":[],"categories_segments":[],"categories_sizes":[],"default_left":[0,0,0,0,0,0,0,0,0,0,0,0,0,0,0,0,0,0,0,0,0,0,0,0,0,0,0,0,0,0,0,0,0,0,0,0,0,0,0,0,0,0,0,0,0,0,0,0,0,0,0,0,0,0,0,0,0,0,0,0,0,0,0,0,0,0,0,0,0,0,0,0,0,0,0,0,0,0,0,0,0,0,0,0,0,0,0,0,0,0,0],"id":10,"left_children":[1,3,5,7,9,11,13,15,17,19,21,-1,-1,23,25,27,29,31,33,35,37,39,41,43,45,47,-1,49,51,53,55,57,59,61,63,65,67,69,71,73,75,77,79,81,83,85,87,-1,89,-1,-1,-1,-1,-1,-1,-1,-1,-1,-1,-1,-1,-1,-1,-1,-1,-1,-1,-1,-1,-1,-1,-1,-1,-1,-1,-1,-1,-1,-1,-1,-1,-1,-1,-1,-1,-1,-1,-1,-1,-1,-1],"loss_changes":[3.269455E0,1.2154236E0,8.2567596E-1,1.338089E0,1.4618912E0,2.1584535E-1,8.1056213E-1,1.1513349E0,1.2267895E0,1.4926805E0,1.0496979E0,0E0,0E0,5.1386833E-1,1.758194E-1,9.377425E-1,9.6249187E-1,1.0469913E0,1.1545401E0,9.3728733E-1,5.7901734E-1,8.112709E-1,1.0148773E0,8.0187035E-1,3.1874847E-1,1.5456963E-1,0E0,9.280853E-1,4.724783E-1,7.8883827E-1,3.8341665E-1,1.0817242E0,1.2875538E0,1.2144814E0,5.923381E-1,1.8614917E-1,5.9516907E-1,1.0691738E-1,2.9143947E-1,6.372821E-2,5.00929E-1,1.082238E0,1.0068474E0,5.996922E-1,6.307211E-1,3.3890724E-2,4.2952538E-2,0E0,8.478165E-3,0E0,0E0,0E0,0E0,0E0,0E0,0E0,0E0,0E0,0E0,0E0,0E0,0E0,0E0,0E0,0E0,0E0,0E0,0E0,0E0,0E0,0E0,0E0,0E0,0E0,0E0,0E0,0E0,0E0,0E0,0E0,0E0,0E0,0E0,0E0,0E0,0E0,0E0,0E0,0E0,0E0,0E0],"parents":[2147483647,0,0,1,1,2,2,3,3,4,4,5,5,6,6,7,7,8,8,9,9,10,10,13,13,14,14,15,15,16,16,17,17,18,18,19,19,20,20,21,21,22,22,23,23,24,24,25,25,27,27,28,28,29,29,30,30,31,31,32,32,33,33,34,34,35,35,36,36,37,37,38,38,39,39,40,40,41,41,42,42,43,43,44,44,45,45,46,46,48,48],"right_children":[2,4,6,8,10,12,14,16,18,20,22,-1,-1,24,26,28,30,32,34,36,38,40,42,44,46,48,-1,50,52,54,56,58,60,62,64,66,68,70,72,74,76,78,80,82,84,86,88,-1,90,-1,-1,-1,-1,-1,-1,-1,-1,-1,-1,-1,-1,-1,-1,-1,-1,-1,-1,-1,-1,-1,-1,-1,-1,-1,-1,-1,-1,-1,-1,-1,-1,-1,-1,-1,-1,-1,-1,-1,-1,-1,-1],"split_conditions":[1.1886156E-4,7.963414E-5,1.9705265E-5,1.9430756E-5,1.4188144E-4,3.3464844E-6,3.4458506E-5,2.6805044E-4,3.454918E-4,1.7252148E-6,1.2697256E-4,5.648016E-2,1.5994172E-1,4.502562E-6,3.5577803E-5,1.2246468E-4,3.9404412E-4,3.0695566E-4,6.297687E-5,2.3981964E-4,1.227624E-4,2.922384E-4,5.702823E-5,9.498631E-5,3.5169003E-5,5.050125E-6,8.103594E-2,5.831272E-5,2.9316265E-4,4.895515E-4,1.3636762E-5,9.883313E-6,4.9603746E-5,4.6661776E-6,1.7289289E-4,8.318237E-7,9.3484894E-5,3.8188253E-5,1.4660676E-4,3.4389088E-6,3.8544816E-4,2.4447904E-4,5.179675E-6,1.0625561E-4,4.6140817E-6,3.1062635E-5,6.155468E-6,7.572786E-2,3.5251724E-5,1.1060392E-1,2.2365784E-2,7.567086E-2,-1.3402431E-2,-6.954115E-3,5.8135074E-2,7.7391457E-4,1.2679477E-1,1.2763649E-1,5.1016502E-2,-2.3039827E-2,3.7785344E-2,1.0714847E-1,4.0059023E-2,-1.8908735E-2,5.4694097E-2,7.699616E-2,-3.129743E-2,-1.6407859E-2,1.4326863E-1,1.1707698E-1,3.413047E-2,-1.8686885E-2,4.5055788E-2,8.178462E-3,9.761566E-2,-3.6664557E-2,2.9644096E-2,8.468183E-2,2.8126452E-2,7.208409E-2,5.125416E-2,9.9929154E-2,9.659561E-4,-2.7472824E-2,7.553793E-2,1.8878156E-2,3.768185E-2,6.3613415E-2,5.283041E-2,6.0423926E-2,6.882537E-2],"split_indices":[310,246,69,66,519,11,20,875,947,5,480,0,0,3,7,369,1069,1011,180,853,412,979,193,315,54,2,0,176,1023,1347,42,36,183,13,543,3,367,105,465,12,1162,854,17,359,16,66,3,0,8,0,0,0,0,0,0,0,0,0,0,0,0,0,0,0,0,0,0,0,0,0,0,0,0,0,0,0,0,0,0,0,0,0,0,0,0,0,0,0,0,0,0],"split_type":[0,0,0,0,0,0,0,0,0,0,0,0,0,0,0,0,0,0,0,0,0,0,0,0,0,0,0,0,0,0,0,0,0,0,0,0,0,0,0,0,0,0,0,0,0,0,0,0,0,0,0,0,0,0,0,0,0,0,0,0,0,0,0,0,0,0,0,0,0,0,0,0,0,0,0,0,0,0,0,0,0,0,0,0,0,0,0,0,0,0,0],"sum_hessian":[5.18E3,3.701E3,1.479E3,1.563E3,2.138E3,1.4E1,1.465E3,2.43E2,1.32E3,8.5E1,2.053E3,4E0,1E1,8E2,6.65E2,7.4E1,1.69E2,1.167E3,1.53E2,5.1E1,3.4E1,4.9E1,2.004E3,2.77E2,5.23E2,5.02E2,1.63E2,4.6E1,2.8E1,1.59E2,1E1,3.57E2,8.1E2,1.14E2,3.9E1,5E0,4.6E1,1E1,2.4E1,8E0,4.1E1,2.92E2,1.712E3,3.2E1,2.45E2,1.05E2,4.18E2,1.88E2,3.14E2,2.8E1,1.8E1,6E0,2.2E1,1.41E2,1.8E1,3E0,7E0,1.7E1,3.4E2,3.2E1,7.78E2,7.6E1,3.8E1,1.6E1,2.3E1,1E0,4E0,2E0,4.4E1,7E0,3E0,1.2E1,1.2E1,1E0,7E0,2.5E1,1.6E1,3.4E1,2.58E2,2.52E2,1.46E3,6E0,2.6E1,5E0,2.4E2,1.3E1,9.2E1,7E1,3.48E2,2.18E2,9.6E1],"tree_param":{"num_deleted":"0","num_feature":"1382","num_nodes":"91","size_leaf_vector":"1"}},{"base_weights":[-1.7805079E-1,2.695755E-2,-3.928745E-1,7.503424E-2,-7.793268E-2,-3.1446972E-1,-4.800631E-1,-4.4041386E-1,8.746487E-2,1.0525324E-1,-1.378029E-1,-3.654347E-1,-2.1895999E-1,-6.811262E-1,-4.682819E-1,-1.5564376E-1,-1.6668277E0,-2.082143E-1,1.0766917E-1,-8.6006737E-1,1.3851319E-1,-2.844109E-1,-3.2365E-2,-2.9608083E-1,-4.7836792E-1,-7.858606E-1,-2.0987698E-1,-4.6184903E-1,-8.0984616E-1,-4.0539208E-1,-5.2567863E-1,-3.1467E-1,6.919325E-1,-5.4711604E-1,-8.528708E-2,-7.252672E-2,-1.1722307E0,1.1337821E-1,-8.4794366E-1,-4.35996E-1,1.2461283E-1,2.5910467E-1,-9.419095E-2,-1.6760257E-1,-6.1691123E-1,3.9788565E-1,-8.621183E-2,-3.952805E-1,-1.849213E-1,-6.9850403E-1,-3.9254886E-1,4.5636E-3,-9.219081E-1,-6.061542E-1,-1.9793604E-1,-6.265348E-1,-2.759373E-1,-1.8466657E-1,-8.568148E-1,-5.0369817E-1,-3.303632E-1,-3.5938895E-1,-5.377897E-1,-5.853424E-2,-3.2186812E-1,2.1554578E-2,2.4047387E-1,-4.0556693E-1,-1.7497434E-3,-5.0488293E-1,-6.323716E-2,1.1201467E-2,5.5709314E-2,-4.13804E-1,-1.2201423E-2,1.3862889E-1,1.28273945E-2,-9.3572594E-2,5.97717E-2,-3.152621E-1,-3.5841767E-2,-5.752046E-1,-1.4498036E-1,-2.9050121E-2,1.8931055E-1,-2.4968302E-1,-1.7282229E-2,-1.4586826E-1,-6.969677E-2,-1.7045215E-1,-4.6622057E-2,-5.4551516E-2,-2.3468511E-1,-7.356991E-2,-1.524344E-1,-2.9870662E-1,-8.295071E-2,-7.379879E-2,-2.2166748E-1,-1.0827969E-2,-6.669822E-2,-2.307797E-1,-9.9541396E-2,-8.9805454E-2,4.2671086E-3,-6.766837E-2,-9.297395E-3,-2.6526946E-1,-7.814651E-2,-1.2332036E-1,-1.8711364E-1,-8.55132E-2,-1.3384303E-1,-4.885633E-2,-1.5245795E-1,-1.8939562E-1,-1.5084103E-1],"categories":[],"categories_nodes":[],"categories_segments":[],"categories_sizes":[],"default_left":[0,0,0,0,0,0,0,0,0,0,0,0,0,0,0,0,0,0,0,0,0,0,0,0,0,0,0,0,0,0,0,0,0,0,0,0,0,0,0,0,0,0,0,0,0,0,0,0,0,0,0,0,0,0,0,0,0,0,0,0,0,0,0,0,0,0,0,0,0,0,0,0,0,0,0,0,0,0,0,0,0,0,0,0,0,0,0,0,0,0,0,0,0,0,0,0,0,0,0,0,0,0,0,0,0,0,0,0,0,0,0,0,0,0,0,0,0],"id":11,"left_children":[1,3,5,7,9,11,13,15,17,19,21,23,25,27,29,31,33,35,37,39,41,43,45,47,49,51,53,55,57,59,61,63,65,-1,-1,67,69,71,73,-1,-1,75,77,79,81,83,85,87,89,91,93,-1,95,97,99,101,103,105,107,109,111,113,115,-1,-1,-1,-1,-1,-1,-1,-1,-1,-1,-1,-1,-1,-1,-1,-1,-1,-1,-1,-1,-1,-1,-1,-1,-1,-1,-1,-1,-1,-1,-1,-1,-1,-1,-1,-1,-1,-1,-1,-1,-1,-1,-1,-1,-1,-1,-1,-1,-1,-1,-1,-1,-1,-1],"loss_changes":[2.2818526E2,1.3379285E1,1.7144135E1,1.1693484E1,9.161301E0,6.4183044E0,2.5140686E0,1.4758147E1,1.0638202E1,6.733073E0,9.713903E0,6.6646805E0,2.2397232E0,1.4323959E0,3.8766632E0,5.0700574E0,1.2168121E0,1.4826756E1,9.174307E0,5.900295E0,5.636832E0,1.0111212E1,8.536823E0,5.8925056E0,5.941231E0,7.7691126E-1,2.0614357E0,6.23158E-1,9.869652E-1,3.8534012E0,9.929352E-1,2.6008165E0,3.503499E-1,0E0,0E0,8.610056E0,6.5195217E0,9.094196E0,4.233769E0,0E0,0E0,5.7772264E0,4.470202E0,8.206772E0,1.089146E1,4.790192E0,6.930475E0,4.1108894E0,2.8187542E0,3.7967834E0,3.9442902E0,0E0,1.0400295E-2,4.3971968E-1,1.7644348E0,2.9162598E-1,9.937227E-2,1.8147543E-2,3.5824203E-1,2.3449707E0,1.5099144E0,1.1747804E0,1.4724884E0,0E0,0E0,0E0,0E0,0E0,0E0,0E0,0E0,0E0,0E0,0E0,0E0,0E0,0E0,0E0,0E0,0E0,0E0,0E0,0E0,0E0,0E0,0E0,0E0,0E0,0E0,0E0,0E0,0E0,0E0,0E0,0E0,0E0,0E0,0E0,0E0,0E0,0E0,0E0,0E0,0E0,0E0,0E0,0E0,0E0,0E0,0E0,0E0,0E0,0E0,0E0,0E0,0E0,0E0],"parents":[2147483647,0,0,1,1,2,2,3,3,4,4,5,5,6,6,7,7,8,8,9,9,10,10,11,11,12,12,13,13,14,14,15,15,16,16,17,17,18,18,19,19,20,20,21,21,22,22,23,23,24,24,25,25,26,26,27,27,28,28,29,29,30,30,31,31,32,32,35,35,36,36,37,37,38,38,41,41,42,42,43,43,44,44,45,45,46,46,47,47,48,48,49,49,50,50,52,52,53,53,54,54,55,55,56,56,57,57,58,58,59,59,60,60,61,61,62,62],"right_children":[2,4,6,8,10,12,14,16,18,20,22,24,26,28,30,32,34,36,38,40,42,44,46,48,50,52,54,56,58,60,62,64,66,-1,-1,68,70,72,74,-1,-1,76,78,80,82,84,86,88,90,92,94,-1,96,98,100,102,104,106,108,110,112,114,116,-1,-1,-1,-1,-1,-1,-1,-1,-1,-1,-1,-1,-1,-1,-1,-1,-1,-1,-1,-1,-1,-1,-1,-1,-1,-1,-1,-1,-1,-1,-1,-1,-1,-1,-1,-1,-1,-1,-1,-1,-1,-1,-1,-1,-1,-1,-1,-1,-1,-1,-1,-1,-1,-1],"split_conditions":[1.2267548E-6,1.3773125E-6,5.647296E-6,1.3044021E-4,3.9870024E-6,1.1356692E-4,4.6393838E-5,3.541798E-4,1.7874183E-4,2.4807022E-4,3.9847768E-4,7.369655E-6,2.9103862E-4,1.4957978E-4,1.6677062E-5,4.411085E-4,7.141416E-7,2.7602277E-4,2.5254488E-4,1.4414312E-6,1.6631042E-4,3.4439855E-4,2.938847E-6,2.498259E-5,2.4345538E-5,6.6442004E-7,1.5727627E-4,3.6730786E-4,2.4097349E-4,1.0992751E-4,2.5952485E-4,3.5987217E-5,1.8596384E-6,-5.4711604E-1,-8.528708E-2,3.3441826E-4,8.9888206E-5,4.3505614E-4,8.191802E-6,-4.35996E-1,1.2461283E-1,3.910494E-4,3.5074615E-4,3.1622924E-4,1.94404E-4,4.1059338E-4,1.2450875E-4,5.6892535E-5,3.8112987E-5,3.9934367E-4,9.83506E-6,4.5636E-3,1.7050031E-6,1.1772541E-4,8.079449E-6,1.0817418E-4,2.228377E-5,2.3363575E-6,9.737688E-5,1.1844022E-5,1.9893476E-5,4.0079147E-4,3.0218752E-4,-5.853424E-2,-3.2186812E-1,2.1554578E-2,2.4047387E-1,-4.0556693E-1,-1.7497434E-3,-5.0488293E-1,-6.323716E-2,1.1201467E-2,5.5709314E-2,-4.13804E-1,-1.2201423E-2,1.3862889E-1,1.28273945E-2,-9.3572594E-2,5.97717E-2,-3.152621E-1,-3.5841767E-2,-5.752046E-1,-1.4498036E-1,-2.9050121E-2,1.8931055E-1,-2.4968302E-1,-1.7282229E-2,-1.4586826E-1,-6.969677E-2,-1.7045215E-1,-4.6622057E-2,-5.4551516E-2,-2.3468511E-1,-7.356991E-2,-1.524344E-1,-2.9870662E-1,-8.295071E-2,-7.379879E-2,-2.2166748E-1,-1.0827969E-2,-6.669822E-2,-2.307797E-1,-9.9541396E-2,-8.9805454E-2,4.2671086E-3,-6.766837E-2,-9.297395E-3,-2.6526946E-1,-7.814651E-2,-1.2332036E-1,-1.8711364E-1,-8.55132E-2,-1.3384303E-1,-4.885633E-2,-1.5245795E-1,-1.8939562E-1,-1.5084103E-1],"split_indices":[3,4,3,499,13,309,92,1014,645,895,1264,10,1123,434,5,1262,2,768,617,4,492,995,10,69,58,1,561,1140,813,227,745,100,6,0,0,1237,263,1363,25,0,0,1218,1083,1165,698,1316,467,163,130,1364,9,0,1,374,15,259,24,1,208,4,6,1120,780,0,0,0,0,0,0,0,0,0,0,0,0,0,0,0,0,0,0,0,0,0,0,0,0,0,0,0,0,0,0,0,0,0,0,0,0,0,0,0,0,0,0,0,0,0,0,0,0,0,0,0,0,0,0],"split_type":[0,0,0,0,0,0,0,0,0,0,0,0,0,0,0,0,0,0,0,0,0,0,0,0,0,0,0,0,0,0,0,0,0,0,0,0,0,0,0,0,0,0,0,0,0,0,0,0,0,0,0,0,0,0,0,0,0,0,0,0,0,0,0,0,0,0,0,0,0,0,0,0,0,0,0,0,0,0,0,0,0,0,0,0,0,0,0,0,0,0,0,0,0,0,0,0,0,0,0,0,0,0,0,0,0,0,0,0,0,0,0,0,0,0,0,0,0],"sum_hessian":[5.18E3,2.651E3,2.529E3,1.818E3,8.33E2,1.334E3,1.195E3,4.2E1,1.776E3,2.05E2,6.28E2,8.68E2,4.66E2,6.3E1,1.132E3,3.5E1,7E0,1.13E2,1.663E3,6E0,1.99E2,2.62E2,3.66E2,5.4E2,3.28E2,6E0,4.6E2,2.5E1,3.8E1,5.44E2,5.88E2,3E1,5E0,6E0,1E0,1E2,1.3E1,1.654E3,9E0,4E0,2E0,1.31E2,6.8E1,1.95E2,6.7E1,4E1,3.26E2,2.84E2,2.56E2,9E1,2.38E2,1E0,5E0,1.2E1,4.48E2,1.2E1,1.3E1,3E0,3.5E1,2.33E2,3.11E2,4.2E1,5.46E2,2.7E1,3E0,1E0,4E0,4E0,9.6E1,8E0,5E0,8.07E2,8.47E2,5E0,4E0,6.7E1,6.4E1,3.9E1,2.9E1,9E0,1.86E2,5E0,6.2E1,1.3E1,2.7E1,1.1E1,3.15E2,1.81E2,1.03E2,1.7E1,2.39E2,1.3E1,7.7E1,1.06E2,1.32E2,4E0,1E0,4E0,8E0,5.9E1,3.89E2,7E0,5E0,1.2E1,1E0,2E0,1E0,3.3E1,2E0,1.34E2,9.9E1,2.26E2,8.5E1,1.9E1,2.3E1,1.44E2,4.02E2],"tree_param":{"num_deleted":"0","num_feature":"1382","num_nodes":"117","size_leaf_vector":"1"}},{"base_weights":[1.2236308E-1,1.0925067E-1,1.5060808E-1,9.455145E-2,1.2788698E-1,2.7046603E-1,1.46902E-1,1.19342856E-1,6.626913E-2,7.314684E-2,1.374991E-1,3.490492E-1,5.4689042E-2,-8.443482E-3,1.4999044E-1,1.2766898E-1,-1.391917E-2,-3.0892927E-2,7.962659E-2,3.0511586E-2,1.7527643E-1,2.197476E-1,1.302402E-1,3.88206E-1,-5.146741E-2,-9.597906E-2,2.1906844E-1,1.906609E-1,-1.2181534E-1,3.2433036E-1,1.4809035E-1,6.004413E-2,1.4244787E-1,-6.3625455E-2,1.8215312E-1,-6.7387246E-2,1.6545972E-1,-2.1820107E-2,9.2846245E-2,-3.268335E-2,1.01319656E-1,2.2950897E-1,-5.4173473E-2,4.4186196E-1,1.7235652E-1,2.611873E-1,1.2511872E-1,3.6460415E-2,4.2196137E-1,1.5594608E-2,-5.427236E-2,-4.4012717E-3,-3.7731435E-2,7.995432E-2,2.0090705E-2,8.0543295E-2,-3.209205E-2,-1.9674352E-1,2.4535881E-2,1.2654245E-1,1.3874345E-1,7.709965E-2,1.5252613E-1,-2.9895382E-3,4.2052E-2,4.8357386E-2,2.0791193E-2,-3.439479E-2,2.8302096E-2,8.566551E-3,8.237474E-2,-2.4668897E-2,8.836368E-2,-8.658516E-3,8.752278E-2,-3.3552777E-2,2.2951426E-2,-1.3860748E-2,3.0774655E-2,-4.576339E-2,6.5924097E-3,9.98595E-2,1.2555062E-2,8.31608E-2,-5.280704E-3,-4.3467466E-2,1.7173018E-2,1.2861955E-2,1.3884299E-1,-4.0866766E-4,7.322148E-2,2.7467147E-2,1.1126492E-1,1.9492574E-2,4.0927485E-2,1.3344973E-1,5.2058112E-2,-6.245495E-3,4.264923E-3,1.3266671E-2,-2.1681268E-2,-9.889276E-3,-6.2041868E-2,-1.2550137E-3,1.6290296E-2,4.5297258E-2,9.788848E-3,-1.8512327E-2,3.1375352E-2,7.8454114E-2,4.446586E-2],"categories":[],"categories_nodes":[],"categories_segments":[],"categories_sizes":[],"default_left":[0,0,0,0,0,0,0,0,0,0,0,0,0,0,0,0,0,0,0,0,0,0,0,0,0,0,0,0,0,0,0,0,0,0,0,0,0,0,0,0,0,0,0,0,0,0,0,0,0,0,0,0,0,0,0,0,0,0,0,0,0,0,0,0,0,0,0,0,0,0,0,0,0,0,0,0,0,0,0,0,0,0,0,0,0,0,0,0,0,0,0,0,0,0,0,0,0,0,0,0,0,0,0,0,0,0,0,0,0,0,0],"id":12,"left_children":[1,3,5,7,9,11,13,15,17,19,21,23,25,27,29,31,33,35,37,39,41,43,45,47,49,51,53,55,57,59,61,63,65,67,69,71,73,75,77,79,81,83,85,87,89,91,93,-1,95,-1,-1,97,-1,-1,-1,-1,99,101,103,-1,105,107,109,-1,-1,-1,-1,-1,-1,-1,-1,-1,-1,-1,-1,-1,-1,-1,-1,-1,-1,-1,-1,-1,-1,-1,-1,-1,-1,-1,-1,-1,-1,-1,-1,-1,-1,-1,-1,-1,-1,-1,-1,-1,-1,-1,-1,-1,-1,-1,-1],"loss_changes":[1.9023743E0,9.5820236E-1,6.8876266E-1,1.3831882E0,8.102398E-1,7.948201E-1,7.655525E-1,1.1734676E0,1.2081518E0,1.0179175E0,7.6244545E-1,5.688834E-1,3.677602E-1,7.4555606E-1,4.693985E-1,9.848709E-1,6.2558913E-1,8.208803E-1,1.0976968E0,7.505883E-1,8.710451E-1,1.0396233E0,7.855053E-1,2.3676777E-1,6.296613E-2,2.127301E-2,3.266734E-2,2.1662298E-1,2.3510969E-1,2.3092651E-1,4.753914E-1,1.0111585E0,1.1061687E0,4.2187703E-1,1.767197E-1,5.399281E-1,4.501307E-1,8.494439E-1,9.835148E-1,5.864252E-1,1.0738895E0,6.648762E-1,1.497994E-1,1.3060188E-1,1.109117E0,8.033898E-1,7.9081154E-1,0E0,8.190441E-2,0E0,0E0,1.2129034E-3,0E0,0E0,0E0,0E0,1.5460858E-2,1.6255677E-2,7.065816E-3,0E0,4.1705817E-3,3.6125815E-1,6.4416504E-1,0E0,0E0,0E0,0E0,0E0,0E0,0E0,0E0,0E0,0E0,0E0,0E0,0E0,0E0,0E0,0E0,0E0,0E0,0E0,0E0,0E0,0E0,0E0,0E0,0E0,0E0,0E0,0E0,0E0,0E0,0E0,0E0,0E0,0E0,0E0,0E0,0E0,0E0,0E0,0E0,0E0,0E0,0E0,0E0,0E0,0E0,0E0,0E0],"parents":[2147483647,0,0,1,1,2,2,3,3,4,4,5,5,6,6,7,7,8,8,9,9,10,10,11,11,12,12,13,13,14,14,15,15,16,16,17,17,18,18,19,19,20,20,21,21,22,22,23,23,24,24,25,25,26,26,27,27,28,28,29,29,30,30,31,31,32,32,33,33,34,34,35,35,36,36,37,37,38,38,39,39,40,40,41,41,42,42,43,43,44,44,45,45,46,46,48,48,51,51,56,56,57,57,58,58,60,60,61,61,62,62],"right_children":[2,4,6,8,10,12,14,16,18,20,22,24,26,28,30,32,34,36,38,40,42,44,46,48,50,52,54,56,58,60,62,64,66,68,70,72,74,76,78,80,82,84,86,88,90,92,94,-1,96,-1,-1,98,-1,-1,-1,-1,100,102,104,-1,106,108,110,-1,-1,-1,-1,-1,-1,-1,-1,-1,-1,-1,-1,-1,-1,-1,-1,-1,-1,-1,-1,-1,-1,-1,-1,-1,-1,-1,-1,-1,-1,-1,-1,-1,-1,-1,-1,-1,-1,-1,-1,-1,-1,-1,-1,-1,-1,-1,-1],"split_conditions":[1.0849602E-4,2.057575E-4,1.6048105E-5,2.3814736E-4,9.208951E-5,1.0996616E-4,1.169787E-5,2.184044E-4,1.26973E-4,1.762559E-4,2.0706257E-5,4.110787E-4,1.1584882E-4,3.4601457E-4,2.4491626E-5,1.1760091E-4,4.2359153E-4,3.6905005E-4,4.781186E-5,4.0828675E-4,4.5259495E-4,1.4690033E-4,1.6131888E-5,5.22964E-5,3.5222436E-7,2.2005986E-6,3.2495664E-6,4.962749E-5,4.3114036E-4,2.142441E-5,1.4394194E-4,2.4257891E-4,1.3115715E-6,1.6715157E-5,1.6424699E-4,4.9505895E-4,2.0458244E-4,9.873415E-5,2.432048E-4,3.6388516E-4,1.4291488E-4,3.2582253E-4,1.6684038E-5,5.2190826E-6,8.722204E-5,2.0337773E-4,6.0900853E-5,3.6460415E-2,3.4967865E-4,1.5594608E-2,-5.427236E-2,3.3333302E-7,-3.7731435E-2,7.995432E-2,2.0090705E-2,8.0543295E-2,5.621038E-7,1.1682247E-6,1.6994696E-5,1.2654245E-1,4.5590102E-7,1.7336257E-5,5.7822865E-7,-2.9895382E-3,4.2052E-2,4.8357386E-2,2.0791193E-2,-3.439479E-2,2.8302096E-2,8.566551E-3,8.237474E-2,-2.4668897E-2,8.836368E-2,-8.658516E-3,8.752278E-2,-3.3552777E-2,2.2951426E-2,-1.3860748E-2,3.0774655E-2,-4.576339E-2,6.5924097E-3,9.98595E-2,1.2555062E-2,8.31608E-2,-5.280704E-3,-4.3467466E-2,1.7173018E-2,1.2861955E-2,1.3884299E-1,-4.0866766E-4,7.322148E-2,2.7467147E-2,1.1126492E-1,1.9492574E-2,4.0927485E-2,1.3344973E-1,5.2058112E-2,-6.245495E-3,4.264923E-3,1.3266671E-2,-2.1681268E-2,-9.889276E-3,-6.2041868E-2,-1.2550137E-3,1.6290296E-2,4.5297258E-2,9.788848E-3,-1.8512327E-2,3.1375352E-2,7.8454114E-2,4.446586E-2],"split_indices":[288,626,52,732,310,330,38,587,444,524,72,1206,361,1108,83,399,1232,1035,167,1241,1306,508,59,177,1,7,10,140,1377,59,451,747,3,46,507,1249,658,300,897,1190,503,924,48,21,288,655,205,0,1014,0,0,1,0,0,0,0,2,4,53,0,1,52,1,0,0,0,0,0,0,0,0,0,0,0,0,0,0,0,0,0,0,0,0,0,0,0,0,0,0,0,0,0,0,0,0,0,0,0,0,0,0,0,0,0,0,0,0,0,0,0,0],"split_type":[0,0,0,0,0,0,0,0,0,0,0,0,0,0,0,0,0,0,0,0,0,0,0,0,0,0,0,0,0,0,0,0,0,0,0,0,0,0,0,0,0,0,0,0,0,0,0,0,0,0,0,0,0,0,0,0,0,0,0,0,0,0,0,0,0,0,0,0,0,0,0,0,0,0,0,0,0,0,0,0,0,0,0,0,0,0,0,0,0,0,0,0,0,0,0,0,0,0,0,0,0,0,0,0,0,0,0,0,0,0,0],"sum_hessian":[5.18E3,3.541E3,1.639E3,1.983E3,1.558E3,4.7E1,1.592E3,1.055E3,9.28E2,2.34E2,1.324E3,3.4E1,1.3E1,3.1E1,1.561E3,9.93E2,6.2E1,1.12E2,8.16E2,1.66E2,6.8E1,1.05E2,1.219E3,3.1E1,3E0,7E0,6E0,1.1E1,2E1,1.5E1,1.546E3,1.79E2,8.14E2,5E1,1.2E1,9.5E1,1.7E1,9.4E1,7.22E2,8.8E1,7.8E1,5.5E1,1.3E1,1.7E1,8.8E1,4.4E1,1.175E3,4E0,2.7E1,2E0,1E0,2E0,5E0,4E0,2E0,8E0,3E0,1.3E1,7E0,9E0,6E0,9.2E1,1.454E3,9.6E1,8.3E1,6.47E2,1.67E2,3.8E1,1.2E1,5E0,7E0,9.2E1,3E0,7E0,1E1,4.9E1,4.5E1,4.7E1,6.75E2,2.7E1,6.1E1,1.5E1,6.3E1,4.6E1,9E0,7E0,6E0,1E0,1.6E1,2.6E1,6.2E1,1.8E1,2.6E1,1.87E2,9.88E2,2.4E1,3E0,1E0,1E0,1E0,2E0,1E0,1.2E1,4E0,3E0,5E0,1E0,1.5E1,7.7E1,5.3E1,1.401E3],"tree_param":{"num_deleted":"0","num_feature":"1382","num_nodes":"111","size_leaf_vector":"1"}},{"base_weights":[-1.2599872E-1,2.2603588E-2,-2.7698052E-1,8.91946E-2,-3.829618E-2,-2.2426239E-1,-3.4137177E-1,9.493824E-2,-1.1155628E0,8.83533E-2,-9.371501E-2,-3.114371E-1,-1.8693927E-1,-4.1778827E-1,-3.2233202E-1,1.1153896E-1,-3.0338565E-1,-9.921287E-2,-4.2759362E-1,2.2505619E-1,-1.5055867E-1,-8.7221545E-1,-8.029285E-2,-1.2243859E0,-2.975875E-1,-2.3967351E-1,-1.3110134E-1,-1.4800088E-1,-4.4748E-1,-2.2158869E-1,-3.6011833E-1,1.4874378E-1,-8.219558E-2,2.2210528E-3,-1.3871022E0,6.109032E-4,3.504779E-1,-1.0232408E-1,-1.5481906E0,-4.3283212E-1,-1.2131049E-1,1.0723625E-1,-1.308193E-1,-3.9735118E-1,-1.08569354E-1,-2.2315592E-1,-4.0485743E-1,-2.965164E-1,-1.3381422E-1,-3.0032882E-1,-1.1395855E-1,-4.6510696E-3,-2.193851E-1,-3.3066988E-1,-5.0735104E-1,-5.807289E-2,-2.5160053E-1,-6.4059995E-2,-3.681442E-1,5.443435E-2,-3.7951387E-2,-9.470625E-3,-2.5295588E-1,-4.0403005E-1,5.685564E-2,-5.081439E-1,-1.2807164E-1,1.3764185E-1,-4.0140353E-2,-1.3109381E-2,1.3480295E-1,3.47663E-3,-1.9118519E-1,-5.5147123E-1,-5.8200534E-2,8.2815275E-2,-8.993183E-2,-7.546449E-2,6.0579196E-2,-1.9342335E-1,-3.2201987E-2,-1.16639875E-1,-4.2293314E-2,-1.6460338E-1,-7.9382375E-2,-1.4725243E-1,-6.821289E-2,-3.2232106E-2,-1.7142776E-1,-4.8424315E-2,-1.9719487E-1,-2.4951674E-1,-3.2641713E-2,1.2064374E-2,-2.1236032E-2,-2.0842424E-2,-7.9069704E-2,-1.3368161E-1,-6.4831935E-2,-6.473531E-2,-1.6195191E-1,-2.8367694E-2,3.1275623E-2,-1.2088089E-1,-6.349686E-2,5.1736277E-2,-7.552441E-2,-3.1534287E-3,-1.1159562E-1],"categories":[],"categories_nodes":[],"categories_segments":[],"categories_sizes":[],"default_left":[0,0,0,0,0,0,0,0,0,0,0,0,0,0,0,0,0,0,0,0,0,0,0,0,0,0,0,0,0,0,0,0,0,0,0,0,0,0,0,0,0,0,0,0,0,0,0,0,0,0,0,0,0,0,0,0,0,0,0,0,0,0,0,0,0,0,0,0,0,0,0,0,0,0,0,0,0,0,0,0,0,0,0,0,0,0,0,0,0,0,0,0,0,0,0,0,0,0,0,0,0,0,0,0,0,0,0,0,0],"id":13,"left_children":[1,3,5,7,9,11,13,15,17,19,21,23,25,27,29,31,33,-1,-1,35,37,39,41,43,45,47,49,51,53,55,57,59,61,63,65,67,69,71,73,-1,75,77,79,-1,-1,81,83,85,87,89,91,93,95,97,99,101,103,105,107,-1,-1,-1,-1,-1,-1,-1,-1,-1,-1,-1,-1,-1,-1,-1,-1,-1,-1,-1,-1,-1,-1,-1,-1,-1,-1,-1,-1,-1,-1,-1,-1,-1,-1,-1,-1,-1,-1,-1,-1,-1,-1,-1,-1,-1,-1,-1,-1,-1,-1],"loss_changes":[1.1624845E2,1.0596061E1,8.647522E0,8.7416935E0,9.588896E0,4.5489273E0,1.5458069E0,8.25313E0,9.872823E-1,1.3620424E1,9.85667E0,4.9840355E0,2.895481E0,1.7521477E0,3.4566422E0,8.618408E0,1.6562634E1,0E0,0E0,7.4596195E0,1.0088539E1,6.6799374E0,8.873322E0,3.876877E-2,3.247078E0,3.029171E0,1.3727751E0,2.4456954E-1,1.258915E0,1.2416868E0,1.5779343E0,9.042698E0,7.4090047E0,1.03617325E1,2.516428E0,5.973738E0,6.6445866E0,9.026328E0,1.6072693E0,0E0,6.5006465E-1,6.8117967E0,8.823901E0,0E0,0E0,3.334652E0,3.283844E0,4.335594E0,2.0160778E0,2.0758908E0,1.5442514E0,2.9551651E-2,8.765876E-2,8.5175514E-1,1.1433716E0,2.5268465E-1,1.220438E0,8.8684195E-1,8.9725494E-1,0E0,0E0,0E0,0E0,0E0,0E0,0E0,0E0,0E0,0E0,0E0,0E0,0E0,0E0,0E0,0E0,0E0,0E0,0E0,0E0,0E0,0E0,0E0,0E0,0E0,0E0,0E0,0E0,0E0,0E0,0E0,0E0,0E0,0E0,0E0,0E0,0E0,0E0,0E0,0E0,0E0,0E0,0E0,0E0,0E0,0E0,0E0,0E0,0E0,0E0],"parents":[2147483647,0,0,1,1,2,2,3,3,4,4,5,5,6,6,7,7,8,8,9,9,10,10,11,11,12,12,13,13,14,14,15,15,16,16,19,19,20,20,21,21,22,22,23,23,24,24,25,25,26,26,27,27,28,28,29,29,30,30,31,31,32,32,33,33,34,34,35,35,36,36,37,37,38,38,40,40,41,41,42,42,45,45,46,46,47,47,48,48,49,49,50,50,51,51,52,52,53,53,54,54,55,55,56,56,57,57,58,58],"right_children":[2,4,6,8,10,12,14,16,18,20,22,24,26,28,30,32,34,-1,-1,36,38,40,42,44,46,48,50,52,54,56,58,60,62,64,66,68,70,72,74,-1,76,78,80,-1,-1,82,84,86,88,90,92,94,96,98,100,102,104,106,108,-1,-1,-1,-1,-1,-1,-1,-1,-1,-1,-1,-1,-1,-1,-1,-1,-1,-1,-1,-1,-1,-1,-1,-1,-1,-1,-1,-1,-1,-1,-1,-1,-1,-1,-1,-1,-1,-1,-1,-1,-1,-1,-1,-1,-1,-1,-1,-1,-1,-1],"split_conditions":[3.9911456E-6,9.750481E-7,3.9382944E-6,1.21029996E-4,3.7001548E-5,1.9566707E-4,5.1812953E-5,4.923503E-4,1.2195137E-6,3.4065E-7,3.0192977E-4,5.96094E-5,1.3555307E-4,9.130826E-6,8.0109385E-6,4.247682E-4,7.3018177E-6,-9.921287E-2,-4.2759362E-1,1.0096356E-4,4.5617615E-4,2.4275662E-4,8.5164436E-5,6.6442004E-7,2.606157E-6,2.1768556E-4,2.0801455E-4,3.885555E-4,3.8901332E-4,1.5069449E-5,3.1480583E-4,3.225482E-5,2.6247255E-4,1.9769905E-4,2.0017744E-5,7.283911E-5,3.480576E-4,4.6658196E-4,3.919527E-7,-4.3283212E-1,1.8679598E-6,8.4864616E-5,9.807816E-7,-3.9735118E-1,-1.08569354E-1,7.761169E-5,3.8256572E-4,1.5158992E-4,5.061878E-4,3.9556602E-4,1.254777E-4,2.5643074E-5,1.0121881E-4,1.0609727E-4,3.4380404E-4,4.921935E-4,3.3580887E-4,2.554308E-4,1.9570669E-4,5.443435E-2,-3.7951387E-2,-9.470625E-3,-2.5295588E-1,-4.0403005E-1,5.685564E-2,-5.081439E-1,-1.2807164E-1,1.3764185E-1,-4.0140353E-2,-1.3109381E-2,1.3480295E-1,3.47663E-3,-1.9118519E-1,-5.5147123E-1,-5.8200534E-2,8.2815275E-2,-8.993183E-2,-7.546449E-2,6.0579196E-2,-1.9342335E-1,-3.2201987E-2,-1.16639875E-1,-4.2293314E-2,-1.6460338E-1,-7.9382375E-2,-1.4725243E-1,-6.821289E-2,-3.2232106E-2,-1.7142776E-1,-4.8424315E-2,-1.9719487E-1,-2.4951674E-1,-3.2641713E-2,1.2064374E-2,-2.1236032E-2,-2.0842424E-2,-7.9069704E-2,-1.3368161E-1,-6.4831935E-2,-6.473531E-2,-1.6195191E-1,-2.8367694E-2,3.1275623E-2,-1.2088089E-1,-6.349686E-2,5.1736277E-2,-7.552441E-2,-3.1534287E-3,-1.1159562E-1],"split_indices":[10,3,2,291,121,621,77,1301,4,1,1185,223,388,4,3,1204,21,0,0,325,1209,730,286,1,3,633,700,1220,1194,7,1056,89,723,729,56,241,1168,1329,1,0,6,287,3,0,0,243,1162,485,1321,1123,463,33,280,258,1144,1335,1030,674,586,0,0,0,0,0,0,0,0,0,0,0,0,0,0,0,0,0,0,0,0,0,0,0,0,0,0,0,0,0,0,0,0,0,0,0,0,0,0,0,0,0,0,0,0,0,0,0,0,0,0],"split_type":[0,0,0,0,0,0,0,0,0,0,0,0,0,0,0,0,0,0,0,0,0,0,0,0,0,0,0,0,0,0,0,0,0,0,0,0,0,0,0,0,0,0,0,0,0,0,0,0,0,0,0,0,0,0,0,0,0,0,0,0,0,0,0,0,0,0,0,0,0,0,0,0,0,0,0,0,0,0,0,0,0,0,0,0,0,0,0,0,0,0,0,0,0,0,0,0,0,0,0,0,0,0,0,0,0,0,0,0,0],"sum_hessian":[5.18E3,2.611E3,2.569E3,1.247E3,1.364E3,1.415E3,1.154E3,1.242E3,5E0,4.15E2,9.49E2,4.22E2,9.93E2,2.26E2,9.28E2,1.193E3,4.9E1,2E0,3E0,2.64E2,1.51E2,1.5E1,9.34E2,5E0,4.17E2,5.09E2,4.84E2,2.3E1,2.03E2,2.55E2,6.73E2,1.001E3,1.92E2,3.9E1,1E1,9.5E1,1.69E2,1.47E2,4E0,8E0,7E0,1.98E2,7.36E2,4E0,1E0,2.48E2,1.69E2,3.3E2,1.79E2,4.3E1,4.41E2,8E0,1.5E1,7.1E1,1.32E2,4E1,2.15E2,1.8E1,6.55E2,8.95E2,1.06E2,1.81E2,1.1E1,4E0,3.5E1,7E0,3E0,2.1E1,7.4E1,3.4E1,1.35E2,1.22E2,2.5E1,3E0,1E0,2E0,5E0,4.1E1,1.57E2,3.1E1,7.05E2,8.1E1,1.67E2,8.2E1,8.7E1,8.5E1,2.45E2,1.7E2,9E0,3.2E1,1.1E1,2E0,4.39E2,5E0,3E0,4E0,1.1E1,3.4E1,3.7E1,1.4E1,1.18E2,3.3E1,7E0,4.3E1,1.72E2,8E0,1E1,7E0,6.48E2],"tree_param":{"num_deleted":"0","num_feature":"1382","num_nodes":"109","size_leaf_vector":"1"}},{"base_weights":[8.593725E-2,7.604185E-2,1.1321834E-1,3.5357263E-2,8.343726E-2,2.2812776E-1,1.0826513E-1,2.0178266E-1,2.3794496E-2,2.3016889E-2,8.827532E-2,2.8432485E-1,-5.8811437E-2,1.0505975E-2,1.1364013E-1,-4.881846E-2,2.8123882E-1,1.558654E-2,2.4052599E-1,9.544676E-2,-3.0298678E-2,1.801473E-2,9.2071526E-2,3.3990106E-1,4.4702873E-2,-3.6994286E-2,6.877139E-2,1.4104472E-1,-6.514988E-2,1.8592244E-1,1.04962885E-1,6.760778E-2,-4.131118E-2,4.1433057E-1,8.556199E-2,-4.8315045E-3,9.2887536E-2,-2.5062377E-2,3.3072627E-1,-3.402495E-2,1.7613599E-1,2.639402E-2,-1.1479668E-1,-8.907871E-2,7.0358485E-2,-8.803562E-2,9.3450814E-2,1.03807844E-1,3.7252706E-1,1.3726076E-1,-1.2844916E-1,2.884536E-2,-2.0052018E-3,2.3685936E-2,3.2645017E-1,-1.1105283E-1,1.3080117E-1,2.1263756E-1,-7.7035345E-2,-9.307665E-2,1.0846183E-1,8.158565E-3,2.5645329E-2,1.3562976E-1,5.3567372E-2,5.656586E-2,-8.895607E-3,-1.3218016E-2,1.199916E-2,5.3913902E-2,3.6477676E-4,-3.462627E-2,1.4691634E-2,9.516666E-3,1.0494535E-1,-3.0582197E-2,5.397487E-2,-6.149759E-3,6.830134E-2,2.4998548E-2,-3.582425E-2,3.3839934E-2,-4.488375E-2,1.0489986E-1,-3.7135497E-2,-8.4872935E-3,4.974574E-2,6.474373E-2,-5.0264098E-2,6.46961E-2,2.7305959E-2,7.101931E-3,3.4530055E-2,6.3919425E-2,1.2450973E-1,4.6796534E-2,3.7342072E-3,-8.689128E-3,-4.558691E-2,-2.5430087E-2,3.8852118E-2,1.12620376E-1,2.6129192E-2,3.1700267E-3,-5.0955877E-2,1.2977E-2,6.882529E-2,-1.2205879E-2,7.305209E-2,4.6358693E-2,-4.8587263E-2,-5.169917E-2,1.0230968E-3,-1.4744944E-2,3.3337303E-2],"categories":[],"categories_nodes":[],"categories_segments":[],"categories_sizes":[],"default_left":[0,0,0,0,0,0,0,0,0,0,0,0,0,0,0,0,0,0,0,0,0,0,0,0,0,0,0,0,0,0,0,0,0,0,0,0,0,0,0,0,0,0,0,0,0,0,0,0,0,0,0,0,0,0,0,0,0,0,0,0,0,0,0,0,0,0,0,0,0,0,0,0,0,0,0,0,0,0,0,0,0,0,0,0,0,0,0,0,0,0,0,0,0,0,0,0,0,0,0,0,0,0,0,0,0,0,0,0,0,0,0,0,0,0,0],"id":14,"left_children":[1,3,5,7,9,11,13,15,17,19,21,23,25,27,29,31,33,35,37,39,41,43,45,47,49,-1,51,53,55,57,59,61,-1,63,65,67,69,71,73,75,77,79,81,83,85,87,89,91,93,95,97,-1,-1,99,101,103,105,107,109,111,113,-1,-1,-1,-1,-1,-1,-1,-1,-1,-1,-1,-1,-1,-1,-1,-1,-1,-1,-1,-1,-1,-1,-1,-1,-1,-1,-1,-1,-1,-1,-1,-1,-1,-1,-1,-1,-1,-1,-1,-1,-1,-1,-1,-1,-1,-1,-1,-1,-1,-1,-1,-1,-1,-1],"loss_changes":[1.3900375E0,1.1418953E0,7.5905037E-1,1.1247852E0,9.3893814E-1,9.1972995E-1,6.9345856E-1,7.70378E-1,9.7465837E-1,9.296854E-1,7.9317856E-1,6.107173E-1,9.077505E-2,7.0051044E-1,7.663803E-1,1.1279586E-1,7.1979547E-1,8.385448E-1,4.8741162E-1,1.0715842E0,6.6889834E-1,8.6954105E-1,7.1050835E-1,2.5403404E-1,1.7789689E-1,0E0,8.906491E-3,5.580007E-1,4.192888E-1,9.5069885E-1,7.8686714E-1,1.2874343E-3,0E0,7.065582E-2,1.5984887E-1,7.421181E-1,8.832782E-1,4.5790285E-2,7.452977E-2,5.9953946E-1,6.4308524E-1,7.072776E-1,4.6061778E-1,8.198705E-1,9.8407394E-1,5.676649E-1,8.139477E-1,2.704665E-3,1.352458E-1,1.4420614E-2,4.953265E-3,0E0,0E0,2.0608021E-1,8.446932E-2,2.6639074E-1,6.77761E-2,9.561219E-1,2.8067148E-1,1.5352708E-1,4.679079E-1,0E0,0E0,0E0,0E0,0E0,0E0,0E0,0E0,0E0,0E0,0E0,0E0,0E0,0E0,0E0,0E0,0E0,0E0,0E0,0E0,0E0,0E0,0E0,0E0,0E0,0E0,0E0,0E0,0E0,0E0,0E0,0E0,0E0,0E0,0E0,0E0,0E0,0E0,0E0,0E0,0E0,0E0,0E0,0E0,0E0,0E0,0E0,0E0,0E0,0E0,0E0,0E0,0E0,0E0],"parents":[2147483647,0,0,1,1,2,2,3,3,4,4,5,5,6,6,7,7,8,8,9,9,10,10,11,11,12,12,13,13,14,14,15,15,16,16,17,17,18,18,19,19,20,20,21,21,22,22,23,23,24,24,26,26,27,27,28,28,29,29,30,30,31,31,33,33,34,34,35,35,36,36,37,37,38,38,39,39,40,40,41,41,42,42,43,43,44,44,45,45,46,46,47,47,48,48,49,49,50,50,53,53,54,54,55,55,56,56,57,57,58,58,59,59,60,60],"right_children":[2,4,6,8,10,12,14,16,18,20,22,24,26,28,30,32,34,36,38,40,42,44,46,48,50,-1,52,54,56,58,60,62,-1,64,66,68,70,72,74,76,78,80,82,84,86,88,90,92,94,96,98,-1,-1,100,102,104,106,108,110,112,114,-1,-1,-1,-1,-1,-1,-1,-1,-1,-1,-1,-1,-1,-1,-1,-1,-1,-1,-1,-1,-1,-1,-1,-1,-1,-1,-1,-1,-1,-1,-1,-1,-1,-1,-1,-1,-1,-1,-1,-1,-1,-1,-1,-1,-1,-1,-1,-1,-1,-1,-1,-1,-1,-1],"split_conditions":[2.702104E-4,8.526879E-5,2.9862952E-6,2.5314785E-4,2.1436223E-5,1.7038987E-4,8.1201644E-5,3.9169108E-4,3.4599865E-4,1.8358561E-4,2.517289E-5,4.4046994E-4,1.1671132E-5,4.148347E-4,6.85345E-7,1.314227E-6,2.4260716E-4,2.9269452E-4,2.473452E-4,6.0384325E-5,1.1856638E-4,2.6782538E-4,1.3130032E-4,1.7689737E-5,1.788616E-5,-3.6994286E-2,6.344792E-7,1.3926507E-4,1.539205E-4,4.3485424E-4,6.007706E-5,2.135704E-6,-4.131118E-2,1.0863041E-4,3.6738673E-4,3.1649464E-4,9.093888E-5,1.5018733E-6,7.739187E-6,7.835498E-5,1.9378735E-5,3.359321E-4,2.1387964E-4,2.2596926E-4,9.791194E-5,5.776745E-5,3.1856E-4,2.986515E-7,2.7586097E-5,6.7318916E-7,9.0194595E-7,2.884536E-2,-2.0052018E-3,2.5002615E-4,7.4599047E-6,2.6170266E-4,9.339455E-6,6.656273E-5,2.6916017E-5,3.2954625E-4,2.5568897E-5,8.158565E-3,2.5645329E-2,1.3562976E-1,5.3567372E-2,5.656586E-2,-8.895607E-3,-1.3218016E-2,1.199916E-2,5.3913902E-2,3.6477676E-4,-3.462627E-2,1.4691634E-2,9.516666E-3,1.0494535E-1,-3.0582197E-2,5.397487E-2,-6.149759E-3,6.830134E-2,2.4998548E-2,-3.582425E-2,3.3839934E-2,-4.488375E-2,1.0489986E-1,-3.7135497E-2,-8.4872935E-3,4.974574E-2,6.474373E-2,-5.0264098E-2,6.46961E-2,2.7305959E-2,7.101931E-3,3.4530055E-2,6.3919425E-2,1.2450973E-1,4.6796534E-2,3.7342072E-3,-8.689128E-3,-4.558691E-2,-2.5430087E-2,3.8852118E-2,1.12620376E-1,2.6129192E-2,3.1700267E-3,-5.0955877E-2,1.2977E-2,6.882529E-2,-1.2205879E-2,7.305209E-2,4.6358693E-2,-4.8587263E-2,-5.169917E-2,1.0230968E-3,-1.4744944E-2,3.3337303E-2],"split_indices":[743,289,10,911,75,508,273,1289,913,589,90,1301,37,1316,2,4,767,843,835,191,363,880,513,62,58,0,2,425,427,1166,203,7,0,311,1104,975,276,5,30,229,66,1007,764,890,302,188,1211,1,93,2,3,0,0,824,22,850,28,234,88,1030,85,0,0,0,0,0,0,0,0,0,0,0,0,0,0,0,0,0,0,0,0,0,0,0,0,0,0,0,0,0,0,0,0,0,0,0,0,0,0,0,0,0,0,0,0,0,0,0,0,0,0,0,0,0,0],"split_type":[0,0,0,0,0,0,0,0,0,0,0,0,0,0,0,0,0,0,0,0,0,0,0,0,0,0,0,0,0,0,0,0,0,0,0,0,0,0,0,0,0,0,0,0,0,0,0,0,0,0,0,0,0,0,0,0,0,0,0,0,0,0,0,0,0,0,0,0,0,0,0,0,0,0,0,0,0,0,0,0,0,0,0,0,0,0,0,0,0,0,0,0,0,0,0,0,0,0,0,0,0,0,0,0,0,0,0,0,0,0,0,0,0,0,0],"sum_hessian":[5.18E3,3.804E3,1.376E3,5.86E2,3.218E3,5.5E1,1.321E3,3.7E1,5.49E2,2.39E2,2.979E3,4.6E1,9E0,6.9E1,1.252E3,9E0,2.8E1,5.3E2,1.9E1,1.01E2,1.38E2,1.53E2,2.826E3,3.7E1,9E0,6E0,3E0,2.5E1,4.4E1,1.32E2,1.12E3,4E0,5E0,1.6E1,1.2E1,4.2E2,1.1E2,5E0,1.4E1,3.9E1,6.2E1,8.3E1,5.5E1,5E1,1.03E2,2.1E1,2.805E3,5E0,3.2E1,6E0,3E0,2E0,1E0,1.6E1,9E0,3.6E1,8E0,1.2E2,1.2E1,1.9E1,1.101E3,2E0,2E0,1.3E1,3E0,6E0,6E0,2.24E2,1.96E2,5.6E1,5.4E1,2E0,3E0,1E0,1.3E1,3E1,9E0,1.3E1,4.9E1,6E1,2.3E1,7E0,4.8E1,3E0,4.7E1,5.1E1,5.2E1,4E0,1.7E1,5.3E1,2.752E3,1E0,4E0,8E0,2.4E1,5E0,1E0,1E0,2E0,8E0,8E0,7E0,2E0,1.2E1,2.4E1,5E0,3E0,1.3E1,1.07E2,3E0,9E0,1E1,9E0,1.8E1,1.083E3],"tree_param":{"num_deleted":"0","num_feature":"1382","num_nodes":"115","size_leaf_vector":"1"}},{"base_weights":[-8.930406E-2,2.8493397E-2,-1.8847679E-1,1.5143345E-1,-2.5815738E-3,9.212636E-2,-1.9661862E-1,-1.2685525E-1,2.1631192E-1,3.465212E-2,-1.2663119E-1,-1.6696884E-1,2.9735526E-1,-1.7319265E-1,-2.6562887E-1,-5.4290766E-1,9.715361E-2,-5.9659388E-2,2.7938023E-1,1.20021254E-1,-4.031055E-2,-2.841815E-1,-9.841533E-3,1.496142E-1,-2.65764E-1,5.9917873E-1,8.293936E-3,-5.261996E-1,-1.6606374E-1,-4.330275E-1,-2.504717E-1,-8.9854497E-1,-1.3111128E-1,2.9379517E-1,-2.8202808E-1,-3.055417E-1,3.2393932E-1,1.2504362E-1,3.9680523E-1,-6.877178E-2,1.8395284E-1,1.1625495E-2,-2.9848218E-1,-9.120856E-1,-1.8998592E-1,5.9061673E-2,-4.3872887E-1,-3.5602444E-1,1.07455425E-1,6.583175E-2,7.1404296E-1,3.018443E-1,-2.2294518E-1,-1.1486133E0,-3.3470201E-1,-3.739791E-1,-1.5722883E-1,-5.028941E-1,-1.3494216E-1,-1.7872635E-1,-2.864309E-1,-3.6453605E-1,-8.181183E-2,-1.3575849E-1,3.2097522E-2,-7.979424E-2,1.3261533E-1,7.412323E-2,-1.3884477E-1,6.9657005E-2,-1.39744E-1,1.4292876E-2,2.3151888E-1,-1.8263365E-1,5.6138877E-2,1.3252209E-1,-7.9605706E-2,-1.0135352E-1,2.096176E-2,-1.5796386E-1,6.1977774E-2,4.456834E-2,-2.85739E-2,-4.7764733E-1,-6.35742E-2,-9.473747E-2,-4.4461912E-1,-4.453336E-2,-3.7567335E-1,1.6351503E-1,-1.161042E-3,1.7042424E-1,-1.8763997E-1,-1.2969835E-1,-8.8875685E-3,4.023172E-2,-7.866962E-3,4.857664E-2,-4.777947E-2,1.0836657E-1,2.3671423E-1,1.7429547E-1,3.7363034E-2,-9.32726E-2,-7.2877674E-4,-4.0064517E-1,-9.891328E-2,-1.5330154E-1,-2.1457873E-2,-3.0428953E-2,-1.4815249E-1,-4.491772E-2,-1.12983085E-1,-4.240388E-2,-1.6336618E-1,5.3173453E-3,-1.0566611E-1,-4.6084873E-2,-1.386447E-1,-1.00062974E-1,-5.2311115E-2],"categories":[],"categories_nodes":[],"categories_segments":[],"categories_sizes":[],"default_left":[0,0,0,0,0,0,0,0,0,0,0,0,0,0,0,0,0,0,0,0,0,0,0,0,0,0,0,0,0,0,0,0,0,0,0,0,0,0,0,0,0,0,0,0,0,0,0,0,0,0,0,0,0,0,0,0,0,0,0,0,0,0,0,0,0,0,0,0,0,0,0,0,0,0,0,0,0,0,0,0,0,0,0,0,0,0,0,0,0,0,0,0,0,0,0,0,0,0,0,0,0,0,0,0,0,0,0,0,0,0,0,0,0,0,0,0,0,0,0,0,0],"id":15,"left_children":[1,3,5,7,9,11,13,15,17,19,21,23,25,27,29,31,33,35,37,39,41,43,45,-1,47,49,51,53,55,57,59,61,63,65,67,69,71,73,75,77,79,81,83,85,87,89,91,93,95,97,99,101,103,105,107,109,111,113,115,117,119,-1,-1,-1,-1,-1,-1,-1,-1,-1,-1,-1,-1,-1,-1,-1,-1,-1,-1,-1,-1,-1,-1,-1,-1,-1,-1,-1,-1,-1,-1,-1,-1,-1,-1,-1,-1,-1,-1,-1,-1,-1,-1,-1,-1,-1,-1,-1,-1,-1,-1,-1,-1,-1,-1,-1,-1,-1,-1,-1,-1],"loss_changes":[6.0531345E1,9.050821E0,6.444763E0,8.6577015E0,8.743205E0,4.303555E0,4.3738556E0,8.533892E0,6.769827E0,9.322507E0,8.038111E0,2.5001252E0,3.9210775E0,5.0564575E0,1.6448059E0,4.568596E0,4.5566316E0,6.984347E0,5.6772423E0,8.232212E0,1.0408398E1,1.0827832E1,7.4729433E0,0E0,1.1162395E0,1.3007689E0,1.6964225E0,4.3831854E0,3.6242142E0,1.0984068E0,1.5896263E0,3.0367546E0,1.2729024E0,3.4371808E0,2.1231236E0,3.9863992E0,3.5511947E0,6.401211E0,5.4431973E0,6.477454E0,8.296305E0,9.482711E0,1.4221448E1,7.6889668E0,7.0069237E0,6.66945E0,6.9356394E0,6.3473153E-1,2.8454706E-2,1.3393663E-1,1.9131565E-1,4.720527E-1,2.708075E-1,9.369345E-1,1.4482081E0,2.596054E0,3.112236E0,6.008196E-1,4.0429652E-1,1.4591117E0,2.1697617E0,0E0,0E0,0E0,0E0,0E0,0E0,0E0,0E0,0E0,0E0,0E0,0E0,0E0,0E0,0E0,0E0,0E0,0E0,0E0,0E0,0E0,0E0,0E0,0E0,0E0,0E0,0E0,0E0,0E0,0E0,0E0,0E0,0E0,0E0,0E0,0E0,0E0,0E0,0E0,0E0,0E0,0E0,0E0,0E0,0E0,0E0,0E0,0E0,0E0,0E0,0E0,0E0,0E0,0E0,0E0,0E0,0E0,0E0,0E0,0E0],"parents":[2147483647,0,0,1,1,2,2,3,3,4,4,5,5,6,6,7,7,8,8,9,9,10,10,11,11,12,12,13,13,14,14,15,15,16,16,17,17,18,18,19,19,20,20,21,21,22,22,24,24,25,25,26,26,27,27,28,28,29,29,30,30,31,31,32,32,33,33,34,34,35,35,36,36,37,37,38,38,39,39,40,40,41,41,42,42,43,43,44,44,45,45,46,46,47,47,48,48,49,49,50,50,51,51,52,52,53,53,54,54,55,55,56,56,57,57,58,58,59,59,60,60],"right_children":[2,4,6,8,10,12,14,16,18,20,22,24,26,28,30,32,34,36,38,40,42,44,46,-1,48,50,52,54,56,58,60,62,64,66,68,70,72,74,76,78,80,82,84,86,88,90,92,94,96,98,100,102,104,106,108,110,112,114,116,118,120,-1,-1,-1,-1,-1,-1,-1,-1,-1,-1,-1,-1,-1,-1,-1,-1,-1,-1,-1,-1,-1,-1,-1,-1,-1,-1,-1,-1,-1,-1,-1,-1,-1,-1,-1,-1,-1,-1,-1,-1,-1,-1,-1,-1,-1,-1,-1,-1,-1,-1,-1,-1,-1,-1,-1,-1,-1,-1,-1,-1],"split_conditions":[4.454865E-6,4.1401972E-6,2.8242866E-6,2.7536994E-4,7.339804E-6,4.115611E-4,2.713625E-6,1.7196874E-4,2.1976611E-4,7.766568E-5,2.3398481E-4,3.4017762E-4,4.9923514E-5,2.4099854E-5,6.191183E-5,1.9481945E-4,4.1973524E-4,4.2127573E-4,3.9427218E-4,1.9280873E-4,8.191853E-5,1.2388043E-5,1.2571791E-4,1.496142E-1,3.818056E-4,1.1047143E-4,2.310752E-4,3.832514E-4,3.186488E-4,1.4869514E-4,1.36529825E-5,2.0372642E-4,3.4381077E-4,4.313701E-5,3.7874185E-4,2.911596E-4,1.7763693E-4,2.155818E-4,3.4053344E-5,1.03747014E-4,3.1470725E-5,5.7173584E-5,3.5603024E-4,3.0930372E-4,1.7795927E-4,7.3147334E-5,2.7980664E-4,2.1409395E-4,3.1980989E-7,1.1311583E-6,3.468368E-4,9.4936195E-6,2.9073957E-5,1.8597348E-5,4.5269562E-4,2.7157055E-4,1.6151644E-4,6.3910826E-5,1.8168254E-4,1.5774701E-4,1.9454843E-5,-3.6453605E-1,-8.181183E-2,-1.3575849E-1,3.2097522E-2,-7.979424E-2,1.3261533E-1,7.412323E-2,-1.3884477E-1,6.9657005E-2,-1.39744E-1,1.4292876E-2,2.3151888E-1,-1.8263365E-1,5.6138877E-2,1.3252209E-1,-7.9605706E-2,-1.0135352E-1,2.096176E-2,-1.5796386E-1,6.1977774E-2,4.456834E-2,-2.85739E-2,-4.7764733E-1,-6.35742E-2,-9.473747E-2,-4.4461912E-1,-4.453336E-2,-3.7567335E-1,1.6351503E-1,-1.161042E-3,1.7042424E-1,-1.8763997E-1,-1.2969835E-1,-8.8875685E-3,4.023172E-2,-7.866962E-3,4.857664E-2,-4.777947E-2,1.0836657E-1,2.3671423E-1,1.7429547E-1,3.7363034E-2,-9.32726E-2,-7.2877674E-4,-4.0064517E-1,-9.891328E-2,-1.5330154E-1,-2.1457873E-2,-3.0428953E-2,-1.4815249E-1,-4.491772E-2,-1.12983085E-1,-4.240388E-2,-1.6336618E-1,5.3173453E-3,-1.0566611E-1,-4.6084873E-2,-1.386447E-1,-1.00062974E-1,-5.2311115E-2],"split_indices":[12,14,9,938,21,1319,1,560,759,244,744,1213,158,85,114,607,1267,1294,1265,639,231,42,351,0,1080,382,761,1295,1162,347,4,629,1095,148,1226,994,545,785,90,339,119,180,1337,945,470,257,978,625,1,3,1075,30,90,52,1373,879,139,172,456,241,4,0,0,0,0,0,0,0,0,0,0,0,0,0,0,0,0,0,0,0,0,0,0,0,0,0,0,0,0,0,0,0,0,0,0,0,0,0,0,0,0,0,0,0,0,0,0,0,0,0,0,0,0,0,0,0,0,0,0,0,0],"split_type":[0,0,0,0,0,0,0,0,0,0,0,0,0,0,0,0,0,0,0,0,0,0,0,0,0,0,0,0,0,0,0,0,0,0,0,0,0,0,0,0,0,0,0,0,0,0,0,0,0,0,0,0,0,0,0,0,0,0,0,0,0,0,0,0,0,0,0,0,0,0,0,0,0,0,0,0,0,0,0,0,0,0,0,0,0,0,0,0,0,0,0,0,0,0,0,0,0,0,0,0,0,0,0,0,0,0,0,0,0,0,0,0,0,0,0,0,0,0,0,0,0],"sum_hessian":[5.18E3,2.368E3,2.812E3,4.77E2,1.891E3,7.9E1,2.733E3,9E1,3.87E2,1.455E3,4.36E2,3.5E1,4.4E1,2.043E3,6.9E2,3.1E1,5.9E1,7.2E1,3.15E2,6.8E2,7.75E2,1.85E2,2.51E2,4E0,3.1E1,2.1E1,2.3E1,3.9E1,2.004E3,5.5E1,6.35E2,1.6E1,1.5E1,3.9E1,2E1,4.4E1,2.8E1,1.37E2,1.78E2,1.72E2,5.08E2,6.46E2,1.29E2,2.3E1,1.62E2,2.17E2,3.4E1,2.5E1,6E0,4E0,1.7E1,1E1,1.3E1,8E0,3.1E1,8E1,1.924E3,4.4E1,1.1E1,2.14E2,4.21E2,1E1,6E0,6E0,9E0,8E0,3.1E1,5E0,1.5E1,1E1,3.4E1,1.8E1,1E1,1E1,1.27E2,1.67E2,1.1E1,5.8E1,1.14E2,1.5E1,4.93E2,2.83E2,3.63E2,7E0,1.22E2,1.2E1,1.1E1,1.57E2,5E0,2.4E1,1.93E2,5E0,2.9E1,2E1,5E0,5E0,1E0,3E0,1E0,4E0,1.3E1,3E0,7E0,9E0,4E0,6E0,2E0,1.8E1,1.3E1,2.5E1,5.5E1,1.862E3,6.2E1,5E0,3.9E1,7E0,4E0,1.98E2,1.6E1,2.95E2,1.26E2],"tree_param":{"num_deleted":"0","num_feature":"1382","num_nodes":"121","size_leaf_vector":"1"}},{"base_weights":[6.0365494E-2,4.712608E-2,7.466577E-2,2.5219752E-3,5.5978287E-2,-1.160149E-1,7.610173E-2,-1.8908296E-2,1.0738433E-1,7.018762E-2,3.0338863E-2,-1.9870482E-1,9.6264064E-2,2.8293E-2,8.14465E-2,-9.207041E-2,1.2160037E-2,3.195534E-2,2.2852941E-1,5.7978038E-2,1.540702E-1,-1.8135803E-2,5.128183E-2,-1.9217407E-2,-6.888097E-2,5.582777E-3,3.2421954E-2,1.8715084E-4,1.4656788E-1,1.3476622E-1,7.3021725E-2,1.11734696E-1,-1.2507886E-1,6.3936375E-2,-4.7779504E-2,-1.6783206E-1,8.89476E-2,4.556917E-2,3.224259E-1,-1.8680092E-2,6.747462E-2,1.8488793E-2,2.0631385E-1,-5.261522E-2,2.9240254E-2,1.3963726E-1,3.5864744E-2,7.378109E-2,-5.238152E-2,2.7119938E-1,2.1058936E-2,2.1211629E-1,8.606369E-2,2.4242356E-2,7.905857E-2,-5.375478E-3,9.92428E-2,-4.506942E-2,1.9052442E-2,3.6686163E-3,6.113086E-2,-2.4218718E-2,3.436091E-2,-6.094572E-2,-1.7781109E-3,-6.6541904E-3,5.7021614E-2,-3.226135E-3,5.980449E-2,4.3505095E-2,1.1262836E-1,8.565138E-3,-5.5700935E-2,5.421029E-2,1.7657582E-2,4.2926013E-2,-4.345023E-2,7.0343524E-2,5.9879303E-4,6.881036E-3,-2.3051031E-2,-1.1613221E-2,1.854819E-2,6.184177E-3,4.9046457E-2,4.439991E-3,1.8116772E-2,-2.2353804E-2,4.000431E-2,-2.7852837E-2,2.6677538E-2,1.0983395E-1,-3.4822242E-3,-1.0174331E-2,7.432059E-2,3.705392E-2,8.465296E-2,8.234922E-2,1.9310875E-2,4.861445E-2,2.2971974E-4,3.4361415E-2,2.0841619E-2],"categories":[],"categories_nodes":[],"categories_segments":[],"categories_sizes":[],"default_left":[0,0,0,0,0,0,0,0,0,0,0,0,0,0,0,0,0,0,0,0,0,0,0,0,0,0,0,0,0,0,0,0,0,0,0,0,0,0,0,0,0,0,0,0,0,0,0,0,0,0,0,0,0,0,0,0,0,0,0,0,0,0,0,0,0,0,0,0,0,0,0,0,0,0,0,0,0,0,0,0,0,0,0,0,0,0,0,0,0,0,0,0,0,0,0,0,0,0,0,0,0,0,0],"id":16,"left_children":[1,3,5,7,9,11,13,15,17,19,21,23,25,27,29,31,33,35,37,39,41,43,45,-1,-1,-1,-1,47,49,51,53,55,57,59,61,63,65,67,69,71,73,75,77,79,81,83,85,87,89,91,93,95,97,99,101,-1,-1,-1,-1,-1,-1,-1,-1,-1,-1,-1,-1,-1,-1,-1,-1,-1,-1,-1,-1,-1,-1,-1,-1,-1,-1,-1,-1,-1,-1,-1,-1,-1,-1,-1,-1,-1,-1,-1,-1,-1,-1,-1,-1,-1,-1,-1,-1],"loss_changes":[9.773865E-1,1.0631757E0,6.903429E-1,1.0065417E0,8.164954E-1,3.5264146E-1,6.291027E-1,8.466848E-1,6.871741E-1,1.4709945E0,8.161384E-1,4.353726E-2,3.4910515E-3,8.310267E-1,9.8829746E-1,7.60705E-1,8.161588E-1,5.6147236E-1,4.8350763E-1,9.207125E-1,1.2924237E0,3.9847872E-1,7.591765E-1,0E0,0E0,0E0,0E0,7.892181E-1,7.4512255E-1,1.119422E0,5.6376743E-1,4.6038628E-1,4.6491122E-1,1.0170007E0,6.61731E-1,6.1699837E-2,4.312516E-1,9.7417995E-2,1.24213934E-1,1.109483E0,1.0858941E0,1.0789077E0,7.591295E-1,2.5979045E-1,2.3046857E-1,2.3225152E-1,2.4655908E-1,7.607714E-1,6.886322E-1,6.4846385E-1,3.1993094E-1,6.85225E-1,7.46768E-1,6.8897665E-1,5.7331467E-1,0E0,0E0,0E0,0E0,0E0,0E0,0E0,0E0,0E0,0E0,0E0,0E0,0E0,0E0,0E0,0E0,0E0,0E0,0E0,0E0,0E0,0E0,0E0,0E0,0E0,0E0,0E0,0E0,0E0,0E0,0E0,0E0,0E0,0E0,0E0,0E0,0E0,0E0,0E0,0E0,0E0,0E0,0E0,0E0,0E0,0E0,0E0,0E0],"parents":[2147483647,0,0,1,1,2,2,3,3,4,4,5,5,6,6,7,7,8,8,9,9,10,10,11,11,12,12,13,13,14,14,15,15,16,16,17,17,18,18,19,19,20,20,21,21,22,22,27,27,28,28,29,29,30,30,31,31,32,32,33,33,34,34,35,35,36,36,37,37,38,38,39,39,40,40,41,41,42,42,43,43,44,44,45,45,46,46,47,47,48,48,49,49,50,50,51,51,52,52,53,53,54,54],"right_children":[2,4,6,8,10,12,14,16,18,20,22,24,26,28,30,32,34,36,38,40,42,44,46,-1,-1,-1,-1,48,50,52,54,56,58,60,62,64,66,68,70,72,74,76,78,80,82,84,86,88,90,92,94,96,98,100,102,-1,-1,-1,-1,-1,-1,-1,-1,-1,-1,-1,-1,-1,-1,-1,-1,-1,-1,-1,-1,-1,-1,-1,-1,-1,-1,-1,-1,-1,-1,-1,-1,-1,-1,-1,-1,-1,-1,-1,-1,-1,-1,-1,-1,-1,-1,-1,-1],"split_conditions":[2.4203575E-4,1.2883208E-5,6.581448E-5,4.4416614E-5,8.93406E-7,4.402968E-4,5.824042E-5,7.515346E-5,6.92094E-5,1.1770823E-5,1.9760771E-5,1.7764161E-5,1.5929929E-6,5.0858514E-5,7.639531E-5,1.5491199E-4,4.195359E-4,3.5233508E-4,1.9280873E-4,3.5652146E-4,1.1141659E-5,1.2436142E-4,8.0166353E-7,-1.9217407E-2,-6.888097E-2,5.582777E-3,3.2421954E-2,4.010071E-4,3.4100137E-4,6.598539E-5,9.64811E-5,1.4158608E-4,9.7953554E-5,2.755764E-4,3.7788335E-4,8.167275E-6,4.1131585E-4,9.5395335E-6,2.0956478E-4,4.223765E-4,1.2528418E-4,8.9072695E-5,4.014284E-4,1.2672198E-4,4.1984807E-4,1.6304288E-5,1.2154534E-4,1.3845303E-4,2.749408E-4,1.09333505E-5,3.0974345E-4,3.385561E-4,5.6724024E-5,3.715638E-4,8.352393E-7,-5.375478E-3,9.92428E-2,-4.506942E-2,1.9052442E-2,3.6686163E-3,6.113086E-2,-2.4218718E-2,3.436091E-2,-6.094572E-2,-1.7781109E-3,-6.6541904E-3,5.7021614E-2,-3.226135E-3,5.980449E-2,4.3505095E-2,1.1262836E-1,8.565138E-3,-5.5700935E-2,5.421029E-2,1.7657582E-2,4.2926013E-2,-4.345023E-2,7.0343524E-2,5.9879303E-4,6.881036E-3,-2.3051031E-2,-1.1613221E-2,1.854819E-2,6.184177E-3,4.9046457E-2,4.439991E-3,1.8116772E-2,-2.2353804E-2,4.000431E-2,-2.7852837E-2,2.6677538E-2,1.0983395E-1,-3.4822242E-3,-1.0174331E-2,7.432059E-2,3.705392E-2,8.465296E-2,8.234922E-2,1.9310875E-2,4.861445E-2,2.2971974E-4,3.4361415E-2,2.0841619E-2],"split_indices":[718,43,250,126,2,1245,194,247,209,32,50,62,6,141,244,550,1292,1202,639,1259,36,372,1,0,0,0,0,1260,1035,211,308,434,269,809,1069,22,1306,27,681,1228,454,275,1102,423,1306,45,322,450,801,29,890,1079,201,1288,1,0,0,0,0,0,0,0,0,0,0,0,0,0,0,0,0,0,0,0,0,0,0,0,0,0,0,0,0,0,0,0,0,0,0,0,0,0,0,0,0,0,0,0,0,0,0,0,0],"split_type":[0,0,0,0,0,0,0,0,0,0,0,0,0,0,0,0,0,0,0,0,0,0,0,0,0,0,0,0,0,0,0,0,0,0,0,0,0,0,0,0,0,0,0,0,0,0,0,0,0,0,0,0,0,0,0,0,0,0,0,0,0,0,0,0,0,0,0,0,0,0,0,0,0,0,0,0,0,0,0,0,0,0,0,0,0,0,0,0,0,0,0,0,0,0,0,0,0,0,0,0,0,0,0],"sum_hessian":[5.18E3,2.692E3,2.488E3,4.46E2,2.246E3,1.8E1,2.47E3,3.71E2,7.5E1,1.444E3,8.02E2,1.3E1,5E0,2.49E2,2.221E3,1.1E2,2.61E2,4.7E1,2.8E1,1.262E3,1.82E2,2.42E2,5.6E2,3E0,1E1,1E0,4E0,2.02E2,4.7E1,3.01E2,1.92E3,1.5E1,9.5E1,1.4E2,1.21E2,1E1,3.7E1,1E1,1.8E1,1.39E2,1.123E3,5.1E1,1.31E2,1.4E2,1.02E2,8.2E1,4.78E2,8.4E1,1.18E2,2.3E1,2.4E1,1.15E2,1.86E2,2.12E2,1.708E3,1E1,5E0,8.4E1,1.1E1,1.03E2,3.7E1,1.01E2,2E1,8E0,2E0,1.8E1,1.9E1,8E0,2E0,5E0,1.3E1,1.09E2,3E1,7.8E1,1.045E3,2.9E1,2.2E1,1.15E2,1.6E1,3.4E1,1.06E2,3.3E1,6.9E1,1.4E1,6.8E1,2.58E2,2.2E2,2.4E1,6E1,9.2E1,2.6E1,1.7E1,6E0,2E1,4E0,5.2E1,6.3E1,1.8E1,1.68E2,3E1,1.82E2,3.61E2,1.347E3],"tree_param":{"num_deleted":"0","num_feature":"1382","num_nodes":"103","size_leaf_vector":"1"}},{"base_weights":[-6.3115574E-2,2.4809351E-2,-1.3486953E-1,1.0844683E-1,-1.4518554E-2,4.632102E-1,-1.3819385E-1,-1.5616525E-2,1.9165435E-1,1.4536859E-1,-4.414299E-2,2.2496895E-1,8.2786866E-2,7.9138875E-2,-1.4355765E-1,1.0358937E-2,-8.5664076E-1,2.067378E-1,-7.838271E-1,-7.572202E-1,1.7860997E-1,2.9915791E-2,-1.336495E-1,5.8765773E-2,-7.928365E-2,5.2552676E-1,-5.458973E-2,-7.154287E-1,-1.4081006E-1,4.4958055E-2,-6.315687E-1,-3.8381314E-1,-2.6257628E-1,-8.775504E-2,2.5801724E-1,-3.1245244E-1,-9.308324E-2,-1.0247886E0,3.5853807E-2,4.1870105E-1,7.322153E-2,4.4676572E-2,-6.7961204E-1,