{"learner":{"attributes":{"scikit_learn":"{\"_estimator_type\": \"regressor\"}"},"feature_names":[],"feature_types":[],"gradient_booster":{"model":{"gbtree_model_param":{"num_parallel_tree":"1","num_trees":"200"},"iteration_indptr":[0,2,4,6,8,10,12,14,16,18,20,22,24,26,28,30,32,34,36,38,40,42,44,46,48,50,52,54,56,58,60,62,64,66,68,70,72,74,76,78,80,82,84,86,88,90,92,94,96,98,100,102,104,106,108,110,112,114,116,118,120,122,124,126,128,130,132,134,136,138,140,142,144,146,148,150,152,154,156,158,160,162,164,166,168,170,172,174,176,178,180,182,184,186,188,190,192,194,196,198,200],"tree_info":[0,1,0,1,0,1,0,1,0,1,0,1,0,1,0,1,0,1,0,1,0,1,0,1,0,1,0,1,0,1,0,1,0,1,0,1,0,1,0,1,0,1,0,1,0,1,0,1,0,1,0,1,0,1,0,1,0,1,0,1,0,1,0,1,0,1,0,1,0,1,0,1,0,1,0,1,0,1,0,1,0,1,0,1,0,1,0,1,0,1,0,1,0,1,0,1,0,1,0,1,0,1,0,1,0,1,0,1,0,1,0,1,0,1,0,1,0,1,0,1,0,1,0,1,0,1,0,1,0,1,0,1,0,1,0,1,0,1,0,1,0,1,0,1,0,1,0,1,0,1,0,1,0,1,0,1,0,1,0,1,0,1,0,1,0,1,0,1,0,1,0,1,0,1,0,1,0,1,0,1,0,1,0,1,0,1,0,1,0,1,0,1,0,1,0,1,0,1,0,1],"trees":[{"base_weights":[1.0244805E0,9.571282E-1,1.3138932E0,9.458829E-1,1.0543596E0,1.2143964E0,4.3127164E-1,9.7545356E-1,8.3629555E-1,3.8643864E-1,2.8915328E-1,4.0346852E-1,3.49762E-1,9.5592064E-1,1.3282958E0,7.316948E-1,8.9800364E-1,9.673957E-1,7.28961E-1,1.2795101E-1,1.3394014E0,1.9453855E-1,7.669169E-1,1.1051179E0,8.5157657E-1,2.8626314E-1,3.539394E-1,2.0053162E-1,2.549786E-1,1.5366426E-1,4.04629E-1,2.521759E-1,2.1058795E-1,1.5512428E-1,3.3951393E-1,2.3382464E-1,2.699989E-1],"categories":[],"categories_nodes":[],"categories_segments":[],"categories_sizes":[],"default_left":[0,0,0,0,0,0,0,0,0,0,0,0,0,0,0,0,0,0,0,0,0,0,0,0,0,0,0,0,0,0,0,0,0,0,0,0,0],"id":0,"left_children":[1,3,5,7,9,11,-1,13,15,-1,-1,-1,-1,17,19,21,23,25,27,-1,29,-1,31,33,35,-1,-1,-1,-1,-1,-1,-1,-1,-1,-1,-1,-1],"loss_changes":[8.203418E1,2.7966309E0,8.148071E0,9.294922E0,6.1855164E0,1.2941895E0,0E0,1.5622559E1,3.667572E0,0E0,0E0,0E0,0E0,5.352539E0,6.906128E-1,2.4731445E-1,3.0686646E0,5.0664062E0,2.8113937E-1,0E0,2.6940918E-1,0E0,2.378006E-1,5.564575E-1,5.039673E-1,0E0,0E0,0E0,0E0,0E0,0E0,0E0,0E0,0E0,0E0,0E0,0E0],"parents":[2147483647,0,0,1,1,2,2,3,3,4,4,5,5,7,7,8,8,13,13,14,14,15,15,16,16,17,17,18,18,20,20,22,22,23,23,24,24],"right_children":[2,4,6,8,10,12,-1,14,16,-1,-1,-1,-1,18,20,22,24,26,28,-1,30,-1,32,34,36,-1,-1,-1,-1,-1,-1,-1,-1,-1,-1,-1,-1],"split_conditions":[2.8950793E-5,3.1463787E-5,4.033982E-5,2.6157815E-7,1.4947733E-6,2.0428513E-6,4.3127164E-1,5.770989E-6,1.8491266E-5,3.8643864E-1,2.8915328E-1,4.0346852E-1,3.49762E-1,2.6899426E-7,1.6942353E-5,1.1389924E-5,1.0698409E-6,3.0067704E-6,5.0952035E-6,1.2795101E-1,4.620323E-6,1.9453855E-1,3.6594158E-6,1.8830082E-5,2.1751599E-5,2.8626314E-1,3.539394E-1,2.0053162E-1,2.549786E-1,1.5366426E-1,4.04629E-1,2.521759E-1,2.1058795E-1,1.5512428E-1,3.3951393E-1,2.3382464E-1,2.699989E-1],"split_indices":[57,497,19,1,1,1,0,114,412,0,0,0,0,2,564,276,2,73,115,0,111,0,11,559,369,0,0,0,0,0,0,0,0,0,0,0,0],"split_type":[0,0,0,0,0,0,0,0,0,0,0,0,0,0,0,0,0,0,0,0,0,0,0,0,0,0,0,0,0,0,0,0,0,0,0,0,0],"sum_hessian":[4.272E3,3.469E3,8.03E2,3.119E3,3.5E2,4.51E2,3.52E2,2.45E3,6.69E2,9.4E1,2.56E2,1.15E2,3.36E2,2.325E3,1.25E2,2.53E2,4.16E2,2.21E3,1.15E2,2E0,1.23E2,8.1E1,1.72E2,7.2E1,3.44E2,2.086E3,1.24E2,8.1E1,3.4E1,2E0,1.21E2,7.5E1,9.7E1,4E0,6.8E1,1.45E2,1.99E2],"tree_param":{"num_deleted":"0","num_feature":"1382","num_nodes":"37","size_leaf_vector":"1"}},{"base_weights":[-1.0244805E0,1.1523677E-1,-2.313754E0,4.7675246E-1,-7.556137E-1,-1.8900529E0,-2.763899E0,5.540248E-1,-1.8265517E-1,1.6416265E-1,-9.0332025E-1,-1.6170433E0,-2.0977628E0,-2.5619407E0,-2.9226453E0,5.899202E-1,1.20229535E-1,8.0349915E-2,-8.2838905E-1,4.3115354E-1,-5.044504E-1,-1.3985665E0,-8.3288354E-1,-1.8756636E0,-1.2438973E0,-2.3564563E0,-1.7441374E0,-8.306181E-1,-2.3871603E0,-8.925774E-1,-2.6127522E0,6.5146124E-1,4.3836573E-1,4.0879852E-1,-4.4488454E-1,3.3361766E-1,-4.6071607E-1,-1.7248262E0,-4.2053345E-1,6.82027E-1,9.313612E-3,-1.3665012E0,-6.956048E-2,-4.3919814E-1,-1.7473665E0,-1.3315281E-1,-8.799411E-1,-1.3788562E0,-2.1589468E0,-3.1477454E-1,-1.33823E0,-2.1948147E0,-2.7092216E0,-4.5919672E-1,-5.793196E-1,-6.3641036E-1,-7.557726E-1,-5.277595E-1,-8.4856445E-1,2.0130442E-1,1.6747596E-2,8.647348E-2,1.7947088E-1,-1.3635738E-1,1.5173413E-1,-4.3359764E-2,-3.0341E-1,1.9432096E-1,-1.6623255E-2,-5.9902066E-1,-8.317488E-2,-7.5578466E-2,-7.308247E-1,-3.9246282E-1,-9.812766E-2,1.8262157E-2,2.3515849E-1,-8.76556E-2,1.8338299E-1,-5.131664E-1,-3.2462772E-2,2.0753723E-1,-5.9947442E-2,-7.098892E-2,-4.524628E-1,-7.1041524E-1,-3.4588367E-1,1.2655213E-1,-1.692892E-1,-4.1525775E-1,-2.4471621E-1,-4.51848E-1,-3.235822E-1,-6.9448566E-1,-4.8172683E-1,-4.7355735E-1,-3.7726435E-1,-7.3157984E-1,-5.324865E-1,-8.2977194E-1,-5.113574E-1],"categories":[],"categories_nodes":[],"categories_segments":[],"categories_sizes":[],"default_left":[0,0,0,0,0,0,0,0,0,0,0,0,0,0,0,0,0,0,0,0,0,0,0,0,0,0,0,0,0,0,0,0,0,0,0,0,0,0,0,0,0,0,0,0,0,0,0,0,0,0,0,0,0,0,0,0,0,0,0,0,0,0,0,0,0,0,0,0,0,0,0,0,0,0,0,0,0,0,0,0,0,0,0,0,0,0,0,0,0,0,0,0,0,0,0,0,0,0,0,0,0],"id":1,"left_children":[1,3,5,7,9,11,13,15,17,19,21,23,25,27,29,31,33,35,37,39,41,43,45,47,49,51,53,-1,55,-1,57,59,61,63,65,67,69,71,73,75,77,79,81,83,85,87,89,91,93,-1,95,97,99,-1,-1,-1,-1,-1,-1,-1,-1,-1,-1,-1,-1,-1,-1,-1,-1,-1,-1,-1,-1,-1,-1,-1,-1,-1,-1,-1,-1,-1,-1,-1,-1,-1,-1,-1,-1,-1,-1,-1,-1,-1,-1,-1,-1,-1,-1,-1,-1],"loss_changes":[6.279044E3,7.147006E2,3.771836E2,8.183142E1,9.062906E1,5.53562E1,2.3609863E1,2.2289368E1,2.8768051E1,1.6819258E1,1.8858337E1,4.1286255E1,4.940625E1,9.112549E0,9.658203E-1,1.2081787E1,1.8283125E1,1.6734886E1,1.7189884E1,7.0841513E0,1.002717E1,2.2656494E1,1.6511261E1,3.431842E1,2.047882E0,1.3156006E1,7.060486E0,0E0,3.1866455E0,0E0,1.0864685E1,1.092215E1,9.091522E0,6.425666E0,6.3192973E0,1.017859E1,1.0436922E1,1.5100399E1,2.4751883E0,2.6089897E0,4.897377E0,3.7111797E0,2.022598E0,3.9740705E0,1.6086105E1,8.134358E0,1.4188171E1,2.1595154E0,1.0695007E1,0E0,3.9959717E-1,1.972522E1,1.0374756E0,0E0,0E0,0E0,0E0,0E0,0E0,0E0,0E0,0E0,0E0,0E0,0E0,0E0,0E0,0E0,0E0,0E0,0E0,0E0,0E0,0E0,0E0,0E0,0E0,0E0,0E0,0E0,0E0,0E0,0E0,0E0,0E0,0E0,0E0,0E0,0E0,0E0,0E0,0E0,0E0,0E0,0E0,0E0,0E0,0E0,0E0,0E0,0E0],"parents":[2147483647,0,0,1,1,2,2,3,3,4,4,5,5,6,6,7,7,8,8,9,9,10,10,11,11,12,12,13,13,14,14,15,15,16,16,17,17,18,18,19,19,20,20,21,21,22,22,23,23,24,24,25,25,26,26,28,28,30,30,31,31,32,32,33,33,34,34,35,35,36,36,37,37,38,38,39,39,40,40,41,41,42,42,43,43,44,44,45,45,46,46,47,47,48,48,50,50,51,51,52,52],"right_children":[2,4,6,8,10,12,14,16,18,20,22,24,26,28,30,32,34,36,38,40,42,44,46,48,50,52,54,-1,56,-1,58,60,62,64,66,68,70,72,74,76,78,80,82,84,86,88,90,92,94,-1,96,98,100,-1,-1,-1,-1,-1,-1,-1,-1,-1,-1,-1,-1,-1,-1,-1,-1,-1,-1,-1,-1,-1,-1,-1,-1,-1,-1,-1,-1,-1,-1,-1,-1,-1,-1,-1,-1,-1,-1,-1,-1,-1,-1,-1,-1,-1,-1,-1,-1],"split_conditions":[2.6899426E-7,1.1254664E-7,1.7513316E-6,1.5040581E-7,1.7195468E-7,1.0466508E-6,4.7590506E-6,1.879104E-7,3.3150152E-7,2.491319E-7,1.7707665E-6,1.3071398E-5,2.5030235E-5,4.362977E-5,2.5370084E-5,6.8462164E-8,2.110224E-7,2.8151146E-7,1.3896138E-5,6.8328724E-8,3.6566267E-5,4.7356673E-7,3.4583266E-7,1.7660786E-6,3.08691E-7,7.85337E-6,1.3282202E-6,-8.306181E-1,1.0521592E-5,-8.925774E-1,1.2747174E-4,3.9044806E-7,2.8594297E-5,2.3946561E-6,3.39728E-6,3.311363E-7,7.5170765E-6,3.070502E-5,6.767997E-6,3.2960008E-5,2.2451022E-5,5.3607135E-7,4.864432E-7,1.585369E-6,1.3599541E-6,1.4329899E-7,1.8790776E-6,5.5268893E-6,1.9951773E-5,-3.1477454E-1,7.815756E-6,1.1918148E-5,5.7973295E-5,-4.5919672E-1,-5.793196E-1,-6.3641036E-1,-7.557726E-1,-5.277595E-1,-8.4856445E-1,2.0130442E-1,1.6747596E-2,8.647348E-2,1.7947088E-1,-1.3635738E-1,1.5173413E-1,-4.3359764E-2,-3.0341E-1,1.9432096E-1,-1.6623255E-2,-5.9902066E-1,-8.317488E-2,-7.5578466E-2,-7.308247E-1,-3.9246282E-1,-9.812766E-2,1.8262157E-2,2.3515849E-1,-8.76556E-2,1.8338299E-1,-5.131664E-1,-3.2462772E-2,2.0753723E-1,-5.9947442E-2,-7.098892E-2,-4.524628E-1,-7.1041524E-1,-3.4588367E-1,1.2655213E-1,-1.692892E-1,-4.1525775E-1,-2.4471621E-1,-4.51848E-1,-3.235822E-1,-6.9448566E-1,-4.8172683E-1,-4.7355735E-1,-3.7726435E-1,-7.3157984E-1,-5.324865E-1,-8.2977194E-1,-5.113574E-1],"split_indices":[2,3,1,4,5,2,2,5,9,7,56,280,342,590,5,2,6,8,460,2,1238,14,10,11,1,14,1,0,4,0,893,10,888,88,103,10,275,963,254,1150,692,14,17,42,40,4,59,123,506,0,103,131,1325,0,0,0,0,0,0,0,0,0,0,0,0,0,0,0,0,0,0,0,0,0,0,0,0,0,0,0,0,0,0,0,0,0,0,0,0,0,0,0,0,0,0,0,0,0,0,0,0],"split_type":[0,0,0,0,0,0,0,0,0,0,0,0,0,0,0,0,0,0,0,0,0,0,0,0,0,0,0,0,0,0,0,0,0,0,0,0,0,0,0,0,0,0,0,0,0,0,0,0,0,0,0,0,0,0,0,0,0,0,0,0,0,0,0,0,0,0,0,0,0,0,0,0,0,0,0,0,0,0,0,0,0,0,0,0,0,0,0,0,0,0,0,0,0,0,0,0,0,0,0,0,0],"sum_hessian":[4.272E3,2.268E3,2.004E3,1.603E3,6.65E2,1.035E3,9.69E2,1.435E3,1.68E2,9.2E1,5.73E2,4.51E2,5.84E2,4.34E2,5.35E2,1.325E3,1.1E2,1.2E2,4.8E1,6.6E1,2.6E1,6.9E1,5.04E2,2.64E2,1.87E2,3.34E2,2.5E2,1.92E2,2.42E2,4.5E2,8.5E1,9.4E2,3.85E2,7.3E1,3.7E1,8.2E1,3.8E1,1.4E1,3.4E1,4.1E1,2.5E1,8E0,1.8E1,1.9E1,5E1,3.2E1,4.72E2,9.8E1,1.66E2,6.5E1,1.22E2,2.34E2,1E2,1.21E2,1.29E2,8.6E1,1.56E2,1.9E1,6.6E1,9.1E2,3E1,2E2,1.85E2,7E0,6.6E1,2.5E1,1.2E1,4.5E1,3.7E1,3E0,3.5E1,5E0,9E0,2E0,3.2E1,6E0,3.5E1,1.7E1,8E0,6E0,2E0,2E0,1.6E1,1.7E1,2E0,2.3E1,2.7E1,1.4E1,1.8E1,5.1E1,4.21E2,6.6E1,3.2E1,1.27E2,3.9E1,2.6E1,9.6E1,1.45E2,8.9E1,9.3E1,7E0],"tree_param":{"num_deleted":"0","num_feature":"1382","num_nodes":"101","size_leaf_vector":"1"}},{"base_weights":[7.1837616E-1,6.7547524E-1,9.480723E-1,6.6396093E-1,7.7462137E-1,8.8324916E-1,3.0710176E-1,6.83825E-1,5.9901565E-1,2.779774E-1,7.222777E-1,2.8264663E-1,2.4921857E-1,6.6985726E-1,2.8700235E-1,5.096637E-1,6.5089846E-1,1.8705894E-1,2.2233468E-1,6.8512547E-1,5.5096257E-1,1.3746186E-1,5.451491E-1,8.732495E-1,6.121742E-1,2.0069188E-1,2.9859474E-1,1.5156537E-1,1.9707073E-1,1.8135957E-1,1.5001622E-1,2.637251E-1,7.147936E-2,2.0750625E-1,1.7547059E-1],"categories":[],"categories_nodes":[],"categories_segments":[],"categories_sizes":[],"default_left":[0,0,0,0,0,0,0,0,0,0,0,0,0,0,0,0,0,0,0,0,0,0,0,0,0,0,0,0,0,0,0,0,0,0,0],"id":2,"left_children":[1,3,5,7,9,11,-1,13,15,-1,17,-1,-1,19,-1,21,23,-1,-1,25,27,-1,29,31,33,-1,-1,-1,-1,-1,-1,-1,-1,-1,-1],"loss_changes":[4.1466553E1,3.5998535E0,2.3792725E0,3.7651367E0,2.2660217E0,3.5586548E-1,0E0,8.776367E0,3.2193604E0,0E0,5.6884766E-2,0E0,0E0,3.895752E0,0E0,2.7243805E-1,3.6069946E0,0E0,0E0,9.765747E0,9.91127E-1,0E0,1.3687515E-1,4.6165466E-2,4.9102783E-1,0E0,0E0,0E0,0E0,0E0,0E0,0E0,0E0,0E0,0E0],"parents":[2147483647,0,0,1,1,2,2,3,3,4,4,5,5,7,7,8,8,10,10,13,13,15,15,16,16,19,19,20,20,22,22,23,23,24,24],"right_children":[2,4,6,8,10,12,-1,14,16,-1,18,-1,-1,20,-1,22,24,-1,-1,26,28,-1,30,32,34,-1,-1,-1,-1,-1,-1,-1,-1,-1,-1],"split_conditions":[2.4793188E-5,3.867497E-5,4.9790182E-5,5.2742973E-7,2.8619515E-6,2.604001E-6,3.0710176E-1,3.16142E-6,1.8784129E-5,2.779774E-1,2.3363527E-5,2.8264663E-1,2.4921857E-1,7.471287E-8,2.8700235E-1,1.4614372E-5,6.076169E-7,1.8705894E-1,2.2233468E-1,1.0783476E-6,5.361869E-6,1.3746186E-1,3.7853467E-6,1.175672E-6,2.6050802E-6,2.0069188E-1,2.9859474E-1,1.5156537E-1,1.9707073E-1,1.8135957E-1,1.5001622E-1,2.637251E-1,7.147936E-2,2.0750625E-1,1.7547059E-1],"split_indices":[21,603,21,2,2,1,0,42,388,0,72,0,0,1,0,350,1,0,0,25,123,0,10,2,3,0,0,0,0,0,0,0,0,0,0],"split_type":[0,0,0,0,0,0,0,0,0,0,0,0,0,0,0,0,0,0,0,0,0,0,0,0,0,0,0,0,0,0,0,0,0,0,0],"sum_hessian":[4.272E3,3.603E3,6.69E2,3.235E3,3.68E2,3.67E2,3.02E2,2.47E3,7.65E2,9E1,2.78E2,1.65E2,2.02E2,2.353E3,1.17E2,2.85E2,4.8E2,5E1,2.28E2,2.081E3,2.72E2,1.22E2,1.63E2,6.8E1,4.12E2,1.981E3,1E2,1.94E2,7.8E1,6.5E1,9.8E1,6.7E1,1E0,9.9E1,3.13E2],"tree_param":{"num_deleted":"0","num_feature":"1382","num_nodes":"35","size_leaf_vector":"1"}},{"base_weights":[-7.2070116E-1,9.195764E-2,-1.6119595E0,3.3336362E-1,-5.19902E-1,-1.3071623E0,-1.9351962E0,3.8061577E-1,-1.9645283E-1,2.1941257E-1,-6.318702E-1,-1.082602E0,-1.4529245E0,-1.738806E0,-2.0268095E0,3.972219E-1,-4.905645E-1,4.529213E-1,-4.0025005E-1,-3.0241528E-1,2.9338637E-1,-1.035147E0,-5.528151E-1,-1.2912278E0,-8.350586E-1,-1.6019456E0,-1.2091687E0,-1.9318974E0,-1.5324335E0,-1.9197775E0,-2.0883954E0,4.1271654E-1,-3.233482E-1,-1.2246879E0,-7.836454E-2,6.6138303E-1,-3.860682E-1,4.4965878E-2,-6.47523E-1,3.9964877E-2,4.9982294E-1,-2.0559168E0,-8.6483425E-1,3.6622116E-1,-5.760426E-1,-9.054415E-1,-1.609511E0,-1.4242835E0,-8.0205816E-1,-1.3783044E0,-1.8022721E0,-1.0809315E0,-4.0777627E-1,-3.1792396E-1,-1.9529229E0,-3.8334072E-1,-4.8367086E-1,-6.429264E-1,-1.8022227E0,-6.4419436E-1,-1.8289769E0,1.5093619E-1,9.577943E-2,-1.5382938E-3,-2.9732957E-1,-5.5964302E-2,-4.928867E-1,1.0861309E-1,-7.8454025E-2,2.7055877E-1,5.592887E-2,-1.7194296E-1,1.1045727E-1,-1.1457854E-1,1.0601718E-1,-1.3412914E-1,-4.0371308E-1,2.0593575E-1,-1.1180378E-2,2.41194E-1,5.6147616E-2,-1.1462793E-1,-6.520041E-1,-5.5186397E-1,-2.181478E-1,2.4440366E-1,3.7864625E-2,-2.9738146E-1,-1.5792997E-1,-3.3047783E-1,-2.2643918E-1,-5.4442346E-1,-3.4302396E-1,-9.263964E-2,-4.575358E-1,-2.110283E-1,-2.698345E-1,-5.6490856E-1,-3.2956368E-1,-5.651123E-1,-4.1580054E-1,-2.8666544E-1,-3.4459946E-1,-6.152251E-1,-4.9087045E-1,-3.3473054E-1,-5.4857504E-1,-4.1013634E-1,-6.23407E-1],"categories":[],"categories_nodes":[],"categories_segments":[],"categories_sizes":[],"default_left":[0,0,0,0,0,0,0,0,0,0,0,0,0,0,0,0,0,0,0,0,0,0,0,0,0,0,0,0,0,0,0,0,0,0,0,0,0,0,0,0,0,0,0,0,0,0,0,0,0,0,0,0,0,0,0,0,0,0,0,0,0,0,0,0,0,0,0,0,0,0,0,0,0,0,0,0,0,0,0,0,0,0,0,0,0,0,0,0,0,0,0,0,0,0,0,0,0,0,0,0,0,0,0,0,0,0,0,0,0],"id":3,"left_children":[1,3,5,7,9,11,13,15,17,19,21,23,25,27,29,31,33,35,37,-1,39,41,43,45,47,49,51,53,55,57,59,61,63,65,67,69,71,73,75,77,79,81,83,85,87,89,91,93,95,97,99,101,-1,-1,103,-1,-1,-1,105,-1,107,-1,-1,-1,-1,-1,-1,-1,-1,-1,-1,-1,-1,-1,-1,-1,-1,-1,-1,-1,-1,-1,-1,-1,-1,-1,-1,-1,-1,-1,-1,-1,-1,-1,-1,-1,-1,-1,-1,-1,-1,-1,-1,-1,-1,-1,-1,-1,-1],"loss_changes":[3.095035E3,3.3044525E2,1.9825732E2,4.023085E1,5.2538223E1,3.286145E1,1.4233887E1,2.1504639E1,1.7650246E1,7.92296E0,1.6962357E1,2.050888E1,2.1129272E1,9.830994E0,3.8745117E-1,1.627803E1,8.376987E0,5.8520494E0,1.1148191E1,0E0,4.1652627E0,1.3694626E1,1.0073273E1,2.6170319E1,2.6299133E0,1.5033203E1,3.2461243E0,9.01062E-1,1.1911316E0,2.8579712E0,2.369873E0,1.1802353E1,6.5821667E0,4.035716E0,1.6272242E0,2.8014975E0,1.1987473E0,5.0065656E0,8.494099E0,1.8729943E0,4.033884E0,1.5282669E0,9.12944E0,1.1887642E0,8.768402E0,2.241623E0,9.595398E0,5.413723E-1,1.1539612E0,2.4618408E1,4.270752E0,6.585693E-2,0E0,0E0,1.5084839E0,0E0,0E0,0E0,1.1083984E0,0E0,6.7060547E0,0E0,0E0,0E0,0E0,0E0,0E0,0E0,0E0,0E0,0E0,0E0,0E0,0E0,0E0,0E0,0E0,0E0,0E0,0E0,0E0,0E0,0E0,0E0,0E0,0E0,0E0,0E0,0E0,0E0,0E0,0E0,0E0,0E0,0E0,0E0,0E0,0E0,0E0,0E0,0E0,0E0,0E0,0E0,0E0,0E0,0E0,0E0,0E0],"parents":[2147483647,0,0,1,1,2,2,3,3,4,4,5,5,6,6,7,7,8,8,9,9,10,10,11,11,12,12,13,13,14,14,15,15,16,16,17,17,18,18,20,20,21,21,22,22,23,23,24,24,25,25,26,26,27,27,28,28,29,29,30,30,31,31,32,32,33,33,34,34,35,35,36,36,37,37,38,38,39,39,40,40,41,41,42,42,43,43,44,44,45,45,46,46,47,47,48,48,49,49,50,50,51,51,54,54,58,58,60,60],"right_children":[2,4,6,8,10,12,14,16,18,20,22,24,26,28,30,32,34,36,38,-1,40,42,44,46,48,50,52,54,56,58,60,62,64,66,68,70,72,74,76,78,80,82,84,86,88,90,92,94,96,98,100,102,-1,-1,104,-1,-1,-1,106,-1,108,-1,-1,-1,-1,-1,-1,-1,-1,-1,-1,-1,-1,-1,-1,-1,-1,-1,-1,-1,-1,-1,-1,-1,-1,-1,-1,-1,-1,-1,-1,-1,-1,-1,-1,-1,-1,-1,-1,-1,-1,-1,-1,-1,-1,-1,-1,-1,-1],"split_conditions":[1.3295944E-7,3.3731644E-7,1.7062451E-6,3.833264E-8,1.6794147E-7,4.952364E-7,4.367174E-6,4.8537015E-7,1.941414E-7,2.2372942E-5,2.9845078E-6,1.1811144E-5,3.0630694E-5,4.4767432E-5,7.864324E-6,3.2673427E-7,5.582231E-6,2.5857606E-5,1.346994E-7,-3.0241528E-1,1.30420585E-5,1.0277305E-5,7.208076E-7,1.5513772E-6,1.06640455E-5,5.9316058E-6,2.5081063E-6,9.287264E-6,9.115653E-6,5.55113E-5,6.761279E-6,2.5925695E-7,2.317637E-5,6.875519E-7,3.7034565E-6,3.4224053E-5,3.8963705E-8,9.2458895E-6,4.061495E-5,5.6518147E-6,3.110269E-5,6.674578E-8,9.465979E-6,1.6189424E-6,1.2981212E-6,6.958076E-6,1.2795529E-5,1.4792622E-7,5.88242E-7,9.451247E-6,5.490282E-5,1.7708423E-6,-4.0777627E-1,-3.1792396E-1,6.0599225E-5,-3.8334072E-1,-4.8367086E-1,-6.429264E-1,2.0158277E-6,-6.4419436E-1,1.3943641E-4,1.5093619E-1,9.577943E-2,-1.5382938E-3,-2.9732957E-1,-5.5964302E-2,-4.928867E-1,1.0861309E-1,-7.8454025E-2,2.7055877E-1,5.592887E-2,-1.7194296E-1,1.1045727E-1,-1.1457854E-1,1.0601718E-1,-1.3412914E-1,-4.0371308E-1,2.0593575E-1,-1.1180378E-2,2.41194E-1,5.6147616E-2,-1.1462793E-1,-6.520041E-1,-5.5186397E-1,-2.181478E-1,2.4440366E-1,3.7864625E-2,-2.9738146E-1,-1.5792997E-1,-3.3047783E-1,-2.2643918E-1,-5.4442346E-1,-3.4302396E-1,-9.263964E-2,-4.575358E-1,-2.110283E-1,-2.698345E-1,-5.6490856E-1,-3.2956368E-1,-5.651123E-1,-4.1580054E-1,-2.8666544E-1,-3.4459946E-1,-6.152251E-1,-4.9087045E-1,-3.3473054E-1,-5.4857504E-1,-4.1013634E-1,-6.23407E-1],"split_indices":[1,9,1,1,5,1,2,12,6,846,94,280,564,698,3,8,178,755,4,0,408,351,24,9,295,13,2,11,4,909,2,8,686,20,122,1049,1,296,1194,198,963,2,329,56,40,189,321,1,2,152,1302,2,0,0,1284,0,0,0,1,0,841,0,0,0,0,0,0,0,0,0,0,0,0,0,0,0,0,0,0,0,0,0,0,0,0,0,0,0,0,0,0,0,0,0,0,0,0,0,0,0,0,0,0,0,0,0,0,0,0],"split_type":[0,0,0,0,0,0,0,0,0,0,0,0,0,0,0,0,0,0,0,0,0,0,0,0,0,0,0,0,0,0,0,0,0,0,0,0,0,0,0,0,0,0,0,0,0,0,0,0,0,0,0,0,0,0,0,0,0,0,0,0,0,0,0,0,0,0,0,0,0,0,0,0,0,0,0,0,0,0,0,0,0,0,0,0,0,0,0,0,0,0,0,0,0,0,0,0,0,0,0,0,0,0,0,0,0,0,0,0,0],"sum_hessian":[4.272E3,2.235E3,2.037E3,1.603E3,6.32E2,1.051E3,9.86E2,1.472E3,1.31E2,8.3E1,5.49E2,4.17E2,6.34E2,3.2E2,6.66E2,1.445E3,2.7E1,3.1E1,1E2,4E0,7.9E1,8.8E1,4.61E2,2.24E2,1.93E2,3.9E2,2.44E2,1.61E2,1.59E2,2.55E2,4.11E2,1.415E3,3E1,9E0,1.8E1,2.5E1,6E0,3.6E1,6.4E1,3.6E1,4.3E1,1.1E1,7.7E1,1.1E1,4.5E2,1.03E2,1.21E2,8E0,1.85E2,1.88E2,2.02E2,1.36E2,1.08E2,5E0,1.56E2,4.2E1,1.17E2,8.2E1,1.73E2,3.29E2,8.2E1,7.17E2,6.98E2,2.1E1,9E0,3E0,6E0,5E0,1.3E1,1.6E1,9E0,5E0,1E0,1.5E1,2.1E1,5.1E1,1.3E1,3E0,3.3E1,2.1E1,2.2E1,1E0,1E1,8E0,6.9E1,3E0,8E0,4.6E1,4.04E2,4.2E1,6.1E1,8.2E1,3.9E1,1E0,7E0,9.6E1,8.9E1,6.5E1,1.23E2,1.66E2,3.6E1,5.3E1,8.3E1,1.15E2,4.1E1,8E0,1.65E2,3.1E1,5.1E1],"tree_param":{"num_deleted":"0","num_feature":"1382","num_nodes":"109","size_leaf_vector":"1"}},{"base_weights":[5.037639E-1,4.7384816E-1,6.688804E-1,4.632862E-1,5.360833E-1,6.314221E-1,2.2206888E-1,4.8009074E-1,4.0964273E-1,6.878553E-1,5.017721E-1,2.0451814E-1,5.962559E-1,4.6794137E-1,6.7354804E-1,3.3946642E-1,4.481976E-1,2.5618103E-1,2.1284135E-1,1.1626641E-1,5.129E-1,1.593637E-1,1.8605936E-1,4.5098257E-1,5.1951766E-1,8.586336E-2,6.830453E-1,2.5734973E-1,3.5984755E-1,5.97039E-1,4.1317183E-1,8.263464E-3,8.891979E-2,5.6984085E-1,4.9261817E-1,1.452236E-1,1.18489526E-1,1.7283872E-1,1.15553156E-1,6.8643965E-2,2.0647006E-1,6.50376E-2,8.598759E-2,1.2115478E-1,9.6087575E-2,1.0945342E-1,1.8753207E-1,1.0821647E-1,1.3076946E-1,9.0587355E-2,1.7348933E-1,1.3606757E-1,1.5782622E-1],"categories":[],"categories_nodes":[],"categories_segments":[],"categories_sizes":[],"default_left":[0,0,0,0,0,0,0,0,0,0,0,0,0,0,0,0,0,0,0,0,0,0,0,0,0,0,0,0,0,0,0,0,0,0,0,0,0,0,0,0,0,0,0,0,0,0,0,0,0,0,0,0,0],"id":4,"left_children":[1,3,5,7,9,11,-1,13,15,17,19,-1,21,23,25,27,29,31,-1,-1,33,-1,-1,35,37,-1,39,41,43,45,47,-1,-1,49,51,-1,-1,-1,-1,-1,-1,-1,-1,-1,-1,-1,-1,-1,-1,-1,-1,-1,-1],"loss_changes":[2.0789917E1,2.131836E0,1.277832E0,2.600525E0,2.3575287E0,3.6305237E-1,0E0,5.2246704E0,1.8689575E0,6.8603134E-1,3.4394073E-1,0E0,8.166504E-2,1.7083435E0,3.084793E-1,3.5760117E-1,2.2504883E0,4.70078E-2,0E0,0E0,1.6506195E-1,0E0,0E0,2.9216309E0,3.9077148E0,0E0,1.5595627E-1,5.540848E-3,2.4137878E-1,3.5196495E-1,3.088379E-1,0E0,0E0,4.059601E-2,1.4311218E-1,0E0,0E0,0E0,0E0,0E0,0E0,0E0,0E0,0E0,0E0,0E0,0E0,0E0,0E0,0E0,0E0,0E0,0E0],"parents":[2147483647,0,0,1,1,2,2,3,3,4,4,5,5,7,7,8,8,9,9,10,10,12,12,13,13,14,14,15,15,16,16,17,17,20,20,23,23,24,24,26,26,27,27,28,28,29,29,30,30,33,33,34,34],"right_children":[2,4,6,8,10,12,-1,14,16,18,20,-1,22,24,26,28,30,32,-1,-1,34,-1,-1,36,38,-1,40,42,44,46,48,-1,-1,50,52,-1,-1,-1,-1,-1,-1,-1,-1,-1,-1,-1,-1,-1,-1,-1,-1,-1,-1],"split_conditions":[2.423481E-5,5.538031E-5,3.3749056E-5,2.201834E-7,9.3653216E-7,2.294941E-6,2.2206888E-1,5.647586E-6,1.3756758E-5,3.1753796E-5,2.4165807E-5,2.0451814E-1,6.833185E-5,2.1519204E-6,2.787834E-5,6.6608995E-6,5.575749E-7,4.5523322E-8,2.1284135E-1,1.1626641E-1,1.9108672E-6,1.593637E-1,1.8605936E-1,6.899212E-8,7.016836E-8,8.586336E-2,1.3132268E-5,7.744693E-6,2.8000586E-6,1.47918845E-5,2.643649E-5,8.263464E-3,8.891979E-2,3.146851E-5,3.53294E-5,1.452236E-1,1.18489526E-1,1.7283872E-1,1.15553156E-1,6.8643965E-2,2.0647006E-1,6.50376E-2,8.598759E-2,1.2115478E-1,9.6087575E-2,1.0945342E-1,1.8753207E-1,1.0821647E-1,1.3076946E-1,9.0587355E-2,1.7348933E-1,1.3606757E-1,1.5782622E-1],"split_indices":[20,1305,10,1,1,1,0,130,280,989,324,0,385,60,1026,154,1,1,0,0,1,0,0,2,1,0,471,192,14,348,580,0,0,660,107,0,0,0,0,0,0,0,0,0,0,0,0,0,0,0,0,0,0],"split_type":[0,0,0,0,0,0,0,0,0,0,0,0,0,0,0,0,0,0,0,0,0,0,0,0,0,0,0,0,0,0,0,0,0,0,0,0,0,0,0,0,0,0,0,0,0,0,0,0,0,0,0,0,0],"sum_hessian":[4.272E3,3.62E3,6.52E2,3.102E3,5.18E2,4.34E2,2.18E2,2.356E3,7.46E2,9.2E1,4.26E2,1.71E2,2.63E2,2.22E3,1.36E2,2.68E2,4.78E2,5E0,8.7E1,4.1E1,3.85E2,7.7E1,1.86E2,1.678E3,5.42E2,4E0,1.32E2,5.6E1,2.12E2,8.8E1,3.9E2,1E0,4E0,9.4E1,2.91E2,1.05E3,6.28E2,3.79E2,1.63E2,2E0,1.3E2,2.7E1,2.9E1,9.6E1,1.16E2,1.1E1,7.7E1,1.23E2,2.67E2,4E0,9E1,1.41E2,1.5E2],"tree_param":{"num_deleted":"0","num_feature":"1382","num_nodes":"53","size_leaf_vector":"1"}},{"base_weights":[-5.0759333E-1,1.0175739E-1,-1.0981768E0,2.4531597E-1,-3.1971684E-1,-8.509912E-1,-1.3360835E0,2.8702003E-1,-1.291977E-1,7.529808E-2,-4.3658638E-1,-5.85059E-1,-9.390147E-1,-1.1770227E0,-1.4309182E0,3.1875998E-1,6.7830406E-2,2.1791457E-1,-3.8058165E-1,1.8504727E-1,-4.3696174E-1,-6.3450336E-1,-2.3656027E-1,-6.8987757E-1,-4.5777062E-1,-1.1466082E0,-8.458503E-1,-1.4461906E0,-1.0878309E0,-1.3322669E0,-1.477019E0,1.9883676E-1,3.6909762E-1,4.201257E-1,-8.648761E-2,2.9435244E-1,-4.532632E-1,-9.1901934E-1,-2.3719116E-1,2.5207198E-1,-2.2050087E-1,-8.1311576E-2,-3.5623598E-1,-8.294647E-1,-2.574306E-1,-8.0201906E-1,-1.9764988E-1,-7.8370845E-1,-5.588774E-1,-4.2251134E-1,-5.292584E-1,-1.0214663E0,-1.4638292E0,-5.762323E-1,-9.458644E-1,-3.1279877E-1,-1.5098822E0,-1.0162809E0,-1.4342933E0,-1.5138875E0,-1.1897898E0,-1.5145755E0,-1.296517E0,7.046876E-2,-9.7888656E-2,1.1901799E-1,-7.0786844E-3,-5.1905345E-2,1.8235117E-1,-1.043797E-1,2.7028063E-2,1.5301503E-2,1.6311316E-1,-1.302107E-1,-5.065245E-1,-3.026103E-1,-3.0264543E-2,1.4292909E-1,3.0595973E-2,-8.475837E-2,6.211612E-3,7.3785506E-2,-1.0895329E-1,-3.456457E-1,-1.5534568E-1,-4.284849E-2,-2.8610468E-1,-4.0375465E-1,1.7027104E-2,-2.2415906E-2,-9.339611E-2,-2.5305825E-1,-1.5724677E-1,-1.988938E-1,-1.3949785E-1,-5.8425233E-2,-1.2847763E-1,-6.730218E-2,-1.6208176E-1,-3.6500034E-1,-1.9282062E-1,-4.7004518E-1,-2.1603492E-1,-2.303122E-1,-1.6350468E-1,-3.3954525E-1,-2.3831931E-1,-4.6110246E-1,-1.7289907E-1,-3.8656595E-1,-2.8791896E-1,-1.6510843E-1,-4.37593E-1,-2.2436507E-1,-4.6421668E-1,-3.3115947E-1,-4.5504904E-1,-4.5500728E-1,-1.08831316E-1,-2.4640656E-1,-4.3410608E-1],"categories":[],"categories_nodes":[],"categories_segments":[],"categories_sizes":[],"default_left":[0,0,0,0,0,0,0,0,0,0,0,0,0,0,0,0,0,0,0,0,0,0,0,0,0,0,0,0,0,0,0,0,0,0,0,0,0,0,0,0,0,0,0,0,0,0,0,0,0,0,0,0,0,0,0,0,0,0,0,0,0,0,0,0,0,0,0,0,0,0,0,0,0,0,0,0,0,0,0,0,0,0,0,0,0,0,0,0,0,0,0,0,0,0,0,0,0,0,0,0,0,0,0,0,0,0,0,0,0,0,0,0,0,0,0,0,0,0,0,0,0],"id":5,"left_children":[1,3,5,7,9,11,13,15,17,19,21,23,25,27,29,31,33,35,37,39,41,43,45,47,49,51,53,55,57,59,61,63,65,67,69,71,-1,73,75,77,79,81,-1,83,85,87,89,91,93,95,97,99,101,103,105,-1,107,109,111,113,115,117,119,-1,-1,-1,-1,-1,-1,-1,-1,-1,-1,-1,-1,-1,-1,-1,-1,-1,-1,-1,-1,-1,-1,-1,-1,-1,-1,-1,-1,-1,-1,-1,-1,-1,-1,-1,-1,-1,-1,-1,-1,-1,-1,-1,-1,-1,-1,-1,-1,-1,-1,-1,-1,-1,-1,-1,-1,-1,-1],"loss_changes":[1.5378469E3,1.2738356E2,1.26474365E2,2.455851E1,2.4731266E1,2.4427307E1,1.4968994E1,9.808708E0,1.3869771E1,6.995931E0,1.6199974E1,3.259903E0,1.450238E1,8.461975E0,1.1566162E0,7.375847E0,9.822128E0,9.298455E0,6.885048E0,2.8281205E0,5.7755203E0,1.5003998E1,4.3959417E0,1.3443222E0,8.893776E-2,8.230652E0,1.4447845E1,1.0215302E0,6.425354E0,4.1246033E0,1.1478882E0,7.026086E0,9.42691E0,6.228857E0,5.8482885E0,3.91651E0,0E0,6.356909E0,7.680376E0,2.9146261E0,2.3026937E-1,1.5652344E0,0E0,1.3080124E1,5.6088157E0,6.147749E0,2.7015777E0,8.310089E-1,3.1722832E-1,3.1790733E-2,3.0555725E-3,1.2451263E1,4.0034637E0,4.9610138E-1,1.0479797E1,0E0,1.2666779E0,2.8744202E0,3.1645203E-1,1.3319702E0,2.0630493E0,3.6108398E-1,4.961624E0,0E0,0E0,0E0,0E0,0E0,0E0,0E0,0E0,0E0,0E0,0E0,0E0,0E0,0E0,0E0,0E0,0E0,0E0,0E0,0E0,0E0,0E0,0E0,0E0,0E0,0E0,0E0,0E0,0E0,0E0,0E0,0E0,0E0,0E0,0E0,0E0,0E0,0E0,0E0,0E0,0E0,0E0,0E0,0E0,0E0,0E0,0E0,0E0,0E0,0E0,0E0,0E0,0E0,0E0,0E0,0E0,0E0,0E0],"parents":[2147483647,0,0,1,1,2,2,3,3,4,4,5,5,6,6,7,7,8,8,9,9,10,10,11,11,12,12,13,13,14,14,15,15,16,16,17,17,18,18,19,19,20,20,21,21,22,22,23,23,24,24,25,25,26,26,27,27,28,28,29,29,30,30,31,31,32,32,33,33,34,34,35,35,37,37,38,38,39,39,40,40,41,41,43,43,44,44,45,45,46,46,47,47,48,48,49,49,50,50,51,51,52,52,53,53,54,54,56,56,57,57,58,58,59,59,60,60,61,61,62,62],"right_children":[2,4,6,8,10,12,14,16,18,20,22,24,26,28,30,32,34,36,38,40,42,44,46,48,50,52,54,56,58,60,62,64,66,68,70,72,-1,74,76,78,80,82,-1,84,86,88,90,92,94,96,98,100,102,104,106,-1,108,110,112,114,116,118,120,-1,-1,-1,-1,-1,-1,-1,-1,-1,-1,-1,-1,-1,-1,-1,-1,-1,-1,-1,-1,-1,-1,-1,-1,-1,-1,-1,-1,-1,-1,-1,-1,-1,-1,-1,-1,-1,-1,-1,-1,-1,-1,-1,-1,-1,-1,-1,-1,-1,-1,-1,-1,-1,-1,-1,-1,-1,-1],"split_conditions":[1.5218062E-7,1.10885345E-7,1.4678584E-6,1.5040581E-7,4.7356673E-7,2.201834E-7,2.2296865E-6,1.8221513E-7,2.3596E-7,8.856364E-6,1.4002209E-6,1.0123768E-5,2.790709E-5,4.114816E-5,1.2114854E-5,1.4390043E-5,3.0837737E-7,2.898197E-5,1.8464663E-5,2.7260378E-7,3.24687E-5,2.4335268E-5,8.397624E-6,1.2650979E-5,5.084281E-7,4.318313E-6,5.3393757E-7,9.287264E-6,1.11736415E-4,4.04677E-5,2.5370084E-5,5.613859E-7,4.54404E-5,3.2102256E-5,1.9055187E-5,3.1180472E-5,-4.532632E-1,2.6200145E-5,3.4662535E-5,4.041353E-5,6.7887623E-7,3.478424E-5,-3.5623598E-1,1.1493702E-5,3.1283715E-5,3.433327E-6,5.5910522E-8,9.6887225E-6,1.089873E-5,8.02096E-8,2.8591207E-5,1.1656343E-5,5.168173E-5,9.599014E-6,4.549864E-5,-3.1279877E-1,5.7851117E-5,3.5601537E-5,9.634088E-5,1.307634E-5,8.389925E-6,1.6179438E-4,1.3700764E-4,7.046876E-2,-9.7888656E-2,1.1901799E-1,-7.0786844E-3,-5.1905345E-2,1.8235117E-1,-1.043797E-1,2.7028063E-2,1.5301503E-2,1.6311316E-1,-1.302107E-1,-5.065245E-1,-3.026103E-1,-3.0264543E-2,1.4292909E-1,3.0595973E-2,-8.475837E-2,6.211612E-3,7.3785506E-2,-1.0895329E-1,-3.456457E-1,-1.5534568E-1,-4.284849E-2,-2.8610468E-1,-4.0375465E-1,1.7027104E-2,-2.2415906E-2,-9.339611E-2,-2.5305825E-1,-1.5724677E-1,-1.988938E-1,-1.3949785E-1,-5.8425233E-2,-1.2847763E-1,-6.730218E-2,-1.6208176E-1,-3.6500034E-1,-1.9282062E-1,-4.7004518E-1,-2.1603492E-1,-2.303122E-1,-1.6350468E-1,-3.3954525E-1,-2.3831931E-1,-4.6110246E-1,-1.7289907E-1,-3.8656595E-1,-2.8791896E-1,-1.6510843E-1,-4.37593E-1,-2.2436507E-1,-4.6421668E-1,-3.3115947E-1,-4.5504904E-1,-4.5500728E-1,-1.08831316E-1,-2.4640656E-1,-4.3410608E-1],"split_indices":[2,3,1,4,14,1,1,5,7,249,38,260,760,866,4,473,10,750,646,7,949,727,281,361,3,8,1,11,424,328,5,15,1227,1033,625,973,0,807,1220,1293,18,1058,0,357,885,99,1,254,314,1,923,272,1312,237,1173,0,1032,649,966,8,3,991,1288,0,0,0,0,0,0,0,0,0,0,0,0,0,0,0,0,0,0,0,0,0,0,0,0,0,0,0,0,0,0,0,0,0,0,0,0,0,0,0,0,0,0,0,0,0,0,0,0,0,0,0,0,0,0,0,0,0,0],"split_type":[0,0,0,0,0,0,0,0,0,0,0,0,0,0,0,0,0,0,0,0,0,0,0,0,0,0,0,0,0,0,0,0,0,0,0,0,0,0,0,0,0,0,0,0,0,0,0,0,0,0,0,0,0,0,0,0,0,0,0,0,0,0,0,0,0,0,0,0,0,0,0,0,0,0,0,0,0,0,0,0,0,0,0,0,0,0,0,0,0,0,0,0,0,0,0,0,0,0,0,0,0,0,0,0,0,0,0,0,0,0,0,0,0,0,0,0,0,0,0,0,0],"sum_hessian":[4.272E3,2.103E3,2.169E3,1.569E3,5.34E2,1.066E3,1.103E3,1.412E3,1.57E2,1.22E2,4.12E2,2.67E2,7.99E2,4.17E2,6.86E2,1.233E3,1.79E2,6.6E1,9.1E1,1.01E2,2.1E1,2.06E2,2.06E2,1.44E2,1.23E2,2.44E2,5.55E2,1E2,3.17E2,2.28E2,4.58E2,3.66E2,8.67E2,5.4E1,1.25E2,6.4E1,2E0,1.8E1,7.3E1,8.7E1,1.4E1,1.5E1,6E0,1.35E2,7.1E1,1.2E1,1.94E2,8.1E1,6.3E1,8.7E1,3.6E1,1.78E2,6.6E1,1.52E2,4.03E2,1.6E1,8.4E1,2.66E2,5.1E1,9.6E1,1.32E2,3.73E2,8.5E1,3.43E2,2.3E1,8.1E2,5.7E1,1.3E1,4.1E1,5E1,7.5E1,3.3E1,3.1E1,1.2E1,6E0,1E1,6.3E1,3.4E1,5.3E1,1.1E1,3E0,7E0,8E0,6.5E1,7E1,6.2E1,9E0,7E0,5E0,9.4E1,1E2,6.4E1,1.7E1,2.7E1,3.6E1,3E0,8.4E1,2E0,3.4E1,1.16E2,6.2E1,5.7E1,9E0,1.8E1,1.34E2,1.78E2,2.25E2,8.1E1,3E0,4.2E1,2.24E2,2E0,4.9E1,5E0,9.1E1,1.08E2,2.4E1,3.72E2,1E0,2.2E1,6.3E1],"tree_param":{"num_deleted":"0","num_feature":"1382","num_nodes":"121","size_leaf_vector":"1"}},{"base_weights":[3.5347104E-1,3.2897753E-1,4.537764E-1,2.9538718E-1,3.4172192E-1,4.063871E-1,4.898149E-1,9.988036E-2,3.0229136E-1,3.78293E-1,3.2645088E-1,1.5039037E-1,1.1608475E-1,1.4021532E-1,1.6561438E-1,-8.047188E-3,2.546374E-1,2.5905347E-1,3.3251038E-1,2.3204605E-1,3.9183977E-1,1.860991E-1,3.3568928E-1,-6.466228E-2,9.2035115E-2,7.247706E-2,3.8219798E-1,4.220014E-1,2.3444599E-1,1.4740045E-1,3.4238425E-1,8.878812E-2,3.5583872E-1,3.7329662E-1,5.1191074E-1,1.5228602E-1,5.1238257E-1,3.7583816E-1,3.1658337E-1,7.20197E-3,-2.443229E-2,6.662522E-3,3.3482786E-2,4.0122997E-3,2.8032986E-2,5.047855E-2,1.2763993E-1,7.143369E-2,1.6890539E-1,5.6379214E-2,9.585278E-2,1.3350693E-3,7.441342E-2,7.915681E-2,1.11155905E-1,6.989181E-2,-6.486058E-4,1.6272013E-1,4.1211333E-2,7.4123114E-2,1.1818848E-1,4.1315556E-2,1.6455716E-1,1.6125578E-1,3.678294E-2,1.6946197E-1,5.995001E-3,9.648453E-2,1.5188444E-1,7.773871E-2,1.0478788E-1],"categories":[],"categories_nodes":[],"categories_segments":[],"categories_sizes":[],"default_left":[0,0,0,0,0,0,0,0,0,0,0,0,0,0,0,0,0,0,0,0,0,0,0,0,0,0,0,0,0,0,0,0,0,0,0,0,0,0,0,0,0,0,0,0,0,0,0,0,0,0,0,0,0,0,0,0,0,0,0,0,0,0,0,0,0,0,0,0,0,0,0],"id":6,"left_children":[1,3,5,7,9,11,13,15,17,19,21,-1,-1,-1,-1,23,25,27,29,31,33,35,37,39,41,43,45,47,49,51,53,55,57,59,61,63,65,67,69,-1,-1,-1,-1,-1,-1,-1,-1,-1,-1,-1,-1,-1,-1,-1,-1,-1,-1,-1,-1,-1,-1,-1,-1,-1,-1,-1,-1,-1,-1,-1,-1],"loss_changes":[1.0348755E1,1.3708191E0,1.2286987E0,1.2561798E0,1.2648926E0,4.8311615E-1,3.9806366E-1,5.699357E-1,1.1159439E0,1.3474121E0,2.220871E0,0E0,0E0,0E0,0E0,1.2494073E-1,2.976101E-1,1.4367924E0,9.3286514E-1,1.1033995E0,1.2850723E0,1.146595E0,1.1474762E0,2.278357E-2,8.455731E-3,7.4243844E-3,2.4638176E-3,1.1365776E0,1.265461E0,4.1612267E-1,1.0290413E0,4.0702546E-1,1.3112516E0,1.4102631E0,1.1026878E0,1.1001866E0,2.4717546E-1,3.564659E0,2.0237122E0,0E0,0E0,0E0,0E0,0E0,0E0,0E0,0E0,0E0,0E0,0E0,0E0,0E0,0E0,0E0,0E0,0E0,0E0,0E0,0E0,0E0,0E0,0E0,0E0,0E0,0E0,0E0,0E0,0E0,0E0,0E0,0E0],"parents":[2147483647,0,0,1,1,2,2,3,3,4,4,5,5,6,6,7,7,8,8,9,9,10,10,15,15,16,16,17,17,18,18,19,19,20,20,21,21,22,22,23,23,24,24,25,25,26,26,27,27,28,28,29,29,30,30,31,31,32,32,33,33,34,34,35,35,36,36,37,37,38,38],"right_children":[2,4,6,8,10,12,14,16,18,20,22,-1,-1,-1,-1,24,26,28,30,32,34,36,38,40,42,44,46,48,50,52,54,56,58,60,62,64,66,68,70,-1,-1,-1,-1,-1,-1,-1,-1,-1,-1,-1,-1,-1,-1,-1,-1,-1,-1,-1,-1,-1,-1,-1,-1,-1,-1,-1,-1,-1,-1,-1,-1],"split_conditions":[5.4649663E-5,2.5170151E-5,3.2921875E-5,8.259391E-6,6.899212E-8,1.4678584E-6,1.9462324E-5,2.6972695E-5,1.909025E-6,2.6990941E-5,3.3990982E-6,1.5039037E-1,1.1608475E-1,1.4021532E-1,1.6561438E-1,3.3217093E-5,2.5325266E-5,2.5591831E-5,3.6931542E-5,1.903753E-5,1.603961E-5,3.958234E-5,1.3295944E-7,2.7839906E-6,9.185423E-7,3.0738477E-8,2.4557835E-7,3.688613E-5,1.92602E-5,1.0844143E-5,3.2752654E-5,1.7045462E-5,2.1590806E-5,3.6453723E-5,1.2806489E-6,2.708977E-5,3.848216E-8,1.9431204E-6,1.6033682E-5,7.20197E-3,-2.443229E-2,6.662522E-3,3.3482786E-2,4.0122997E-3,2.8032986E-2,5.047855E-2,1.2763993E-1,7.143369E-2,1.6890539E-1,5.6379214E-2,9.585278E-2,1.3350693E-3,7.441342E-2,7.915681E-2,1.11155905E-1,6.989181E-2,-6.486058E-4,1.6272013E-1,4.1211333E-2,7.4123114E-2,1.1818848E-1,4.1315556E-2,1.6455716E-1,1.6125578E-1,3.678294E-2,1.6946197E-1,5.995001E-3,9.648453E-2,1.5188444E-1,7.773871E-2,1.0478788E-1],"split_indices":[911,806,20,313,2,1,4,770,59,965,113,0,0,0,0,982,758,902,1367,597,446,1070,1,98,32,1,8,1126,579,342,1075,564,659,1257,45,980,1,49,301,0,0,0,0,0,0,0,0,0,0,0,0,0,0,0,0,0,0,0,0,0,0,0,0,0,0,0,0,0,0,0,0],"split_type":[0,0,0,0,0,0,0,0,0,0,0,0,0,0,0,0,0,0,0,0,0,0,0,0,0,0,0,0,0,0,0,0,0,0,0,0,0,0,0,0,0,0,0,0,0,0,0,0,0,0,0,0,0,0,0,0,0,0,0,0,0,0,0,0,0,0,0,0,0,0,0],"sum_hessian":[4.272E3,3.437E3,8.35E2,9.52E2,2.485E3,3.66E2,4.69E2,3.3E1,9.19E2,7.25E2,1.76E3,5.8E1,3.08E2,3.51E2,1.18E2,2E1,1.3E1,3.82E2,5.37E2,6.3E1,6.62E2,1.1E2,1.65E3,1.3E1,7E0,6E0,7E0,4.8E1,3.34E2,2.8E1,5.09E2,3E1,3.3E1,5.77E2,8.5E1,1.01E2,9E0,5.26E2,1.124E3,2E0,1.1E1,2E0,5E0,2E0,4E0,2E0,5E0,2.2E1,2.6E1,2.18E2,1.16E2,1.2E1,1.6E1,1.37E2,3.72E2,1.1E1,1.9E1,1.7E1,1.6E1,8.3E1,4.94E2,8E0,7.7E1,6E0,9.5E1,8E0,1E0,3.74E2,1.52E2,4.11E2,7.13E2],"tree_param":{"num_deleted":"0","num_feature":"1382","num_nodes":"71","size_leaf_vector":"1"}},{"base_weights":[-3.5790354E-1,7.4048735E-2,-7.6917017E-1,1.8183768E-1,-2.03963E-1,-5.549074E-1,-9.1416067E-1,2.2602043E-1,-5.1615763E-2,1.1982779E-1,-2.9531476E-1,-4.1509247E-1,-6.3207126E-1,-7.896551E-1,-9.949481E-1,2.9749054E-1,1.5200785E-1,7.964335E-2,-3.7152565E-1,1.5910104E-1,-8.859688E-1,-4.7938734E-1,-1.6508728E-1,-5.213997E-1,-3.3483937E-1,-7.919674E-1,-4.482487E-1,-1.1163718E0,-7.2019595E-1,-9.1767055E-1,-1.0409211E0,3.4153995E-1,1.0500065E-1,2.7717516E-1,6.277403E-2,1.296632E-1,-8.351211E-1,-7.287178E-1,-8.541359E-2,3.4664524E-1,-1.3804318E-2,-2.965788E-1,-7.1319036E-2,2.026806E-2,-5.858964E-1,-6.8142265E-1,-1.2069967E-1,-4.764146E-1,-9.42796E-1,-5.0776774E-1,-3.1302926E-1,-6.759548E-1,-1.0042964E0,-1.0480646E0,-4.2806882E-1,-1.1739298E0,-7.2417283E-1,-6.923856E-1,-9.740373E-1,-1.1772261E0,-8.7121457E-1,-1.070332E0,-9.014962E-1,1.16054244E-1,4.1711826E-2,-3.6052823E-2,1.1055376E-1,6.723337E-2,2.024279E-1,-6.674984E-2,3.8297802E-2,-1.0432851E-1,5.5198066E-2,-9.464068E-2,-4.2174578E-1,-1.22903E-1,-3.8146478E-1,5.2741382E-2,-1.150144E-1,1.4491926E-1,-8.049015E-3,2.3942333E-2,-2.8896797E-1,1.0203893E-1,-7.504676E-2,-4.020192E-1,-1.468335E-1,-5.018075E-1,-8.013236E-2,-2.2445937E-1,-2.8999671E-2,-1.7202187E-1,-1.16431996E-1,-3.0186368E-2,-3.0306298E-1,-9.903948E-2,-2.1322529E-1,-9.6060716E-2,-3.1306036E-2,-3.3653775E-1,-1.5685079E-1,-3.275753E-1,-1.2173239E-1,-9.2692785E-2,-3.7287945E-1,-1.1358474E-1,-1.6417596E-1,-3.618857E-1,-1.4196627E-1,-9.382846E-2,-2.4238293E-1,-2.4704105E-1,-1.8194415E-1,-1.4725305E-1,-3.087123E-1,-1.641946E-1,-3.737118E-1,-2.2342859E-1,-3.1982732E-1,-3.0414185E-1,-3.594103E-1,-1.6962588E-1,-3.172532E-1],"categories":[],"categories_nodes":[],"categories_segments":[],"categories_sizes":[],"default_left":[0,0,0,0,0,0,0,0,0,0,0,0,0,0,0,0,0,0,0,0,0,0,0,0,0,0,0,0,0,0,0,0,0,0,0,0,0,0,0,0,0,0,0,0,0,0,0,0,0,0,0,0,0,0,0,0,0,0,0,0,0,0,0,0,0,0,0,0,0,0,0,0,0,0,0,0,0,0,0,0,0,0,0,0,0,0,0,0,0,0,0,0,0,0,0,0,0,0,0,0,0,0,0,0,0,0,0,0,0,0,0,0,0,0,0,0,0,0,0,0,0,0,0],"id":7,"left_children":[1,3,5,7,9,11,13,15,17,19,21,23,25,27,29,31,33,35,37,39,41,43,45,47,49,51,53,55,57,59,61,63,65,67,69,71,73,75,77,79,81,-1,-1,83,85,87,89,91,93,95,97,99,101,103,105,107,109,111,113,115,117,119,121,-1,-1,-1,-1,-1,-1,-1,-1,-1,-1,-1,-1,-1,-1,-1,-1,-1,-1,-1,-1,-1,-1,-1,-1,-1,-1,-1,-1,-1,-1,-1,-1,-1,-1,-1,-1,-1,-1,-1,-1,-1,-1,-1,-1,-1,-1,-1,-1,-1,-1,-1,-1,-1,-1,-1,-1,-1,-1,-1,-1],"loss_changes":[7.5914496E2,6.2517433E1,6.749634E1,1.551453E1,1.7279861E1,9.296356E0,1.2330566E1,6.6409454E0,1.010745E1,5.236574E0,1.0827805E1,2.538437E0,1.6369339E1,1.0951202E1,1.8407593E0,5.4076996E0,6.9409847E0,7.932627E0,7.091545E0,4.0582104E0,9.761572E-2,1.0016819E1,6.060017E0,2.10997E0,5.3502464E-1,6.784897E0,2.783184E0,1.1589737E0,2.361145E0,2.6158752E0,1.0279541E0,4.735462E0,7.2240314E0,5.3130074E0,6.7845755E0,4.2919865E0,2.2255878E0,4.84783E0,3.1807837E0,3.0699067E0,5.942781E0,0E0,0E0,3.026026E0,1.0618893E1,8.1778555E0,3.66785E0,8.3953476E-1,5.7964325E-1,4.504447E-1,2.150631E-1,1.2998451E1,5.063469E0,7.681551E-1,1.3252487E0,1.1522369E0,2.2980309E-1,3.9035645E0,5.5799866E-1,1.1730614E0,5.613098E0,1.6439819E0,4.1734467E0,0E0,0E0,0E0,0E0,0E0,0E0,0E0,0E0,0E0,0E0,0E0,0E0,0E0,0E0,0E0,0E0,0E0,0E0,0E0,0E0,0E0,0E0,0E0,0E0,0E0,0E0,0E0,0E0,0E0,0E0,0E0,0E0,0E0,0E0,0E0,0E0,0E0,0E0,0E0,0E0,0E0,0E0,0E0,0E0,0E0,0E0,0E0,0E0,0E0,0E0,0E0,0E0,0E0,0E0,0E0,0E0,0E0,0E0,0E0,0E0],"parents":[2147483647,0,0,1,1,2,2,3,3,4,4,5,5,6,6,7,7,8,8,9,9,10,10,11,11,12,12,13,13,14,14,15,15,16,16,17,17,18,18,19,19,20,20,21,21,22,22,23,23,24,24,25,25,26,26,27,27,28,28,29,29,30,30,31,31,32,32,33,33,34,34,35,35,36,36,37,37,38,38,39,39,40,40,43,43,44,44,45,45,46,46,47,47,48,48,49,49,50,50,51,51,52,52,53,53,54,54,55,55,56,56,57,57,58,58,59,59,60,60,61,61,62,62],"right_children":[2,4,6,8,10,12,14,16,18,20,22,24,26,28,30,32,34,36,38,40,42,44,46,48,50,52,54,56,58,60,62,64,66,68,70,72,74,76,78,80,82,-1,-1,84,86,88,90,92,94,96,98,100,102,104,106,108,110,112,114,116,118,120,122,-1,-1,-1,-1,-1,-1,-1,-1,-1,-1,-1,-1,-1,-1,-1,-1,-1,-1,-1,-1,-1,-1,-1,-1,-1,-1,-1,-1,-1,-1,-1,-1,-1,-1,-1,-1,-1,-1,-1,-1,-1,-1,-1,-1,-1,-1,-1,-1,-1,-1,-1,-1,-1,-1,-1,-1,-1,-1,-1,-1],"split_conditions":[7.471287E-8,1.0892964E-7,1.0318023E-6,4.681884E-7,1.6794147E-7,4.5535992E-7,2.0936902E-6,3.588441E-7,7.060384E-8,1.2362178E-5,3.1099805E-6,8.48249E-6,1.8086615E-5,3.1268166E-5,2.561694E-6,2.2499098E-5,1.3188514E-5,5.706863E-6,3.510638E-5,3.63351E-5,3.724344E-8,6.674578E-8,6.2516083E-6,1.7057453E-6,1.7204631E-5,3.6750516E-6,3.4946952E-5,4.349252E-5,1.0786233E-4,2.9797395E-5,2.1687822E-5,2.9711427E-5,3.5376328E-5,3.5598146E-5,2.4747058E-5,3.6961103E-6,5.162408E-7,7.0353275E-7,6.6265525E-6,2.3525643E-5,4.497022E-5,-2.965788E-1,-7.1319036E-2,3.4754066E-5,2.5518432E-6,4.043439E-6,3.0870713E-5,8.297519E-6,8.02096E-8,2.225428E-5,2.9291854E-7,7.713143E-6,2.8651883E-5,4.952364E-7,1.5557085E-6,5.262114E-5,2.1230377E-5,3.235363E-5,1.0053154E-4,4.9358572E-5,9.6573815E-5,2.6107986E-5,1.3263995E-4,1.16054244E-1,4.1711826E-2,-3.6052823E-2,1.1055376E-1,6.723337E-2,2.024279E-1,-6.674984E-2,3.8297802E-2,-1.0432851E-1,5.5198066E-2,-9.464068E-2,-4.2174578E-1,-1.22903E-1,-3.8146478E-1,5.2741382E-2,-1.150144E-1,1.4491926E-1,-8.049015E-3,2.3942333E-2,-2.8896797E-1,1.0203893E-1,-7.504676E-2,-4.020192E-1,-1.468335E-1,-5.018075E-1,-8.013236E-2,-2.2445937E-1,-2.8999671E-2,-1.7202187E-1,-1.16431996E-1,-3.0186368E-2,-3.0306298E-1,-9.903948E-2,-2.1322529E-1,-9.6060716E-2,-3.1306036E-2,-3.3653775E-1,-1.5685079E-1,-3.275753E-1,-1.2173239E-1,-9.2692785E-2,-3.7287945E-1,-1.1358474E-1,-1.6417596E-1,-3.618857E-1,-1.4196627E-1,-9.382846E-2,-2.4238293E-1,-2.4704105E-1,-1.8194415E-1,-1.4725305E-1,-3.087123E-1,-1.641946E-1,-3.737118E-1,-2.2342859E-1,-3.1982732E-1,-3.0414185E-1,-3.594103E-1,-1.6962588E-1,-3.172532E-1],"split_indices":[1,3,1,13,5,2,1,11,2,310,93,232,384,687,1,640,418,153,1113,1127,1,2,216,14,554,18,1175,945,695,225,5,841,1099,985,842,131,16,20,206,691,1243,0,0,1074,89,132,1193,242,1,643,1,179,659,1,2,1110,388,479,454,1282,793,8,1064,0,0,0,0,0,0,0,0,0,0,0,0,0,0,0,0,0,0,0,0,0,0,0,0,0,0,0,0,0,0,0,0,0,0,0,0,0,0,0,0,0,0,0,0,0,0,0,0,0,0,0,0,0,0,0,0,0,0,0,0],"split_type":[0,0,0,0,0,0,0,0,0,0,0,0,0,0,0,0,0,0,0,0,0,0,0,0,0,0,0,0,0,0,0,0,0,0,0,0,0,0,0,0,0,0,0,0,0,0,0,0,0,0,0,0,0,0,0,0,0,0,0,0,0,0,0,0,0,0,0,0,0,0,0,0,0,0,0,0,0,0,0,0,0,0,0,0,0,0,0,0,0,0,0,0,0,0,0,0,0,0,0,0,0,0,0,0,0,0,0,0,0,0,0,0,0,0,0,0,0,0,0,0,0,0,0],"sum_hessian":[4.272E3,2.084E3,2.188E3,1.502E3,5.82E2,8.85E2,1.303E3,1.263E3,2.39E2,1.28E2,4.54E2,3.17E2,5.68E2,5.17E2,7.86E2,6.41E2,6.22E2,1.7E2,6.9E1,1.24E2,4E0,1.87E2,2.67E2,1.34E2,1.83E2,3.02E2,2.66E2,8.8E1,4.29E2,3.01E2,4.85E2,5.21E2,1.2E2,2.58E2,3.64E2,1.62E2,8E0,3E1,3.9E1,5.9E1,6.5E1,3E0,1E0,3.3E1,1.54E2,2E1,2.47E2,1.23E2,1.1E1,1.8E1,1.65E2,1.98E2,1.04E2,7E0,2.59E2,7.5E1,1.3E1,3.9E2,3.9E1,4.2E1,2.59E2,3.95E2,9E1,4.25E2,9.6E1,6.5E1,5.5E1,2.29E2,2.9E1,6.7E1,2.97E2,1.6E1,1.46E2,5E0,3E0,2E1,1E1,2.1E1,1.8E1,4.3E1,1.6E1,6E1,5E0,1.5E1,1.8E1,1.6E1,1.38E2,5E0,1.5E1,8E0,2.39E2,5.6E1,6.7E1,1E0,1E1,1.1E1,7E0,1.59E2,6E0,4.9E1,1.49E2,9E1,1.4E1,2E0,5E0,1.86E2,7.3E1,7.1E1,4E0,3E0,1E1,1.51E2,2.39E2,5E0,3.4E1,5E0,3.7E1,1.6E2,9.9E1,2.8E2,1.15E2,3E1,6E1],"tree_param":{"num_deleted":"0","num_feature":"1382","num_nodes":"123","size_leaf_vector":"1"}},{"base_weights":[2.4811772E-1,2.3019534E-1,3.1795633E-1,1.7070854E-1,2.362699E-1,3.0414158E-1,1.1421246E-1,2.9719618E-1,1.2923437E-1,7.7792384E-2,2.3917319E-1,3.5363477E-1,2.8579026E-1,1.5520322E-1,4.2155075E-1,1.044886E-1,3.3079594E-1,-1.695105E-2,3.7000087E-1,2.5771317E-1,2.1553539E-1,1.1752893E-1,3.3018127E-1,2.4774444E-1,9.186318E-2,7.4473254E-2,3.7379977E-1,4.7355086E-1,1.0132863E-1,8.414597E-2,3.547837E-1,1.3561607E-2,4.2528817E-1,-5.967937E-2,1.275756E-1,4.6875057E-1,5.9389835E-3,2.4087153E-1,3.9621243E-1,1.3821456E-1,2.3162962E-1,6.259473E-2,1.00700736E-1,5.441529E-2,7.559775E-2,-4.36059E-3,5.1263344E-2,1.9138698E-2,1.2034689E-1,1.5147004E-1,3.131083E-2,-6.7956466E-3,5.9993178E-2,6.0482457E-2,1.47583E-2,3.85894E-2,1.549163E-1,-1.4833734E-2,3.4216013E-2,1.4346578E-2,1.4672604E-1,-3.0775178E-2,1.5766587E-2,4.0104963E-2,1.466667E-1,-1.72445E-2,1.3871926E-2,7.558051E-2,3.5152145E-2,7.723127E-2,1.3723029E-1,2.4541842E-2,4.887977E-2,8.617516E-2,6.1187036E-2],"categories":[],"categories_nodes":[],"categories_segments":[],"categories_sizes":[],"default_left":[0,0,0,0,0,0,0,0,0,0,0,0,0,0,0,0,0,0,0,0,0,0,0,0,0,0,0,0,0,0,0,0,0,0,0,0,0,0,0,0,0,0,0,0,0,0,0,0,0,0,0,0,0,0,0,0,0,0,0,0,0,0,0,0,0,0,0,0,0,0,0,0,0,0,0],"id":8,"left_children":[1,3,5,7,9,11,-1,13,15,17,19,21,23,25,27,29,31,33,35,37,39,-1,41,43,-1,45,47,49,51,53,55,57,59,61,-1,63,65,67,69,71,73,-1,-1,-1,-1,-1,-1,-1,-1,-1,-1,-1,-1,-1,-1,-1,-1,-1,-1,-1,-1,-1,-1,-1,-1,-1,-1,-1,-1,-1,-1,-1,-1,-1,-1],"loss_changes":[5.275177E0,1.1897278E0,6.384125E-1,1.6350555E0,1.4012756E0,5.5107117E-1,0E0,1.3118572E0,1.172483E0,1.5843076E0,1.2723236E0,4.055214E-2,3.3512497E-1,6.427591E-1,6.3473034E-1,1.0750368E0,7.73613E-1,8.567409E-1,5.0053024E-1,3.8535843E0,1.6330261E0,0E0,1.2664795E-2,7.854462E-3,0E0,2.513278E-1,5.9214115E-2,3.523779E-1,9.014366E-2,8.193923E-1,5.183301E-1,4.9961526E-2,4.5824742E-1,2.0282184E-1,0E0,8.868694E-3,1.2881541E-2,2.0396957E0,1.4285221E0,3.1154394E-1,1.6437569E0,0E0,0E0,0E0,0E0,0E0,0E0,0E0,0E0,0E0,0E0,0E0,0E0,0E0,0E0,0E0,0E0,0E0,0E0,0E0,0E0,0E0,0E0,0E0,0E0,0E0,0E0,0E0,0E0,0E0,0E0,0E0,0E0,0E0,0E0],"parents":[2147483647,0,0,1,1,2,2,3,3,4,4,5,5,7,7,8,8,9,9,10,10,11,11,12,12,13,13,14,14,15,15,16,16,17,17,18,18,19,19,20,20,22,22,23,23,25,25,26,26,27,27,28,28,29,29,30,30,31,31,32,32,33,33,35,35,36,36,37,37,38,38,39,39,40,40],"right_children":[2,4,6,8,10,12,-1,14,16,18,20,22,24,26,28,30,32,34,36,38,40,-1,42,44,-1,46,48,50,52,54,56,58,60,62,-1,64,66,68,70,72,74,-1,-1,-1,-1,-1,-1,-1,-1,-1,-1,-1,-1,-1,-1,-1,-1,-1,-1,-1,-1,-1,-1,-1,-1,-1,-1,-1,-1,-1,-1,-1,-1,-1,-1],"split_conditions":[6.761479E-5,2.9433588E-6,3.9700506E-5,2.6911095E-5,2.3959632E-5,1.9108672E-6,1.1421246E-1,2.7532296E-5,4.2925098E-5,1.9617532E-5,6.84277E-8,1.1829842E-6,5.98851E-5,1.4630277E-5,7.339759E-6,2.5244732E-5,1.9958572E-5,4.7750367E-5,2.8293784E-5,1.4607157E-6,1.1634296E-5,1.1752893E-1,5.3772485E-5,3.6763926E-5,9.186318E-2,4.5256686E-5,2.7778741E-8,4.321345E-5,9.201114E-8,2.7415078E-6,4.4526827E-5,1.6569393E-7,3.5587078E-7,2.8177146E-5,1.275756E-1,3.0252863E-8,2.6904738E-8,1.2441843E-7,9.5142127E-7,3.3929946E-6,5.1445164E-7,6.259473E-2,1.00700736E-1,5.441529E-2,7.559775E-2,-4.36059E-3,5.1263344E-2,1.9138698E-2,1.2034689E-1,1.5147004E-1,3.131083E-2,-6.7956466E-3,5.9993178E-2,6.0482457E-2,1.47583E-2,3.85894E-2,1.549163E-1,-1.4833734E-2,3.4216013E-2,1.4346578E-2,1.4672604E-1,-3.0775178E-2,1.5766587E-2,4.0104963E-2,1.466667E-1,-1.72445E-2,1.3871926E-2,7.558051E-2,3.5152145E-2,7.723127E-2,1.3723029E-1,2.4541842E-2,4.887977E-2,8.617516E-2,6.1187036E-2],"split_indices":[1369,100,10,894,904,1,0,852,1201,580,1,1,372,428,207,677,708,1343,762,38,313,0,1074,438,0,1370,1,1255,3,92,1344,5,13,810,0,1,1,3,27,88,1,0,0,0,0,0,0,0,0,0,0,0,0,0,0,0,0,0,0,0,0,0,0,0,0,0,0,0,0,0,0,0,0,0,0],"split_type":[0,0,0,0,0,0,0,0,0,0,0,0,0,0,0,0,0,0,0,0,0,0,0,0,0,0,0,0,0,0,0,0,0,0,0,0,0,0,0,0,0,0,0,0,0,0,0,0,0,0,0,0,0,0,0,0,0,0,0,0,0,0,0,0,0,0,0,0,0,0,0,0,0,0,0],"sum_hessian":[4.272E3,3.403E3,8.69E2,3.18E2,3.085E3,7.17E2,1.52E2,7.7E1,2.41E2,5.6E1,3.029E3,1.89E2,5.28E2,3.7E1,4E1,2.16E2,2.5E1,4.3E1,1.3E1,1.692E3,1.337E3,6.6E1,1.23E2,1.89E2,3.39E2,2.8E1,9E0,3.4E1,6E0,2.01E2,1.5E1,6E0,1.9E1,4E1,3E0,1E1,3E0,1.511E3,1.81E2,2.32E2,1.105E3,7E0,1.16E2,1.4E1,1.75E2,1.5E1,1.3E1,1E0,8E0,3.1E1,3E0,3E0,3E0,4.5E1,1.56E2,7E0,8E0,4E0,2E0,3E0,1.6E1,2.9E1,1.1E1,1E0,9E0,1E0,2E0,1.386E3,1.25E2,5.7E1,1.24E2,7.2E1,1.6E2,3.64E2,7.41E2],"tree_param":{"num_deleted":"0","num_feature":"1382","num_nodes":"75","size_leaf_vector":"1"}},{"base_weights":[-2.5268927E-1,4.6338134E-2,-5.466041E-1,1.4847866E-1,-1.3389975E-1,-4.1835374E-1,-6.683185E-1,2.1036024E-1,4.382024E-2,8.567226E-2,-2.1575423E-1,-3.1982538E-1,-4.7067502E-1,-8.568412E-1,-6.4595735E-1,2.2665003E-1,-2.1313004E-1,1.3921455E-1,-1.4112236E-1,-3.5016248E-1,1.495076E-1,-3.081617E-1,-6.758788E-2,-4.2810765E-1,-2.0310219E-1,-6.900148E-1,-4.0893888E-1,-4.810817E-1,-8.963317E-1,-5.5889195E-1,-7.303378E-1,2.4636321E-1,-1.348333E-1,1.4242579E-1,-3.58453E-1,-2.4832512E-1,1.7284438E-1,3.4834218E-1,-2.2284864E-1,4.6763897E-1,-5.5728275E-1,1.8816474E-1,-3.7048313E-1,-4.3373322E-1,-1.3489534E-1,-5.0067425E-2,-3.8845536E-1,-3.3475736E-1,-7.809572E-1,-5.88403E-1,-1.90933E-1,-4.9674186E-1,-8.953464E-1,-8.296301E-1,-3.9105988E-1,-2.6778585E-1,-2.683584E-1,-1.0948111E0,-8.2806474E-1,-7.2673285E-1,-5.2404565E-1,-4.8967078E-1,-7.4739945E-1,-1.9283988E-2,8.0208056E-2,1.5564507E-1,-8.971872E-2,6.241502E-2,-2.4014259E-2,1.0986016E-3,-1.3046415E-1,1.2600355E-1,-1.2579341E-1,7.987814E-2,8.113696E-3,2.6804248E-3,2.145867E-1,-3.922281E-2,-1.9500287E-1,1.7072892E-1,5.2944828E-2,-3.1419384E-1,-9.241935E-2,-4.0633764E-2,7.656243E-2,2.6782135E-2,-1.7542166E-1,-1.6959676E-1,-4.612787E-2,-2.1812454E-2,-1.9068657E-1,9.450297E-2,-3.0007439E-2,-1.3887285E-1,-8.398652E-2,-2.7686676E-1,-6.1592266E-2,-3.1237813E-2,-2.0503221E-1,2.49502E-2,-6.034695E-2,-2.7159685E-1,-9.9959515E-2,-8.189566E-2,-2.877455E-1,-3.324168E-1,-7.160435E-2,-8.762622E-2,-1.3547264E-1,-8.8363424E-2,-4.9022557E-3,-9.624163E-2,-3.3462337E-1,-2.0536275E-1,-3.0351946E-1,-1.2848972E-1,-2.3614617E-1,-1.4140044E-1,-1.9030696E-1,-2.3466715E-1,-9.8897554E-2,-2.32986E-1,-1.894582E-1],"categories":[],"categories_nodes":[],"categories_segments":[],"categories_sizes":[],"default_left":[0,0,0,0,0,0,0,0,0,0,0,0,0,0,0,0,0,0,0,0,0,0,0,0,0,0,0,0,0,0,0,0,0,0,0,0,0,0,0,0,0,0,0,0,0,0,0,0,0,0,0,0,0,0,0,0,0,0,0,0,0,0,0,0,0,0,0,0,0,0,0,0,0,0,0,0,0,0,0,0,0,0,0,0,0,0,0,0,0,0,0,0,0,0,0,0,0,0,0,0,0,0,0,0,0,0,0,0,0,0,0,0,0,0,0,0,0,0,0,0,0,0,0],"id":9,"left_children":[1,3,5,7,9,11,13,15,17,19,21,23,25,27,29,31,33,35,37,39,41,43,45,47,49,51,53,55,57,59,61,63,65,67,69,71,73,75,77,79,81,83,85,87,89,91,-1,93,95,97,99,101,103,105,107,-1,109,111,113,115,117,119,121,-1,-1,-1,-1,-1,-1,-1,-1,-1,-1,-1,-1,-1,-1,-1,-1,-1,-1,-1,-1,-1,-1,-1,-1,-1,-1,-1,-1,-1,-1,-1,-1,-1,-1,-1,-1,-1,-1,-1,-1,-1,-1,-1,-1,-1,-1,-1,-1,-1,-1,-1,-1,-1,-1,-1,-1,-1,-1,-1,-1],"loss_changes":[3.7557324E2,3.9029804E1,3.335974E1,8.753393E0,1.3803739E1,5.2726746E0,4.1005554E0,5.9120865E0,8.911452E0,5.867078E0,7.632818E0,4.5642204E0,8.99353E0,1.2604218E0,6.8723145E0,5.8694E0,1.7045065E0,4.382875E0,6.9579916E0,4.833956E0,3.7482595E0,7.42601E0,4.5796485E0,5.9969063E0,7.269478E-1,5.4683075E0,3.7146378E0,8.985257E-1,4.7548676E-1,2.4966888E0,1.6871033E0,5.0852203E0,4.771139E0,1.6265038E-1,6.381297E-1,3.2615786E0,4.17412E0,3.1072211E0,5.7379365E0,7.680404E-2,2.3640976E0,3.7445717E0,1.3327737E0,7.244541E0,4.5000443E0,3.9345055E0,0E0,9.3790627E-1,2.9969425E0,1.5895891E-1,5.0712585E-1,4.977188E0,2.5575714E0,3.190771E0,2.9646149E0,0E0,6.118095E-2,8.893967E-3,1.4162521E0,1.1414604E0,2.0907974E0,1.4273672E0,1.0839844E0,0E0,0E0,0E0,0E0,0E0,0E0,0E0,0E0,0E0,0E0,0E0,0E0,0E0,0E0,0E0,0E0,0E0,0E0,0E0,0E0,0E0,0E0,0E0,0E0,0E0,0E0,0E0,0E0,0E0,0E0,0E0,0E0,0E0,0E0,0E0,0E0,0E0,0E0,0E0,0E0,0E0,0E0,0E0,0E0,0E0,0E0,0E0,0E0,0E0,0E0,0E0,0E0,0E0,0E0,0E0,0E0,0E0,0E0,0E0,0E0],"parents":[2147483647,0,0,1,1,2,2,3,3,4,4,5,5,6,6,7,7,8,8,9,9,10,10,11,11,12,12,13,13,14,14,15,15,16,16,17,17,18,18,19,19,20,20,21,21,22,22,23,23,24,24,25,25,26,26,27,27,28,28,29,29,30,30,31,31,32,32,33,33,34,34,35,35,36,36,37,37,38,38,39,39,40,40,41,41,42,42,43,43,44,44,45,45,47,47,48,48,49,49,50,50,51,51,52,52,53,53,54,54,56,56,57,57,58,58,59,59,60,60,61,61,62,62],"right_children":[2,4,6,8,10,12,14,16,18,20,22,24,26,28,30,32,34,36,38,40,42,44,46,48,50,52,54,56,58,60,62,64,66,68,70,72,74,76,78,80,82,84,86,88,90,92,-1,94,96,98,100,102,104,106,108,-1,110,112,114,116,118,120,122,-1,-1,-1,-1,-1,-1,-1,-1,-1,-1,-1,-1,-1,-1,-1,-1,-1,-1,-1,-1,-1,-1,-1,-1,-1,-1,-1,-1,-1,-1,-1,-1,-1,-1,-1,-1,-1,-1,-1,-1,-1,-1,-1,-1,-1,-1,-1,-1,-1,-1,-1,-1,-1,-1,-1,-1,-1,-1,-1,-1],"split_conditions":[2.4110162E-7,3.1727618E-7,3.986491E-6,2.3541732E-7,1.652691E-7,5.479537E-7,4.5070203E-5,1.6162933E-6,6.878415E-8,3.83271E-5,9.00644E-6,5.7977254E-6,3.39367E-5,3.0288624E-5,4.874535E-6,5.1536088E-5,6.5265044E-7,3.5186225E-5,2.4504856E-5,1.45611375E-5,3.314766E-5,2.429135E-6,3.3825687E-5,1.6603595E-6,3.0340387E-5,3.7853467E-6,1.40173E-5,9.204587E-6,9.564055E-6,3.7212118E-5,1.313092E-5,1.996709E-5,6.981061E-6,5.896137E-7,4.267155E-7,7.161385E-6,3.577286E-5,3.6252546E-5,9.2778254E-7,6.3240584E-8,3.650497E-6,3.3625685E-5,6.046246E-8,2.8905806E-5,4.461733E-5,2.0129454E-7,-3.8845536E-1,1.06994685E-5,7.0896867E-6,5.5910522E-8,3.232198E-5,1.322257E-5,4.168467E-5,2.7381808E-5,2.0089121E-6,-2.6778585E-1,1.27077465E-5,9.401429E-6,2.4478926E-5,4.40057E-6,8.204706E-5,4.282211E-5,3.8013226E-5,-1.9283988E-2,8.0208056E-2,1.5564507E-1,-8.971872E-2,6.241502E-2,-2.4014259E-2,1.0986016E-3,-1.3046415E-1,1.2600355E-1,-1.2579341E-1,7.987814E-2,8.113696E-3,2.6804248E-3,2.145867E-1,-3.922281E-2,-1.9500287E-1,1.7072892E-1,5.2944828E-2,-3.1419384E-1,-9.241935E-2,-4.0633764E-2,7.656243E-2,2.6782135E-2,-1.7542166E-1,-1.6959676E-1,-4.612787E-2,-2.1812454E-2,-1.9068657E-1,9.450297E-2,-3.0007439E-2,-1.3887285E-1,-8.398652E-2,-2.7686676E-1,-6.1592266E-2,-3.1237813E-2,-2.0503221E-1,2.49502E-2,-6.034695E-2,-2.7159685E-1,-9.9959515E-2,-8.189566E-2,-2.877455E-1,-3.324168E-1,-7.160435E-2,-8.762622E-2,-1.3547264E-1,-8.8363424E-2,-4.9022557E-3,-9.624163E-2,-3.3462337E-1,-2.0536275E-1,-3.0351946E-1,-1.2848972E-1,-2.3614617E-1,-1.4140044E-1,-1.9030696E-1,-2.3466715E-1,-9.8897554E-2,-2.32986E-1,-1.894582E-1],"split_indices":[3,9,3,7,5,2,980,42,2,1348,261,129,996,716,2,1376,21,1261,837,489,898,71,804,15,1089,10,385,20,21,520,5,726,238,17,14,266,1093,1116,26,2,122,1170,2,857,1205,6,0,326,154,1,1100,362,1359,758,3,0,13,35,107,3,260,398,7,0,0,0,0,0,0,0,0,0,0,0,0,0,0,0,0,0,0,0,0,0,0,0,0,0,0,0,0,0,0,0,0,0,0,0,0,0,0,0,0,0,0,0,0,0,0,0,0,0,0,0,0,0,0,0,0,0,0,0,0],"split_type":[0,0,0,0,0,0,0,0,0,0,0,0,0,0,0,0,0,0,0,0,0,0,0,0,0,0,0,0,0,0,0,0,0,0,0,0,0,0,0,0,0,0,0,0,0,0,0,0,0,0,0,0,0,0,0,0,0,0,0,0,0,0,0,0,0,0,0,0,0,0,0,0,0,0,0,0,0,0,0,0,0,0,0,0,0,0,0,0,0,0,0,0,0,0,0,0,0,0,0,0,0,0,0,0,0,0,0,0,0,0,0,0,0,0,0,0,0,0,0,0,0,0,0],"sum_hessian":[4.272E3,2.118E3,2.154E3,1.352E3,7.66E2,1.051E3,1.103E3,8.49E2,5.03E2,2.08E2,5.58E2,3.67E2,6.84E2,1.13E2,9.9E2,8.18E2,3.1E1,3.32E2,1.71E2,2.6E1,1.82E2,3.43E2,2.15E2,1.89E2,1.78E2,1.48E2,5.36E2,1.2E1,1.01E2,4.91E2,4.99E2,7.76E2,4.2E1,9E0,2.2E1,2.6E1,3.06E2,2.4E1,1.47E2,5E0,2.1E1,1.7E2,1.2E1,1.98E2,1.45E2,2.13E2,2E0,1.51E2,3.8E1,4E0,1.74E2,7.8E1,7E1,2E1,5.16E2,3E0,9E0,2.2E1,7.9E1,8.1E1,4.1E2,3.5E1,4.64E2,4.9E1,7.27E2,8E0,3.4E1,7E0,2E0,4E0,1.8E1,5E0,2.1E1,1.86E2,1.2E2,1.3E1,1.1E1,1.22E2,2.5E1,3E0,2E0,6E0,1.5E1,2.9E1,1.41E2,4E0,8E0,1.34E2,6.4E1,1.3E2,1.5E1,2.5E1,1.88E2,4.3E1,1.08E2,3E1,8E0,1E0,3E0,6E0,1.68E2,2.1E1,5.7E1,7E0,6.3E1,1.3E1,7E0,1.98E2,3.18E2,8E0,1E0,1E0,2.1E1,4.7E1,3.2E1,1.5E1,6.6E1,2.81E2,1.29E2,1.1E1,2.4E1,3.66E2,9.8E1],"tree_param":{"num_deleted":"0","num_feature":"1382","num_nodes":"123","size_leaf_vector":"1"}},{"base_weights":[1.7422777E-1,1.585432E-1,2.191063E-1,1.6892453E-1,1.27629E-1,3.1359422E-1,2.0989922E-1,1.5427974E-1,2.4287935E-1,6.932749E-2,1.4614822E-1,3.717213E-1,8.1756786E-2,1.8140842E-1,2.4297264E-1,1.6825584E-1,1.0129696E-1,1.4789312E-1,2.6502562E-1,4.0235307E-2,9.8304786E-2,1.8186219E-1,1.0775967E-1,4.680635E-2,1.1387678E-1,2.2371566E-1,1.7419662E-1,6.964013E-2,8.7190524E-2,1.5521671E-1,2.469093E-1,2.2210099E-2,1.3676733E-1,2.6219028E-1,9.334548E-2,3.2296225E-1,2.2963057E-1,2.0564584E-2,7.4087836E-2,1.5432464E-1,7.091792E-2,1.3968068E-1,2.716315E-1,8.268406E-2,1.3530724E-1,3.0277295E-2,2.3667751E-1,1.3526398E-1,1.8459192E-1,4.4084124E-2,9.049532E-2,1.0628121E-1,5.77957E-2,1.0407797E-1,1.9338082E-3,5.067437E-3,4.9343165E-2,9.948638E-2,-4.118573E-4,-3.2676075E-2,3.9517287E-2,3.928289E-2,1.09080754E-1,5.0724495E-2,9.3664825E-2,-1.0052581E-3,1.17775705E-2,7.4995863E-3,2.7602047E-2,8.26032E-3,5.5095874E-2,1.7848123E-2,3.902591E-2,5.336859E-2,2.6861103E-2,5.1912084E-2,8.5356824E-2,3.2563895E-2,1.9536022E-2,5.801386E-2,3.5264976E-2,2.8406609E-2,7.1863666E-2,3.4646735E-2,4.5731284E-2,6.392064E-2,5.209597E-2],"categories":[],"categories_nodes":[],"categories_segments":[],"categories_sizes":[],"default_left":[0,0,0,0,0,0,0,0,0,0,0,0,0,0,0,0,0,0,0,0,0,0,0,0,0,0,0,0,0,0,0,0,0,0,0,0,0,0,0,0,0,0,0,0,0,0,0,0,0,0,0,0,0,0,0,0,0,0,0,0,0,0,0,0,0,0,0,0,0,0,0,0,0,0,0,0,0,0,0,0,0,0,0,0,0,0,0],"id":10,"left_children":[1,3,5,7,9,11,13,15,17,19,21,23,-1,25,27,29,31,33,35,37,39,41,43,-1,-1,45,47,-1,-1,49,51,53,55,57,59,61,63,65,67,69,71,73,75,77,79,-1,81,83,85,-1,-1,-1,-1,-1,-1,-1,-1,-1,-1,-1,-1,-1,-1,-1,-1,-1,-1,-1,-1,-1,-1,-1,-1,-1,-1,-1,-1,-1,-1,-1,-1,-1,-1,-1,-1,-1,-1],"loss_changes":[2.9730225E0,9.957886E-1,8.9461136E-1,2.5293655E0,8.547058E-1,1.2788486E-1,9.066925E-1,1.4498749E0,7.8120613E-1,1.6043222E-1,8.1260395E-1,3.5691261E-3,0E0,1.2761879E-1,1.7224121E-1,1.5677223E0,1.1639419E0,4.4935858E-1,5.717964E-1,6.440087E-2,1.3787377E-1,1.1472664E0,1.9259E-1,0E0,0E0,9.707546E-2,1.6565323E-1,0E0,0E0,1.5856247E0,1.2190971E0,6.632146E-1,9.5056343E-1,4.3964195E-1,4.2577142E-1,8.654232E-1,9.423027E-1,2.8744342E-2,2.9366612E-2,1.1021793E-1,3.7549406E-2,3.9605904E-1,7.659149E-2,6.424785E-2,1.20606184E-1,0E0,5.0091743E-3,1.7374516E-2,7.794285E-2,0E0,0E0,0E0,0E0,0E0,0E0,0E0,0E0,0E0,0E0,0E0,0E0,0E0,0E0,0E0,0E0,0E0,0E0,0E0,0E0,0E0,0E0,0E0,0E0,0E0,0E0,0E0,0E0,0E0,0E0,0E0,0E0,0E0,0E0,0E0,0E0,0E0,0E0],"parents":[2147483647,0,0,1,1,2,2,3,3,4,4,5,5,6,6,7,7,8,8,9,9,10,10,11,11,13,13,14,14,15,15,16,16,17,17,18,18,19,19,20,20,21,21,22,22,25,25,26,26,29,29,30,30,31,31,32,32,33,33,34,34,35,35,36,36,37,37,38,38,39,39,40,40,41,41,42,42,43,43,44,44,46,46,47,47,48,48],"right_children":[2,4,6,8,10,12,14,16,18,20,22,24,-1,26,28,30,32,34,36,38,40,42,44,-1,-1,46,48,-1,-1,50,52,54,56,58,60,62,64,66,68,70,72,74,76,78,80,-1,82,84,86,-1,-1,-1,-1,-1,-1,-1,-1,-1,-1,-1,-1,-1,-1,-1,-1,-1,-1,-1,-1,-1,-1,-1,-1,-1,-1,-1,-1,-1,-1,-1,-1,-1,-1,-1,-1,-1,-1],"split_conditions":[3.564575E-5,2.201834E-7,1.0915326E-6,3.5967398E-6,1.4770859E-5,2.2360489E-6,4.5630626E-5,3.833264E-8,1.1947744E-5,1.4939732E-5,4.0662867E-6,1.5510803E-5,8.1756786E-2,4.60745E-6,6.761279E-6,1.5915231E-5,6.8884633E-6,1.4349149E-5,6.452704E-8,5.6211948E-6,2.2051968E-6,1.2655984E-5,2.3413226E-5,4.680635E-2,1.1387678E-1,2.7047525E-5,3.7575628E-5,6.964013E-2,8.7190524E-2,2.6898256E-6,2.750139E-5,1.187777E-7,1.4173041E-5,3.4910172E-5,7.2740427E-6,1.4546838E-5,6.649005E-6,3.3215016E-5,4.273323E-5,3.6998263E-6,3.434052E-5,4.178408E-6,1.5265477E-5,7.85337E-6,9.145493E-6,3.0277295E-2,2.2135753E-5,4.4482025E-5,1.0521592E-5,4.4084124E-2,9.049532E-2,1.0628121E-1,5.77957E-2,1.0407797E-1,1.9338082E-3,5.067437E-3,4.9343165E-2,9.948638E-2,-4.118573E-4,-3.2676075E-2,3.9517287E-2,3.928289E-2,1.09080754E-1,5.0724495E-2,9.3664825E-2,-1.0052581E-3,1.17775705E-2,7.4995863E-3,2.7602047E-2,8.26032E-3,5.5095874E-2,1.7848123E-2,3.902591E-2,5.336859E-2,2.6861103E-2,5.1912084E-2,8.5356824E-2,3.2563895E-2,1.9536022E-2,5.801386E-2,3.5264976E-2,2.8406609E-2,7.1863666E-2,3.4646735E-2,4.5731284E-2,6.392064E-2,5.209597E-2],"split_indices":[598,1,1,95,361,3,37,1,377,383,4,161,0,3,2,446,218,472,1,107,9,155,321,0,0,358,373,0,0,71,888,4,476,1034,246,492,147,1033,1358,76,862,13,252,14,11,0,236,825,4,0,0,0,0,0,0,0,0,0,0,0,0,0,0,0,0,0,0,0,0,0,0,0,0,0,0,0,0,0,0,0,0,0,0,0,0,0,0],"split_type":[0,0,0,0,0,0,0,0,0,0,0,0,0,0,0,0,0,0,0,0,0,0,0,0,0,0,0,0,0,0,0,0,0,0,0,0,0,0,0,0,0,0,0,0,0,0,0,0,0,0,0,0,0,0,0,0,0,0,0,0,0,0,0,0,0,0,0,0,0,0,0,0,0,0,0,0,0,0,0,0,0,0,0,0,0,0,0],"sum_hessian":[4.272E3,3.169E3,1.103E3,2.369E3,8E2,9.5E1,1.008E3,1.98E3,3.89E2,1.94E2,6.06E2,3.6E1,5.9E1,5.45E2,4.63E2,1.565E3,4.15E2,7.5E1,3.14E2,9.8E1,9.6E1,3.12E2,2.94E2,2E0,3.4E1,7.5E1,4.7E2,3.82E2,8.1E1,1.345E3,2.2E2,1.29E2,2.86E2,2.3E1,5.2E1,1.16E2,1.98E2,6.3E1,3.5E1,3E1,6.6E1,2.14E2,9.8E1,1.56E2,1.38E2,8E0,6.7E1,1.02E2,3.68E2,1.275E3,7E1,7.2E1,1.48E2,5E0,1.24E2,5.4E1,2.32E2,1.8E1,5E0,8E0,4.4E1,2.1E1,9.5E1,1.16E2,8.2E1,2.8E1,3.5E1,1E1,2.5E1,6E0,2.4E1,5.7E1,9E0,1.2E2,9.4E1,1.3E1,8.5E1,6.1E1,9.5E1,3E1,1.08E2,2E0,6.5E1,5.1E1,5.1E1,9.7E1,2.71E2],"tree_param":{"num_deleted":"0","num_feature":"1382","num_nodes":"87","size_leaf_vector":"1"}},{"base_weights":[-1.7826213E-1,7.518313E-2,-3.5171747E-1,1.0908342E-1,-1.2975821E-1,-2.4950698E-1,-4.616761E-1,1.2969062E-1,-1.8515663E-1,1.8989256E-1,-2.2017808E-1,-3.7335134E-1,-2.447665E-1,-4.1456985E-1,-5.2438164E-1,2.1308868E-1,8.396454E-2,-1.2473974E-1,-1.090759E0,-9.431832E-2,3.5499358E-1,-8.686999E-2,-4.3337798E-1,-1.5887372E-1,-3.0540037E-1,-5.589406E-1,-3.5833588E-1,-6.905003E-1,-5.028447E-1,-4.0413085E-1,2.2801304E-1,1.2355893E-1,-9.233085E-2,-2.6612726E-1,-5.2372888E-2,-6.254762E-2,-3.6765423E-1,-2.644878E-1,2.1526808E-1,5.9858745E-1,1.4236881E-1,-4.2937663E-3,-4.16996E-1,-8.035304E-1,-1.9059975E-1,-3.4433955E-1,-1.1330716E-1,-3.8091525E-1,-1.9905747E-1,-7.7272016E-1,-5.10623E-1,-2.9127717E-1,-4.8427463E-1,-7.125926E-1,-1.6592361E-2,-4.055358E-1,-5.489518E-1,-2.1312371E-1,6.1658155E-3,-9.119398E-3,7.9869546E-2,4.490634E-2,-4.6062365E-2,-3.5958704E-1,-1.7284822E-2,-7.052538E-2,5.538218E-2,-1.0519862E-1,1.1583984E-2,1.1442473E-1,2.889487E-2,2.0702402E-1,4.5476872E-2,1.6160761E-1,1.2222498E-2,1.6289988E-1,-1.3903821E-2,-3.2657743E-2,-3.058987E-1,-1.2497258E-2,-2.8815547E-1,-2.957283E-1,-3.365962E-2,-2.0914496E-1,-3.4381993E-2,-2.0144607E-3,-4.8958246E-2,-9.886606E-2,-1.9336818E-1,-1.3248354E-1,-5.3656477E-2,-2.462024E-1,-6.2367916E-2,-9.579148E-2,-1.7247704E-1,-1.8709944E-1,-8.1777625E-2,-1.4963052E-1,-3.581123E-2,-1.7152467E-1,-2.5430915E-1,-9.466631E-2,-1.5071467E-1,-1.7825128E-1,-1.3584012E-1],"categories":[],"categories_nodes":[],"categories_segments":[],"categories_sizes":[],"default_left":[0,0,0,0,0,0,0,0,0,0,0,0,0,0,0,0,0,0,0,0,0,0,0,0,0,0,0,0,0,0,0,0,0,0,0,0,0,0,0,0,0,0,0,0,0,0,0,0,0,0,0,0,0,0,0,0,0,0,0,0,0,0,0,0,0,0,0,0,0,0,0,0,0,0,0,0,0,0,0,0,0,0,0,0,0,0,0,0,0,0,0,0,0,0,0,0,0,0,0,0,0,0,0,0,0],"id":11,"left_children":[1,3,5,7,9,11,13,15,17,19,21,-1,23,25,27,29,31,33,35,37,39,41,43,45,47,49,51,53,55,57,59,61,63,-1,65,-1,-1,67,69,71,73,75,77,79,81,83,85,87,89,91,93,95,97,99,-1,101,103,-1,-1,-1,-1,-1,-1,-1,-1,-1,-1,-1,-1,-1,-1,-1,-1,-1,-1,-1,-1,-1,-1,-1,-1,-1,-1,-1,-1,-1,-1,-1,-1,-1,-1,-1,-1,-1,-1,-1,-1,-1,-1,-1,-1,-1,-1,-1,-1],"loss_changes":[1.8787364E2,1.2082085E1,2.839795E1,9.06464E0,7.1807966E0,5.9073486E0,3.3892212E0,5.2980785E0,5.2258806E0,2.6142752E0,5.4476585E0,0E0,6.7843857E0,5.498932E0,1.5131683E0,4.6334705E0,6.3076477E0,5.0842524E0,4.5782948E-1,1.1632612E0,1.7275729E0,3.2694762E0,6.496852E0,4.566798E0,6.0915756E0,1.6196518E0,4.149147E0,7.60458E-1,1.8591766E0,1.5754735E0,4.7683983E0,5.3590918E0,6.30612E0,0E0,3.7671163E0,0E0,0E0,3.792132E-1,1.21372074E-1,5.497432E-1,7.835968E-1,2.2576153E0,4.3458896E0,3.428524E0,2.7571063E0,8.592684E0,2.3333163E0,5.854088E0,1.4939852E0,7.503109E-1,1.8093224E0,1.9043713E0,8.6600876E-1,5.619068E-1,0E0,1.1747704E0,1.0875015E0,0E0,0E0,0E0,0E0,0E0,0E0,0E0,0E0,0E0,0E0,0E0,0E0,0E0,0E0,0E0,0E0,0E0,0E0,0E0,0E0,0E0,0E0,0E0,0E0,0E0,0E0,0E0,0E0,0E0,0E0,0E0,0E0,0E0,0E0,0E0,0E0,0E0,0E0,0E0,0E0,0E0,0E0,0E0,0E0,0E0,0E0,0E0,0E0],"parents":[2147483647,0,0,1,1,2,2,3,3,4,4,5,5,6,6,7,7,8,8,9,9,10,10,12,12,13,13,14,14,15,15,16,16,17,17,18,18,19,19,20,20,21,21,22,22,23,23,24,24,25,25,26,26,27,27,28,28,29,29,30,30,31,31,32,32,34,34,37,37,38,38,39,39,40,40,41,41,42,42,43,43,44,44,45,45,46,46,47,47,48,48,49,49,50,50,51,51,52,52,53,53,55,55,56,56],"right_children":[2,4,6,8,10,12,14,16,18,20,22,-1,24,26,28,30,32,34,36,38,40,42,44,46,48,50,52,54,56,58,60,62,64,-1,66,-1,-1,68,70,72,74,76,78,80,82,84,86,88,90,92,94,96,98,100,-1,102,104,-1,-1,-1,-1,-1,-1,-1,-1,-1,-1,-1,-1,-1,-1,-1,-1,-1,-1,-1,-1,-1,-1,-1,-1,-1,-1,-1,-1,-1,-1,-1,-1,-1,-1,-1,-1,-1,-1,-1,-1,-1,-1,-1,-1,-1,-1,-1,-1],"split_conditions":[3.9044806E-7,4.0418524E-7,3.3218028E-6,4.5614655E-7,3.132652E-8,1.03896E-6,2.5157194E-6,2.1899851E-7,2.8492896E-5,2.5534904E-5,1.7616992E-5,-3.7335134E-1,1.6060896E-7,5.3670334E-5,4.721527E-5,1.5346534E-6,2.8566095E-7,5.723785E-6,9.223124E-8,2.870233E-5,1.3450195E-5,2.0772164E-5,4.741803E-6,1.7001916E-7,1.8551089E-5,2.3090719E-5,9.402841E-5,6.455882E-5,2.2636903E-5,3.238895E-6,3.3227636E-5,1.5449517E-5,7.106201E-6,-2.6612726E-1,2.1986768E-6,-6.254762E-2,-3.6765423E-1,6.556059E-7,1.5209454E-7,8.519252E-6,8.966935E-6,2.6682523E-5,4.0341205E-5,3.548107E-5,2.5247671E-5,3.6028956E-5,1.6880463E-7,4.6523414E-6,2.8106086E-5,2.5495121E-5,3.986491E-6,3.7677306E-5,1.4260535E-4,5.5585697E-5,-1.6592361E-2,2.9959624E-6,1.8653396E-5,-2.1312371E-1,6.1658155E-3,-9.119398E-3,7.9869546E-2,4.490634E-2,-4.6062365E-2,-3.5958704E-1,-1.7284822E-2,-7.052538E-2,5.538218E-2,-1.0519862E-1,1.1583984E-2,1.1442473E-1,2.889487E-2,2.0702402E-1,4.5476872E-2,1.6160761E-1,1.2222498E-2,1.6289988E-1,-1.3903821E-2,-3.2657743E-2,-3.058987E-1,-1.2497258E-2,-2.8815547E-1,-2.957283E-1,-3.365962E-2,-2.0914496E-1,-3.4381993E-2,-2.0144607E-3,-4.8958246E-2,-9.886606E-2,-1.9336818E-1,-1.3248354E-1,-5.3656477E-2,-2.462024E-1,-6.2367916E-2,-9.579148E-2,-1.7247704E-1,-1.8709944E-1,-8.1777625E-2,-1.4963052E-1,-3.581123E-2,-1.7152467E-1,-2.5430915E-1,-9.466631E-2,-1.5071467E-1,-1.7825128E-1,-1.3584012E-1],"split_indices":[10,11,3,12,1,38,1,7,778,797,527,0,1,1210,742,58,8,205,3,898,434,596,155,4,369,398,1057,925,8,95,1169,416,272,0,67,0,0,18,5,256,300,963,1213,1271,950,1166,3,10,791,331,3,858,973,1120,0,1,4,0,0,0,0,0,0,0,0,0,0,0,0,0,0,0,0,0,0,0,0,0,0,0,0,0,0,0,0,0,0,0,0,0,0,0,0,0,0,0,0,0,0,0,0,0,0,0,0],"split_type":[0,0,0,0,0,0,0,0,0,0,0,0,0,0,0,0,0,0,0,0,0,0,0,0,0,0,0,0,0,0,0,0,0,0,0,0,0,0,0,0,0,0,0,0,0,0,0,0,0,0,0,0,0,0,0,0,0,0,0,0,0,0,0,0,0,0,0,0,0,0,0,0,0,0,0,0,0,0,0,0,0,0,0,0,0,0,0,0,0,0,0,0,0,0,0,0,0,0,0,0,0,0,0,0,0],"sum_hessian":[4.272E3,1.736E3,2.536E3,1.49E3,2.46E2,1.316E3,1.22E3,1.393E3,9.7E1,5.4E1,1.92E2,5E0,1.311E3,7.01E2,5.19E2,4.92E2,9.01E2,9.2E1,5E0,2E1,3.4E1,1.19E2,7.3E1,5.44E2,7.67E2,1.94E2,5.07E2,5.6E1,4.63E2,1.1E1,4.81E2,7.36E2,1.65E2,7E0,8.5E1,1E0,4E0,1.3E1,7E0,1.5E1,1.9E1,9.6E1,2.3E1,2.8E1,4.5E1,1.06E2,4.38E2,4.47E2,3.2E2,3.3E1,1.61E2,3.33E2,1.74E2,5.4E1,2E0,1.52E2,3.11E2,6E0,5E0,6.2E1,4.19E2,6.73E2,6.3E1,4E0,1.61E2,4.8E1,3.7E1,1E1,3E0,2E0,5E0,1.2E1,3E0,3E0,1.6E1,6E0,9E1,1.6E1,7E0,5E0,2.3E1,3E0,4.2E1,4.1E1,6.5E1,1.4E2,2.98E2,3.76E2,7.1E1,2.3E1,2.97E2,3E1,3E0,4.2E1,1.19E2,1.6E1,3.17E2,1.67E2,7E0,2.9E1,2.5E1,8.1E1,7.1E1,2.08E2,1.03E2],"tree_param":{"num_deleted":"0","num_feature":"1382","num_nodes":"105","size_leaf_vector":"1"}},{"base_weights":[1.2245393E-1,1.0221024E-1,1.4265925E-1,-8.598406E-2,1.04658E-1,3.041894E-1,1.3974531E-1,-1.661287E-1,7.067032E-2,6.5851554E-2,1.1681952E-1,3.8189745E-1,-8.340174E-2,2.0094821E-2,1.4319424E-1,-2.0262916E-1,5.7988046E-3,2.437893E-2,1.3768038E-1,4.976339E-2,1.2599738E-1,4.645523E-1,8.619568E-2,-4.063968E-2,3.1171927E-2,2.963295E-1,-2.1980125E-2,2.5569874E-1,1.387128E-1,-1.923365E-2,-2.2459409E-1,-6.208232E-3,3.0358782E-2,-7.108018E-2,5.6757633E-2,3.2419242E-2,2.0001313E-1,1.1333489E-2,1.9383341E-1,1.533154E-1,9.678056E-2,2.6303917E-2,1.4844841E-1,-3.9873246E-2,1.3486418E-1,1.1129245E-2,2.8981224E-3,-2.2103952E-3,1.0223023E-1,-7.2100975E-2,1.377841E-1,-1.2866844E-1,2.8999272E-1,-1.3348986E-2,1.4171834E-1,-2.7953597E-2,-7.101363E-2,2.1062584E-3,1.1555194E-2,6.3448235E-2,-3.2644585E-2,-1.4914208E-2,2.7934765E-2,-1.3642769E-2,6.133181E-2,-3.832661E-2,6.9641985E-2,-2.1374373E-2,2.1530176E-2,2.3182789E-2,1.1133741E-1,6.617573E-2,3.8896576E-2,-1.7029083E-3,3.304396E-2,-1.8581294E-2,6.383322E-4,1.1689083E-2,4.387548E-2,-5.4598432E-2,-5.102729E-4,-1.1898744E-2,5.8495298E-2,1.2097474E-2,-4.9066447E-2,-2.1734629E-3,9.997709E-2,-3.6032338E-2,4.9641687E-2,-6.2414117E-2,4.2930566E-2],"categories":[],"categories_nodes":[],"categories_segments":[],"categories_sizes":[],"default_left":[0,0,0,0,0,0,0,0,0,0,0,0,0,0,0,0,0,0,0,0,0,0,0,0,0,0,0,0,0,0,0,0,0,0,0,0,0,0,0,0,0,0,0,0,0,0,0,0,0,0,0,0,0,0,0,0,0,0,0,0,0,0,0,0,0,0,0,0,0,0,0,0,0,0,0,0,0,0,0,0,0,0,0,0,0,0,0,0,0,0,0],"id":12,"left_children":[1,3,5,7,9,11,13,15,-1,17,19,21,23,25,27,29,31,33,35,37,39,41,43,-1,45,47,49,51,53,-1,55,-1,57,59,61,63,65,67,69,71,73,-1,-1,75,77,-1,-1,-1,-1,79,81,83,85,87,89,-1,-1,-1,-1,-1,-1,-1,-1,-1,-1,-1,-1,-1,-1,-1,-1,-1,-1,-1,-1,-1,-1,-1,-1,-1,-1,-1,-1,-1,-1,-1,-1,-1,-1,-1,-1],"loss_changes":[1.7332001E0,9.938793E-1,9.628868E-1,7.6071286E-1,9.885807E-1,1.1462514E0,8.6371994E-1,1.4550996E-1,0E0,1.5039823E0,9.821129E-1,7.176347E-1,4.5978755E-2,7.0386696E-1,9.935684E-1,4.3408573E-2,3.8815746E-3,9.992855E-1,1.2073407E0,1.0774394E0,1.1121445E0,2.304554E-1,5.446217E-2,0E0,2.402626E-5,1.10476255E-1,4.3433285E-1,1.0522871E0,8.9995575E-1,0E0,3.4234524E-3,0E0,3.0078436E-4,8.9737725E-1,9.3756986E-1,9.472642E-1,1.2511549E0,7.7867234E-1,8.1857026E-1,1.130106E0,9.386883E-1,0E0,0E0,2.911971E-3,8.538589E-4,0E0,0E0,0E0,0E0,3.168882E-1,1.3968337E-1,4.786428E-2,9.1545725E-1,7.6441354E-1,9.6227646E-1,0E0,0E0,0E0,0E0,0E0,0E0,0E0,0E0,0E0,0E0,0E0,0E0,0E0,0E0,0E0,0E0,0E0,0E0,0E0,0E0,0E0,0E0,0E0,0E0,0E0,0E0,0E0,0E0,0E0,0E0,0E0,0E0,0E0,0E0,0E0,0E0],"parents":[2147483647,0,0,1,1,2,2,3,3,4,4,5,5,6,6,7,7,9,9,10,10,11,11,12,12,13,13,14,14,15,15,16,16,17,17,18,18,19,19,20,20,21,21,22,22,24,24,25,25,26,26,27,27,28,28,30,30,32,32,33,33,34,34,35,35,36,36,37,37,38,38,39,39,40,40,43,43,44,44,49,49,50,50,51,51,52,52,53,53,54,54],"right_children":[2,4,6,8,10,12,14,16,-1,18,20,22,24,26,28,30,32,34,36,38,40,42,44,-1,46,48,50,52,54,-1,56,-1,58,60,62,64,66,68,70,72,74,-1,-1,76,78,-1,-1,-1,-1,80,82,84,86,88,90,-1,-1,-1,-1,-1,-1,-1,-1,-1,-1,-1,-1,-1,-1,-1,-1,-1,-1,-1,-1,-1,-1,-1,-1,-1,-1,-1,-1,-1,-1,-1,-1,-1,-1,-1,-1],"split_conditions":[3.526632E-5,3.4781872E-6,2.946055E-5,1.10143155E-5,3.9975424E-5,3.1777807E-5,1.9554793E-6,4.5799934E-5,7.067032E-2,3.6730537E-5,1.4003505E-5,7.78099E-6,1.3711956E-7,2.9642455E-5,1.5531078E-6,1.3686031E-5,5.710123E-8,1.524131E-6,3.3716504E-5,2.02643E-5,1.5996353E-5,5.605073E-7,9.0286346E-7,-4.063968E-2,2.8805042E-8,1.1273741E-7,3.0623476E-5,8.243693E-6,9.306488E-6,-1.923365E-2,1.022682E-6,-6.208232E-3,3.2523705E-8,7.611799E-6,1.4839106E-5,1.13647175E-5,2.0730378E-5,1.3507605E-5,4.560765E-5,1.6794585E-5,1.53537E-6,2.6303917E-2,1.4844841E-1,3.535305E-8,1.8345023E-6,1.1129245E-2,2.8981224E-3,-2.2103952E-3,1.0223023E-1,2.0634958E-5,3.179668E-6,3.2888565E-7,1.1380385E-5,1.3830689E-5,1.8865945E-5,-2.7953597E-2,-7.101363E-2,2.1062584E-3,1.1555194E-2,6.3448235E-2,-3.2644585E-2,-1.4914208E-2,2.7934765E-2,-1.3642769E-2,6.133181E-2,-3.832661E-2,6.9641985E-2,-2.1374373E-2,2.1530176E-2,2.3182789E-2,1.1133741E-1,6.617573E-2,3.8896576E-2,-1.7029083E-3,3.304396E-2,-1.8581294E-2,6.383322E-4,1.1689083E-2,4.387548E-2,-5.4598432E-2,-5.102729E-4,-1.1898744E-2,5.8495298E-2,1.2097474E-2,-4.9066447E-2,-2.1734629E-3,9.997709E-2,-3.6032338E-2,4.9641687E-2,-6.2414117E-2,4.2930566E-2],"split_indices":[1001,134,1057,313,1334,914,67,1330,0,1095,483,219,4,1045,51,496,2,49,1058,579,481,19,28,0,1,4,940,286,323,0,36,0,1,268,485,333,721,418,1347,556,51,0,0,1,45,0,0,0,0,667,110,11,392,422,705,0,0,0,0,0,0,0,0,0,0,0,0,0,0,0,0,0,0,0,0,0,0,0,0,0,0,0,0,0,0,0,0,0,0,0,0],"split_type":[0,0,0,0,0,0,0,0,0,0,0,0,0,0,0,0,0,0,0,0,0,0,0,0,0,0,0,0,0,0,0,0,0,0,0,0,0,0,0,0,0,0,0,0,0,0,0,0,0,0,0,0,0,0,0,0,0,0,0,0,0,0,0,0,0,0,0,0,0,0,0,0,0,0,0,0,0,0,0,0,0,0,0,0,0,0,0,0,0,0,0],"sum_hessian":[4.272E3,2.137E3,2.135E3,2.7E1,2.11E3,3.6E1,2.099E3,2.2E1,5E0,5.05E2,1.605E3,3E1,6E0,5.9E1,2.04E3,1.8E1,4E0,3.21E2,1.84E2,1.94E2,1.411E3,2.3E1,7E0,4E0,2E0,7E0,5.2E1,7.6E1,1.964E3,3E0,1.5E1,2E0,2E0,8.1E1,2.4E2,6.9E1,1.15E2,1.54E2,4E1,7.27E2,6.84E2,2E0,2.1E1,2E0,5E0,1E0,1E0,1E0,6E0,4E1,1.2E1,6E0,7E1,3.8E1,1.926E3,2E0,1.3E1,1E0,1E0,9E0,7.2E1,6.1E1,1.79E2,4.8E1,2.1E1,1E1,1.05E2,6.5E1,8.9E1,2.5E1,1.5E1,1.87E2,5.4E2,7.9E1,6.05E2,1E0,1E0,1E0,4E0,1.5E1,2.5E1,3E0,9E0,1E0,5E0,9E0,6.1E1,2.4E1,1.4E1,7E0,1.919E3],"tree_param":{"num_deleted":"0","num_feature":"1382","num_nodes":"91","size_leaf_vector":"1"}},{"base_weights":[-1.2589478E-1,6.1012395E-2,-2.4360827E-1,1.0241628E-1,-2.8063023E-2,-1.4439242E-1,-3.0478695E-1,1.3321957E-1,-5.430375E-2,-2.0306398E-1,2.3730516E-2,-5.145878E-1,-1.3282998E-1,-6.020932E-1,-2.949414E-1,-1.45142E-1,1.5129153E-1,-5.3979456E-1,-2.2733437E-3,-6.980905E-1,-1.0302839E-1,-3.5958079E-1,5.3075217E-2,-1.047568E0,-2.3628362E-1,-3.7840116E-1,-1.1911713E-1,-7.91377E-1,-2.9400313E-1,-2.2656141E-1,-3.4977794E-1,1.6539685E-1,-3.25864E-1,1.6020434E-1,-3.7692583E-1,-9.3217075E-1,-1.3267657E-1,9.3715176E-2,-2.3260033E-1,-1.7109779E-1,-1.113712E0,-2.9400435E-1,7.547825E-2,-1.0855004E0,-1.2301481E-1,2.615694E-1,1.0546001E-2,-5.604627E-2,-3.367346E-1,-5.8494097E-1,-5.782461E-2,-5.7857033E-2,-6.843914E-1,-4.577622E-2,-1.6281408E-1,-2.6013154E-1,-8.6044556E-1,-5.518973E-1,-5.459109E-2,-2.93392E-1,-1.6440713E-1,-3.4280843E-1,-6.4389616E-1,1.1171032E-1,-7.300443E-2,-1.638524E-1,-1.0364106E-2,-1.0558206E-2,5.532681E-2,4.875514E-3,-2.1689628E-1,-3.1973907E-1,-9.289587E-2,-8.1416376E-2,1.8093707E-2,-1.9833945E-2,7.639362E-2,-9.3528315E-2,1.6265951E-1,-1.0629211E-1,2.4891855E-2,-4.0385708E-1,-1.110983E-1,-3.3603016E-2,-1.593989E-1,7.175516E-2,-5.56103E-2,-7.618921E-2,-3.5452873E-1,8.528068E-2,-8.5045114E-2,-4.2730004E-2,1.0443195E-1,-1.3316551E-2,6.4364456E-2,-3.875956E-2,-1.9180949E-1,-5.1240176E-2,1.8713828E-2,-1.2810117E-1,3.0185495E-2,-3.1059292E-1,-3.3524197E-2,-7.2203696E-2,1.6257989E-3,-7.872963E-2,-2.7842555E-2,-1.315266E-2,-9.0973005E-2,-2.664494E-1,-1.027916E-1,-6.276033E-2,-2.0066436E-1,1.5783811E-2,-4.16044E-2,-3.7596945E-2,-1.1682201E-1,-3.756097E-2,-6.1943993E-2,-1.315457E-1,-9.672043E-2,-5.557911E-2,-2.1549322E-1],"categories":[],"categories_nodes":[],"categories_segments":[],"categories_sizes":[],"default_left":[0,0,0,0,0,0,0,0,0,0,0,0,0,0,0,0,0,0,0,0,0,0,0,0,0,0,0,0,0,0,0,0,0,0,0,0,0,0,0,0,0,0,0,0,0,0,0,0,0,0,0,0,0,0,0,0,0,0,0,0,0,0,0,0,0,0,0,0,0,0,0,0,0,0,0,0,0,0,0,0,0,0,0,0,0,0,0,0,0,0,0,0,0,0,0,0,0,0,0,0,0,0,0,0,0,0,0,0,0,0,0,0,0,0,0,0,0,0,0,0,0,0,0],"id":13,"left_children":[1,3,5,7,9,11,13,15,17,19,21,23,25,27,29,31,33,35,37,39,41,43,45,47,49,51,53,55,57,59,61,63,65,67,69,71,73,75,77,79,81,83,85,87,89,91,93,-1,-1,95,97,99,101,103,105,107,109,111,113,115,117,119,121,-1,-1,-1,-1,-1,-1,-1,-1,-1,-1,-1,-1,-1,-1,-1,-1,-1,-1,-1,-1,-1,-1,-1,-1,-1,-1,-1,-1,-1,-1,-1,-1,-1,-1,-1,-1,-1,-1,-1,-1,-1,-1,-1,-1,-1,-1,-1,-1,-1,-1,-1,-1,-1,-1,-1,-1,-1,-1,-1,-1],"loss_changes":[9.402726E1,6.0955634E0,1.5871262E1,5.452647E0,4.763376E0,4.2205696E0,4.567322E0,4.7657547E0,4.6971855E0,5.870509E0,4.585836E0,4.202396E0,3.2314854E0,2.7414742E0,5.811569E0,3.3089263E0,4.2315845E0,2.7517042E0,3.7581766E0,4.190037E0,3.4653292E0,4.8465757E0,3.3490033E0,4.3483543E-1,1.2728181E0,4.962655E0,2.950553E0,9.1363335E-1,1.2664735E0,2.8677406E0,1.562645E0,1.9517776E0,2.3558002E0,4.13299E0,2.0527055E0,4.186344E-1,2.8406557E-1,3.1033802E0,3.2357175E0,4.948787E-1,1.4024954E0,2.0568867E0,2.3075397E0,2.6019287E-1,1.5837822E0,2.2870998E0,3.5396523E0,0E0,0E0,9.10182E-2,2.1435696E-1,1.5639817E0,5.1090393E0,3.4537454E0,4.0065107E0,3.3328265E-2,8.321571E-2,2.6096892E-1,1.15473896E-1,5.389391E0,5.778351E-1,1.5221558E0,5.153742E-1,0E0,0E0,0E0,0E0,0E0,0E0,0E0,0E0,0E0,0E0,0E0,0E0,0E0,0E0,0E0,0E0,0E0,0E0,0E0,0E0,0E0,0E0,0E0,0E0,0E0,0E0,0E0,0E0,0E0,0E0,0E0,0E0,0E0,0E0,0E0,0E0,0E0,0E0,0E0,0E0,0E0,0E0,0E0,0E0,0E0,0E0,0E0,0E0,0E0,0E0,0E0,0E0,0E0,0E0,0E0,0E0,0E0,0E0,0E0,0E0],"parents":[2147483647,0,0,1,1,2,2,3,3,4,4,5,5,6,6,7,7,8,8,9,9,10,10,11,11,12,12,13,13,14,14,15,15,16,16,17,17,18,18,19,19,20,20,21,21,22,22,23,23,24,24,25,25,26,26,27,27,28,28,29,29,30,30,31,31,32,32,33,33,34,34,35,35,36,36,37,37,38,38,39,39,40,40,41,41,42,42,43,43,44,44,45,45,46,46,49,49,50,50,51,51,52,52,53,53,54,54,55,55,56,56,57,57,58,58,59,59,60,60,61,61,62,62],"right_children":[2,4,6,8,10,12,14,16,18,20,22,24,26,28,30,32,34,36,38,40,42,44,46,48,50,52,54,56,58,60,62,64,66,68,70,72,74,76,78,80,82,84,86,88,90,92,94,-1,-1,96,98,100,102,104,106,108,110,112,114,116,118,120,122,-1,-1,-1,-1,-1,-1,-1,-1,-1,-1,-1,-1,-1,-1,-1,-1,-1,-1,-1,-1,-1,-1,-1,-1,-1,-1,-1,-1,-1,-1,-1,-1,-1,-1,-1,-1,-1,-1,-1,-1,-1,-1,-1,-1,-1,-1,-1,-1,-1,-1,-1,-1,-1,-1,-1,-1,-1,-1,-1,-1],"split_conditions":[3.833264E-8,3.766532E-7,1.3866858E-6,6.7953545E-7,4.012756E-5,4.400418E-6,1.1692018E-5,3.6785364E-6,2.7816619E-5,1.95667E-5,3.4549652E-5,1.9241156E-6,5.8746336E-6,1.9478575E-5,1.9588056E-6,3.6943187E-5,2.0191252E-5,2.8995157E-5,3.3890232E-5,8.471323E-6,3.2414762E-5,1.3903878E-5,2.8175156E-5,6.726521E-8,1.0792004E-5,1.1566674E-5,7.016836E-8,2.7969787E-5,2.8361437E-5,3.642322E-5,1.8032374E-4,1.0671006E-5,1.6124453E-5,2.4895997E-5,2.1814478E-5,6.251728E-8,1.1178029E-6,4.228149E-5,7.354287E-6,2.2106144E-6,2.3665273E-6,4.0523406E-5,2.7397925E-7,5.8606833E-8,1.081291E-5,2.4582001E-5,4.4233195E-5,-5.604627E-2,-3.367346E-1,2.2252827E-7,7.2329003E-6,2.9157993E-5,1.6778216E-5,4.5961565E-6,1.1850593E-5,1.4704411E-6,3.3480686E-5,3.7851835E-6,2.327234E-5,5.995513E-6,4.2009215E-6,4.708609E-5,1.6825311E-4,1.1171032E-1,-7.300443E-2,-1.638524E-1,-1.0364106E-2,-1.0558206E-2,5.532681E-2,4.875514E-3,-2.1689628E-1,-3.1973907E-1,-9.289587E-2,-8.1416376E-2,1.8093707E-2,-1.9833945E-2,7.639362E-2,-9.3528315E-2,1.6265951E-1,-1.0629211E-1,2.4891855E-2,-4.0385708E-1,-1.110983E-1,-3.3603016E-2,-1.593989E-1,7.175516E-2,-5.56103E-2,-7.618921E-2,-3.5452873E-1,8.528068E-2,-8.5045114E-2,-4.2730004E-2,1.0443195E-1,-1.3316551E-2,6.4364456E-2,-3.875956E-2,-1.9180949E-1,-5.1240176E-2,1.8713828E-2,-1.2810117E-1,3.0185495E-2,-3.1059292E-1,-3.3524197E-2,-7.2203696E-2,1.6257989E-3,-7.872963E-2,-2.7842555E-2,-1.315266E-2,-9.0973005E-2,-2.664494E-1,-1.027916E-1,-6.276033E-2,-2.0066436E-1,1.5783811E-2,-4.16044E-2,-3.7596945E-2,-1.1682201E-1,-3.756097E-2,-6.1943993E-2,-1.315457E-1,-9.672043E-2,-5.557911E-2,-2.1549322E-1],"split_indices":[1,11,3,19,1343,154,243,134,990,687,1249,61,203,472,1,1204,514,903,990,264,1023,457,968,2,345,363,1,952,830,750,1153,304,503,888,680,2,35,1305,196,68,67,1184,8,2,375,844,1265,0,0,7,226,981,505,151,313,3,884,11,630,14,3,796,765,0,0,0,0,0,0,0,0,0,0,0,0,0,0,0,0,0,0,0,0,0,0,0,0,0,0,0,0,0,0,0,0,0,0,0,0,0,0,0,0,0,0,0,0,0,0,0,0,0,0,0,0,0,0,0,0,0,0,0,0],"split_type":[0,0,0,0,0,0,0,0,0,0,0,0,0,0,0,0,0,0,0,0,0,0,0,0,0,0,0,0,0,0,0,0,0,0,0,0,0,0,0,0,0,0,0,0,0,0,0,0,0,0,0,0,0,0,0,0,0,0,0,0,0,0,0,0,0,0,0,0,0,0,0,0,0,0,0,0,0,0,0,0,0,0,0,0,0,0,0,0,0,0,0,0,0,0,0,0,0,0,0,0,0,0,0,0,0,0,0,0,0,0,0,0,0,0,0,0,0,0,0,0,0,0,0],"sum_hessian":[4.272E3,1.651E3,2.621E3,1.127E3,5.24E2,1.001E3,1.62E3,9.42E2,1.85E2,1.19E2,4.05E2,2.9E1,9.72E2,5E1,1.57E3,5.7E1,8.85E2,1.7E1,1.68E2,1.9E1,1E2,2.8E1,3.77E2,9E0,2E1,5E1,9.22E2,3E1,2E1,7.01E2,8.69E2,2.1E1,3.6E1,8.71E2,1.4E1,8E0,9E0,1.19E2,4.9E1,9E0,1E1,4.8E1,5.2E1,6E0,2.2E1,6.3E1,3.14E2,1E0,8E0,6E0,1.4E1,2.5E1,2.5E1,3.45E2,5.77E2,4E0,2.6E1,9E0,1.1E1,3.36E2,3.65E2,8.51E2,1.8E1,1.4E1,7E0,2E1,1.6E1,9.6E1,7.75E2,7E0,7E0,6E0,2E0,5E0,4E0,6E1,5.9E1,4.5E1,4E0,5E0,4E0,7E0,3E0,2.8E1,2E1,3.2E1,2E1,1E0,5E0,6E0,1.6E1,1.1E1,5.2E1,2.48E2,6.6E1,1E0,5E0,7E0,7E0,7E0,1.8E1,1.5E1,1E1,7.1E1,2.74E2,2.37E2,3.4E2,1E0,3E0,2.4E1,2E0,3E0,6E0,5E0,6E0,1.23E2,2.13E2,1.91E2,1.74E2,1.46E2,7.05E2,3E0,1.5E1],"tree_param":{"num_deleted":"0","num_feature":"1382","num_nodes":"123","size_leaf_vector":"1"}},{"base_weights":[8.587831E-2,6.858251E-2,1.0040853E-1,2.536545E-2,7.819447E-2,-1.23223364E-1,1.02308676E-1,1.6127171E-2,3.1448522E-1,1.0612141E-1,5.7498183E-2,-2.0421769E-1,2.3795314E-2,3.5753915E-1,1.0058993E-1,-3.0261032E-2,7.445954E-2,1.20453686E-1,3.8925096E-2,8.020982E-2,1.6522808E-1,9.324974E-3,7.605694E-2,-5.8126557E-3,-6.540197E-2,3.9377432E-2,-3.3901963E-2,1.7416695E-2,1.2255779E-1,-1.1740519E-2,1.03725314E-1,2.4495737E-1,-4.497413E-2,2.6335892E-1,3.928362E-2,3.010604E-1,6.930712E-2,2.4849232E-1,1.0928492E-1,-4.389859E-2,6.588025E-2,2.7498862E-1,7.0088275E-2,-1.1232438E-2,-2.4306728E-3,9.199387E-3,-1.3618738E-3,2.9306942E-1,-6.796939E-2,1.5300193E-1,9.3493275E-2,8.755971E-2,-2.658262E-2,1.9295312E-2,-2.4481611E-2,9.906799E-2,-1.703511E-2,-1.5726566E-2,3.1901766E-2,1.656883E-2,1.05786376E-1,1.4643236E-2,5.2086595E-2,-2.6780595E-3,8.293262E-2,7.446493E-2,1.5749414E-2,-3.0150764E-2,7.993378E-3,9.830475E-3,7.466571E-2,1.2527287E-1,8.020087E-3,-4.6565738E-2,2.259746E-2,1.4046549E-2,1.04633585E-1,-3.582748E-2,3.6623135E-2,3.223002E-2,6.673838E-2,1.8726584E-2,3.262566E-2],"categories":[],"categories_nodes":[],"categories_segments":[],"categories_sizes":[],"default_left":[0,0,0,0,0,0,0,0,0,0,0,0,0,0,0,0,0,0,0,0,0,0,0,0,0,0,0,0,0,0,0,0,0,0,0,0,0,0,0,0,0,0,0,0,0,0,0,0,0,0,0,0,0,0,0,0,0,0,0,0,0,0,0,0,0,0,0,0,0,0,0,0,0,0,0,0,0,0,0,0,0,0,0],"id":14,"left_children":[1,3,5,7,9,11,13,15,17,19,21,23,25,27,29,31,33,-1,-1,35,37,39,41,-1,-1,-1,43,45,-1,47,49,51,53,55,57,59,61,63,65,67,69,71,73,-1,-1,-1,-1,75,77,79,81,-1,-1,-1,-1,-1,-1,-1,-1,-1,-1,-1,-1,-1,-1,-1,-1,-1,-1,-1,-1,-1,-1,-1,-1,-1,-1,-1,-1,-1,-1,-1,-1],"loss_changes":[1.0669651E0,8.0970955E-1,9.9845123E-1,9.484642E-1,9.175167E-1,2.4301293E-1,9.734287E-1,9.4121224E-1,1.247499E-1,1.0266681E0,8.218026E-1,2.8909981E-2,5.405239E-2,2.53011E-1,8.0669594E-1,7.965839E-1,1.0129395E0,0E0,0E0,1.1204636E0,9.32405E-1,7.764809E-1,7.6913166E-1,0E0,0E0,0E0,2.4454808E-4,1.0118298E-3,0E0,1.0996841E0,1.1075401E0,1.823321E-1,7.4589527E-1,5.325242E-1,8.1114155E-1,2.593801E-1,9.6007204E-1,5.924411E-1,9.73155E-1,5.337499E-1,7.4930394E-1,6.6140044E-1,7.7387E-1,0E0,0E0,0E0,0E0,1.2085205E-1,5.4264224E-1,1.1820269E0,8.6795425E-1,0E0,0E0,0E0,0E0,0E0,0E0,0E0,0E0,0E0,0E0,0E0,0E0,0E0,0E0,0E0,0E0,0E0,0E0,0E0,0E0,0E0,0E0,0E0,0E0,0E0,0E0,0E0,0E0,0E0,0E0,0E0,0E0],"parents":[2147483647,0,0,1,1,2,2,3,3,4,4,5,5,6,6,7,7,8,8,9,9,10,10,11,11,12,12,13,13,14,14,15,15,16,16,19,19,20,20,21,21,22,22,26,26,27,27,29,29,30,30,31,31,32,32,33,33,34,34,35,35,36,36,37,37,38,38,39,39,40,40,41,41,42,42,47,47,48,48,49,49,50,50],"right_children":[2,4,6,8,10,12,14,16,18,20,22,24,26,28,30,32,34,-1,-1,36,38,40,42,-1,-1,-1,44,46,-1,48,50,52,54,56,58,60,62,64,66,68,70,72,74,-1,-1,-1,-1,76,78,80,82,-1,-1,-1,-1,-1,-1,-1,-1,-1,-1,-1,-1,-1,-1,-1,-1,-1,-1,-1,-1,-1,-1,-1,-1,-1,-1,-1,-1,-1,-1,-1,-1],"split_conditions":[3.5688496E-5,1.5227158E-5,2.8668894E-5,3.0241295E-5,1.2868289E-5,3.832189E-6,1.07254455E-5,2.6421E-6,9.676752E-7,2.2774891E-5,1.9299025E-5,1.4348517E-7,4.966228E-6,2.5285656E-6,4.007021E-6,2.520074E-5,8.774314E-6,1.20453686E-1,3.8925096E-2,1.9372868E-7,2.4322078E-5,4.3963344E-5,1.9108218E-5,-5.8126557E-3,-6.540197E-2,3.9377432E-2,2.7876983E-6,2.9486781E-8,1.2255779E-1,3.406532E-5,4.657937E-8,4.4472547E-8,3.4849538E-5,3.6540918E-8,3.0819333E-6,1.2755349E-5,4.7557623E-5,2.9857836E-5,3.9463346E-5,8.285192E-6,3.151162E-5,2.4200082E-5,1.908735E-5,-1.1232438E-2,-2.4306728E-3,9.199387E-3,-1.3618738E-3,1.0232606E-6,2.0865999E-5,1.4655536E-5,3.257579E-5,8.755971E-2,-2.658262E-2,1.9295312E-2,-2.4481611E-2,9.906799E-2,-1.703511E-2,-1.5726566E-2,3.1901766E-2,1.656883E-2,1.05786376E-1,1.4643236E-2,5.2086595E-2,-2.6780595E-3,8.293262E-2,7.446493E-2,1.5749414E-2,-3.0150764E-2,7.993378E-3,9.830475E-3,7.466571E-2,1.2527287E-1,8.020087E-3,-4.6565738E-2,2.259746E-2,1.4046549E-2,1.04633585E-1,-3.582748E-2,3.6623135E-2,3.223002E-2,6.673838E-2,1.8726584E-2,3.262566E-2],"split_indices":[1039,512,1083,778,396,109,413,79,29,666,621,5,153,95,140,910,303,0,0,7,771,1356,706,0,0,0,6,1,0,1215,1,1,1148,1,96,430,1333,1083,1309,252,877,752,729,0,0,0,0,34,593,442,636,0,0,0,0,0,0,0,0,0,0,0,0,0,0,0,0,0,0,0,0,0,0,0,0,0,0,0,0,0,0,0,0],"split_type":[0,0,0,0,0,0,0,0,0,0,0,0,0,0,0,0,0,0,0,0,0,0,0,0,0,0,0,0,0,0,0,0,0,0,0,0,0,0,0,0,0,0,0,0,0,0,0,0,0,0,0,0,0,0,0,0,0,0,0,0,0,0,0,0,0,0,0,0,0,0,0,0,0,0,0,0,0,0,0,0,0,0,0],"sum_hessian":[4.272E3,1.953E3,2.319E3,3.56E2,1.597E3,1.9E1,2.3E3,3.46E2,1E1,6.78E2,9.19E2,1.2E1,7E0,1.4E1,2.286E3,1.93E2,1.53E2,6E0,4E0,4.73E2,2.05E2,2.56E2,6.63E2,1E0,1.1E1,2E0,5E0,2E0,1.2E1,6.2E1,2.224E3,9E0,1.84E2,2.3E1,1.3E2,2.1E1,4.52E2,8.1E1,1.24E2,1.32E2,1.24E2,1.8E1,6.45E2,4E0,1E0,1E0,1E0,9E0,5.3E1,3.8E2,1.844E3,8E0,1E0,4.6E1,1.38E2,1.9E1,4E0,5.5E1,7.5E1,4E0,1.7E1,3.79E2,7.3E1,8E0,7.3E1,3.5E1,8.9E1,7.3E1,5.9E1,1.06E2,1.8E1,1.1E1,7E0,1.4E1,6.31E2,2E0,7E0,4.2E1,1.1E1,2.31E2,1.49E2,6.09E2,1.235E3],"tree_param":{"num_deleted":"0","num_feature":"1382","num_nodes":"83","size_leaf_vector":"1"}},{"base_weights":[-8.918764E-2,4.7187777E-3,-2.0614134E-1,8.7935135E-2,-5.2759033E-2,-4.9533924E-1,-1.9807053E-1,1.2266807E-1,-5.99205E-2,1.5556037E-1,-7.361493E-2,-6.2844115E-1,-1.3399857E-1,-1.5373045E-1,-2.4618639E-1,1.7434953E-1,2.6725268E-2,-2.6785979E-2,-7.0490825E-1,-5.3824816E-2,3.0908233E-1,-1.5934055E-1,-2.2237634E-2,-2.8930652E-1,-7.6079404E-1,-3.236662E-1,2.0444721E-1,-6.008592E-1,-1.4653145E-1,-3.6547393E-1,-2.2390923E-1,6.2012666E-1,1.5865609E-1,7.0519455E-2,-3.347377E-1,5.240014E-3,-7.039901E-1,-2.73967E-2,-2.3105736E-1,7.023077E-2,-5.042099E-1,4.0113032E-1,-7.9715125E-2,-1.4162037E-1,-8.3567226E-1,1.0675322E-1,-5.5209804E-2,-3.891661E-1,7.7041388E-3,-1.4850803E-1,-2.6878783E-1,-1.2532397E-1,-7.8109086E-2,1.9026149E-2,7.773164E-2,-5.8308553E-2,-2.3785488E-1,-1.3379866E-2,-1.6074347E-1,-2.9980937E-1,-4.7504735E-1,-1.4371786E-1,-2.7219713E-1,-2.0403761E-2,2.1492383E-1,7.480185E-2,2.3612147E-2,-7.7337516E-3,5.840942E-2,-2.9187495E-1,-5.9740946E-2,5.726474E-2,-3.092998E-2,-2.2515908E-1,-5.673135E-2,-2.4621041E-2,1.6037834E-1,-2.5641212E-1,-6.6636875E-2,1.3988107E-1,-2.416882E-2,-9.0536706E-2,9.110816E-2,-1.6914254E-1,-3.5844352E-2,-8.206204E-2,-3.2476377E-1,-3.919724E-2,6.209476E-2,-2.6774678E-1,-1.4952062E-2,-4.6875563E-2,-1.300174E-1,-1.4518499E-2,2.6400233E-2,-1.2412549E-3,-3.0416133E-2,1.8974638E-2,-4.8128918E-2,-1.0505867E-1,6.732115E-3,-8.026629E-2,-3.909144E-2,-1.0834061E-1,-5.5439256E-2,-1.5241215E-1,9.415126E-3,-3.802974E-2,-9.662494E-2,-5.320638E-2,-8.81252E-2],"categories":[],"categories_nodes":[],"categories_segments":[],"categories_sizes":[],"default_left":[0,0,0,0,0,0,0,0,0,0,0,0,0,0,0,0,0,0,0,0,0,0,0,0,0,0,0,0,0,0,0,0,0,0,0,0,0,0,0,0,0,0,0,0,0,0,0,0,0,0,0,0,0,0,0,0,0,0,0,0,0,0,0,0,0,0,0,0,0,0,0,0,0,0,0,0,0,0,0,0,0,0,0,0,0,0,0,0,0,0,0,0,0,0,0,0,0,0,0,0,0,0,0,0,0,0,0,0,0,0,0],"id":15,"left_children":[1,3,5,7,9,11,13,15,17,19,21,23,25,27,29,31,33,35,37,39,41,43,45,47,49,51,53,55,57,59,61,63,65,67,69,71,73,-1,-1,75,77,79,81,83,85,87,89,91,93,-1,-1,-1,95,-1,-1,97,-1,99,101,103,105,107,109,-1,-1,-1,-1,-1,-1,-1,-1,-1,-1,-1,-1,-1,-1,-1,-1,-1,-1,-1,-1,-1,-1,-1,-1,-1,-1,-1,-1,-1,-1,-1,-1,-1,-1,-1,-1,-1,-1,-1,-1,-1,-1,-1,-1,-1,-1,-1,-1],"loss_changes":[4.693007E1,1.1345356E1,4.3436127E0,4.983612E0,6.107049E0,2.368641E0,3.9154587E0,3.8877344E0,3.9348204E0,4.1312246E0,5.6164083E0,1.4406586E0,1.0290558E0,3.02462E0,2.2752686E0,3.4694605E0,4.3926787E0,3.8424885E0,2.9017496E-1,3.1084142E0,2.6802902E0,5.610345E0,3.4041276E0,3.5891044E-1,4.904623E-1,1.9839108E-1,2.9817045E-2,1.5162377E0,1.8012638E0,8.504982E-1,2.8650856E0,1.1751146E0,3.5618954E0,2.9587016E0,2.402391E0,3.4388037E0,4.977393E-2,0E0,0E0,3.1556861E0,9.965985E-1,1.9202108E0,1.3688284E0,4.2976418E0,1.3691874E0,3.9057121E0,2.8193789E0,2.4988055E-2,2.2277085E-2,0E0,0E0,0E0,6.4681545E-3,0E0,0E0,7.221488E-2,0E0,1.1298871E0,2.7644024E0,5.609994E-1,8.5138035E-1,8.178892E-1,9.025421E-1,0E0,0E0,0E0,0E0,0E0,0E0,0E0,0E0,0E0,0E0,0E0,0E0,0E0,0E0,0E0,0E0,0E0,0E0,0E0,0E0,0E0,0E0,0E0,0E0,0E0,0E0,0E0,0E0,0E0,0E0,0E0,0E0,0E0,0E0,0E0,0E0,0E0,0E0,0E0,0E0,0E0,0E0,0E0,0E0,0E0,0E0,0E0,0E0],"parents":[2147483647,0,0,1,1,2,2,3,3,4,4,5,5,6,6,7,7,8,8,9,9,10,10,11,11,12,12,13,13,14,14,15,15,16,16,17,17,18,18,19,19,20,20,21,21,22,22,23,23,24,24,25,25,26,26,27,27,28,28,29,29,30,30,31,31,32,32,33,33,34,34,35,35,36,36,39,39,40,40,41,41,42,42,43,43,44,44,45,45,46,46,47,47,48,48,52,52,55,55,57,57,58,58,59,59,60,60,61,61,62,62],"right_children":[2,4,6,8,10,12,14,16,18,20,22,24,26,28,30,32,34,36,38,40,42,44,46,48,50,52,54,56,58,60,62,64,66,68,70,72,74,-1,-1,76,78,80,82,84,86,88,90,92,94,-1,-1,-1,96,-1,-1,98,-1,100,102,104,106,108,110,-1,-1,-1,-1,-1,-1,-1,-1,-1,-1,-1,-1,-1,-1,-1,-1,-1,-1,-1,-1,-1,-1,-1,-1,-1,-1,-1,-1,-1,-1,-1,-1,-1,-1,-1,-1,-1,-1,-1,-1,-1,-1,-1,-1,-1,-1,-1,-1],"split_conditions":[1.4367096E-6,6.646485E-8,1.8937464E-5,1.5194626E-6,2.0490828E-7,3.4409182E-5,9.239605E-6,5.6896424E-6,4.2355012E-5,4.0996797E-6,1.742746E-6,4.818245E-6,2.9131903E-5,1.111385E-5,5.1425566E-5,8.8042674E-7,6.6077564E-7,2.538306E-5,5.0597055E-8,1.540062E-5,3.4038814E-7,3.7571E-5,7.331639E-7,1.1683803E-5,3.1521795E-5,1.9319403E-5,9.916739E-6,6.191403E-6,2.3728524E-6,6.0885737E-5,7.704199E-6,1.8824484E-6,1.4851475E-5,2.252684E-5,6.6701155E-6,2.1910511E-5,1.3340694E-7,-2.73967E-2,-2.3105736E-1,2.477154E-5,8.1241797E-7,3.7734942E-5,6.0605566E-6,2.523443E-5,3.76408E-6,8.855708E-6,5.897019E-6,1.6641438E-6,3.08691E-7,-1.4850803E-1,-2.6878783E-1,-1.2532397E-1,1.490165E-6,1.9026149E-2,7.773164E-2,2.188765E-6,-2.3785488E-1,1.0145225E-5,2.0390971E-5,5.137612E-5,5.4871718E-5,5.877337E-6,1.5404034E-5,-2.0403761E-2,2.1492383E-1,7.480185E-2,2.3612147E-2,-7.7337516E-3,5.840942E-2,-2.9187495E-1,-5.9740946E-2,5.726474E-2,-3.092998E-2,-2.2515908E-1,-5.673135E-2,-2.4621041E-2,1.6037834E-1,-2.5641212E-1,-6.6636875E-2,1.3988107E-1,-2.416882E-2,-9.0536706E-2,9.110816E-2,-1.6914254E-1,-3.5844352E-2,-8.206204E-2,-3.2476377E-1,-3.919724E-2,6.209476E-2,-2.6774678E-1,-1.4952062E-2,-4.6875563E-2,-1.300174E-1,-1.4518499E-2,2.6400233E-2,-1.2412549E-3,-3.0416133E-2,1.8974638E-2,-4.8128918E-2,-1.0505867E-1,6.732115E-3,-8.026629E-2,-3.909144E-2,-1.0834061E-1,-5.5439256E-2,-1.5241215E-1,9.415126E-3,-3.802974E-2,-9.662494E-2,-5.320638E-2,-8.81252E-2],"split_indices":[7,2,577,43,7,946,4,172,1156,130,53,115,830,345,865,33,18,680,2,466,10,951,22,328,969,472,213,170,9,1233,3,71,466,686,230,711,4,0,0,711,26,1062,195,925,123,292,226,16,1,0,0,0,7,0,0,19,0,296,459,980,635,2,5,0,0,0,0,0,0,0,0,0,0,0,0,0,0,0,0,0,0,0,0,0,0,0,0,0,0,0,0,0,0,0,0,0,0,0,0,0,0,0,0,0,0,0,0,0,0,0,0],"split_type":[0,0,0,0,0,0,0,0,0,0,0,0,0,0,0,0,0,0,0,0,0,0,0,0,0,0,0,0,0,0,0,0,0,0,0,0,0,0,0,0,0,0,0,0,0,0,0,0,0,0,0,0,0,0,0,0,0,0,0,0,0,0,0,0,0,0,0,0,0,0,0,0,0,0,0,0,0,0,0,0,0,0,0,0,0,0,0,0,0,0,0,0,0,0,0,0,0,0,0,0,0,0,0,0,0,0,0,0,0,0,0],"sum_hessian":[4.272E3,2.37E3,1.902E3,9.68E2,1.402E3,5E1,1.852E3,7.84E2,1.84E2,1.27E2,1.275E3,3.6E1,1.4E1,9.66E2,8.86E2,5.09E2,2.75E2,1.76E2,8E0,5.4E1,7.3E1,4.77E2,7.98E2,1.1E1,2.5E1,9E0,5E0,1.4E1,9.52E2,1.37E2,7.49E2,1.6E1,4.93E2,2.46E2,2.9E1,1.69E2,7E0,1E0,7E0,4.3E1,1.1E1,5.9E1,1.4E1,4.66E2,1.1E1,1.62E2,6.36E2,8E0,3E0,1E1,1.5E1,6E0,3E0,2E0,3E0,4E0,1E1,9.2E1,8.6E2,8.8E1,4.9E1,2.83E2,4.66E2,2E0,1.4E1,2.3E2,2.63E2,1.39E2,1.07E2,4E0,2.5E1,6.2E1,1.07E2,6E0,1E0,3.3E1,1E1,4E0,7E0,5.2E1,7E0,9E0,5E0,2.2E1,4.44E2,4E0,7E0,4.8E1,1.14E2,3E0,6.33E2,2E0,6E0,2E0,1E0,1E0,2E0,2E0,2E0,8E0,8.4E1,1.89E2,6.71E2,5.6E1,3.2E1,4.6E1,3E0,2.6E2,2.3E1,8.8E1,3.78E2],"tree_param":{"num_deleted":"0","num_feature":"1382","num_nodes":"111","size_leaf_vector":"1"}},{"base_weights":[6.0395483E-2,2.978039E-2,6.674718E-2,8.741124E-3,9.5200114E-2,1.2754498E-1,6.327799E-2,-6.4219986E-3,1.0800292E-1,1.2433402E-2,1.4949644E-1,1.5939033E-1,-1.310984E-2,-2.4988487E-2,6.589052E-2,-2.2806652E-2,9.613907E-2,-1.7715336E-1,1.5021153E-1,1.9004579E-1,-5.9533782E-2,1.9360584E-1,-4.6910006E-3,1.9078317E-1,-3.906562E-2,1.5977578E-1,-1.1777457E-1,-6.1109267E-2,1.265131E-1,-6.0142186E-2,6.747827E-2,-4.038812E-2,9.936704E-2,1.9342831E-1,1.6624031E-3,1.9193437E-2,-6.331633E-2,-7.3915906E-3,2.2042163E-1,3.6776492E-1,2.6109375E-2,-1.5084668E-1,3.758091E-2,-4.7125228E-2,2.231219E-1,1.193589E-1,-9.5348194E-2,-6.494305E-2,2.1192999E-1,-1.1505644E-1,1.4020848E-1,9.044945E-2,-2.5017798E-2,7.791511E-2,-1.630732E-1,-8.8583186E-2,1.9379465E-1,-7.722872E-3,2.7652225E-1,2.2836521E-1,-1.2625739E-1,-1.4170663E-1,6.837237E-2,3.4764304E-3,-2.8512724E-2,6.207411E-2,-6.082278E-3,1.7449862E-3,7.596941E-2,1.8565346E-2,-4.6524376E-2,4.31464E-2,-3.983592E-2,8.7409586E-2,1.2756102E-2,2.4485834E-2,1.1714701E-1,-3.4785092E-2,4.3243468E-2,-6.0798015E-2,-1.274939E-2,-1.1671602E-2,4.9154837E-2,-5.329971E-2,1.026045E-2,7.718641E-2,2.84164E-4,6.861263E-2,7.260177E-3,-4.9365044E-2,-1.32876625E-2,-3.759975E-2,8.08427E-2,6.6385254E-2,-7.17349E-2,-4.8446268E-2,-3.226998E-3,5.8587108E-2,5.007535E-4,1.125483E-2,-2.4389176E-2,3.4211488E-3,2.7507592E-2,-6.199521E-2,-1.0264052E-2,-3.3588793E-2,4.335193E-2,9.116326E-2,-2.7290791E-2,-2.4668166E-2,2.9438337E-2,9.0403624E-2,1.1690561E-2,-1.0398829E-2,9.65455E-2,-6.907189E-2,-1.2587356E-2,-7.3070815E-3,-6.125838E-2,3.414597E-2,1.9161833E-2],"categories":[],"categories_nodes":[],"categories_segments":[],"categories_sizes":[],"default_left":[0,0,0,0,0,0,0,0,0,0,0,0,0,0,0,0,0,0,0,0,0,0,0,0,0,0,0,0,0,0,0,0,0,0,0,0,0,0,0,0,0,0,0,0,0,0,0,0,0,0,0,0,0,0,0,0,0,0,0,0,0,0,0,0,0,0,0,0,0,0,0,0,0,0,0,0,0,0,0,0,0,0,0,0,0,0,0,0,0,0,0,0,0,0,0,0,0,0,0,0,0,0,0,0,0,0,0,0,0,0,0,0,0,0,0,0,0,0,0,0,0],"id":16,"left_children":[1,3,5,7,9,11,13,15,17,19,21,23,25,27,29,31,33,35,37,39,41,43,45,47,49,51,53,55,57,59,61,63,65,67,69,-1,-1,71,73,75,77,79,81,83,85,87,89,91,93,95,97,-1,99,101,103,105,107,109,111,113,115,117,119,-1,-1,-1,-1,-1,-1,-1,-1,-1,-1,-1,-1,-1,-1,-1,-1,-1,-1,-1,-1,-1,-1,-1,-1,-1,-1,-1,-1,-1,-1,-1,-1,-1,-1,-1,-1,-1,-1,-1,-1,-1,-1,-1,-1,-1,-1,-1,-1,-1,-1,-1,-1,-1,-1,-1,-1,-1,-1],"loss_changes":[8.289299E-1,1.0121857E0,7.3816204E-1,8.405498E-1,8.0255413E-1,8.5313797E-1,7.7392197E-1,8.172E-1,9.172783E-1,9.316371E-1,7.354288E-1,9.7311807E-1,6.7023844E-1,5.3854954E-1,6.5501213E-1,9.040222E-1,6.155131E-1,9.5249E-2,7.208755E-1,6.0222524E-1,4.6679586E-1,6.073711E-1,2.92531E-1,7.384081E-1,3.1584197E-1,3.7419426E-1,2.1658877E-1,5.704205E-1,3.8473144E-1,8.108965E-1,6.1062145E-1,1.0436468E0,6.861473E-1,3.6877894E-1,3.399771E-1,0E0,0E0,4.172851E-1,5.555546E-1,3.3155322E-2,2.1793069E-1,1.4296287E-1,2.5747758E-1,1.1224072E-1,5.6907034E-1,1.089261E-1,4.5709312E-2,2.55923E-1,5.760889E-1,7.574701E-2,5.3091064E-2,0E0,2.7685568E-2,3.5359468E-3,9.962207E-2,4.0854383E-1,2.784246E-1,9.481846E-2,4.132849E-2,2.078014E-1,2.8837186E-1,9.768763E-2,6.4711475E-1,0E0,0E0,0E0,0E0,0E0,0E0,0E0,0E0,0E0,0E0,0E0,0E0,0E0,0E0,0E0,0E0,0E0,0E0,0E0,0E0,0E0,0E0,0E0,0E0,0E0,0E0,0E0,0E0,0E0,0E0,0E0,0E0,0E0,0E0,0E0,0E0,0E0,0E0,0E0,0E0,0E0,0E0,0E0,0E0,0E0,0E0,0E0,0E0,0E0,0E0,0E0,0E0,0E0,0E0,0E0,0E0,0E0,0E0],"parents":[2147483647,0,0,1,1,2,2,3,3,4,4,5,5,6,6,7,7,8,8,9,9,10,10,11,11,12,12,13,13,14,14,15,15,16,16,17,17,18,18,19,19,20,20,21,21,22,22,23,23,24,24,25,25,26,26,27,27,28,28,29,29,30,30,31,31,32,32,33,33,34,34,37,37,38,38,39,39,40,40,41,41,42,42,43,43,44,44,45,45,46,46,47,47,48,48,49,49,50,50,52,52,53,53,54,54,55,55,56,56,57,57,58,58,59,59,60,60,61,61,62,62],"right_children":[2,4,6,8,10,12,14,16,18,20,22,24,26,28,30,32,34,36,38,40,42,44,46,48,50,52,54,56,58,60,62,64,66,68,70,-1,-1,72,74,76,78,80,82,84,86,88,90,92,94,96,98,-1,100,102,104,106,108,110,112,114,116,118,120,-1,-1,-1,-1,-1,-1,-1,-1,-1,-1,-1,-1,-1,-1,-1,-1,-1,-1,-1,-1,-1,-1,-1,-1,-1,-1,-1,-1,-1,-1,-1,-1,-1,-1,-1,-1,-1,-1,-1,-1,-1,-1,-1,-1,-1,-1,-1,-1,-1,-1,-1,-1,-1,-1,-1,-1,-1,-1],"split_conditions":[6.011441E-6,6.207377E-6,1.2647597E-5,4.056996E-5,2.3899498E-5,4.2549887E-5,7.994726E-6,8.1212775E-6,3.091736E-5,3.1925358E-6,1.26149735E-5,3.0081492E-5,3.283551E-5,1.014547E-5,1.4788978E-5,4.278618E-5,2.2134132E-5,2.821653E-7,1.2206923E-5,2.5672147E-5,2.987787E-5,2.0831245E-5,4.0655617E-5,3.3961005E-5,2.2535794E-5,2.575271E-5,2.2711565E-5,1.4512491E-5,4.4201508E-5,2.2188795E-5,1.053738E-5,2.7960496E-5,3.1589305E-5,1.9400077E-5,2.1482409E-5,1.9193437E-2,-6.331633E-2,2.1415046E-5,1.0710428E-6,2.4391906E-7,5.8843466E-6,1.4593118E-5,1.3435429E-5,2.843414E-6,3.943502E-6,1.3285947E-6,3.0393852E-7,9.538262E-7,4.9578965E-5,1.0728667E-5,9.139448E-7,9.044945E-2,2.2602559E-7,3.034939E-8,4.4087406E-6,2.6533811E-5,5.659073E-7,1.0813235E-5,5.1407056E-8,2.8992751E-8,7.785121E-6,1.6925407E-5,3.241099E-6,3.4764304E-3,-2.8512724E-2,6.207411E-2,-6.082278E-3,1.7449862E-3,7.596941E-2,1.8565346E-2,-4.6524376E-2,4.31464E-2,-3.983592E-2,8.7409586E-2,1.2756102E-2,2.4485834E-2,1.1714701E-1,-3.4785092E-2,4.3243468E-2,-6.0798015E-2,-1.274939E-2,-1.1671602E-2,4.9154837E-2,-5.329971E-2,1.026045E-2,7.718641E-2,2.84164E-4,6.861263E-2,7.260177E-3,-4.9365044E-2,-1.32876625E-2,-3.759975E-2,8.08427E-2,6.6385254E-2,-7.17349E-2,-4.8446268E-2,-3.226998E-3,5.8587108E-2,5.007535E-4,1.125483E-2,-2.4389176E-2,3.4211488E-3,2.7507592E-2,-6.199521E-2,-1.0264052E-2,-3.3588793E-2,4.335193E-2,9.116326E-2,-2.7290791E-2,-2.4668166E-2,2.9438337E-2,9.0403624E-2,1.1690561E-2,-1.0398829E-2,9.65455E-2,-6.907189E-2,-1.2587356E-2,-7.3070815E-3,-6.125838E-2,3.414597E-2,1.9161833E-2],"split_indices":[194,179,441,1135,757,1210,286,224,1075,103,365,850,1038,287,560,1188,693,9,407,807,941,742,1263,1249,674,796,786,405,1332,767,412,873,999,638,655,0,0,679,31,8,186,439,416,98,105,40,9,22,1233,306,24,0,7,1,129,720,17,319,1,1,249,552,106,0,0,0,0,0,0,0,0,0,0,0,0,0,0,0,0,0,0,0,0,0,0,0,0,0,0,0,0,0,0,0,0,0,0,0,0,0,0,0,0,0,0,0,0,0,0,0,0,0,0,0,0,0,0,0,0,0,0],"split_type":[0,0,0,0,0,0,0,0,0,0,0,0,0,0,0,0,0,0,0,0,0,0,0,0,0,0,0,0,0,0,0,0,0,0,0,0,0,0,0,0,0,0,0,0,0,0,0,0,0,0,0,0,0,0,0,0,0,0,0,0,0,0,0,0,0,0,0,0,0,0,0,0,0,0,0,0,0,0,0,0,0,0,0,0,0,0,0,0,0,0,0,0,0,0,0,0,0,0,0,0,0,0,0,0,0,0,0,0,0,0,0,0,0,0,0,0,0,0,0,0,0],"sum_hessian":[4.272E3,7.35E2,3.537E3,5.57E2,1.78E2,1.89E2,3.348E3,4.84E2,7.3E1,7.1E1,1.07E2,1.54E2,3.5E1,9.6E1,3.252E3,4.18E2,6.6E1,9E0,6.4E1,2E1,5.1E1,8.3E1,2.4E1,1.33E2,2.1E1,1.3E1,2.2E1,7.8E1,1.8E1,4E1,3.212E3,3.66E2,5.2E1,3.2E1,3.4E1,1E0,8E0,2E1,4.4E1,9E0,1.1E1,2.6E1,2.5E1,9E0,7.4E1,1E1,1.4E1,1E1,1.23E2,1.5E1,6E0,7E0,6E0,4E0,1.8E1,7.1E1,7E0,1E1,8E0,7E0,3.3E1,1.3E1,3.199E3,1.88E2,1.78E2,2.7E1,2.5E1,8E0,2.4E1,2.5E1,9E0,9E0,1.1E1,3.1E1,1.3E1,1E0,8E0,5E0,6E0,1.7E1,9E0,1.6E1,9E0,3E0,6E0,6.4E1,1E1,4E0,6E0,5E0,9E0,9E0,1E0,1.21E2,2E0,1E1,5E0,4E0,2E0,3E0,3E0,1E0,3E0,1.3E1,5E0,6.5E1,6E0,5E0,2E0,6E0,4E0,7E0,1E0,2E0,5E0,1.4E1,1.9E1,5E0,8E0,2.86E2,2.913E3],"tree_param":{"num_deleted":"0","num_feature":"1382","num_nodes":"121","size_leaf_vector":"1"}},{"base_weights":[-6.317431E-2,4.5439955E-2,-1.1719291E-1,1.2930867E-1,1.4891316E-2,-7.749152E-2,-1.6432455E-1,1.497218E-1,-3.7603143E-1,1.6636486E-1,-8.222762E-3,-1.5134446E-1,-5.2125383E-2,-3.5870647E-1,-1.5400265E-1,-3.5531574E-1,1.6938317E-1,5.5836823E-2,-5.9754926E-1,-7.367948E-2,2.5180873E-1,4.228385E-2,-7.4725784E-2,-5.4111916E-1,-1.19070396E-1,2.755496E-1,-6.080162E-2,-1.5338518E-1,-4.2261985E-1,-3.7624684E-1,-1.4874557E-1,-2.1748312E-1,1.2523212E-2,-1.3777943E-1,2.0265773E-1,2.3331799E-1,-9.123325E-2,-2.1215788E-1,-7.688568E-2,-2.7990848E-1,9.6776344E-2,6.676775E-2,3.910335E-1,1.1272315E-1,-5.89229E-2,-1.0224889E-1,2.1727414E-1,-1.0900025E0,-2.919796E-1,-5.278168E-1,-9.7708955E-2,-8.66237E-2,4.6096742E-1,-4.75182E-1,-5.5539392E-2,-9.485501E-2,-3.5842225E-2,-4.9317923E-1,-1.6396351E-1,-2.001524E-2,-4.5281827E-1,-8.831589E-2,-1.742465E-1,4.98571E-2,-5.4807447E-2,1.0852834E-1,-8.267538E-2,6.7033894E-2,-7.941358E-2,8.3771706E-2,2.1221392E-2,-4.85666E-3,-3.325553E-2,-2.714293E-2,-1.12502985E-1,6.227764E-2,-8.980577E-2,-1.18306704E-1,5.3138513E-2,1.4839338E-1,9.020101E-3,-1.8838122E-2,5.114432E-2,2.6164418E-2,-5.0864656E-2,-3.585349E-2,1.09521225E-1,1.09168224E-1,-6.913084E-2,-8.28554E-2,-3.47162E-1,-1.3571425E-1,-3.0073351E-3,-2.5716546E-1,-3.0950673E-2,3.8997397E-2,-3.9007578E-2,-7.6057166E-2,1.3489658E-2,5.8177635E-2,1.6846865E-1,-1.2102236E-2,-2.388811E-1,7.476413E-2,-1.8829323E-2,-2.4968823E-2,1.1300484E-2,-5.5728804E-2,-1.6698107E-1,3.5127357E-3,-7.597905E-2,5.241084E-3,-1.29376715E-2,-1.48843E-1,-3.6896504E-2,-7.848434E-2,-1.8678298E-2,-9.111126E-2,-4.8186943E-2],"categories":[],"categories_nodes":[],"categories_segments":[],"categories_sizes":[],"default_left":[0,0,0,0,0,0,0,0,0,0,0,0,0,0,0,0,0,0,0,0,0,0,0,0,0,0,0,0,0,0,0,0,0,0,0,0,0,0,0,0,0,0,0,0,0,0,0,0,0,0,0,0,0,0,0,0,0,0,0,0,0,0,0,0,0,0,0,0,0,0,0,0,0,0,0,0,0,0,0,0,0,0,0,0,0,0,0,0,0,0,0,0,0,0,0,0,0,0,0,0,0,0,0,0,0,0,0,0,0,0,0,0,0,0,0,0,0,0,0],"id":17,"left_children":[1,3,5,7,9,11,13,15,17,19,21,23,25,27,29,31,33,35,37,39,41,43,45,47,49,51,53,55,57,59,61,-1,63,65,67,69,71,-1,-1,73,75,77,79,81,83,85,87,89,91,93,95,97,99,101,103,-1,105,107,109,111,113,115,117,-1,-1,-1,-1,-1,-1,-1,-1,-1,-1,-1,-1,-1,-1,-1,-1,-1,-1,-1,-1,-1,-1,-1,-1,-1,-1,-1,-1,-1,-1,-1,-1,-1,-1,-1,-1,-1,-1,-1,-1,-1,-1,-1,-1,-1,-1,-1,-1,-1,-1,-1,-1,-1,-1,-1,-1],"loss_changes":[2.507583E1,3.6362212E0,5.327648E0,3.9659019E0,3.6495886E0,2.8976994E0,2.5610886E0,3.684537E0,1.468363E0,2.848977E0,3.042912E0,4.917096E0,3.3032467E0,7.881565E-1,1.3927975E0,1.9125687E0,3.6256075E0,1.7789936E-1,1.9293022E-1,1.3277471E0,2.601646E0,3.6780422E0,3.1645834E0,3.7841978E0,3.1528568E0,2.0545325E0,2.4311066E0,3.139755E-1,8.1341743E-1,7.546973E-1,1.853859E0,0E0,2.703462E-1,2.5090704E0,3.1488228E0,2.6447177E-3,4.0944703E-3,0E0,0E0,2.7232993E-1,9.8398733E-1,2.3598952E0,2.154333E0,3.0925019E0,3.4421086E0,2.931693E0,2.315725E0,1.7262459E-1,9.9043596E-1,2.4293942E0,2.5923529E0,2.5298476E-1,4.2835903E-1,1.9225919E0,2.468499E0,0E0,4.1453116E-2,6.37516E-1,1.9121617E-1,5.9512323E-3,2.6764774E-1,1.6182423E0,1.4538479E0,0E0,0E0,0E0,0E0,0E0,0E0,0E0,0E0,0E0,0E0,0E0,0E0,0E0,0E0,0E0,0E0,0E0,0E0,0E0,0E0,0E0,0E0,0E0,0E0,0E0,0E0,0E0,0E0,0E0,0E0,0E0,0E0,0E0,0E0,0E0,0E0,0E0,0E0,0E0,0E0,0E0,0E0,0E0,0E0,0E0,0E0,0E0,0E0,0E0,0E0,0E0,0E0,0E0,0E0,0E0,0E0],"parents":[2147483647,0,0,1,1,2,2,3,3,4,4,5,5,6,6,7,7,8,8,9,9,10,10,11,11,12,12,13,13,14,14,15,15,16,16,17,17,18,18,19,19,20,20,21,21,22,22,23,23,24,24,25,25,26,26,27,27,28,28,29,29,30,30,32,32,33,33,34,34,35,35,36,36,39,39,40,40,41,41,42,42,43,43,44,44,45,45,46,46,47,47,48,48,49,49,50,50,51,51,52,52,53,53,54,54,56,56,57,57,58,58,59,59,60,60,61,61,62,62],"right_children":[2,4,6,8,10,12,14,16,18,20,22,24,26,28,30,32,34,36,38,40,42,44,46,48,50,52,54,56,58,60,62,-1,64,66,68,70,72,-1,-1,74,76,78,80,82,84,86,88,90,92,94,96,98,100,102,104,-1,106,108,110,112,114,116,118,-1,-1,-1,-1,-1,-1,-1,-1,-1,-1,-1,-1,-1,-1,-1,-1,-1,-1,-1,-1,-1,-1,-1,-1,-1,-1,-1,-1,-1,-1,-1,-1,-1,-1,-1,-1,-1,-1,-1,-1,-1,-1,-1,-1,-1,-1,-1,-1,-1,-1,-1,-1,-1,-1,-1,-1],"split_conditions":[2.8566095E-7,1.0894297E-6,2.7292122E-6,4.2491087E-5,1.4039804E-5,3.3584653E-5,4.3071905E-5,4.5975216E-6,6.0627963E-6,3.6690406E-5,2.7379021E-5,2.0580932E-5,5.8853267E-8,1.3389624E-5,4.7195223E-5,1.5173244E-6,2.0899653E-5,3.065956E-8,1.3464416E-6,7.1945387E-6,1.2996857E-5,1.0420516E-5,2.3312848E-5,3.9864542E-5,3.6800444E-5,2.947454E-5,5.452339E-6,1.1273707E-5,4.7283524E-5,2.5164312E-5,5.5267005E-6,-2.1748312E-1,5.7312576E-7,1.3237696E-5,3.9740607E-5,3.044836E-8,5.8135438E-8,-2.1215788E-1,-7.688568E-2,2.1801809E-5,2.826238E-6,1.7808408E-5,3.1447942E-7,1.6182043E-5,1.8855797E-5,1.0562235E-5,4.21075E-6,3.222279E-8,9.2062186E-7,1.2306965E-5,3.3538847E-5,1.8795689E-6,5.2323862E-6,3.0398076E-5,1.2141626E-7,-9.485501E-2,2.1935566E-5,4.6697005E-5,2.3049864E-5,7.561301E-6,5.445013E-5,3.1268166E-5,4.370989E-5,4.98571E-2,-5.4807447E-2,1.0852834E-1,-8.267538E-2,6.7033894E-2,-7.941358E-2,8.3771706E-2,2.1221392E-2,-4.85666E-3,-3.325553E-2,-2.714293E-2,-1.12502985E-1,6.227764E-2,-8.980577E-2,-1.18306704E-1,5.3138513E-2,1.4839338E-1,9.020101E-3,-1.8838122E-2,5.114432E-2,2.6164418E-2,-5.0864656E-2,-3.585349E-2,1.09521225E-1,1.09168224E-1,-6.913084E-2,-8.28554E-2,-3.47162E-1,-1.3571425E-1,-3.0073351E-3,-2.5716546E-1,-3.0950673E-2,3.8997397E-2,-3.9007578E-2,-7.6057166E-2,1.3489658E-2,5.8177635E-2,1.6846865E-1,-1.2102236E-2,-2.388811E-1,7.476413E-2,-1.8829323E-2,-2.4968823E-2,1.1300484E-2,-5.5728804E-2,-1.6698107E-1,3.5127357E-3,-7.597905E-2,5.241084E-3,-1.29376715E-2,-1.48843E-1,-3.6896504E-2,-7.848434E-2,-1.8678298E-2,-9.111126E-2,-4.8186943E-2],"split_indices":[8,36,3,1115,490,1077,1149,173,181,1239,845,734,2,138,1312,49,744,1,40,231,417,318,638,1321,1352,946,197,109,1029,517,3,0,17,449,1042,1,2,0,0,675,84,612,9,537,599,275,119,1,27,397,1141,61,164,964,4,0,407,1287,257,8,1177,